-9.984999999999999432e-01 1.841109597954292132e-02 1.001044060787775525e+00
-9.984999999999999432e-01 1.691283172250801839e-02 1.000714810998731830e+00
-9.975000000000000533e-01 1.709367406902428943e-02 1.000220660682127116e+00
-9.975000000000000533e-01 1.845819916680990075e-02 1.000386284944048132e+00
-9.964999999999999414e-01 1.761280891087346409e-02 1.000358311090665531e+00
-9.964999999999999414e-01 1.745889321539410149e-02 1.001190517331762564e+00
-9.955000000000000515e-01 1.701318706773361292e-02 1.000279159309898303e+00
-9.935000000000000497e-01 1.571968662322357005e-02 1.004081837893015638e+00
-9.924999999999999378e-01 1.615159560819870790e-02 1.013663838294150965e+00
-9.924999999999999378e-01 1.797636556955443596e-02 1.000064392369310884e+00
-9.915000000000000480e-01 1.718570574123551992e-02 1.002746247236017796e+00
-9.904999999999999361e-01 1.783232825188156220e-02 1.004322008753839368e+00
-9.904999999999999361e-01 1.781294014879149235e-02 1.000353193721952305e+00
-9.904999999999999361e-01 1.870265693975989296e-02 1.000281654136611742e+00
-9.904999999999999361e-01 1.815413222569112889e-02 1.000780455594167062e+00
-9.895000000000000462e-01 1.725936279350338137e-02 1.003220059122189589e+00
-9.895000000000000462e-01 1.863788947680105126e-02 1.000058399893864358e+00
-9.895000000000000462e-01 1.802811606529621663e-02 1.000274123499734547e+00
-9.895000000000000462e-01 1.813079509594689442e-02 1.000118055693570263e+00
-9.884999999999999343e-01 1.673775237324131790e-02 1.001381124186166760e+00
-9.884999999999999343e-01 1.649166431719575193e-02 1.000276068542368169e+00
-9.884999999999999343e-01 1.775207880278504083e-02 1.001671584431541140e+00
-9.884999999999999343e-01 1.757710559837927927e-02 1.000367509932157617e+00
-9.875000000000000444e-01 1.859711902058393956e-02 1.000168641069314024e+00
-9.875000000000000444e-01 1.784063088035765451e-02 1.000441631527754893e+00
-9.864999999999999325e-01 1.783671221401230897e-02 1.001602594339269459e+00
-9.864999999999999325e-01 1.687968316110233236e-02 1.001359166955351876e+00
-9.864999999999999325e-01 1.711950113829177611e-02 1.001293899947346633e+00
-9.864999999999999325e-01 1.823601051064536321e-02 1.000434772134225714e+00
-9.864999999999999325e-01 1.670828448913808106e-02 1.000672358562979758e+00
-9.864999999999999325e-01 1.684834634105997903e-02 1.000669142620414398e+00
-9.855000000000000426e-01 1.676694929086146313e-02 1.000726686087957340e+00
-9.855000000000000426e-01 1.704139474192003720e-02 1.000317650675139669e+00
-9.855000000000000426e-01 1.829111669465181486e-02 1.000811188990217593e+00
-9.855000000000000426e-01 1.866954304691326172e-02 1.000010085140039751e+00
-9.855000000000000426e-01 1.772144549200339869e-02 1.003929178226287577e+00
-9.844999999999999307e-01 1.849671785647971980e-02 1.000192900278930708e+00
-9.844999999999999307e-01 1.805576934689772858e-02 1.002791780847519743e+00
-9.844999999999999307e-01 1.883603990369786194e-02 1.000032060166078818e+00
-9.844999999999999307e-01 1.836466654340862537e-02 1.000020373195701140e+00
-9.844999999999999307e-01 1.837037576286356180e-02 1.000140007257054986e+00
-9.835000000000000409e-01 1.736452925396217081e-02 1.000125556394861226e+00
-9.835000000000000409e-01 1.833338589587348369e-02 1.002918068850874755e+00
-9.835000000000000409e-01 1.872219869218869764e-02 1.000109406018368841e+00
-9.835000000000000409e-01 1.647090982436778470e-02 1.002817652797991288e+00
-9.835000000000000409e-01 1.732871863938662341e-02 1.000423611809373226e+00
-9.824999999999999289e-01 1.663791951077331702e-02 1.000661095393519107e+00
-9.824999999999999289e-01 1.842857505393351997e-02 1.001854685473079876e+00
-9.824999999999999289e-01 1.733432982406542949e-02 1.000760227050771611e+00
-9.824999999999999289e-01 1.814130025306862418e-02 1.000928316304221077e+00
-9.824999999999999289e-01 1.695016882961123197e-02 1.001583213793694860e+00
-9.824999999999999289e-01 1.708695684775572016e-02 1.000958763055108003e+00
-9.815000000000000391e-01 1.873293761677425479e-02 1.000093657336089459e+00
-9.815000000000000391e-01 1.672315114324712110e-02 1.000636334116895787e+00
-9.815000000000000391e-01 1.650123913343130855e-02 1.008320675289139823e+00
-9.804999999999999272e-01 1.764117873673429551e-02 1.001096642454246899e+00
-9.804999999999999272e-01 1.900548996666646603e-02 1.001067120416327283e+00
-9.804999999999999272e-01 1.855294012644372742e-02 1.001524911526477046e+00
-9.804999999999999272e-01 1.745007348352325266e-02 1.000011534820822279e+00
-9.804999999999999272e-01 1.727766439385624089e-02 1.002466668102599989e+00
-9.795000000000000373e-01 1.830183401740163862e-02 1.001489984000094813e+00
-9.795000000000000373e-01 1.846708633117114667e-02 1.000847405989524708e+00
-9.795000000000000373e-01 1.643560961734409631e-02 1.000414744814969392e+00
-9.795000000000000373e-01 1.772002853652953833e-02 1.001557921351752700e+00
-9.795000000000000373e-01 1.431301479877377519e-02 1.004011723068117368e+00
-9.784999999999999254e-01 1.802968500439403390e-02 1.003860270968449209e+00
-9.784999999999999254e-01 1.742902245443642834e-02 1.000490495819404968e+00
-9.784999999999999254e-01 1.868709552102100838e-02 1.000544297715894482e+00
-9.784999999999999254e-01 1.811728308170793000e-02 1.000912187417861254e+00
-9.784999999999999254e-01 1.802151041406968232e-02 1.000187511774977445e+00
-9.775000000000000355e-01 1.697069615032131135e-02 1.000508746295957430e+00
-9.775000000000000355e-01 1.654131884383747142e-02 1.001528406030469887e+00
-9.764999999999999236e-01 1.833951776064476208e-02 1.000761817731055103e+00
-9.764999999999999236e-01 1.757357891006094963e-02 1.000012362857828352e+00
-9.764999999999999236e-01 1.487631909840480236e-02 1.000789023142689249e+00
-9.764999999999999236e-01 1.730838621005612032e-02 1.000843758074554168e+00
-9.755000000000000338e-01 1.828499102510896396e-02 1.001145843408050240e+00
-9.755000000000000338e-01 1.756812337691842849e-02 1.000065889802813413e+00
-9.755000000000000338e-01 1.749422027515688816e-02 1.002764903183048562e+00
-9.755000000000000338e-01 1.750444058398651151e-02 1.000968562876995760e+00
-9.755000000000000338e-01 1.827698958957238440e-02 1.000467832888970898e+00
-9.744999999999999218e-01 1.535884010385893048e-02 1.000816857068194565e+00
-9.744999999999999218e-01 1.720420575156612550e-02 1.001280032415613919e+00
-9.744999999999999218e-01 1.814692924066102844e-02 1.000215966909358434e+00
-9.744999999999999218e-01 1.764482883402765379e-02 1.000203696403837217e+00
-9.735000000000000320e-01 1.688766176537479999e-02 1.000406018856405010e+00
-9.724999999999999201e-01 1.334921280977991766e-02 1.004337967066632586e+00
-9.724999999999999201e-01 1.807314489067108482e-02 1.000067995106606933e+00
-9.724999999999999201e-01 1.686016807895131253e-02 1.001620710391107005e+00
-9.715000000000000302e-01 1.429396825594410857e-02 1.005337276403110103e+00
-9.715000000000000302e-01 1.881921416142875655e-02 1.000359271676657613e+00
-9.715000000000000302e-01 1.644212047295789264e-02 1.000874008023772577e+00
-9.715000000000000302e-01 1.891006165302071620e-02 1.000663392050759937e+00
-9.715000000000000302e-01 1.814497280813999816e-02 1.002126318821712214e+00
-9.704999999999999183e-01 1.443848533663967711e-02 1.002969711540533382e+00
-9.704999999999999183e-01 1.662164104584064328e-02 1.000879101246494818e+00
-9.704999999999999183e-01 1.763759068127456267e-02 1.000123185750194432e+00
-9.704999999999999183e-01 1.864690893290375448e-02 1.000785395600281680e+00
-9.704999999999999183e-01 1.791331375830641781e-02 1.000089193390272246e+00
-9.704999999999999183e-01 1.741927581234239270e-02 1.001124883248561526e+00
-9.695000000000000284e-01 1.658603484186088606e-02 1.003460852348055266e+00
-9.695000000000000284e-01 1.683898126077251756e-02 1.001997509152291022e+00
-9.695000000000000284e-01 1.848554925443229857e-02 1.000226480271146245e+00
-9.684999999999999165e-01 1.795533988813890688e-02 1.005043842142279154e+00
-9.684999999999999165e-01 1.855059498509909269e-02 1.000584544031296153e+00
-9.684999999999999165e-01 1.848569884555804899e-02 1.000637052826089501e+00
-9.684999999999999165e-01 1.776802607337802514e-02 1.000189942340960370e+00
-9.684999999999999165e-01 1.809277367797833963e-02 1.000884306704085125e+00
-9.684999999999999165e-01 1.565951896772619159e-02 1.000240567281583726e+00
-9.684999999999999165e-01 1.767540772471836233e-02 1.000023206678349652e+00
-9.675000000000000266e-01 1.707528897107614060e-02 1.000348351641206612e+00
-9.675000000000000266e-01 1.580062999044765451e-02 1.007553809785435739e+00
-9.675000000000000266e-01 1.831710408911947988e-02 1.000581383206202268e+00
-9.675000000000000266e-01 1.794150355447230241e-02 1.000658462205008759e+00
-9.675000000000000266e-01 1.757063337201027545e-02 1.001860845132418465e+00
-9.664999999999999147e-01 1.796100636403506756e-02 1.001407448799928934e+00
-9.664999999999999147e-01 1.807629553740861331e-02 1.000591624004823377e+00
-9.664999999999999147e-01 1.769968136687068497e-02 1.001739234306923354e+00
-9.664999999999999147e-01 1.729061868307809821e-02 1.000175633118010499e+00
-9.664999999999999147e-01 1.758602369959682415e-02 1.001128958468059826e+00
-9.664999999999999147e-01 1.865407717082068206e-02 1.000198434708981399e+00
-9.664999999999999147e-01 1.832677616804949741e-02 1.000150028351608933e+00
-9.655000000000000249e-01 1.459764830449010974e-02 1.006698564000760410e+00
-9.655000000000000249e-01 1.826798270792517886e-02 1.000404901402259128e+00
-9.655000000000000249e-01 1.664438938464742751e-02 1.000106140730154136e+00
-9.655000000000000249e-01 1.664455644304599011e-02 1.000560992423390472e+00
-9.655000000000000249e-01 1.856488823563223756e-02 1.000040004082499934e+00
-9.644999999999999130e-01 1.639068358859793045e-02 1.001453091361707903e+00
-9.644999999999999130e-01 1.714518067473857349e-02 1.000234445519384341e+00
-9.644999999999999130e-01 1.708088350395479613e-02 1.002153256026213635e+00
-9.644999999999999130e-01 1.743562323276802092e-02 1.000476598366509151e+00
-9.644999999999999130e-01 1.751932603881289560e-02 1.000362668590878856e+00
-9.644999999999999130e-01 1.827262398508874841e-02 1.000575845502698735e+00
-9.635000000000000231e-01 1.832272375848586002e-02 1.000110235693055794e+00
-9.635000000000000231e-01 1.704848918998921534e-02 1.001056401489749170e+00
-9.635000000000000231e-01 1.676799010862138617e-02 1.000028875743697032e+00
-9.635000000000000231e-01 1.454594245223629449e-02 1.001492695742096650e+00
-9.635000000000000231e-01 1.738854591310444800e-02 1.000024415344436868e+00
-9.635000000000000231e-01 1.573333902441132956e-02 1.003947913307241979e+00
-9.624999999999999112e-01 1.691598503599284903e-02 1.000678047802601833e+00
-9.624999999999999112e-01 4.907410716935254073e-04 -1.576888368090329173e+00
-9.624999999999999112e-01 1.711075306946373276e-02 1.000843820562801412e+00
-9.615000000000000213e-01 1.701692691864330198e-02 1.000488915972680859e+00
-9.615000000000000213e-01 1.824836572407897289e-02 1.001181505285144491e+00
-9.615000000000000213e-01 1.701689695658176876e-02 1.002698800521636180e+00
-9.615000000000000213e-01 1.700746611750169474e-02 1.000408435025152754e+00
-9.615000000000000213e-01 1.674532336764852219e-02 1.002815473627178378e+00
-9.615000000000000213e-01 1.764947786539717428e-02 1.000961244689805074e+00
-9.615000000000000213e-01 1.754554139560654535e-02 1.001457470056786647e+00
-9.615000000000000213e-01 1.814098395743691042e-02 1.000421417773913024e+00
-9.615000000000000213e-01 1.743597363603895112e-02 1.005424701286727007e+00
-9.615000000000000213e-01 1.716926620282102633e-02 1.000492551662901519e+00
-9.615000000000000213e-01 1.781343732470802924e-02 1.000195087648188430e+00
-9.615000000000000213e-01 1.719522397784045004e-02 1.005980532234349578e+00
-9.615000000000000213e-01 1.604529573247721191e-02 1.003861088279081271e+00
-9.604999999999999094e-01 1.740477079905963786e-02 1.001362532409817874e+00
-9.604999999999999094e-01 1.649609397423030394e-02 1.000884512421276851e+00
-9.604999999999999094e-01 1.808320277061390216e-02 1.000667911381347031e+00
-9.604999999999999094e-01 1.709034115406470392e-02 1.000009695291511402e+00
-9.595000000000000195e-01 1.829331289944876107e-02 1.000214052179344559e+00
-9.595000000000000195e-01 1.584026184487644789e-02 1.000154935207994589e+00
-9.595000000000000195e-01 1.673502531711055716e-02 1.001505596953912169e+00
-9.595000000000000195e-01 1.587157592906406067e-02 1.009130025726763913e+00
-9.595000000000000195e-01 1.805210316368774728e-02 1.001264533144027302e+00
-9.595000000000000195e-01 1.680342575160649957e-02 1.000990340717350602e+00
-9.595000000000000195e-01 1.555998675991696750e-02 1.002737026682557708e+00
-9.584999999999999076e-01 1.795060494558163230e-02 1.001380440488723211e+00
-9.584999999999999076e-01 1.857554567813312490e-02 1.000275105673323894e+00
-9.584999999999999076e-01 1.827946945470147397e-02 1.000767237242973451e+00
-9.584999999999999076e-01 1.848617822571768654e-02 1.000417223469312278e+00
-9.584999999999999076e-01 1.781206564425884264e-02 1.000012504783520884e+00
-9.575000000000000178e-01 1.863423105347616210e-02 1.000865905950144796e+00
-9.575000000000000178e-01 1.726293186603768473e-02 1.000172993113708664e+00
-9.575000000000000178e-01 1.898031451877975687e-02 1.001124238730759508e+00
-9.575000000000000178e-01 1.739548441113389701e-02 1.000934758849617801e+00
-9.564999999999999059e-01 1.613141125481621849e-02 1.002819293022902292e+00
-9.564999999999999059e-01 1.587462759670356383e-02 1.000180738755557019e+00
-9.564999999999999059e-01 1.563282145112288371e-02 1.000897392376405293e+00
-9.555000000000000160e-01 1.495992724549372911e-02 1.002574322782417537e+00
-9.555000000000000160e-01 1.664602702772389337e-02 1.001937385158446991e+00
-9.555000000000000160e-01 1.871009692790022091e-02 1.000424825795426909e+00
-9.555000000000000160e-01 1.782920171464074874e-02 1.000029188176417172e+00
-9.555000000000000160e-01 1.835615529625432563e-02 1.002317217625500190e+00
-9.555000000000000160e-01 1.685699578402763063e-02 1.002487820476943403e+00
-9.555000000000000160e-01 1.587534265199753644e-02 1.001662966647558051e+00
-9.555000000000000160e-01 1.691722056744764807e-02 1.000629701354317502e+00
-9.555000000000000160e-01 1.684729239865996250e-02 1.000817671140266985e+00
-9.544999999999999041e-01 1.785741488769107543e-02 1.000002003782611837e+00
-9.544999999999999041e-01 1.793599507070084073e-02 1.000210851769053555e+00
-9.544999999999999041e-01 1.776643200386385582e-02 1.000465658078371733e+00
-9.544999999999999041e-01 1.770822252969078692e-02 1.000346421485299286e+00
-9.544999999999999041e-01 1.720747310019770521e-02 1.000494382543187788e+00
-9.544999999999999041e-01 1.670358217309321491e-02 1.001369133681439649e+00
-9.544999999999999041e-01 1.608404796093377762e-02 1.004013479397046771e+00
-9.544999999999999041e-01 1.788899543682215265e-02 1.000144592500355589e+00
-9.544999999999999041e-01 1.613061599241208746e-02 1.003441031445629905e+00
-9.544999999999999041e-01 1.713690329723423222e-02 1.000159530159170806e+00
-9.544999999999999041e-01 1.527267899273827660e-02 1.004495691873194430e+00
-9.535000000000000142e-01 1.657450007314544699e-02 1.000164828370241343e+00
-9.535000000000000142e-01 1.829707684536237625e-02 1.000152694866507819e+00
-9.535000000000000142e-01 1.690825665657062077e-02 1.000435719504559007e+00
-9.535000000000000142e-01 1.809777865378330367e-02 1.000719490559314417e+00
-9.535000000000000142e-01 1.781625859686953792e-02 1.001325127495260814e+00
-9.535000000000000142e-01 1.613029823429441845e-02 1.000619618404081645e+00
-9.524999999999999023e-01 1.777565744291576683e-02 1.000714906427487616e+00
-9.524999999999999023e-01 1.750953473520078935e-02 1.000009994662092616e+00
-9.524999999999999023e-01 1.752174218380824627e-02 1.000023314654970852e+00
-9.524999999999999023e-01 1.587329045424748161e-02 1.004272676997612024e+00
-9.524999999999999023e-01 1.736335697285563626e-02 1.000131224057613899e+00
-9.515000000000000124e-01 1.725936054910779879e-02 1.000025082691187395e+00
-9.515000000000000124e-01 1.760048473509647632e-02 1.000556820863078400e+00
-9.515000000000000124e-01 1.780231238994602408e-02 1.000074005071199146e+00
-9.515000000000000124e-01 1.707818190452853671e-02 1.000592073948271876e+00
-9.504999999999999005e-01 1.743010573180233530e-02 1.002444601402506352e+00
-9.504999999999999005e-01 1.771938358842010605e-02 1.000214762939561020e+00
-9.504999999999999005e-01 1.782294480593032970e-02 1.005032578618550998e+00
-9.504999999999999005e-01 1.861375503635316619e-02 1.000176199919855291e+00
-9.504999999999999005e-01 1.521862785138869759e-02 1.000592407147826268e+00
-9.504999999999999005e-01 1.545077553767531565e-02 1.003573549276844279e+00
-9.504999999999999005e-01 1.709513283946325485e-02 1.002024245812882519e+00
-9.504999999999999005e-01 1.767831080594523679e-02 1.002190052272770027e+00
-9.504999999999999005e-01 1.576753450845382390e-02 1.003153036945510390e+00
-9.504999999999999005e-01 1.806114600387136865e-02 1.000091595229904540e+00
-9.495000000000000107e-01 1.586903987742501951e-02 1.002533627158869400e+00
-9.495000000000000107e-01 1.745108228569317715e-02 1.001007041298480615e+00
-9.495000000000000107e-01 1.765842607890253865e-02 1.000894413097753510e+00
-9.495000000000000107e-01 1.691151285397816950e-02 1.003346403061077030e+00
-9.495000000000000107e-01 1.580181991946696951e-02 1.000395410121844186e+00
-9.495000000000000107e-01 1.681542375729028205e-02 1.001049349599356653e+00
-9.484999999999998987e-01 1.584721690186614504e-02 1.001704390505414155e+00
-9.484999999999998987e-01 1.587177022795304565e-02 1.008405914512038093e+00
-9.484999999999998987e-01 1.728177004867227640e-02 1.000005348971468200e+00
-9.484999999999998987e-01 1.649147736786599899e-02 1.004922269316524508e+00
-9.484999999999998987e-01 1.715868301685426547e-02 1.002699306648159094e+00
-9.484999999999998987e-01 1.771344877117132094e-02 1.000413074528189838e+00
-9.484999999999998987e-01 1.813766501121438779e-02 1.000189491117251972e+00
-9.484999999999998987e-01 1.660173447811746569e-02 1.001293670891530763e+00
-9.475000000000000089e-01 1.767218690475302889e-02 1.000077969510656084e+00
-9.475000000000000089e-01 1.840254149294047112e-02 1.000693815028828482e+00
-9.475000000000000089e-01 1.689555517194591544e-02 1.003732505219080862e+00
-9.475000000000000089e-01 1.774510887339258644e-02 1.000073143635600070e+00
-9.464999999999998970e-01 1.828160129288960295e-02 1.000558879118288891e+00
-9.464999999999998970e-01 1.648552761781888615e-02 1.000433362098527068e+00
-9.464999999999998970e-01 1.858772896735751134e-02 1.000777167813290403e+00
-9.455000000000000071e-01 1.763089260262644398e-02 1.000403565859425470e+00
-9.455000000000000071e-01 1.742439183523004226e-02 1.004185517861844179e+00
-9.455000000000000071e-01 1.835050245143905398e-02 1.000024387563438033e+00
-9.455000000000000071e-01 1.530000135246246777e-02 1.005488813766309608e+00
-9.444999999999998952e-01 1.725689374377157095e-02 1.000042070460340993e+00
-9.444999999999998952e-01 1.683424670835519110e-02 1.000032480942339763e+00
-9.444999999999998952e-01 1.701218814330190954e-02 1.003459122235220047e+00
-9.444999999999998952e-01 1.746388689391048868e-02 1.001451425665375483e+00
-9.444999999999998952e-01 1.766718446910529178e-02 1.000907748580175394e+00
-9.444999999999998952e-01 1.565689930201033531e-02 1.006211445846380892e+00
-9.444999999999998952e-01 1.732023805061000052e-02 1.000218919328210054e+00
-9.444999999999998952e-01 1.509270797480941582e-02 1.017867137136379885e+00
-9.435000000000000053e-01 1.859473740576957773e-02 1.000346467053560895e+00
-9.435000000000000053e-01 1.745476414875412816e-02 1.000017569240518656e+00
-9.435000000000000053e-01 1.325429530237920081e-02 1.005577672724095262e+00
-9.435000000000000053e-01 1.771829546130342450e-02 1.001090809602862342e+00
-9.435000000000000053e-01 1.711115627647177145e-02 1.002501697499728062e+00
-9.435000000000000053e-01 1.707397743385281191e-02 1.000360542863528490e+00
-9.435000000000000053e-01 1.809081804288781292e-02 1.002260648721646108e+00
-9.435000000000000053e-01 1.887254646013999601e-02 1.000176698413018483e+00
-9.435000000000000053e-01 1.683738317992202957e-02 1.004175235469599414e+00
-9.435000000000000053e-01 1.616934945233939810e-02 1.000284072307073835e+00
-9.435000000000000053e-01 1.671869051366642669e-02 1.000177006065031238e+00
-9.435000000000000053e-01 1.712046995402329713e-02 1.001642074535669114e+00
-9.424999999999998934e-01 1.823063493011400568e-02 1.000107962038713660e+00
-9.424999999999998934e-01 1.607027131378349974e-02 1.003784827364979870e+00
-9.424999999999998934e-01 1.808054404143032146e-02 1.000196719647509891e+00
-9.415000000000000036e-01 1.514424315943422791e-02 1.000680858229800352e+00
-9.415000000000000036e-01 1.733858615999695277e-02 1.000497202245591799e+00
-9.415000000000000036e-01 1.812586131112640594e-02 1.000069122991373849e+00
-9.415000000000000036e-01 1.659428502863503560e-02 1.009005931488305974e+00
-9.415000000000000036e-01 1.687217973987594974e-02 1.001491853733889492e+00
-9.415000000000000036e-01 1.808004739275912570e-02 1.000011551080046912e+00
-9.415000000000000036e-01 1.641131493535693750e-02 1.000270131307630761e+00
-9.404999999999998916e-01 1.824169088404325664e-02 1.000960197449243916e+00
-9.404999999999998916e-01 1.703019747130136291e-02 1.004106087199944763e+00
-9.404999999999998916e-01 1.836377861419235050e-02 1.000155132071796293e+00
-9.404999999999998916e-01 1.821601611038306187e-02 1.000234617349446520e+00
-9.404999999999998916e-01 1.767421548313265547e-02 1.001714798384077509e+00
-9.404999999999998916e-01 1.658313241226539239e-02 1.000538384202638076e+00
-9.395000000000000018e-01 1.657989795751566367e-02 1.000904762214042343e+00
-9.395000000000000018e-01 1.901018879589515959e-02 1.000137297778826539e+00
-9.395000000000000018e-01 1.730466811477249581e-02 1.001183088187399539e+00
-9.395000000000000018e-01 1.770067955648563923e-02 1.001183050317428602e+00
-9.384999999999998899e-01 1.642706608543738345e-02 1.002144701915397063e+00
-9.384999999999998899e-01 1.691744306086116062e-02 1.000081952005475117e+00
-9.375000000000000000e-01 1.794118567349885229e-02 1.001153141503379196e+00
-9.375000000000000000e-01 1.761365626044474400e-02 1.000241394413086349e+00
-9.375000000000000000e-01 1.770089054087349914e-02 1.000175505806591092e+00
-9.375000000000000000e-01 1.887679169656385214e-02 1.000045997406313170e+00
-9.375000000000000000e-01 1.598215328480755149e-02 1.003613491908814659e+00
-9.375000000000000000e-01 1.764946970601917464e-02 1.001218237430794744e+00
-9.375000000000000000e-01 1.675889734266565109e-02 1.001440436958029645e+00
-9.375000000000000000e-01 1.632512097157710895e-02 1.000532901429041610e+00
-9.364999999999998881e-01 1.783122132832229076e-02 1.002037053991004623e+00
-9.364999999999998881e-01 1.762439093643856924e-02 1.001190465174935040e+00
-9.364999999999998881e-01 1.741421141468408110e-02 1.001659078567425532e+00
-9.364999999999998881e-01 1.796386207532085083e-02 1.000158014817789986e+00
-9.364999999999998881e-01 1.621308903958970996e-02 1.000926589699255631e+00
-9.364999999999998881e-01 1.633714327499840441e-02 1.001029631951329435e+00
-9.364999999999998881e-01 1.823417741380345056e-02 1.000248067110141470e+00
-9.364999999999998881e-01 1.844062526761627852e-02 1.000173587617133375e+00
-9.364999999999998881e-01 1.613625359449221905e-02 1.001621026404718062e+00
-9.354999999999999982e-01 1.878113825024295760e-02 1.000286246271194113e+00
-9.354999999999999982e-01 1.729075099421756648e-02 1.000480105746593740e+00
-9.354999999999999982e-01 1.795792467112366023e-02 1.000774046034458520e+00
-9.354999999999999982e-01 1.667017985616862930e-02 1.000828118680303858e+00
-9.344999999999998863e-01 1.852087770021067920e-02 1.000861331016375200e+00
-9.344999999999998863e-01 1.834368048404924970e-02 1.003793013556766978e+00
-9.344999999999998863e-01 1.704824918081636678e-02 1.001068636743989604e+00
-9.334999999999999964e-01 1.882865550982339500e-02 1.000004060803878492e+00
-9.334999999999999964e-01 1.732768284527958641e-02 1.000214800852974761e+00
-9.334999999999999964e-01 1.724163008367578936e-02 1.000359158668113313e+00
-9.334999999999999964e-01 1.737925802321206581e-02 1.001256422556626724e+00
-9.334999999999999964e-01 1.738219961804639280e-02 1.001332488142750554e+00
-9.334999999999999964e-01 1.619250033378525147e-02 1.000288289409860809e+00
-9.334999999999999964e-01 1.844647035548826336e-02 1.000310740368500539e+00
-9.334999999999999964e-01 1.727723227535551270e-02 1.004747500148985617e+00
-9.334999999999999964e-01 1.793288190636490795e-02 1.000414284175175084e+00
-9.334999999999999964e-01 1.696416984327250160e-02 1.002305471186929697e+00
-9.324999999999998845e-01 1.876324502087691956e-02 1.000045782613552481e+00
-9.324999999999998845e-01 1.643103448940927414e-02 1.001727712800823733e+00
-9.324999999999998845e-01 1.734379675789205974e-02 1.000741719654690609e+00
-9.324999999999998845e-01 1.704437307771491592e-02 1.000958080764801750e+00
-9.324999999999998845e-01 1.888189248778992732e-02 1.000749681287786519e+00
-9.324999999999998845e-01 1.611514614240511581e-02 1.008017510894339885e+00
-9.314999999999999947e-01 1.652391223916483895e-02 1.001743073562310071e+00
-9.314999999999999947e-01 1.707488863625893430e-02 1.000500659755418242e+00
-9.314999999999999947e-01 1.796493264937437315e-02 1.000543492300031145e+00
-9.314999999999999947e-01 1.740156072580933966e-02 1.002571862142610515e+00
-9.314999999999999947e-01 1.708780798774276952e-02 1.000976414315592589e+00
-9.314999999999999947e-01 1.815171639943878243e-02 1.000422825829061946e+00
-9.314999999999999947e-01 1.872793746245154933e-02 1.000579180259975720e+00
-9.314999999999999947e-01 1.607331352200023697e-02 1.002711307498013182e+00
-9.314999999999999947e-01 1.647227055879232210e-02 1.001181644131198700e+00
-9.304999999999998828e-01 1.690917087256099682e-02 1.003772088327942180e+00
-9.304999999999998828e-01 1.675281933787617014e-02 1.007536249693508079e+00
-9.304999999999998828e-01 1.895909086017826678e-02 1.000293343208435992e+00
-9.304999999999998828e-01 1.809445568106547025e-02 1.000218621049423051e+00
-9.304999999999998828e-01 1.889408986143773991e-02 1.000769027055994798e+00
-9.304999999999998828e-01 1.628322231873282483e-02 1.004983378781020287e+00
-9.304999999999998828e-01 1.794967449117065156e-02 1.000473464626051356e+00
-9.294999999999999929e-01 1.596405211804498986e-02 1.014046399533859555e+00
-9.294999999999999929e-01 1.703434264712706120e-02 1.004328237551542991e+00
-9.294999999999999929e-01 1.794116112937661767e-02 1.000410786331918045e+00
-9.294999999999999929e-01 1.911837744726328780e-02 1.000816819371018296e+00
-9.284999999999998810e-01 1.574347190872172828e-02 1.003626909520912269e+00
-9.284999999999998810e-01 1.790900491063505268e-02 1.000261977709424599e+00
-9.284999999999998810e-01 1.744915867081289415e-02 1.000464352614301999e+00
-9.284999999999998810e-01 1.723499149862470561e-02 1.001265037697227855e+00
-9.284999999999998810e-01 1.643221100341179727e-02 1.002181509579618046e+00
-9.284999999999998810e-01 1.790834734885059926e-02 1.000116080895933957e+00
-9.284999999999998810e-01 1.784451983006165449e-02 1.000694648897733519e+00
-9.284999999999998810e-01 1.753973593543744006e-02 1.007478727472176594e+00
-9.284999999999998810e-01 1.795681500302901898e-02 1.000024543305247038e+00
-9.284999999999998810e-01 1.874732651556557453e-02 1.000667728989535377e+00
-9.274999999999999911e-01 1.741614143396854816e-02 1.002797288402558218e+00
-9.274999999999999911e-01 1.493456109196447321e-02 1.002276520434022933e+00
-9.274999999999999911e-01 1.716663464088582017e-02 1.000235497821116315e+00
-9.274999999999999911e-01 1.775102100171505395e-02 1.000514789627104273e+00
-9.274999999999999911e-01 1.752343620722002920e-02 1.000700720248431930e+00
-9.274999999999999911e-01 1.822680963114434866e-02 1.000222199652057498e+00
-9.274999999999999911e-01 1.835115189946395081e-02 1.000739726343030656e+00
-9.274999999999999911e-01 1.794004904313763193e-02 1.006058561720209799e+00
-9.274999999999999911e-01 1.677840404333503024e-02 1.004438893737898963e+00
-9.264999999999998792e-01 1.664646673670089685e-02 1.002152116335776499e+00
-9.264999999999998792e-01 1.711345757962513467e-02 1.001082220489671215e+00
-9.264999999999998792e-01 1.627093487567951233e-02 1.006453773692814080e+00
-9.264999999999998792e-01 1.740772972442779579e-02 1.000078481463396507e+00
-9.264999999999998792e-01 1.735037991133433002e-02 1.000901354610223448e+00
-9.264999999999998792e-01 1.733474497722504656e-02 1.000343625664976921e+00
-9.264999999999998792e-01 1.690549737448094475e-02 1.000290972047867877e+00
-9.254999999999999893e-01 1.747749239429361931e-02 1.001018557934386433e+00
-9.254999999999999893e-01 1.670559105857472026e-02 1.001853764712301365e+00
-9.254999999999999893e-01 1.921660218087321154e-02 1.000393394790784818e+00
-9.254999999999999893e-01 1.443138450079460046e-02 1.002788191051481759e+00
-9.254999999999999893e-01 1.616399905333235770e-02 1.004613812885533308e+00
-9.254999999999999893e-01 1.836139441699325553e-02 1.000219230162437967e+00
-9.254999999999999893e-01 1.813313122362691238e-02 1.000293244344434562e+00
-9.254999999999999893e-01 1.692339642582435522e-02 1.001628981593205125e+00
-9.244999999999998774e-01 1.750763728988013676e-02 1.000873740136296153e+00
-9.244999999999998774e-01 1.906713052767565822e-02 1.000052079582038234e+00
-9.244999999999998774e-01 1.831940586506581453e-02 1.000080866750345354e+00
-9.244999999999998774e-01 1.001122254656555688e-02 1.019166630674964935e+00
-9.244999999999998774e-01 1.277245073083909180e-02 1.012030356155437794e+00
-9.244999999999998774e-01 1.719738140694563114e-02 1.000366452955111729e+00
-9.244999999999998774e-01 1.686432828674564247e-02 1.000627942172296114e+00
-9.244999999999998774e-01 1.830595265235531940e-02 1.000725389173144464e+00
-9.244999999999998774e-01 1.639642005412842232e-02 1.000364094551390526e+00
-9.244999999999998774e-01 1.884872973978758345e-02 1.000052634436223498e+00
-9.234999999999999876e-01 1.854595583389299918e-02 1.001006708061434658e+00
-9.234999999999999876e-01 1.807977231370094806e-02 1.000039369000301104e+00
-9.234999999999999876e-01 1.736475257721234802e-02 1.000680114824382239e+00
-9.234999999999999876e-01 1.809079397826744359e-02 1.000489657448970116e+00
-9.234999999999999876e-01 1.742949528137254997e-02 1.001734075148794201e+00
-9.234999999999999876e-01 1.767612511816618256e-02 1.001738013554100970e+00
-9.224999999999998757e-01 1.771259577969561128e-02 1.000017462232910770e+00
-9.224999999999998757e-01 1.759841442307392631e-02 1.000161555990450646e+00
-9.224999999999998757e-01 1.804405452577441393e-02 1.000917407807849324e+00
-9.224999999999998757e-01 1.651650910143801290e-02 1.000346010623931914e+00
-9.224999999999998757e-01 1.580240593742025454e-02 1.000667939583261390e+00
-9.214999999999999858e-01 1.641376716997389185e-02 1.005331494759083011e+00
-9.214999999999999858e-01 1.649944514977253612e-02 1.000502357230965700e+00
-9.214999999999999858e-01 1.740154965159088421e-02 1.000161396956857907e+00
-9.214999999999999858e-01 1.798711480079185840e-02 1.000233397445491113e+00
-9.204999999999998739e-01 1.687020321789439031e-02 1.002977908667340934e+00
-9.204999999999998739e-01 1.587805070640637556e-02 1.000154160522440216e+00
-9.194999999999999840e-01 1.782493796841826822e-02 1.008552286163092226e+00
-9.194999999999999840e-01 1.747793522207681874e-02 1.000266868088005578e+00
-9.194999999999999840e-01 1.727016452304083391e-02 1.000537676936346765e+00
-9.194999999999999840e-01 1.834432783788647603e-02 1.000092987622724250e+00
-9.194999999999999840e-01 1.866800943652166186e-02 1.000254495310677116e+00
-9.184999999999998721e-01 1.775524820292305114e-02 1.004556575814812502e+00
-9.184999999999998721e-01 1.729140010177912523e-02 1.000835202727785367e+00
-9.184999999999998721e-01 1.693585305544115585e-02 1.001393127443710007e+00
-9.184999999999998721e-01 1.517376531379215597e-02 1.000252762558483832e+00
-9.184999999999998721e-01 1.531466481281177142e-02 1.007537872768559550e+00
-9.184999999999998721e-01 1.728557259649396785e-02 1.000153762301591254e+00
-9.184999999999998721e-01 1.523352414692027632e-02 1.009891392635195784e+00
-9.184999999999998721e-01 1.780217002365940340e-02 1.000053402203965991e+00
-9.184999999999998721e-01 1.619036540897608387e-02 1.000155640628830112e+00
-9.184999999999998721e-01 1.741443451106484269e-02 1.001612695089021177e+00
-9.184999999999998721e-01 1.769727441597376480e-02 1.001730790367238777e+00
-9.174999999999999822e-01 1.809970115601857235e-02 1.001468123837540691e+00
-9.174999999999999822e-01 1.790896917947441824e-02 1.000349778687490421e+00
-9.174999999999999822e-01 1.644807089626411020e-02 1.000117224779599967e+00
-9.174999999999999822e-01 1.785776554042664208e-02 1.002292174918064660e+00
-9.174999999999999822e-01 1.713150610220978351e-02 1.000470194394772250e+00
-9.174999999999999822e-01 1.783374036567371076e-02 1.000573336025999627e+00
-9.174999999999999822e-01 1.784533838234914765e-02 1.000125587181339704e+00
-9.174999999999999822e-01 1.738070491402101542e-02 1.000224805069969136e+00
-9.174999999999999822e-01 1.618073150049772341e-02 1.001338472206070085e+00
-9.174999999999999822e-01 1.688247849893997898e-02 1.003610615190696498e+00
-9.164999999999998703e-01 1.838738730215780381e-02 1.000043684034787939e+00
-9.164999999999998703e-01 1.819064706134822587e-02 1.000854735628284420e+00
-9.164999999999998703e-01 1.784713070904464516e-02 1.000008258132431882e+00
-9.164999999999998703e-01 1.873637289696448993e-02 1.000170534176149539e+00
-9.164999999999998703e-01 1.696606315892358260e-02 1.002297869617009729e+00
-9.154999999999999805e-01 1.603723902191318829e-02 1.000196977312162616e+00
-9.154999999999999805e-01 1.801182759195711983e-02 1.000574892787261083e+00
-9.154999999999999805e-01 1.801166057618543148e-02 1.000444939116028609e+00
-9.154999999999999805e-01 1.788475030309843311e-02 1.000026607184755223e+00
-9.154999999999999805e-01 1.739507854289570193e-02 1.001618261234451746e+00
-9.154999999999999805e-01 1.693552843877616995e-02 1.008424776562627745e+00
-9.154999999999999805e-01 1.790329976280280455e-02 1.000844942453459119e+00
-9.144999999999998685e-01 1.894338086972139137e-02 1.000378937639168964e+00
-9.144999999999998685e-01 1.539301040361750611e-02 1.000031676397491687e+00
-9.144999999999998685e-01 1.613113895719127389e-02 1.002535841484200718e+00
-9.144999999999998685e-01 1.718327148025580731e-02 1.000470415904624932e+00
-9.144999999999998685e-01 1.760201115411618930e-02 1.000027406274199171e+00
-9.144999999999998685e-01 1.801906457468907888e-02 1.000537190131279619e+00
-9.144999999999998685e-01 1.518479684579789220e-02 1.001003281134169143e+00
-9.144999999999998685e-01 1.834234232344063298e-02 1.000221119674287396e+00
-9.134999999999999787e-01 1.714946804698016386e-02 1.001100936672415731e+00
-9.134999999999999787e-01 1.806695810355309420e-02 1.000468614141075463e+00
-9.134999999999999787e-01 1.878942076738530573e-02 1.000219969119531038e+00
-9.134999999999999787e-01 1.745449434562359667e-02 1.000527132490830251e+00
-9.134999999999999787e-01 1.742456736332321718e-02 1.000697923206593343e+00
-9.134999999999999787e-01 1.728699598488224812e-02 1.000008579769716910e+00
-9.124999999999998668e-01 1.764613936646632769e-02 1.001243918171149661e+00
-9.124999999999998668e-01 1.767316006612014781e-02 1.000758304988039527e+00
-9.124999999999998668e-01 1.759295652160228554e-02 1.001194528500634728e+00
-9.124999999999998668e-01 1.730779107354966581e-02 1.001590333709361458e+00
-9.124999999999998668e-01 1.745676921601525822e-02 1.000419618557502499e+00
-9.124999999999998668e-01 1.876120612427992218e-02 1.000233325631941783e+00
-9.124999999999998668e-01 1.723726020632636996e-02 1.000158864660894986e+00
-9.124999999999998668e-01 1.741907678080887797e-02 1.000680587228339524e+00
-9.114999999999999769e-01 1.726114685996814682e-02 1.001068422524215462e+00
-9.114999999999999769e-01 1.811362509212224164e-02 1.000002294339729314e+00
-9.114999999999999769e-01 1.863541770245574769e-02 1.000607501371838737e+00
-9.114999999999999769e-01 1.557519950088479335e-02 1.002384239259016763e+00
-9.114999999999999769e-01 1.815058169713118161e-02 1.000316511345780368e+00
-9.104999999999998650e-01 1.668857582323706248e-02 1.000475856502217376e+00
-9.104999999999998650e-01 1.625198845029072331e-02 1.001914493232639813e+00
-9.104999999999998650e-01 1.952824326432002836e-02 1.000094606868938030e+00
-9.104999999999998650e-01 1.590552140678132970e-02 1.002566906497878607e+00
-9.104999999999998650e-01 1.687878840360217125e-02 1.000231411162851636e+00
-9.094999999999999751e-01 1.804242016784086272e-02 1.002274571166909878e+00
-9.094999999999999751e-01 1.881447457944949303e-02 1.000394967322058015e+00
-9.094999999999999751e-01 1.529437745108861574e-02 1.002004251087810216e+00
-9.094999999999999751e-01 1.734832605209006562e-02 1.000116517680979866e+00
-9.094999999999999751e-01 1.635765271808017896e-02 1.000975826805782232e+00
-9.094999999999999751e-01 1.689108814041396719e-02 1.002080662659896371e+00
-9.094999999999999751e-01 1.505900758788702477e-02 1.008790483752428857e+00
-9.094999999999999751e-01 1.792785500795267273e-02 1.000885091535408833e+00
-9.094999999999999751e-01 1.844031997612196813e-02 1.001179898352262621e+00
-9.094999999999999751e-01 1.645477558742596338e-02 1.001992196126591628e+00
-9.094999999999999751e-01 1.701669030486603271e-02 1.003635181059576498e+00
-9.094999999999999751e-01 1.815507377362575100e-02 1.000187029101855085e+00
-9.094999999999999751e-01 1.793580567818877855e-02 1.001955893195307867e+00
-9.084999999999998632e-01 1.592558915777261830e-02 1.000920710137988001e+00
-9.084999999999998632e-01 1.272900953328454099e-02 1.012563345147884819e+00
-9.084999999999998632e-01 1.783707855045113186e-02 1.000048481037846271e+00
-9.084999999999998632e-01 1.650784828538127622e-02 1.000095033210158801e+00
-9.084999999999998632e-01 1.760994381424797403e-02 1.001331681636826287e+00
-9.084999999999998632e-01 1.624870667306244076e-02 1.003800060587443754e+00
-9.084999999999998632e-01 1.581698209022030718e-02 1.003544674951322602e+00
-9.084999999999998632e-01 1.551279821935336312e-02 1.001214134440843173e+00
-9.074999999999999734e-01 1.836367676376265620e-02 1.001989674250880480e+00
-9.074999999999999734e-01 1.806414349291383600e-02 1.000347974970743126e+00
-9.074999999999999734e-01 1.533575786015064189e-02 1.001821667932250470e+00
-9.064999999999998614e-01 1.599849651217146590e-02 1.000166954190664814e+00
-9.064999999999998614e-01 1.621427602738363324e-02 1.000436485922539420e+00
-9.064999999999998614e-01 1.753093790071764621e-02 1.001812311863862215e+00
-9.064999999999998614e-01 1.788674339403578673e-02 1.000066252515526166e+00
-9.064999999999998614e-01 1.851578539207249935e-02 1.000055353011988224e+00
-9.054999999999999716e-01 1.657818076904904112e-02 1.000935054502328558e+00
-9.054999999999999716e-01 1.770522053041211422e-02 1.001120367441750814e+00
-9.054999999999999716e-01 1.414371231329795975e-02 1.009213130274346337e+00
-9.054999999999999716e-01 1.760675721647946348e-02 1.000150738420188867e+00
-9.054999999999999716e-01 1.799952047303572319e-02 1.000252390590698370e+00
-9.054999999999999716e-01 1.628974318560596005e-02 1.005107322892706101e+00
-9.054999999999999716e-01 1.672209093200686253e-02 1.003058762336287213e+00
-9.054999999999999716e-01 1.784845788389774132e-02 1.000211090023072513e+00
-9.054999999999999716e-01 1.644988215780754034e-02 1.000057068736404764e+00
-9.054999999999999716e-01 1.734421108476487047e-02 1.000179482673979603e+00
-9.044999999999998597e-01 1.591336218028432253e-02 1.007392304832778640e+00
-9.044999999999998597e-01 1.536652613276982653e-02 1.000939049793038160e+00
-9.044999999999998597e-01 1.748548113002055746e-02 1.000146711753207684e+00
-9.044999999999998597e-01 1.800801279262343596e-02 1.000029785908427282e+00
-9.044999999999998597e-01 1.867236561461624658e-02 1.001300127240420279e+00
-9.044999999999998597e-01 1.781591222462542215e-02 1.000346531567680275e+00
-9.044999999999998597e-01 1.719001986821783526e-02 1.006821771911059926e+00
-9.034999999999999698e-01 1.801973283154216163e-02 1.000102939730163287e+00
-9.034999999999999698e-01 1.851596197289729143e-02 1.000951923937849486e+00
-9.034999999999999698e-01 1.639703862811962148e-02 1.003217080893560542e+00
-9.034999999999999698e-01 1.598080373329472531e-02 1.000453680041212934e+00
-9.034999999999999698e-01 1.478353403758487193e-02 1.007981445437376999e+00
-9.024999999999998579e-01 1.807500946009149567e-02 1.001211770153318747e+00
-9.024999999999998579e-01 1.722937205880223366e-02 1.000124633554057896e+00
-9.024999999999998579e-01 1.710503452849360811e-02 1.000227518591523257e+00
-9.024999999999998579e-01 1.563385598213519120e-02 1.000577198107911459e+00
-9.024999999999998579e-01 1.658423552720980979e-02 1.003510377664325270e+00
-9.024999999999998579e-01 1.841272794777116389e-02 1.003085461421899582e+00
-9.024999999999998579e-01 1.864952999688989504e-02 1.000170897644711232e+00
-9.024999999999998579e-01 1.691971727583155283e-02 1.000623660717241181e+00
-9.014999999999999680e-01 1.648158250680484965e-02 1.000603431313668690e+00
-9.014999999999999680e-01 1.721873124140286745e-02 1.000730938499699185e+00
-9.014999999999999680e-01 1.800635365073410127e-02 1.001370551922500240e+00
-9.014999999999999680e-01 1.887119737912364148e-02 1.000085130638892483e+00
-9.014999999999999680e-01 1.627317532097923708e-02 1.012812670847673679e+00
-9.014999999999999680e-01 1.928838758496549677e-02 1.000021270001826723e+00
-9.014999999999999680e-01 1.817088722589122254e-02 1.000705932524303510e+00
-9.004999999999998561e-01 1.528190615980331429e-02 1.000989719641049325e+00
-9.004999999999998561e-01 1.631556738252739128e-02 1.000039375366280181e+00
-9.004999999999998561e-01 1.564556014853189791e-02 1.002860963744281797e+00
-9.004999999999998561e-01 1.780284013275280214e-02 1.000453304934117327e+00
-9.004999999999998561e-01 1.597777380270221786e-02 1.000322050032859345e+00
-9.004999999999998561e-01 1.873504337342056167e-02 1.001663897623972677e+00
-9.004999999999998561e-01 1.744117498566199326e-02 1.000161454860555521e+00
-8.994999999999999662e-01 1.861290537416905588e-02 1.000191846660337003e+00
-8.994999999999999662e-01 1.774476799749509157e-02 1.000381378241086638e+00
-8.994999999999999662e-01 1.825962189322483109e-02 1.000543647078492082e+00
-8.994999999999999662e-01 1.624076790211799806e-02 1.001173508113226029e+00
-8.994999999999999662e-01 1.862048616683754237e-02 1.000098108714615019e+00
-8.984999999999998543e-01 1.852586732460914654e-02 1.000066820570765014e+00
-8.984999999999998543e-01 1.773552551625116880e-02 1.003721132828181206e+00
-8.984999999999998543e-01 1.819204834696317580e-02 1.000470636442732486e+00
-8.984999999999998543e-01 1.693987090389572833e-02 1.000097794899981185e+00
-8.984999999999998543e-01 1.699761539659825488e-02 1.002584590786300911e+00
-8.984999999999998543e-01 1.561852113937680850e-02 1.002113272861207882e+00
-8.984999999999998543e-01 1.767891950814703267e-02 1.000147064471310632e+00
-8.984999999999998543e-01 1.881915345598212178e-02 1.000138921582164109e+00
-8.984999999999998543e-01 1.662766091700127596e-02 1.003063026288347537e+00
-8.974999999999999645e-01 1.708320057888313911e-02 1.000672904981768863e+00
-8.974999999999999645e-01 1.619553117742597234e-02 1.006202775189773968e+00
-8.974999999999999645e-01 1.683612532994667108e-02 1.000149411926301468e+00
-8.974999999999999645e-01 1.692943549077775486e-02 1.000018255368134046e+00
-8.974999999999999645e-01 1.640267072896819944e-02 1.003250838549851087e+00
-8.974999999999999645e-01 1.575954656989850614e-02 1.004462902665986590e+00
-8.974999999999999645e-01 1.799673810537676805e-02 1.000157265423014419e+00
-8.964999999999998526e-01 1.839583832224069709e-02 1.000850106478360813e+00
-8.964999999999998526e-01 1.600061831118312905e-02 1.002411534257176440e+00
-8.964999999999998526e-01 1.614103876278338845e-02 1.001451678414759794e+00
-8.964999999999998526e-01 1.686411995083385643e-02 1.003876509107251236e+00
-8.964999999999998526e-01 1.753590099828018778e-02 1.000825052394924253e+00
-8.964999999999998526e-01 1.587008850181846967e-02 1.003066486891094122e+00
-8.964999999999998526e-01 1.722137137709820257e-02 1.000156444080136930e+00
-8.964999999999998526e-01 1.560828646884407540e-02 1.002317986992428578e+00
-8.964999999999998526e-01 1.860592359970952847e-02 1.000131411922033253e+00
-8.964999999999998526e-01 1.851787094086759788e-02 1.000289559494385250e+00
-8.954999999999999627e-01 1.609226829789439997e-02 1.001527528546226176e+00
-8.954999999999999627e-01 1.833676529328245874e-02 1.002037844020840396e+00
-8.954999999999999627e-01 1.748449969832327477e-02 1.001020034398068415e+00
-8.954999999999999627e-01 1.700651130962531343e-02 1.000887823874956339e+00
-8.954999999999999627e-01 1.387752434372176678e-02 1.001808160934892111e+00
-8.954999999999999627e-01 1.890593057826578036e-02 1.000177365535947605e+00
-8.954999999999999627e-01 1.884103364510936879e-02 1.000126167297501256e+00
-8.954999999999999627e-01 1.642317582654361646e-02 1.001436884740193323e+00
-8.944999999999998508e-01 1.648419774655793257e-02 1.002230473477908834e+00
-8.944999999999998508e-01 1.672776363396231980e-02 1.003015988510584711e+00
-8.944999999999998508e-01 1.760597839455095223e-02 1.005336021406730618e+00
-8.944999999999998508e-01 1.773943460063601152e-02 1.000207068006399691e+00
-8.944999999999998508e-01 1.739557724016330131e-02 1.000895902601435239e+00
-8.934999999999999609e-01 1.614772499960043933e-02 1.008845758742173970e+00
-8.934999999999999609e-01 1.806017202395226659e-02 1.000597171571296906e+00
-8.934999999999999609e-01 1.845228405441981176e-02 1.000108574267401629e+00
-8.934999999999999609e-01 1.828071059323869638e-02 1.000470575971648346e+00
-8.934999999999999609e-01 1.749357596875228751e-02 1.003005267621523311e+00
-8.934999999999999609e-01 1.633129508322180012e-02 1.000378292083744292e+00
-8.934999999999999609e-01 1.764083529908560405e-02 1.002365443161615799e+00
-8.934999999999999609e-01 1.860096031645185749e-02 1.000107535496840061e+00
-8.934999999999999609e-01 1.813952008014824147e-02 1.000618721226878227e+00
-8.934999999999999609e-01 1.822038305132208519e-02 1.000223364095851997e+00
-8.934999999999999609e-01 1.709236168532161232e-02 1.000428277217598749e+00
-8.924999999999998490e-01 1.754507301685200721e-02 1.000482484011026907e+00
-8.924999999999998490e-01 1.598893121382660362e-02 1.002163760813953308e+00
-8.924999999999998490e-01 1.684911456360754789e-02 1.004491467468968668e+00
-8.924999999999998490e-01 1.855993436940606145e-02 1.001721268951314858e+00
-8.924999999999998490e-01 1.697429270966098816e-02 1.001008788439336605e+00
-8.924999999999998490e-01 1.719884790023498353e-02 1.000221221069088173e+00
-8.924999999999998490e-01 1.458323181722184780e-02 1.000043802489033240e+00
-8.924999999999998490e-01 1.804171037619827292e-02 1.000746723832287355e+00
-8.924999999999998490e-01 1.513245564292047506e-02 1.005171234952524362e+00
-8.924999999999998490e-01 1.752685972063345796e-02 1.000928381969132808e+00
-8.924999999999998490e-01 1.861168495320034491e-02 1.000017719534902039e+00
-8.924999999999998490e-01 1.782544246335183644e-02 1.001162405408377865e+00
-8.924999999999998490e-01 1.614899876836387721e-02 1.002596066764847915e+00
-8.914999999999999591e-01 1.724618407375439963e-02 1.000127450439707077e+00
-8.914999999999999591e-01 1.525748174927916111e-02 1.000050676008946704e+00
-8.914999999999999591e-01 1.842446800312365005e-02 1.000010703164120773e+00
-8.914999999999999591e-01 1.787961205430575740e-02 1.000017274367090758e+00
-8.914999999999999591e-01 1.698925315740450540e-02 1.000324720600380024e+00
-8.914999999999999591e-01 1.659863784873645207e-02 1.000239721104848156e+00
-8.914999999999999591e-01 1.747932228734992363e-02 1.000275531178892008e+00
-8.914999999999999591e-01 1.525068100368628249e-02 1.000157602381868793e+00
-8.914999999999999591e-01 1.765812194499858864e-02 1.000961394581801889e+00
-8.904999999999998472e-01 1.747591101142012202e-02 1.003103153177394180e+00
-8.904999999999998472e-01 1.752123620826083819e-02 1.000511791252658655e+00
-8.904999999999998472e-01 1.652334339745267083e-02 1.000268545239894502e+00
-8.904999999999998472e-01 1.635039579841891105e-02 1.000832252337664707e+00
-8.904999999999998472e-01 1.767684681469983143e-02 1.000147579779062657e+00
-8.904999999999998472e-01 1.790368009134502003e-02 1.000037351796785545e+00
-8.904999999999998472e-01 1.680488694832891691e-02 1.000384831738971414e+00
-8.904999999999998472e-01 1.739142813743187882e-02 1.000739750499821001e+00
-8.904999999999998472e-01 1.654307917937872241e-02 1.001224191994221524e+00
-8.904999999999998472e-01 1.590464375757202203e-02 1.012063674957114356e+00
-8.904999999999998472e-01 1.688725680635271009e-02 1.001610491391929481e+00
-8.894999999999999574e-01 1.783241021368451792e-02 1.000820708736020581e+00
-8.894999999999999574e-01 1.600451125758981311e-02 1.000711406579838370e+00
-8.894999999999999574e-01 1.857776122505721758e-02 1.000102875108241252e+00
-8.894999999999999574e-01 1.835629569074714862e-02 1.000941953776528726e+00
-8.894999999999999574e-01 1.579095978725353691e-02 1.000254100250003164e+00
-8.894999999999999574e-01 1.617443584556331124e-02 1.003402167905296682e+00
-8.884999999999998455e-01 1.940708463042190718e-02 1.000024659356517409e+00
-8.884999999999998455e-01 1.529789113252738586e-02 1.002742525615184288e+00
-8.884999999999998455e-01 1.752964388416874617e-02 1.000265906704419505e+00
-8.884999999999998455e-01 1.781240348952350949e-02 1.000011305336940381e+00
-8.884999999999998455e-01 1.849109113739658833e-02 1.000102276110892863e+00
-8.884999999999998455e-01 1.750880615592807429e-02 1.001730814337150610e+00
-8.884999999999998455e-01 1.741598933800408630e-02 1.001446265478360464e+00
-8.884999999999998455e-01 1.465360167675790193e-02 1.005371980851141656e+00
-8.874999999999999556e-01 1.649130774295651941e-02 1.003777150732374945e+00
-8.874999999999999556e-01 1.591685579386348248e-02 1.001666720314793535e+00
-8.874999999999999556e-01 1.564107508177774858e-02 1.002336155127416806e+00
-8.874999999999999556e-01 1.817415965156123775e-02 1.000501309063624111e+00
-8.874999999999999556e-01 1.772426986789174194e-02 1.000166102479340902e+00
-8.874999999999999556e-01 1.908542385469825381e-02 1.000040270089487926e+00
-8.874999999999999556e-01 1.837342088937845078e-02 1.000238561224295886e+00
-8.874999999999999556e-01 1.830195843826670429e-02 1.000045033773301340e+00
-8.874999999999999556e-01 1.834791859387463475e-02 1.000115602258194292e+00
-8.874999999999999556e-01 1.785230129768558549e-02 1.000049897915994856e+00
-8.864999999999998437e-01 1.694898371650220212e-02 1.000606703405685360e+00
-8.864999999999998437e-01 1.863038050306609766e-02 1.000827627102188311e+00
-8.864999999999998437e-01 1.799714977734189272e-02 1.002827104635666933e+00
-8.864999999999998437e-01 1.751683770426452208e-02 1.000775893731513433e+00
-8.864999999999998437e-01 1.722358879646774046e-02 1.001543317744777006e+00
-8.864999999999998437e-01 1.775782034036292936e-02 1.001395259636198576e+00
-8.864999999999998437e-01 1.765735379451661285e-02 1.000255065640763164e+00
-8.854999999999999538e-01 1.895581013298594172e-02 1.000026196783579957e+00
-8.854999999999999538e-01 1.842549662607723820e-02 1.000203462014296996e+00
-8.854999999999999538e-01 1.695106057683529871e-02 1.000564897800334085e+00
-8.854999999999999538e-01 1.620742122343641831e-02 1.000957132259119975e+00
-8.854999999999999538e-01 1.737313571852865460e-02 1.002874615962480842e+00
-8.854999999999999538e-01 1.689720714476114494e-02 1.001221246699983247e+00
-8.854999999999999538e-01 1.607180894049435593e-02 1.000126614744348830e+00
-8.854999999999999538e-01 1.796804676869543510e-02 1.007672080087648858e+00
-8.844999999999998419e-01 1.793915946651342824e-02 1.000081367329396675e+00
-8.844999999999998419e-01 1.758529397865979046e-02 1.002820643775247156e+00
-8.844999999999998419e-01 1.823546524336028957e-02 1.000595330988502063e+00
-8.844999999999998419e-01 1.618163150063282180e-02 1.000585244895940029e+00
-8.844999999999998419e-01 1.787554442953173672e-02 1.000130495113289886e+00
-8.844999999999998419e-01 1.643715735961467223e-02 1.006098471932843630e+00
-8.844999999999998419e-01 1.809496245899450476e-02 1.000045393190827081e+00
-8.844999999999998419e-01 1.691924980815284404e-02 1.001132217029857996e+00
-8.844999999999998419e-01 1.831620415877314653e-02 1.001782045458632586e+00
-8.844999999999998419e-01 1.640335436729164001e-02 1.002564617008207648e+00
-8.844999999999998419e-01 1.727146523061902708e-02 1.000639619548151948e+00
-8.844999999999998419e-01 1.687842994353478884e-02 1.001203020880152339e+00
-8.844999999999998419e-01 1.821007697466638792e-02 1.002019046137559988e+00
-8.844999999999998419e-01 1.786758778874521919e-02 1.000206191576394454e+00
-8.834999999999999520e-01 1.739430780784195080e-02 1.001382450564990423e+00
-8.834999999999999520e-01 1.747153878227887536e-02 1.003021260132166192e+00
-8.834999999999999520e-01 1.785237368860141671e-02 1.000430630490616313e+00
-8.834999999999999520e-01 1.925343261328861522e-02 1.000093072591835108e+00
-8.834999999999999520e-01 1.829796298544670088e-02 1.000085962706567688e+00
-8.834999999999999520e-01 1.789793606403902032e-02 1.001640524916203256e+00
-8.834999999999999520e-01 1.574711217660536289e-02 1.003483974984060279e+00
-8.824999999999998401e-01 1.849055207829003455e-02 1.000024315996304036e+00
-8.824999999999998401e-01 1.836383792745433993e-02 1.001070214910519951e+00
-8.824999999999998401e-01 1.712939195204278564e-02 1.001499063285045343e+00
-8.824999999999998401e-01 1.879685344511344836e-02 1.000303724137694195e+00
-8.824999999999998401e-01 1.773880421975232088e-02 1.005707853448061906e+00
-8.824999999999998401e-01 1.844802681506926487e-02 1.000411459577093432e+00
-8.824999999999998401e-01 1.714291906540767879e-02 1.003829199967511965e+00
-8.824999999999998401e-01 1.625378285512613791e-02 1.002292964533368913e+00
-8.824999999999998401e-01 1.725682936323407607e-02 1.000103920365096544e+00
-8.814999999999999503e-01 1.554744920489797150e-02 1.003098168349320529e+00
-8.814999999999999503e-01 1.822624283935397535e-02 1.000089030699663484e+00
-8.814999999999999503e-01 1.685159159320922043e-02 1.005759142538096729e+00
-8.814999999999999503e-01 1.646582189703923310e-02 1.001255060826278021e+00
-8.814999999999999503e-01 1.669918674847861717e-02 1.001012655127946349e+00
-8.814999999999999503e-01 1.651209097853689745e-02 1.005462275982025533e+00
-8.814999999999999503e-01 1.737788771117234135e-02 1.001185668072848811e+00
-8.814999999999999503e-01 1.556658972183997888e-02 1.006158431968077416e+00
-8.814999999999999503e-01 1.562195088233838715e-02 1.003955668385050792e+00
-8.804999999999998384e-01 1.755901050364329016e-02 1.004833101990988409e+00
-8.804999999999998384e-01 1.716325346696749576e-02 1.000953592635345446e+00
-8.804999999999998384e-01 1.816667243415075531e-02 1.001450416539445776e+00
-8.804999999999998384e-01 1.873994725385886781e-02 1.000016319362293737e+00
-8.804999999999998384e-01 1.637698975742119673e-02 1.002398706888930846e+00
-8.804999999999998384e-01 1.871649288664373884e-02 1.000273282144138021e+00
-8.804999999999998384e-01 1.763654341127653472e-02 1.000808271369129754e+00
-8.804999999999998384e-01 1.721320706113837681e-02 1.000613174136850025e+00
-8.804999999999998384e-01 1.680005870833986559e-02 1.000863692680829864e+00
-8.804999999999998384e-01 1.645406340438114109e-02 1.000440305275024588e+00
-8.804999999999998384e-01 1.799253022583444800e-02 1.001178528035958193e+00
-8.804999999999998384e-01 1.508631391853278852e-02 1.007368566537606647e+00
-8.804999999999998384e-01 1.622730348816102050e-02 1.006460838390297319e+00
-8.794999999999999485e-01 1.681356879100694840e-02 1.000558402859878182e+00
-8.794999999999999485e-01 1.893357843840698038e-02 1.000253362295495663e+00
-8.794999999999999485e-01 1.708660150544380821e-02 1.000241166675783777e+00
-8.794999999999999485e-01 1.950569925593331755e-02 1.000030469622359863e+00
-8.794999999999999485e-01 1.728180202040609584e-02 1.000088791051146009e+00
-8.794999999999999485e-01 1.689170595036620232e-02 1.001285624973601962e+00
-8.794999999999999485e-01 1.641365946898698178e-02 1.001970091168419064e+00
-8.784999999999998366e-01 1.831574233138073132e-02 1.000359126806703358e+00
-8.784999999999998366e-01 1.536274890285290427e-02 1.004673315168886027e+00
-8.784999999999998366e-01 1.714646099973935259e-02 1.000661796977266871e+00
-8.784999999999998366e-01 1.733717995598712744e-02 1.000861848689887923e+00
-8.784999999999998366e-01 1.779394892416635843e-02 1.000218916855454054e+00
-8.784999999999998366e-01 1.783959104363931972e-02 1.001129496481109271e+00
-8.784999999999998366e-01 1.638747922142831312e-02 1.002099499224697876e+00
-8.784999999999998366e-01 1.597820698028878245e-02 1.002152463138265226e+00
-8.784999999999998366e-01 1.840535768948647899e-02 1.000019536764008787e+00
-8.784999999999998366e-01 1.704887295368981079e-02 1.002358060677852603e+00
-8.784999999999998366e-01 1.939369904150572629e-02 1.000015890795924678e+00
-8.774999999999999467e-01 1.584273652511721669e-02 1.014454782612267847e+00
-8.774999999999999467e-01 1.722179563914611952e-02 1.001177963864179787e+00
-8.774999999999999467e-01 1.628028015233758466e-02 1.000622780378697341e+00
-8.774999999999999467e-01 1.710208526832969478e-02 1.011106057951840498e+00
-8.774999999999999467e-01 1.776491866816476070e-02 1.000060170124806858e+00
-8.774999999999999467e-01 1.701120627095006888e-02 1.001296750966311322e+00
-8.774999999999999467e-01 1.685214289608633412e-02 1.000717083709920852e+00
-8.764999999999998348e-01 1.710294841844888988e-02 1.009003614283615402e+00
-8.764999999999998348e-01 1.828113026752034229e-02 1.000805457792060649e+00
-8.764999999999998348e-01 1.591366521076609600e-02 1.000643649105307231e+00
-8.764999999999998348e-01 1.663035366419175765e-02 1.002940889028660409e+00
-8.764999999999998348e-01 1.830673510350542751e-02 1.000840493898474515e+00
-8.764999999999998348e-01 1.845048794045349785e-02 1.000467957688598419e+00
-8.764999999999998348e-01 1.868463021477778999e-02 1.000700193504438174e+00
-8.754999999999999449e-01 1.732322029776177733e-02 1.000405812725401633e+00
-8.754999999999999449e-01 1.887160153942248411e-02 1.000722103013065523e+00
-8.754999999999999449e-01 1.782280409918057112e-02 1.001231694432377584e+00
-8.754999999999999449e-01 1.571459433849759987e-02 1.001251293937801767e+00
-8.754999999999999449e-01 1.730881949179108661e-02 1.000588220282224272e+00
-8.754999999999999449e-01 1.810861972868296407e-02 1.000215177262277155e+00
-8.754999999999999449e-01 1.806462614634685854e-02 1.001631435002965143e+00
-8.754999999999999449e-01 1.550422350937037501e-02 1.001663127024261746e+00
-8.754999999999999449e-01 1.671843761861431174e-02 1.000833572230918511e+00
-8.754999999999999449e-01 1.655688208847615889e-02 1.000684898060665962e+00
-8.754999999999999449e-01 1.846935239455948022e-02 1.000101283969300647e+00
-8.744999999999998330e-01 1.865378134894726120e-02 1.000031947585411585e+00
-8.744999999999998330e-01 1.597882322883081851e-02 1.000502184924572546e+00
-8.744999999999998330e-01 1.533075309781804785e-02 1.003907859270483316e+00
-8.744999999999998330e-01 1.702326140648226238e-02 1.001013109544095947e+00
-8.744999999999998330e-01 1.696459040831467882e-02 1.000275802726422469e+00
-8.744999999999998330e-01 1.687289185766840255e-02 1.001068559460149832e+00
-8.744999999999998330e-01 1.661622619833853440e-02 1.002861081735234583e+00
-8.744999999999998330e-01 1.759889941299236371e-02 1.000665537727555510e+00
-8.744999999999998330e-01 1.631905635855357070e-02 1.003780107787175302e+00
-8.734999999999999432e-01 1.715858731573894139e-02 1.004513736808233526e+00
-8.734999999999999432e-01 1.695805274757049286e-02 1.002336700370214384e+00
-8.734999999999999432e-01 1.854796257361192649e-02 1.000572537148039842e+00
-8.734999999999999432e-01 1.676738122282069726e-02 1.002158168867105736e+00
-8.734999999999999432e-01 1.626427119634857310e-02 1.001884127743582154e+00
-8.734999999999999432e-01 1.750351302213614194e-02 1.001399547401105483e+00
-8.734999999999999432e-01 1.589361881977784108e-02 1.018899129933347414e+00
-8.724999999999998312e-01 1.641810579706484002e-02 1.001397688678756781e+00
-8.724999999999998312e-01 1.651374095209795848e-02 1.001085860567813235e+00
-8.724999999999998312e-01 1.672721503948672653e-02 1.001918760117546103e+00
-8.724999999999998312e-01 1.635519480846698084e-02 1.004135123362552617e+00
-8.724999999999998312e-01 1.623649998592156807e-02 1.000450821364359477e+00
-8.724999999999998312e-01 1.699211662051951233e-02 1.001774171890418286e+00
-8.724999999999998312e-01 1.809964566060518615e-02 1.002920250700525928e+00
-8.724999999999998312e-01 1.860029019911714140e-02 1.000545790871850471e+00
-8.724999999999998312e-01 1.682200632575020158e-02 1.000582429171734455e+00
-8.724999999999998312e-01 1.813907879217466559e-02 1.000537611440102337e+00
-8.714999999999999414e-01 1.596217750928372731e-02 1.001161893770813993e+00
-8.714999999999999414e-01 1.799577173563939383e-02 1.000530600726745156e+00
-8.714999999999999414e-01 1.668423744679713855e-02 1.001862587292715823e+00
-8.714999999999999414e-01 1.820445304225473682e-02 1.000765176580028282e+00
-8.714999999999999414e-01 1.732096693271094681e-02 1.001525800641933861e+00
-8.714999999999999414e-01 1.710212862348264862e-02 1.000472797151070736e+00
-8.704999999999998295e-01 1.610887039293482093e-02 1.000331071872717859e+00
-8.704999999999998295e-01 1.832735337810876414e-02 1.000266687894676210e+00
-8.704999999999998295e-01 1.719424624880609709e-02 1.000453939383785906e+00
-8.704999999999998295e-01 1.745143102729221352e-02 1.002400748164502531e+00
-8.704999999999998295e-01 1.864847240495007621e-02 1.000196011433029275e+00
-8.704999999999998295e-01 1.661031997546358677e-02 1.000039746024641518e+00
-8.704999999999998295e-01 5.254896669801689809e-04 7.880346563826534201e+00
-8.704999999999998295e-01 1.689015927815859172e-02 1.000510531152779770e+00
-8.704999999999998295e-01 1.612908626424112979e-02 1.011474112842059458e+00
-8.704999999999998295e-01 1.696003445656644668e-02 1.002031001664030363e+00
-8.694999999999999396e-01 1.629622400243847455e-02 1.000255898943377630e+00
-8.694999999999999396e-01 1.668445235259123291e-02 1.000357368001036251e+00
-8.694999999999999396e-01 1.868119752267486874e-02 1.000729080400548421e+00
-8.694999999999999396e-01 1.681691585139830775e-02 1.000491170787374484e+00
-8.694999999999999396e-01 1.815382878009457954e-02 1.000508203587725964e+00
-8.684999999999998277e-01 1.591287604454730276e-02 1.004221489132156364e+00
-8.684999999999998277e-01 1.651680489824663284e-02 1.000403514404163419e+00
-8.684999999999998277e-01 1.842971767864249807e-02 1.000840404687037166e+00
-8.684999999999998277e-01 1.693132883668596253e-02 1.002026470647867429e+00
-8.684999999999998277e-01 1.723347310409916247e-02 1.001905964141445837e+00
-8.684999999999998277e-01 1.574024888584724807e-02 1.003830421770132375e+00
-8.684999999999998277e-01 1.584367079183213872e-02 1.005064744560662859e+00
-8.684999999999998277e-01 1.863478892818665189e-02 1.001663951237778072e+00
-8.684999999999998277e-01 1.537203466884678842e-02 1.000562401190212780e+00
-8.684999999999998277e-01 1.781437566214650464e-02 1.000578411651254385e+00
-8.684999999999998277e-01 1.848032089977011058e-02 1.000202510951325285e+00
-8.684999999999998277e-01 1.749349754128050327e-02 1.000070351628632670e+00
-8.684999999999998277e-01 1.559697007531027184e-02 1.001317859536651644e+00
-8.684999999999998277e-01 1.648225202238044751e-02 1.000178564230126188e+00
-8.674999999999999378e-01 1.729959814404830043e-02 1.000648045558464760e+00
-8.674999999999999378e-01 1.805419890596062990e-02 1.000183905627050729e+00
-8.674999999999999378e-01 1.773057680198593736e-02 1.000057753141116557e+00
-8.674999999999999378e-01 1.808563103867140767e-02 1.001891122202458684e+00
-8.674999999999999378e-01 1.838831137658218651e-02 1.000374732375355791e+00
-8.674999999999999378e-01 1.719310933267611044e-02 1.000187158413547106e+00
-8.674999999999999378e-01 1.668598751133603189e-02 1.000492001699801570e+00
-8.674999999999999378e-01 1.891668948298858705e-02 1.000052611314385054e+00
-8.674999999999999378e-01 1.850427060964304066e-02 1.000113458910413478e+00
-8.674999999999999378e-01 1.725342887519571225e-02 1.000258141831352754e+00
-8.664999999999998259e-01 1.692429958600889447e-02 1.000884185537782800e+00
-8.664999999999998259e-01 1.734420309408541208e-02 1.000649330922611879e+00
-8.664999999999998259e-01 1.798740238548582338e-02 1.001512102063038867e+00
-8.664999999999998259e-01 1.721397468705551312e-02 1.000285178946245690e+00
-8.664999999999998259e-01 1.802259976850638032e-02 1.000010946162618541e+00
-8.664999999999998259e-01 1.731323998336743719e-02 1.002300352137597272e+00
-8.654999999999999361e-01 1.868020443279746340e-02 1.000020114187085918e+00
-8.654999999999999361e-01 1.451210709926071055e-02 1.000739278105315044e+00
-8.654999999999999361e-01 1.676610987681953144e-02 1.000104795803182345e+00
-8.654999999999999361e-01 1.746264364133937042e-02 1.000813366205600685e+00
-8.654999999999999361e-01 1.878970539561779923e-02 1.000082397762817044e+00
-8.654999999999999361e-01 1.683162023420111883e-02 1.001143694471161139e+00
-8.654999999999999361e-01 1.600291688663091003e-02 1.000091183259614880e+00
-8.644999999999998241e-01 1.783016464852436173e-02 1.002118115730778580e+00
-8.644999999999998241e-01 1.706702028478616212e-02 1.000908361205375741e+00
-8.644999999999998241e-01 1.696805981929570134e-02 1.005211530551219035e+00
-8.644999999999998241e-01 1.924454587482339954e-02 1.000274830682872151e+00
-8.644999999999998241e-01 1.703209953363172754e-02 1.000633549983648285e+00
-8.644999999999998241e-01 1.745690748319784005e-02 1.000606169085510588e+00
-8.644999999999998241e-01 1.545501465848216245e-02 1.003370675236026743e+00
-8.644999999999998241e-01 1.619122205779264384e-02 1.002198401666408500e+00
-8.644999999999998241e-01 1.466372195697247457e-02 1.016911067463080798e+00
-8.644999999999998241e-01 1.735575554093292394e-02 1.000294013141610039e+00
-8.644999999999998241e-01 1.800975711145973157e-02 1.000325320886555902e+00
-8.634999999999999343e-01 1.725180547321624597e-02 1.000353533856269905e+00
-8.634999999999999343e-01 1.499441927529647847e-02 1.003832850425218748e+00
-8.634999999999999343e-01 1.800450320870564808e-02 1.000085118991816735e+00
-8.634999999999999343e-01 1.718306361321062306e-02 1.000140813355537839e+00
-8.634999999999999343e-01 1.313816370347024864e-02 1.000137435894269400e+00
-8.634999999999999343e-01 1.526978928243921327e-02 1.003207962822072474e+00
-8.634999999999999343e-01 1.759038451542459247e-02 1.002988595996064713e+00
-8.634999999999999343e-01 1.685175309710175082e-02 1.000675502068254952e+00
-8.634999999999999343e-01 1.714230727251140826e-02 1.001406147782300415e+00
-8.634999999999999343e-01 1.840637019776959066e-02 1.000031716098144230e+00
-8.634999999999999343e-01 1.809002700190981069e-02 1.000007560214902558e+00
-8.624999999999998224e-01 1.479847513081131334e-02 1.017839261221734626e+00
-8.624999999999998224e-01 1.650669690497123115e-02 1.000828028575384554e+00
-8.624999999999998224e-01 1.636276585498644756e-02 1.005303736351910615e+00
-8.624999999999998224e-01 1.722170330952326606e-02 1.000267494168582738e+00
-8.614999999999999325e-01 1.633503098926833083e-02 1.000980944962318819e+00
-8.614999999999999325e-01 1.669847117780460730e-02 1.003333368230818312e+00
-8.614999999999999325e-01 1.804860477043337269e-02 1.000170962786071760e+00
-8.614999999999999325e-01 1.498914065348311286e-02 1.004334350233521356e+00
-8.614999999999999325e-01 1.725948905312229414e-02 1.002157255968869842e+00
-8.614999999999999325e-01 1.816969776891345575e-02 1.000138710250394025e+00
-8.614999999999999325e-01 1.682254775950540668e-02 1.001722204080593093e+00
-8.614999999999999325e-01 1.599082358546662780e-02 1.000897923605019502e+00
-8.604999999999998206e-01 1.815139814846583599e-02 1.000096984588296101e+00
-8.604999999999998206e-01 1.801056710875476377e-02 1.002622644741502311e+00
-8.604999999999998206e-01 1.608385469673715221e-02 1.000242098561192616e+00
-8.604999999999998206e-01 1.759309242051631389e-02 1.000158622672851827e+00
-8.604999999999998206e-01 1.739711481479482014e-02 1.000143233215750271e+00
-8.604999999999998206e-01 1.671021295821854477e-02 1.008096264202584580e+00
-8.604999999999998206e-01 1.738928381277792326e-02 1.001909010835725367e+00
-8.604999999999998206e-01 1.597000066038998731e-02 1.000957789517229024e+00
-8.604999999999998206e-01 1.663199287462401380e-02 1.001201255237138987e+00
-8.604999999999998206e-01 1.665806337859096486e-02 1.001502581772301337e+00
-8.594999999999999307e-01 1.543544857414623148e-02 1.000786223712854861e+00
-8.594999999999999307e-01 1.782690348649179635e-02 1.000605342241168705e+00
-8.594999999999999307e-01 1.551903528459670084e-02 1.000109391522914892e+00
-8.594999999999999307e-01 1.735516789738365123e-02 1.000935081063971221e+00
-8.594999999999999307e-01 1.736562759540629525e-02 1.001113973856730954e+00
-8.594999999999999307e-01 1.496607402642421286e-02 1.019105130027061490e+00
-8.594999999999999307e-01 1.886548579102608966e-02 1.000198856068125197e+00
-8.594999999999999307e-01 1.689533870647751471e-02 1.000611704338846719e+00
-8.594999999999999307e-01 1.797522218731667162e-02 1.001404003298880685e+00
-8.594999999999999307e-01 1.743324442058089008e-02 1.000147499138015039e+00
-8.594999999999999307e-01 1.814977200073024377e-02 1.000375264922382934e+00
-8.584999999999998188e-01 1.561666289214877490e-02 1.003627345374031421e+00
-8.584999999999998188e-01 1.803352979545474674e-02 1.000534885156593834e+00
-8.584999999999998188e-01 1.657741391850229423e-02 1.000771516454458610e+00
-8.584999999999998188e-01 1.750060499452707127e-02 1.001026341367549088e+00
-8.584999999999998188e-01 1.490209710356865148e-02 1.002944804536256118e+00
-8.584999999999998188e-01 1.517701474104100542e-02 1.003083011860169460e+00
-8.584999999999998188e-01 1.627481302518132486e-02 1.000444587770035421e+00
-8.584999999999998188e-01 1.669594250720799616e-02 1.000746799383386287e+00
-8.584999999999998188e-01 1.448377893074236783e-02 1.002273784688941349e+00
-8.584999999999998188e-01 1.752516157036030503e-02 1.003894695835222173e+00
-8.584999999999998188e-01 1.775905843361269207e-02 1.000256035441699609e+00
-8.584999999999998188e-01 1.736008937270244051e-02 1.000572898266613775e+00
-8.574999999999999289e-01 1.787246480923933636e-02 1.000457869286631274e+00
-8.574999999999999289e-01 1.523188585693867857e-02 1.005490930048492215e+00
-8.574999999999999289e-01 1.780476971875936953e-02 1.000118537908795568e+00
-8.574999999999999289e-01 1.732501707268547381e-02 1.000420092985631282e+00
-8.574999999999999289e-01 1.648064576680911136e-02 1.004764105174011046e+00
-8.574999999999999289e-01 1.843553326541680706e-02 1.002277863731129370e+00
-8.574999999999999289e-01 1.668859171657747706e-02 1.004440903073696489e+00
-8.574999999999999289e-01 1.817020448037724029e-02 1.000763338254584411e+00
-8.574999999999999289e-01 1.632932153886659105e-02 1.001981465126099202e+00
-8.574999999999999289e-01 1.670950432981570949e-02 1.004458830789266344e+00
-8.574999999999999289e-01 1.419657260323262810e-02 1.001109744218269038e+00
-8.564999999999998170e-01 1.751733243259274639e-02 1.001332238758498860e+00
-8.564999999999998170e-01 1.822115225319757142e-02 1.000828451905981797e+00
-8.564999999999998170e-01 1.778475106731564059e-02 1.000225016398182731e+00
-8.564999999999998170e-01 1.596705054647434840e-02 1.000287263587572584e+00
-8.564999999999998170e-01 1.541201496583740824e-02 1.000571584551728010e+00
-8.564999999999998170e-01 1.778245253778445653e-02 1.000115371174883805e+00
-8.564999999999998170e-01 1.794890979938585859e-02 1.000203975737614881e+00
-8.564999999999998170e-01 1.762607504850713033e-02 1.000463166370036738e+00
-8.564999999999998170e-01 1.802254061994703477e-02 1.000119621385824109e+00
-8.564999999999998170e-01 1.600483764714100837e-02 1.000402496446612721e+00
-8.564999999999998170e-01 1.692077727614675620e-02 1.002199095555290853e+00
-8.564999999999998170e-01 1.702092447573962108e-02 1.002496653802905424e+00
-8.564999999999998170e-01 1.736094389394404400e-02 1.000125424311941957e+00
-8.564999999999998170e-01 1.629937850910844269e-02 1.001397709414607595e+00
-8.564999999999998170e-01 1.787366798122418804e-02 1.000883484539944801e+00
-8.554999999999999272e-01 1.769870925609947493e-02 1.001350041934071733e+00
-8.554999999999999272e-01 1.876040412528892642e-02 1.000813000941836783e+00
-8.554999999999999272e-01 1.393101723587591642e-02 1.004319822145943952e+00
-8.554999999999999272e-01 1.533690865401224693e-02 1.000326024092029087e+00
-8.554999999999999272e-01 1.448966401604651066e-02 1.001933905155945270e+00
-8.554999999999999272e-01 1.735201829444488197e-02 1.000213521423259477e+00
-8.554999999999999272e-01 1.623536450045421145e-02 1.000082764580871419e+00
-8.554999999999999272e-01 1.515973893388699797e-02 1.000556231426569909e+00
-8.554999999999999272e-01 1.616468358383039983e-02 1.003314122246803830e+00
-8.544999999999998153e-01 1.809347559578246278e-02 1.000285897094084664e+00
-8.544999999999998153e-01 1.772424908592335271e-02 1.000607150265485856e+00
-8.544999999999998153e-01 1.632365784010332208e-02 1.003627497053517059e+00
-8.544999999999998153e-01 1.624247083887242482e-02 1.000355626648268492e+00
-8.534999999999999254e-01 1.848808042589997550e-02 1.000271074452280251e+00
-8.534999999999999254e-01 1.858127731578527661e-02 1.000726462844284459e+00
-8.534999999999999254e-01 1.705945335107891467e-02 1.000576696991800407e+00
-8.534999999999999254e-01 1.737189236261441061e-02 1.002415224321262288e+00
-8.534999999999999254e-01 5.285434844347223961e-04 -2.210020007004014797e+00
-8.534999999999999254e-01 1.833991589488709328e-02 1.000403851731338500e+00
-8.524999999999998135e-01 1.778038812245674727e-02 1.000086499855485478e+00
-8.524999999999998135e-01 1.827355768026237004e-02 1.000334562816660000e+00
-8.524999999999998135e-01 1.694259247635297727e-02 1.000281748015720673e+00
-8.524999999999998135e-01 1.833780893827254704e-02 1.000985619518218073e+00
-8.524999999999998135e-01 1.618927212792918569e-02 1.000497270838529351e+00
-8.524999999999998135e-01 1.757207148079061379e-02 1.000838657363288364e+00
-8.524999999999998135e-01 1.468124037571274729e-02 1.001161244817192708e+00
-8.524999999999998135e-01 1.819469695904511394e-02 1.000155859383492940e+00
-8.524999999999998135e-01 1.826836371475431403e-02 1.000226741090915805e+00
-8.524999999999998135e-01 1.836816089038753944e-02 1.000010877272968113e+00
-8.524999999999998135e-01 1.637258375260780205e-02 1.000299750727514203e+00
-8.524999999999998135e-01 1.552930971440400452e-02 1.000799870117021095e+00
-8.514999999999999236e-01 1.748530079716426044e-02 1.000095324329312696e+00
-8.514999999999999236e-01 1.699442689184239505e-02 1.000998657906060352e+00
-8.514999999999999236e-01 1.584046115552468006e-02 1.008354263240165416e+00
-8.514999999999999236e-01 1.784871084243507336e-02 1.000304906235687463e+00
-8.514999999999999236e-01 1.764287569058417202e-02 1.000039943688180166e+00
-8.514999999999999236e-01 1.750895739319443742e-02 1.000027092699198761e+00
-8.514999999999999236e-01 1.645465049612428524e-02 1.000958297447267720e+00
-8.514999999999999236e-01 1.559333205965654848e-02 1.000468025710141928e+00
-8.514999999999999236e-01 1.885079630973516412e-02 1.000577575635161365e+00
-8.504999999999998117e-01 1.866598166162889566e-02 1.000315073604546301e+00
-8.504999999999998117e-01 1.797304973263997088e-02 1.000130279076134165e+00
-8.504999999999998117e-01 1.743645790412156130e-02 1.002699391977476484e+00
-8.504999999999998117e-01 1.531829642148062505e-02 1.017382051382011987e+00
-8.504999999999998117e-01 1.760838042881800181e-02 1.003671511732334265e+00
-8.504999999999998117e-01 1.867509831304901488e-02 1.002819506072634148e+00
-8.504999999999998117e-01 1.680895551848217429e-02 1.002658741788260421e+00
-8.504999999999998117e-01 1.828124212571932347e-02 1.000137559297742618e+00
-8.504999999999998117e-01 1.899771426852767120e-02 1.000461616494961348e+00
-8.494999999999999218e-01 1.716939277175178954e-02 1.000154448421295417e+00
-8.494999999999999218e-01 1.815916030543898024e-02 1.000041286824818298e+00
-8.494999999999999218e-01 1.696900573603054088e-02 1.000934600869494595e+00
-8.494999999999999218e-01 1.666350765173339743e-02 1.002118280937695838e+00
-8.494999999999999218e-01 1.583328267601181311e-02 1.000949087142906313e+00
-8.494999999999999218e-01 1.781350485694207716e-02 1.001145965553627448e+00
-8.494999999999999218e-01 1.781733728277676634e-02 1.001295910489725216e+00
-8.494999999999999218e-01 1.841134538963902501e-02 1.000244525142949925e+00
-8.484999999999998099e-01 1.614706928034166655e-02 1.001137377676349249e+00
-8.484999999999998099e-01 1.696176953005885599e-02 1.001133924683615284e+00
-8.484999999999998099e-01 1.721777980100640607e-02 1.000686830207102807e+00
-8.484999999999998099e-01 1.666973131624830545e-02 1.001214361569632505e+00
-8.484999999999998099e-01 1.652771559532250495e-02 1.001399533498601890e+00
-8.484999999999998099e-01 1.824368753924223568e-02 1.000097228125608861e+00
-8.484999999999998099e-01 1.728609039918250004e-02 1.000608273931146375e+00
-8.484999999999998099e-01 1.600395924923298657e-02 1.012959071840149328e+00
-8.484999999999998099e-01 1.780903010763359301e-02 1.000752836886224850e+00
-8.484999999999998099e-01 1.606811366815611916e-02 1.000730636470459123e+00
-8.484999999999998099e-01 1.744034820637058170e-02 1.000543270310181976e+00
-8.474999999999999201e-01 1.570234816437083084e-02 1.001124265446552641e+00
-8.474999999999999201e-01 1.785243363409202630e-02 1.000532635728171416e+00
-8.474999999999999201e-01 1.760846579669021750e-02 1.000518463220974930e+00
-8.474999999999999201e-01 1.675448320180796674e-02 1.001278239647009682e+00
-8.474999999999999201e-01 1.332320865423335630e-02 1.001104134730469886e+00
-8.474999999999999201e-01 1.714542360603146451e-02 1.000285572468152084e+00
-8.474999999999999201e-01 1.653268708654927199e-02 1.003316331515715865e+00
-8.474999999999999201e-01 1.708223553490010108e-02 1.001604673246180965e+00
-8.474999999999999201e-01 1.692667277258474989e-02 1.000418459955791040e+00
-8.474999999999999201e-01 1.672168578474438408e-02 1.000324203573032866e+00
-8.474999999999999201e-01 1.812839937381510724e-02 1.000744719041129382e+00
-8.474999999999999201e-01 1.685412434385670163e-02 1.002565437648796021e+00
-8.464999999999998082e-01 1.738040533088568498e-02 1.007160135058375872e+00
-8.464999999999998082e-01 1.770876453307963783e-02 1.000955367636752635e+00
-8.464999999999998082e-01 1.690325460539344668e-02 1.001356678857146854e+00
-8.464999999999998082e-01 1.601244204203896085e-02 1.005206802859438975e+00
-8.464999999999998082e-01 1.603217031607524073e-02 1.001000235372761615e+00
-8.464999999999998082e-01 1.778829970278865413e-02 1.000010657673941372e+00
-8.464999999999998082e-01 1.749300452805182746e-02 1.000359236132674967e+00
-8.464999999999998082e-01 1.719726883727563244e-02 1.001598405682308623e+00
-8.464999999999998082e-01 1.839492985800918537e-02 1.001313573477879304e+00
-8.464999999999998082e-01 1.641849700220728708e-02 1.001064001188712860e+00
-8.454999999999999183e-01 1.690762249827776342e-02 1.000395067322720433e+00
-8.454999999999999183e-01 1.693815433315290497e-02 1.000108763185411309e+00
-8.454999999999999183e-01 1.743696288743790471e-02 1.003718989666303019e+00
-8.454999999999999183e-01 1.707850742448374995e-02 1.004814971682223002e+00
-8.454999999999999183e-01 1.807590078069350528e-02 1.000331718416654470e+00
-8.454999999999999183e-01 1.651329128203727140e-02 1.009793226999382121e+00
-8.454999999999999183e-01 1.650970555705775014e-02 1.000132638417097874e+00
-8.454999999999999183e-01 1.804223292398135156e-02 1.000553334201947475e+00
-8.454999999999999183e-01 1.798207215047778820e-02 1.003142852710639632e+00
-8.454999999999999183e-01 1.673433998156188818e-02 1.000756050291812249e+00
-8.454999999999999183e-01 1.796906504808916741e-02 1.000761937617726138e+00
-8.454999999999999183e-01 1.677054453391732883e-02 1.003019497593476306e+00
-8.444999999999998064e-01 1.788986656396906669e-02 1.002078097066992024e+00
-8.444999999999998064e-01 1.720358265185029795e-02 1.001050244121648003e+00
-8.444999999999998064e-01 1.469466168422827075e-02 1.010362727044052278e+00
-8.444999999999998064e-01 1.744951380905451765e-02 1.000010450431846332e+00
-8.444999999999998064e-01 1.837755367152502442e-02 1.000782966609315539e+00
-8.444999999999998064e-01 1.891051844976094840e-02 1.000025798202035521e+00
-8.444999999999998064e-01 1.716634605279284548e-02 1.001422327791767319e+00
-8.434999999999999165e-01 1.702852694115047569e-02 1.000224189665213093e+00
-8.434999999999999165e-01 1.707032607614834829e-02 1.000142803757672283e+00
-8.434999999999999165e-01 1.770908543010115896e-02 1.000592285600210296e+00
-8.434999999999999165e-01 1.722634697525771141e-02 1.000197203856416417e+00
-8.434999999999999165e-01 1.575084932138751809e-02 1.001702494169591340e+00
-8.434999999999999165e-01 1.621286056290387537e-02 1.000981247238758032e+00
-8.434999999999999165e-01 1.744944154436442810e-02 1.000573248306575902e+00
-8.434999999999999165e-01 1.766339848401972390e-02 1.000578262111017525e+00
-8.434999999999999165e-01 1.528177949326278880e-02 1.000015315420591300e+00
-8.434999999999999165e-01 1.688096700411761270e-02 1.002513790152708362e+00
-8.434999999999999165e-01 1.681610503785144206e-02 1.006544204684900468e+00
-8.434999999999999165e-01 1.686220340870935031e-02 1.001486368444799879e+00
-8.424999999999998046e-01 1.874669693500600684e-02 1.000220376442984227e+00
-8.424999999999998046e-01 1.654158517767819261e-02 1.002116581657065852e+00
-8.424999999999998046e-01 1.543722020113587161e-02 1.001806864234814798e+00
-8.424999999999998046e-01 1.687712263051330611e-02 1.000290024445845471e+00
-8.424999999999998046e-01 1.699249959615192415e-02 1.000872067717744063e+00
-8.424999999999998046e-01 1.809354507859350231e-02 1.000524333234387386e+00
-8.424999999999998046e-01 1.485620610506291524e-02 1.003808360625637164e+00
-8.424999999999998046e-01 1.787161236157229841e-02 1.001476350510524860e+00
-8.414999999999999147e-01 1.687111703150824885e-02 1.000323216466526777e+00
-8.414999999999999147e-01 1.722095450797391306e-02 1.005485159144380303e+00
-8.414999999999999147e-01 1.842319897072913076e-02 1.002287080692441323e+00
-8.414999999999999147e-01 1.848205487264047847e-02 1.000226828698379977e+00
-8.414999999999999147e-01 1.840764658864608647e-02 1.000230955198557758e+00
-8.414999999999999147e-01 1.739565374693545496e-02 1.004733322214437896e+00
-8.414999999999999147e-01 1.859391774624362392e-02 1.002002851880480216e+00
-8.414999999999999147e-01 1.838735878134172691e-02 1.000701249111454416e+00
-8.414999999999999147e-01 1.672364204613907557e-02 1.003756474991828629e+00
-8.404999999999998028e-01 1.885453026172342200e-02 1.001310889577675667e+00
-8.404999999999998028e-01 1.792472198783969656e-02 1.000285462756199673e+00
-8.404999999999998028e-01 1.738274508474224253e-02 1.001706539647633898e+00
-8.404999999999998028e-01 1.818249801170382721e-02 1.000920223195712166e+00
-8.404999999999998028e-01 1.870912865699116828e-02 1.000418496614333685e+00
-8.404999999999998028e-01 1.836150717071763708e-02 1.000858502347245604e+00
-8.404999999999998028e-01 1.750764560163275627e-02 1.000976030793745863e+00
-8.394999999999999130e-01 1.701743288316818689e-02 1.001496212192172441e+00
-8.394999999999999130e-01 1.777966468722492338e-02 1.000970062753228307e+00
-8.394999999999999130e-01 1.670822858947554335e-02 1.000320654067979431e+00
-8.394999999999999130e-01 1.708702497445039811e-02 1.000449352896720434e+00
-8.394999999999999130e-01 1.840287339016551116e-02 1.001014524538191175e+00
-8.394999999999999130e-01 1.576787298190300210e-02 1.000313375819851025e+00
-8.394999999999999130e-01 1.811016297381957268e-02 1.000512299657265514e+00
-8.384999999999998010e-01 1.712684388228062973e-02 1.000522804599494942e+00
-8.384999999999998010e-01 1.842392075478545971e-02 1.001068106855319995e+00
-8.384999999999998010e-01 1.700660866575345875e-02 1.000239335557376430e+00
-8.384999999999998010e-01 1.601341559636941872e-02 1.026119861239787268e+00
-8.384999999999998010e-01 1.774497952047176738e-02 1.004170408345122167e+00
-8.384999999999998010e-01 1.618436779027092320e-02 1.017886338124569745e+00
-8.384999999999998010e-01 1.701447168453793651e-02 1.000328485897987285e+00
-8.384999999999998010e-01 1.717070511235951891e-02 1.000824179256017299e+00
-8.384999999999998010e-01 1.889355493484647791e-02 1.000203732605166040e+00
-8.384999999999998010e-01 1.754116261523238143e-02 1.003641413116870940e+00
-8.384999999999998010e-01 1.732572618510427875e-02 1.003783267699100090e+00
-8.384999999999998010e-01 1.814383399880072426e-02 1.000966136623795188e+00
-8.374999999999999112e-01 1.783462353909483211e-02 1.001768863647871433e+00
-8.374999999999999112e-01 1.742399036828429920e-02 1.000693907701571517e+00
-8.374999999999999112e-01 1.692126060697987655e-02 1.000181955936087164e+00
-8.374999999999999112e-01 1.683460116790568006e-02 1.002292830728380713e+00
-8.374999999999999112e-01 1.830845816813242780e-02 1.000019325799598402e+00
-8.374999999999999112e-01 1.718911759339828565e-02 1.000696091519357900e+00
-8.374999999999999112e-01 1.725948916093923702e-02 1.001343268650072282e+00
-8.374999999999999112e-01 1.806836168861652644e-02 1.000005234243465990e+00
-8.374999999999999112e-01 1.818219944956676187e-02 1.000135599307541590e+00
-8.374999999999999112e-01 1.581159854782661703e-02 1.002039087342820212e+00
-8.374999999999999112e-01 1.860965065256291531e-02 1.000607573928391947e+00
-8.374999999999999112e-01 1.637440538931666731e-02 1.001499764353064537e+00
-8.364999999999997993e-01 1.723294669258243483e-02 1.002616033935611162e+00
-8.364999999999997993e-01 1.547624253210698984e-02 1.000418856992727479e+00
-8.364999999999997993e-01 1.784700944076988982e-02 1.000883609197373847e+00
-8.364999999999997993e-01 1.612154650845262771e-02 1.000606694864186075e+00
-8.364999999999997993e-01 1.554654366835154719e-02 1.002813820434303782e+00
-8.364999999999997993e-01 1.764168276501094923e-02 1.000041137952818682e+00
-8.364999999999997993e-01 1.700226596349410993e-02 1.001281701998505858e+00
-8.364999999999997993e-01 1.689718796857428776e-02 1.000327662460188893e+00
-8.364999999999997993e-01 1.879815425237900059e-02 1.000010560846886554e+00
-8.364999999999997993e-01 1.567237873740860710e-02 1.008899842023513127e+00
-8.354999999999999094e-01 1.815897096344875478e-02 1.000516156088028019e+00
-8.354999999999999094e-01 1.696978313924116591e-02 1.001132685948397549e+00
-8.354999999999999094e-01 1.550604888980661698e-02 1.001129255349783920e+00
-8.354999999999999094e-01 1.472697976968807138e-02 1.001692979880288048e+00
-8.354999999999999094e-01 1.826922247178388442e-02 1.000035302941313820e+00
-8.354999999999999094e-01 1.676121478566724651e-02 1.002881536868567292e+00
-8.354999999999999094e-01 1.739039584350049114e-02 1.000199410600785210e+00
-8.354999999999999094e-01 1.622068683540898656e-02 1.002219286759202799e+00
-8.354999999999999094e-01 1.812873201190428468e-02 1.000135886823970033e+00
-8.344999999999997975e-01 1.588706942922606460e-02 1.000289150426494134e+00
-8.344999999999997975e-01 1.772721766022947870e-02 1.000240063868654827e+00
-8.344999999999997975e-01 1.749679196767434108e-02 1.002414680022057025e+00
-8.344999999999997975e-01 1.740947833045991544e-02 1.004887154078585976e+00
-8.344999999999997975e-01 1.907261221872805917e-02 1.000090668013293049e+00
-8.344999999999997975e-01 1.883487041534344722e-02 1.000601574612283606e+00
-8.344999999999997975e-01 1.782842785606114991e-02 1.000972590547113628e+00
-8.344999999999997975e-01 1.684108362380649926e-02 1.003678710736207513e+00
-8.344999999999997975e-01 1.699964179291581223e-02 1.000501487883548091e+00
-8.344999999999997975e-01 1.562022883472350201e-02 1.000220191765062605e+00
-8.344999999999997975e-01 1.479623037047981919e-02 1.006836639669767441e+00
-8.344999999999997975e-01 1.719930519264450258e-02 1.003559226379842073e+00
-8.344999999999997975e-01 1.537977687540344196e-02 1.003387179934932316e+00
-8.334999999999999076e-01 1.866828204797140248e-02 1.000069915504530282e+00
-8.334999999999999076e-01 1.851628326065617169e-02 1.000196414352084284e+00
-8.334999999999999076e-01 1.649166161195288194e-02 1.000784795746244127e+00
-8.334999999999999076e-01 1.725639041335396556e-02 1.000673256176017656e+00
-8.334999999999999076e-01 1.876377548803200707e-02 1.000043167875855232e+00
-8.334999999999999076e-01 1.718613915117169280e-02 1.000890207179830238e+00
-8.334999999999999076e-01 1.857930427475416521e-02 1.000754683005651291e+00
-8.324999999999997957e-01 1.402413910458524121e-02 1.005721649191899880e+00
-8.324999999999997957e-01 1.850910898539646909e-02 1.000432486422031975e+00
-8.324999999999997957e-01 1.862239982345818140e-02 1.000223494922126921e+00
-8.324999999999997957e-01 1.586972571023337678e-02 1.000977943855123620e+00
-8.324999999999997957e-01 1.742664840234109044e-02 1.000657777512461655e+00
-8.324999999999997957e-01 1.738753050651971679e-02 1.000464482535327493e+00
-8.324999999999997957e-01 1.563868063420568305e-02 1.000870137956787032e+00
-8.324999999999997957e-01 1.723766350059692531e-02 1.000301416536443888e+00
-8.324999999999997957e-01 1.743688482231792528e-02 1.000054711087901671e+00
-8.314999999999999059e-01 1.721967455968789057e-02 1.004780364030146034e+00
-8.314999999999999059e-01 1.725604474960959825e-02 1.000957990406566411e+00
-8.314999999999999059e-01 1.383789322274699488e-02 1.000205256486098149e+00
-8.314999999999999059e-01 1.655251498461705884e-02 1.001307640693287926e+00
-8.304999999999997939e-01 1.739174103104128635e-02 1.001024147765708028e+00
-8.304999999999997939e-01 1.838029545871580281e-02 1.000359772185979823e+00
-8.304999999999997939e-01 1.566994023689677329e-02 1.004694804774661554e+00
-8.304999999999997939e-01 1.757016584853626426e-02 1.000064440649231834e+00
-8.304999999999997939e-01 1.715413687949471355e-02 1.000093528707720614e+00
-8.304999999999997939e-01 1.698891793460359512e-02 1.001270864961484319e+00
-8.304999999999997939e-01 1.784970675067993132e-02 1.001208036384618083e+00
-8.304999999999997939e-01 1.531239989539810026e-02 1.011368492977386735e+00
-8.304999999999997939e-01 1.810270890866003471e-02 1.001417074741243196e+00
-8.304999999999997939e-01 1.842380756988100041e-02 1.000332427340898889e+00
-8.304999999999997939e-01 1.799551777536172181e-02 1.001828409294511335e+00
-8.304999999999997939e-01 1.657930126413447239e-02 1.000698116720410757e+00
-8.304999999999997939e-01 1.584535961304158608e-02 1.000240198818266535e+00
-8.304999999999997939e-01 1.580867059197600677e-02 1.002264716840107761e+00
-8.304999999999997939e-01 1.580313612599280187e-02 1.001643789599659273e+00
-8.304999999999997939e-01 1.481281812252873385e-02 1.001805120373326474e+00
-8.294999999999999041e-01 1.545820082165300265e-02 1.003773923500227205e+00
-8.294999999999999041e-01 1.807922577696091312e-02 1.010489987045676052e+00
-8.294999999999999041e-01 1.728255275132850599e-02 1.003455043167374328e+00
-8.294999999999999041e-01 1.692458840926033131e-02 1.004705387658012761e+00
-8.294999999999999041e-01 1.577381449484017983e-02 1.000563115853596363e+00
-8.294999999999999041e-01 1.812968613118526653e-02 1.000595655772460457e+00
-8.294999999999999041e-01 1.674838695821267986e-02 1.000297597240093372e+00
-8.294999999999999041e-01 1.723356195510471547e-02 1.000091877176729316e+00
-8.294999999999999041e-01 1.737437298528443641e-02 1.001906959252754303e+00
-8.294999999999999041e-01 1.766745516968414378e-02 1.000961240284983456e+00
-8.294999999999999041e-01 1.531235116360680007e-02 1.000679862137366927e+00
-8.294999999999999041e-01 1.564447345980244861e-02 1.001694182558760859e+00
-8.294999999999999041e-01 1.433543363162541329e-02 1.003506861513605353e+00
-8.284999999999997922e-01 1.710176900239020192e-02 1.002526542779453189e+00
-8.284999999999997922e-01 1.772313507763082288e-02 1.000423209332693686e+00
-8.284999999999997922e-01 1.342797120677873164e-02 1.009330380260786697e+00
-8.284999999999997922e-01 1.258678664012755945e-02 1.008834529887436826e+00
-8.284999999999997922e-01 1.612923359622851771e-02 1.003072728624770482e+00
-8.284999999999997922e-01 1.735120534464746483e-02 1.000004575014086239e+00
-8.284999999999997922e-01 1.840481794507364474e-02 1.000002266684478558e+00
-8.284999999999997922e-01 1.698997888188483532e-02 1.000114365168815356e+00
-8.284999999999997922e-01 1.811554687087634993e-02 1.000197976994048554e+00
-8.284999999999997922e-01 1.581522754258032903e-02 1.001375953127735086e+00
-8.284999999999997922e-01 1.682954330591739794e-02 1.001133177715953559e+00
-8.284999999999997922e-01 1.796915755207163443e-02 1.000347820330764970e+00
-8.284999999999997922e-01 1.746151576275205980e-02 1.001205729864238281e+00
-8.284999999999997922e-01 1.824779703465909467e-02 1.001035158240297873e+00
-8.284999999999997922e-01 1.624036921376034032e-02 1.001704910831655360e+00
-8.274999999999999023e-01 1.697696667751598734e-02 1.000184228278339749e+00
-8.274999999999999023e-01 1.869668275310040415e-02 1.000990350601696166e+00
-8.274999999999999023e-01 1.629556898490863714e-02 1.000015769627383477e+00
-8.274999999999999023e-01 1.601919552483774961e-02 1.000331666280267928e+00
-8.274999999999999023e-01 1.637086504706185969e-02 1.000454599082968299e+00
-8.274999999999999023e-01 1.690210737460546425e-02 1.001228308922310850e+00
-8.274999999999999023e-01 1.697058918783253892e-02 1.000435672556668543e+00
-8.274999999999999023e-01 1.632675155945276929e-02 1.007758434540757531e+00
-8.274999999999999023e-01 1.685200723313030891e-02 1.000065672371821535e+00
-8.274999999999999023e-01 1.669297656243882294e-02 1.001764634588167668e+00
-8.274999999999999023e-01 1.776852569194444995e-02 1.000643017041346727e+00
-8.274999999999999023e-01 1.608845583461667242e-02 1.002474375923304128e+00
-8.264999999999997904e-01 1.705479095637303655e-02 1.000166538898082935e+00
-8.264999999999997904e-01 1.750218196458885184e-02 1.000017504726725681e+00
-8.264999999999997904e-01 1.713318876266427607e-02 1.003417540311141831e+00
-8.264999999999997904e-01 1.563105869515212312e-02 1.000173264506927229e+00
-8.264999999999997904e-01 1.747413578133496376e-02 1.000137887281550730e+00
-8.264999999999997904e-01 1.711021432749894322e-02 1.000408331918601901e+00
-8.264999999999997904e-01 1.754319081155298124e-02 1.000663486192461482e+00
-8.264999999999997904e-01 1.726232359082094381e-02 1.000905900066600962e+00
-8.264999999999997904e-01 1.817952590353888107e-02 1.002065372539650001e+00
-8.264999999999997904e-01 1.695797592445711516e-02 1.000241424549737301e+00
-8.264999999999997904e-01 1.873178210132648777e-02 1.000561537431387871e+00
-8.264999999999997904e-01 1.575034698236714437e-02 1.002612631156640122e+00
-8.264999999999997904e-01 1.762504857655277160e-02 1.000495466880572115e+00
-8.254999999999999005e-01 1.889524042986229224e-02 1.000927675816045026e+00
-8.254999999999999005e-01 1.786228617569912691e-02 1.000069653796157976e+00
-8.254999999999999005e-01 1.922671692906995772e-02 1.000881700364641747e+00
-8.254999999999999005e-01 1.452766780138617549e-02 1.011903184604382888e+00
-8.254999999999999005e-01 1.731440346999587460e-02 1.001250671802474734e+00
-8.254999999999999005e-01 1.741084110750835620e-02 1.000226662106052711e+00
-8.254999999999999005e-01 1.709568039226356737e-02 1.000638693529890100e+00
-8.254999999999999005e-01 1.776089173574009472e-02 1.003333887305726480e+00
-8.254999999999999005e-01 1.856030610185261526e-02 1.000170499728028961e+00
-8.244999999999997886e-01 1.700424995337740733e-02 1.001163454575939804e+00
-8.244999999999997886e-01 1.545956511560263834e-02 1.003660641182575697e+00
-8.244999999999997886e-01 1.813083443395625133e-02 1.000087828602969076e+00
-8.244999999999997886e-01 1.606871763410985463e-02 1.000008936033806917e+00
-8.244999999999997886e-01 1.801435691352290883e-02 1.001203915068898276e+00
-8.244999999999997886e-01 1.686175822953418432e-02 1.000012011484587182e+00
-8.244999999999997886e-01 1.860420026021288725e-02 1.000615011432766321e+00
-8.234999999999998987e-01 1.486013373262677108e-02 1.000665103971043912e+00
-8.234999999999998987e-01 1.717783213500273520e-02 1.000816900951525978e+00
-8.234999999999998987e-01 1.778194633648734133e-02 1.001001357910895395e+00
-8.234999999999998987e-01 1.672810308770338039e-02 1.000110908528004439e+00
-8.234999999999998987e-01 1.746483196202277058e-02 1.000270832038333113e+00
-8.224999999999997868e-01 1.805924144345535942e-02 1.000537288193957375e+00
-8.224999999999997868e-01 1.804844046706337302e-02 1.000340883331094277e+00
-8.224999999999997868e-01 1.618158862231804454e-02 1.000571353632533356e+00
-8.224999999999997868e-01 1.819174683259398156e-02 1.000004453841115026e+00
-8.224999999999997868e-01 1.618853308050631490e-02 1.001466236017243272e+00
-8.224999999999997868e-01 1.822006065142637438e-02 1.000047381099643973e+00
-8.224999999999997868e-01 1.792906077936700163e-02 1.000334122160833727e+00
-8.224999999999997868e-01 1.858668642920218578e-02 1.000041965616242257e+00
-8.224999999999997868e-01 1.717868042838899614e-02 1.008268573182765415e+00
-8.224999999999997868e-01 1.647161534695047377e-02 1.001518832029557826e+00
-8.224999999999997868e-01 1.611140886772549630e-02 1.002249533737447962e+00
-8.224999999999997868e-01 1.534549839741215435e-02 1.005324223198371225e+00
-8.224999999999997868e-01 1.795671247004604343e-02 1.001052696169547396e+00
-8.224999999999997868e-01 1.773009083037324282e-02 1.000685130303228698e+00
-8.224999999999997868e-01 1.620966056714390202e-02 1.000502624096565318e+00
-8.224999999999997868e-01 1.670364618501856899e-02 1.001555504927429618e+00
-8.224999999999997868e-01 1.725708200704308484e-02 1.002464512998354484e+00
-8.224999999999997868e-01 1.743397756255096395e-02 1.000460293248869981e+00
-8.214999999999998970e-01 1.763677950105194472e-02 1.000699682208396668e+00
-8.214999999999998970e-01 1.724868359621994224e-02 1.000112779345343483e+00
-8.214999999999998970e-01 1.602168688877657690e-02 1.007439508916079030e+00
-8.214999999999998970e-01 1.772520888665137309e-02 1.001178056417318274e+00
-8.214999999999998970e-01 1.682661577287736243e-02 1.002041157869334231e+00
-8.214999999999998970e-01 1.577007854286079785e-02 1.000809947170670844e+00
-8.214999999999998970e-01 1.623482220021817829e-02 1.000199651032369630e+00
-8.214999999999998970e-01 1.547747767356800336e-02 1.004200133653326388e+00
-8.214999999999998970e-01 1.646506348446022047e-02 1.001840824495192628e+00
-8.214999999999998970e-01 1.869170772401420114e-02 1.000473311294988621e+00
-8.214999999999998970e-01 1.780876986705223070e-02 1.001020479238210248e+00
-8.204999999999997851e-01 1.678964440693150872e-02 1.002831936988699102e+00
-8.204999999999997851e-01 1.671469683253473670e-02 1.001313451633186080e+00
-8.204999999999997851e-01 1.576274879596962011e-02 1.002117857003423484e+00
-8.204999999999997851e-01 1.723732721002013690e-02 1.000352564678079981e+00
-8.204999999999997851e-01 1.712146363351205181e-02 1.001320732938986824e+00
-8.204999999999997851e-01 1.534786331631221232e-02 1.001324922210679258e+00
-8.204999999999997851e-01 1.833194111527673351e-02 1.000633460313206102e+00
-8.204999999999997851e-01 1.802588018639907086e-02 1.000171821643969006e+00
-8.204999999999997851e-01 1.744621470048225015e-02 1.001085954516162557e+00
-8.194999999999998952e-01 1.749946899168907527e-02 1.000484242957832892e+00
-8.194999999999998952e-01 1.751496069883683865e-02 1.000246013415987845e+00
-8.194999999999998952e-01 1.826035192240965666e-02 1.000238683548676955e+00
-8.194999999999998952e-01 1.692937869947469878e-02 1.001836094423585788e+00
-8.194999999999998952e-01 1.717035555308855932e-02 1.000263196212363148e+00
-8.194999999999998952e-01 1.799785313630040962e-02 1.000090283900746391e+00
