-9.975000000000000533e-01 1.366146668515220118e-02 1.022034035969991983e+00
-9.964999999999999414e-01 1.250428265219172448e-02 1.004592317415097691e+00
-9.964999999999999414e-01 1.063784647498891393e-02 1.134501110668787893e+00
-9.955000000000000515e-01 8.153999077442882285e-03 1.007235560676376984e+00
-9.955000000000000515e-01 1.553036328196612074e-02 1.008421810929227114e+00
-9.944999999999999396e-01 9.713553072745873332e-03 1.058723270277853956e+00
-9.944999999999999396e-01 7.862092600956570310e-03 1.012346313544996601e+00
-9.935000000000000497e-01 1.271176614507059030e-02 1.003366713996277193e+00
-9.935000000000000497e-01 8.887127203365464967e-03 1.127556998249517273e+00
-9.935000000000000497e-01 1.549737100787944820e-02 1.005057033509641151e+00
-9.935000000000000497e-01 1.301505764205309647e-02 1.012799047605707825e+00
-9.924999999999999378e-01 1.258793290056745180e-02 1.001359995354995647e+00
-9.924999999999999378e-01 1.111444851477591186e-02 1.048901293993793615e+00
-9.915000000000000480e-01 5.146562182611050772e-03 1.262489660205413866e+00
-9.915000000000000480e-01 1.073468131919987772e-02 1.010532713321964371e+00
-9.904999999999999361e-01 1.326252876921346635e-02 1.005157279959438155e+00
-9.904999999999999361e-01 1.247489250491772526e-02 1.028166976471871719e+00
-9.904999999999999361e-01 7.011375500478322226e-03 1.259528721759037850e+00
-9.904999999999999361e-01 1.236412613745154279e-02 1.060830614826323348e+00
-9.904999999999999361e-01 1.190469318602523259e-02 1.003239268226538528e+00
-9.895000000000000462e-01 1.763083347656053262e-02 1.002627570187664796e+00
-9.895000000000000462e-01 1.436839961849941880e-02 1.014695940146832065e+00
-9.884999999999999343e-01 1.214950342493889383e-02 1.009101622950746568e+00
-9.884999999999999343e-01 1.311745319806612020e-02 1.039201727665515218e+00
-9.884999999999999343e-01 1.310426683032808390e-02 1.008161207049890207e+00
-9.875000000000000444e-01 1.074884489470638756e-02 1.000633653290921243e+00
-9.875000000000000444e-01 1.401294330822498930e-03 -2.661379537133592876e+00
-9.875000000000000444e-01 1.511533030929724554e-02 1.007601484330441943e+00
-9.875000000000000444e-01 1.941932299641684024e-03 -1.387613038016123568e+01
-9.864999999999999325e-01 1.126345543840379798e-02 1.005032082423984230e+00
-9.864999999999999325e-01 1.249868655352328294e-02 1.047133580898163219e+00
-9.855000000000000426e-01 7.229569636562302795e-03 1.051314902368861715e+00
-9.855000000000000426e-01 9.847193658802416011e-03 1.096004673746996838e+00
-9.855000000000000426e-01 5.369495268743590920e-03 1.164740717496549394e+00
-9.855000000000000426e-01 1.312468533909302848e-02 1.006780893243582220e+00
-9.844999999999999307e-01 1.286368341035680485e-02 1.000120934348679880e+00
-9.844999999999999307e-01 6.770551783870967788e-03 1.008311722798288068e+00
-9.835000000000000409e-01 9.555440220882029795e-03 1.108645745968878549e+00
-9.835000000000000409e-01 1.562244178779265830e-02 1.013945653534986224e+00
-9.835000000000000409e-01 1.155320449947816637e-02 1.008323201532767888e+00
-9.835000000000000409e-01 9.586934862141242158e-03 1.018118315078852198e+00
-9.835000000000000409e-01 1.405273609906118430e-02 1.002275348231977503e+00
-9.835000000000000409e-01 1.080262717973949627e-02 1.004646751779518787e+00
-9.835000000000000409e-01 8.671137066804527824e-03 1.049842786215861024e+00
-9.824999999999999289e-01 1.414525287576974544e-02 1.008429612908140260e+00
-9.824999999999999289e-01 1.120318631426557229e-02 1.001751643999618802e+00
-9.824999999999999289e-01 1.055335989945934728e-02 1.023871961590678392e+00
-9.824999999999999289e-01 6.770951256538578454e-03 1.028660763979389214e+00
-9.815000000000000391e-01 1.476179265899595083e-02 1.005422926461027711e+00
-9.815000000000000391e-01 1.617715852794560788e-02 1.006126080227683461e+00
-9.815000000000000391e-01 3.147566508899926185e-03 1.214026514260041711e+00
-9.815000000000000391e-01 6.645783310085600151e-03 1.095869631230524055e+00
-9.815000000000000391e-01 1.334326382681305136e-02 1.000149832784740012e+00
-9.815000000000000391e-01 8.484316564189823759e-03 1.028796318970526480e+00
-9.815000000000000391e-01 1.538859579010871080e-02 1.002448255398587840e+00
-9.804999999999999272e-01 1.412483179942451532e-02 1.004014457300653085e+00
-9.804999999999999272e-01 1.575234720934422586e-02 1.001436207579962989e+00
-9.804999999999999272e-01 8.455632578626418733e-03 2.963337430077535473e+00
-9.804999999999999272e-01 1.167792170613284573e-02 1.020510550335157918e+00
-9.804999999999999272e-01 1.317319385476412898e-02 1.005317808729196294e+00
-9.804999999999999272e-01 1.059311368504696656e-02 1.054441546442835831e+00
-9.795000000000000373e-01 1.116434800636017903e-02 1.043585653881623054e+00
-9.795000000000000373e-01 8.672544129689015516e-03 1.008572374266843541e+00
-9.795000000000000373e-01 9.990075507540076977e-03 1.016404178041057538e+00
-9.784999999999999254e-01 1.145063592097549966e-02 1.011755350074109883e+00
-9.775000000000000355e-01 1.527084858179365325e-02 1.004484969293545138e+00
-9.775000000000000355e-01 1.563410935703613350e-02 1.001326703389824768e+00
-9.775000000000000355e-01 1.152828559243264731e-02 1.050756544066917320e+00
-9.775000000000000355e-01 1.452457485243793117e-02 1.014520085874385025e+00
-9.775000000000000355e-01 1.443001368552097180e-02 1.021095945617710665e+00
-9.764999999999999236e-01 1.531607320528197320e-02 1.004906183152306287e+00
-9.764999999999999236e-01 1.393597490360159660e-02 1.014191629021762076e+00
-9.764999999999999236e-01 2.321197440381840039e-03 1.388279241062302827e+00
-9.764999999999999236e-01 1.262397847655417384e-02 1.014227598045868373e+00
-9.764999999999999236e-01 9.843866964802359260e-03 1.061661199296319857e+00
-9.755000000000000338e-01 1.006371999644577707e-02 1.000707587335834647e+00
-9.755000000000000338e-01 1.165920030146855649e-02 1.014657113927338816e+00
-9.755000000000000338e-01 1.090622856544808637e-02 1.025920297680620985e+00
-9.755000000000000338e-01 1.115038612273580067e-02 1.015942391821606172e+00
-9.755000000000000338e-01 1.765924358316250942e-02 1.001481544502552001e+00
-9.744999999999999218e-01 1.642465959822810365e-02 1.008701611664793774e+00
-9.744999999999999218e-01 1.337138474513059443e-02 1.009425041638424281e+00
-9.744999999999999218e-01 1.281346465192580858e-02 1.013358528897560396e+00
-9.744999999999999218e-01 6.882244962298877770e-03 1.012439666734564536e+00
-9.744999999999999218e-01 1.247750056344591046e-02 1.008381157498761116e+00
-9.744999999999999218e-01 6.719537808919533173e-03 1.023066281808651112e+00
-9.744999999999999218e-01 1.729150507403056855e-02 1.000126290673549079e+00
-9.735000000000000320e-01 5.750518243194094672e-03 1.261148080159265383e+00
-9.735000000000000320e-01 1.241176884151792489e-02 1.021614049723154727e+00
-9.735000000000000320e-01 1.374568582276433637e-02 1.007818051541125692e+00
-9.735000000000000320e-01 1.349538540294644741e-02 1.000014068037702542e+00
-9.735000000000000320e-01 9.803434397588101090e-03 1.006254347142591765e+00
-9.724999999999999201e-01 1.343879530092511806e-02 1.013719047262711781e+00
-9.724999999999999201e-01 4.490339809652187618e-03 1.054493736928055592e+00
-9.724999999999999201e-01 1.248142730636391320e-02 1.007788386744225217e+00
-9.724999999999999201e-01 1.059140307647642512e-02 1.018033764344596026e+00
-9.724999999999999201e-01 1.410891082432821041e-02 1.010699458486230329e+00
-9.724999999999999201e-01 8.458727431485671064e-03 1.003289125624898581e+00
-9.715000000000000302e-01 1.479127901544200277e-02 1.000293069027542003e+00
-9.715000000000000302e-01 1.208711800483336894e-02 1.060356673993417376e+00
-9.715000000000000302e-01 1.458663184845669994e-02 1.018349381178219160e+00
-9.715000000000000302e-01 9.696369714368087075e-03 1.006945735231784544e+00
-9.715000000000000302e-01 5.360802344023645957e-03 1.004680072991907203e+00
-9.715000000000000302e-01 9.391400569682326754e-03 1.033056362818599139e+00
-9.704999999999999183e-01 1.282419423463495092e-02 1.056002717397072743e+00
-9.704999999999999183e-01 1.385321759840480761e-02 1.000710304957236119e+00
-9.704999999999999183e-01 1.179905398479799521e-02 1.006409897540164744e+00
-9.704999999999999183e-01 1.480309575350332620e-02 1.027701242183513441e+00
-9.704999999999999183e-01 7.104726184825014244e-03 1.016119140731996273e+00
-9.704999999999999183e-01 1.303464523643287597e-02 1.029454369760927968e+00
-9.704999999999999183e-01 1.439496046554543211e-02 1.023745418095910020e+00
-9.704999999999999183e-01 1.503053644168425573e-02 1.008947235254853414e+00
-9.695000000000000284e-01 7.753133239592033439e-03 1.002158350382198027e+00
-9.695000000000000284e-01 1.305638560995896723e-02 1.012917704208265990e+00
-9.695000000000000284e-01 5.111417809961524977e-03 1.037648671817644752e+00
-9.695000000000000284e-01 8.523367342379031819e-03 1.033857330193149737e+00
-9.695000000000000284e-01 1.418990692907830253e-02 1.000375660226622276e+00
-9.695000000000000284e-01 8.256541512020423509e-03 1.014852616704690957e+00
-9.684999999999999165e-01 8.104626869624813323e-03 1.030474496375486826e+00
-9.684999999999999165e-01 9.898886414628492100e-03 1.007114317354628863e+00
-9.684999999999999165e-01 1.548045797221106815e-02 1.006786191652786266e+00
-9.675000000000000266e-01 1.380342263239667591e-02 1.000159979626814577e+00
-9.675000000000000266e-01 1.021413664623629751e-02 1.005729486155047425e+00
-9.675000000000000266e-01 9.225949608790220274e-03 1.018831893163834490e+00
-9.675000000000000266e-01 1.167715285734449715e-02 1.038981000392340981e+00
-9.664999999999999147e-01 1.325140941867895307e-02 1.007476638574912986e+00
-9.664999999999999147e-01 6.729633999470901497e-03 1.023592564311730069e+00
-9.664999999999999147e-01 1.236253033980494638e-02 1.009673753873830515e+00
-9.664999999999999147e-01 1.304260211595701519e-02 1.021878398255147369e+00
-9.664999999999999147e-01 1.535469939077559361e-02 1.000548360741739140e+00
-9.655000000000000249e-01 1.356188946519028445e-02 1.005039330102736495e+00
-9.644999999999999130e-01 1.096234599808897439e-02 1.008036737627771018e+00
-9.644999999999999130e-01 9.687200941258107892e-03 1.027406821601269504e+00
-9.635000000000000231e-01 9.199727791900237650e-03 1.098214209721684487e+00
-9.635000000000000231e-01 7.912153371546267605e-03 1.002807921139337699e+00
-9.635000000000000231e-01 1.890996881136555383e-02 1.003023617205639262e+00
-9.635000000000000231e-01 1.354138888075441353e-02 1.006632432932782040e+00
-9.635000000000000231e-01 1.142100557987398533e-02 1.003901437951190800e+00
-9.635000000000000231e-01 7.596820446633370701e-03 1.009179183167604466e+00
-9.624999999999999112e-01 1.216183099308882319e-02 1.007089891009196991e+00
-9.624999999999999112e-01 1.875348963173813265e-03 2.304170321989163828e+00
-9.624999999999999112e-01 1.389676910638468384e-02 1.002088596297855849e+00
-9.624999999999999112e-01 8.519865974151337451e-03 1.011159640684252681e+00
-9.624999999999999112e-01 8.505016006472089149e-03 1.025246028439198431e+00
-9.624999999999999112e-01 1.422152504614838421e-02 1.000223819285522842e+00
-9.624999999999999112e-01 1.015788765535333669e-02 1.002728349953823539e+00
-9.615000000000000213e-01 9.832664590278540964e-03 1.091227546882766131e+00
-9.615000000000000213e-01 1.132659439448766882e-02 1.012918349622510483e+00
-9.615000000000000213e-01 7.705031400603665030e-03 1.059393242478806840e+00
-9.615000000000000213e-01 1.025671672174440462e-02 1.019144639409145681e+00
-9.615000000000000213e-01 1.363216194635099958e-02 1.004820173507898318e+00
-9.615000000000000213e-01 9.125379947206522721e-03 1.060799646634920324e+00
-9.615000000000000213e-01 1.243075637891772472e-02 1.002286445262628778e+00
-9.615000000000000213e-01 1.161060734113420964e-02 1.002961034539274765e+00
-9.604999999999999094e-01 1.106458594825687758e-02 1.012619139988643058e+00
-9.604999999999999094e-01 8.990228532696918975e-03 1.011141655413316798e+00
-9.604999999999999094e-01 1.224240179819875360e-02 1.011180917415364089e+00
-9.595000000000000195e-01 1.166394623659413460e-02 1.011539199545957723e+00
-9.595000000000000195e-01 1.243124000453388160e-02 1.065063092124584720e+00
-9.595000000000000195e-01 1.336070834167720281e-02 1.016146406258970458e+00
-9.595000000000000195e-01 1.013368708444266873e-02 1.033242758961818497e+00
-9.595000000000000195e-01 7.979914263228747237e-03 1.003139055473686092e+00
-9.584999999999999076e-01 1.582092354861173999e-02 1.006081128047221052e+00
-9.584999999999999076e-01 1.071449812374567281e-02 1.064112494063227388e+00
-9.584999999999999076e-01 8.180742221126385827e-03 1.003137413415777335e+00
-9.584999999999999076e-01 1.234507584954222005e-02 1.034707861770058024e+00
-9.575000000000000178e-01 1.276627018526343103e-02 1.006718702125819709e+00
-9.575000000000000178e-01 1.433615840251965291e-02 1.002492041302898595e+00
-9.575000000000000178e-01 9.210745303953778162e-03 1.013391994030067522e+00
-9.564999999999999059e-01 1.178463118167669132e-02 1.028308595346688392e+00
-9.564999999999999059e-01 8.426047057699405027e-03 1.000805137209237694e+00
-9.564999999999999059e-01 8.480981717873271528e-03 1.022017990939280807e+00
-9.564999999999999059e-01 9.717941951540094020e-03 1.055291306789290839e+00
-9.564999999999999059e-01 9.454929444788625140e-03 1.002904907006572532e+00
-9.564999999999999059e-01 5.126836927749357439e-03 1.110084996319170791e+00
-9.564999999999999059e-01 1.244554611526775025e-02 1.019966552973918139e+00
-9.564999999999999059e-01 9.161052939667005054e-03 1.068000488982196350e+00
-9.564999999999999059e-01 6.480873371769413707e-03 1.025607863527852492e+00
-9.564999999999999059e-01 1.197101032242399617e-02 1.083538455989332405e+00
-9.555000000000000160e-01 1.236966062110783117e-02 1.008543939024015401e+00
-9.555000000000000160e-01 1.326843647042613705e-02 1.022517032168278828e+00
-9.544999999999999041e-01 9.771740805990981535e-03 1.012101142749014526e+00
-9.544999999999999041e-01 9.832613706609887386e-03 1.055240897307670789e+00
-9.544999999999999041e-01 1.500930418744628354e-02 1.009176004359799483e+00
-9.535000000000000142e-01 1.087837433974297822e-02 1.017099282458466369e+00
-9.524999999999999023e-01 1.227975344145038061e-02 1.008491681591372702e+00
-9.524999999999999023e-01 1.047392342879556850e-03 -3.187041886936089696e+00
-9.524999999999999023e-01 1.486712714948634079e-02 1.014749780173756166e+00
-9.524999999999999023e-01 8.426559537646436185e-03 1.085131568852603090e+00
-9.524999999999999023e-01 1.239468282480597761e-02 1.026566993908831105e+00
-9.524999999999999023e-01 1.177319303830507563e-02 1.027105196201897774e+00
-9.515000000000000124e-01 1.408118889186746672e-02 1.018116353982180478e+00
-9.515000000000000124e-01 1.011381578559565099e-02 1.007906003052082333e+00
-9.515000000000000124e-01 1.341449903129215276e-02 1.001745445932160195e+00
-9.504999999999999005e-01 8.984244321565870023e-03 1.011135738138443152e+00
-9.504999999999999005e-01 1.157152487822310505e-02 1.009194907915865302e+00
-9.504999999999999005e-01 1.489574085223408471e-02 1.011768287443273850e+00
-9.504999999999999005e-01 1.062525459537904879e-02 1.033197893705198211e+00
-9.504999999999999005e-01 9.298512946873950871e-03 1.072966271580250375e+00
-9.504999999999999005e-01 7.919301628607542873e-03 1.005479842545684788e+00
-9.504999999999999005e-01 7.171025050621056968e-03 1.002272158757778087e+00
-9.504999999999999005e-01 1.445925400809820217e-02 1.001954127883678991e+00
-9.495000000000000107e-01 9.848398751141372587e-03 1.008127552701829410e+00
-9.495000000000000107e-01 7.856310615319000643e-03 1.049198635297208693e+00
-9.495000000000000107e-01 8.849029158001448306e-03 1.096299947927731333e+00
-9.495000000000000107e-01 1.239130440878645316e-02 1.003152663418419355e+00
-9.495000000000000107e-01 6.551006408685973795e-03 1.008610421786005240e+00
-9.495000000000000107e-01 1.098599054157298888e-02 1.039638461182370355e+00
-9.495000000000000107e-01 9.088174785745714232e-03 1.016884986191140872e+00
-9.495000000000000107e-01 1.203354143718751192e-02 1.003255468582660459e+00
-9.484999999999998987e-01 1.278411547023490438e-03 -3.128852877423071721e+00
-9.484999999999998987e-01 1.171760605497248857e-02 1.019123606683862038e+00
-9.484999999999998987e-01 1.165851891356963800e-02 1.028378800185647091e+00
-9.484999999999998987e-01 9.851174650949019382e-03 1.007283218052148488e+00
-9.484999999999998987e-01 7.970195152700903368e-03 1.022784055585234553e+00
-9.484999999999998987e-01 8.795874207399691572e-03 1.003270272094546556e+00
-9.475000000000000089e-01 1.014242450792932938e-02 1.018345745346618259e+00
-9.475000000000000089e-01 9.339283081340358367e-03 1.026072568689788467e+00
-9.475000000000000089e-01 1.281681946474166715e-02 1.011356316315948023e+00
-9.475000000000000089e-01 1.394856941143175592e-02 1.012808772089099474e+00
-9.464999999999998970e-01 1.408648351823461875e-02 1.000784854345585950e+00
-9.464999999999998970e-01 1.092697322214574059e-02 1.029151342331745989e+00
-9.464999999999998970e-01 9.173717581118245173e-03 1.052109861809626290e+00
-9.464999999999998970e-01 1.301477240994141325e-02 1.004676185537414890e+00
-9.464999999999998970e-01 1.035621708758582490e-02 1.000959521243066419e+00
-9.464999999999998970e-01 9.286314609545888096e-03 1.042384503664306239e+00
-9.455000000000000071e-01 1.059204586197427106e-02 1.044795497525250916e+00
-9.455000000000000071e-01 3.224400947398408952e-03 1.020371139208704481e+00
-9.455000000000000071e-01 9.450541193450954711e-03 1.011992930142033176e+00
-9.455000000000000071e-01 7.655847857122788890e-03 1.034400132209025491e+00
-9.455000000000000071e-01 8.037531296361243374e-03 1.597489164447780885e+00
-9.455000000000000071e-01 8.827060111060783254e-03 1.025285780119814527e+00
-9.455000000000000071e-01 8.210037896085835632e-03 1.104172079909286008e+00
-9.455000000000000071e-01 9.537140021576845719e-03 1.022938930480830066e+00
-9.444999999999998952e-01 7.547155924795858652e-03 1.012349610800388655e+00
-9.444999999999998952e-01 1.287072439185307782e-02 1.019367951831189556e+00
-9.444999999999998952e-01 1.482863705997742275e-02 1.002423781396090785e+00
-9.444999999999998952e-01 1.353622170217009570e-02 1.012901957037504630e+00
-9.444999999999998952e-01 1.442967381778105518e-02 1.007855640652332685e+00
-9.444999999999998952e-01 1.300756876555333313e-02 1.026655544550371557e+00
-9.435000000000000053e-01 6.348066205198290950e-03 2.668780676605349900e+00
-9.435000000000000053e-01 9.999365668968819218e-03 1.047367887003173070e+00
-9.435000000000000053e-01 1.047977454075411236e-02 1.016630666849070330e+00
-9.435000000000000053e-01 1.056718991241675266e-02 1.017004891211646722e+00
-9.435000000000000053e-01 1.573459109144724824e-02 1.000723805027025959e+00
-9.435000000000000053e-01 1.262670229199368797e-02 1.001012583221197572e+00
-9.435000000000000053e-01 1.274566706382652091e-02 1.012236561191572459e+00
-9.435000000000000053e-01 9.494270143103932316e-03 1.000437228625482788e+00
-9.435000000000000053e-01 1.031612050525480308e-02 1.001973075716187767e+00
-9.435000000000000053e-01 6.870913698454284187e-03 1.000951321303684693e+00
-9.435000000000000053e-01 1.121799796260490242e-02 1.004297705883011593e+00
-9.435000000000000053e-01 1.175646839520995759e-02 1.001429033183756756e+00
-9.424999999999998934e-01 1.221659286309931085e-02 1.009640826946992087e+00
-9.424999999999998934e-01 1.618986437328733333e-02 1.001353204644569672e+00
-9.424999999999998934e-01 1.143040924977551352e-02 1.017480043297446235e+00
-9.424999999999998934e-01 1.135200718673082948e-02 1.089489224495873154e+00
-9.424999999999998934e-01 9.514229667030164525e-03 1.051503447243479661e+00
-9.424999999999998934e-01 1.719219644719635967e-02 1.003146588382940907e+00
-9.424999999999998934e-01 1.233777377314400348e-02 1.045822175339476301e+00
-9.424999999999998934e-01 9.151773982468630955e-03 1.043595676910915371e+00
-9.415000000000000036e-01 7.072917883348490455e-03 1.012026122883449730e+00
-9.415000000000000036e-01 1.336306472348769078e-02 1.007145757682815335e+00
-9.415000000000000036e-01 1.326224498191429756e-02 1.087493379184089948e+00
-9.415000000000000036e-01 8.921184388263262224e-03 1.023540933218261229e+00
-9.415000000000000036e-01 1.219664825861455082e-02 1.048796724695157057e+00
-9.415000000000000036e-01 1.054535804605866330e-02 1.020045446861263194e+00
-9.415000000000000036e-01 1.167588331896804096e-02 1.001314666338030124e+00
-9.415000000000000036e-01 7.204447556393311740e-03 1.092504419990408371e+00
-9.404999999999998916e-01 7.769259450932143769e-03 1.005789866801323651e+00
-9.404999999999998916e-01 6.284169405887446089e-03 1.103214814363952856e+00
-9.404999999999998916e-01 9.780506261689829103e-03 1.004272917117763786e+00
-9.404999999999998916e-01 8.884739562121431872e-03 1.008058607533961037e+00
-9.404999999999998916e-01 1.139539770866701378e-02 1.009398702381917090e+00
-9.395000000000000018e-01 1.646847539246145894e-02 1.000295507043420518e+00
-9.395000000000000018e-01 3.338481264693763349e-03 1.011042159763971382e+00
-9.395000000000000018e-01 9.328068025590807374e-03 1.004310510544785595e+00
-9.395000000000000018e-01 1.160150744190470776e-02 1.027151674455463848e+00
-9.395000000000000018e-01 5.061589138039978772e-03 1.088795665146002456e+00
-9.395000000000000018e-01 6.692651388657422200e-03 1.267960769123531284e+00
-9.395000000000000018e-01 7.290857190510815003e-03 1.056138790596970800e+00
-9.395000000000000018e-01 1.647054576160471642e-02 1.005302120461099902e+00
-9.384999999999998899e-01 1.258503950906507581e-02 1.007121929776613189e+00
-9.384999999999998899e-01 1.336567603439346719e-02 1.015288509458202260e+00
-9.384999999999998899e-01 1.317931266734326777e-02 1.006511182312896491e+00
-9.384999999999998899e-01 9.793416010865798813e-03 1.003437046735564664e+00
-9.375000000000000000e-01 1.292726402546973824e-02 1.072211241819446936e+00
-9.375000000000000000e-01 1.263915635093378238e-02 1.025410956000310625e+00
-9.375000000000000000e-01 1.025412935468914856e-02 1.010922058037140969e+00
-9.375000000000000000e-01 9.554715513115831158e-03 1.002726765264216224e+00
-9.375000000000000000e-01 8.237182141729635851e-03 1.066950299892814424e+00
-9.375000000000000000e-01 1.069440472789590741e-03 7.834498306047448679e+00
-9.375000000000000000e-01 5.774216822479569244e-03 1.006452919954441194e+00
-9.375000000000000000e-01 1.650209013800909771e-02 1.007058368992248543e+00
-9.375000000000000000e-01 1.314893996830227008e-02 1.001117260807482312e+00
-9.375000000000000000e-01 7.630745654976731247e-03 1.101385063116722351e+00
-9.375000000000000000e-01 1.228814077750483257e-02 1.015427447164781727e+00
-9.364999999999998881e-01 1.019488332681334902e-02 1.056922959402386786e+00
-9.364999999999998881e-01 9.855235306574672283e-03 1.036470623849430339e+00
-9.364999999999998881e-01 8.142935534463472194e-03 1.099519417038098634e+00
-9.354999999999999982e-01 8.278722867536376581e-03 1.027148526314024313e+00
-9.354999999999999982e-01 9.380392356890905267e-03 1.083104382027996193e+00
-9.354999999999999982e-01 1.143463425577496105e-02 1.004533223283938126e+00
-9.354999999999999982e-01 3.586415732461353638e-03 1.889874218200022105e+00
-9.354999999999999982e-01 9.170282510521602509e-03 1.007140326738175773e+00
-9.354999999999999982e-01 1.097204154951566570e-02 1.037706245092138602e+00
-9.344999999999998863e-01 7.001720832056851709e-03 1.058008545299147229e+00
-9.344999999999998863e-01 9.795182646742348412e-03 1.043617859728159125e+00
-9.344999999999998863e-01 6.314554472102865482e-03 1.025290458643129510e+00
-9.344999999999998863e-01 1.017061320311713965e-02 1.014655512691373218e+00
-9.334999999999999964e-01 1.108520434727560712e-02 1.064757756210015005e+00
-9.334999999999999964e-01 1.123793422676898010e-02 1.010506133055105726e+00
-9.334999999999999964e-01 1.283487541217074451e-02 1.001549231144539087e+00
-9.334999999999999964e-01 9.484002806626272777e-03 1.044616803010126604e+00
-9.334999999999999964e-01 9.131106897280508519e-03 1.037940226406807165e+00
-9.334999999999999964e-01 7.783697341881888263e-03 1.043777213826399430e+00
-9.324999999999998845e-01 1.112107554831933548e-02 1.137450626028553735e+00
-9.324999999999998845e-01 1.468676511805382112e-02 1.000255941647016034e+00
-9.324999999999998845e-01 2.277587579456235786e-03 1.017619061972022898e+00
-9.324999999999998845e-01 1.227718943981295947e-02 1.005444433942081828e+00
-9.324999999999998845e-01 1.126349472175544250e-02 1.005469943234192032e+00
-9.314999999999999947e-01 6.713685811738343695e-03 1.048984723808962238e+00
-9.314999999999999947e-01 7.428794176886382127e-03 1.032707856260690171e+00
-9.314999999999999947e-01 1.032476785646313684e-02 1.006181967747550976e+00
-9.304999999999998828e-01 1.313935187140668516e-02 1.009216453400142877e+00
-9.304999999999998828e-01 1.255501889931166792e-02 1.014329010648141072e+00
-9.304999999999998828e-01 1.230903751204818521e-02 1.025341030158173572e+00
-9.304999999999998828e-01 1.285291544189911227e-02 1.003328352627871789e+00
-9.304999999999998828e-01 6.697226916735941199e-03 1.024197903605337467e+00
-9.304999999999998828e-01 1.215245088953172126e-02 1.006636330307981719e+00
-9.294999999999999929e-01 8.915142625698358608e-03 1.204154769900284583e+00
-9.294999999999999929e-01 1.470113534376152158e-02 1.002587687513134318e+00
-9.294999999999999929e-01 1.606569406547937381e-02 1.004416250363712182e+00
-9.294999999999999929e-01 8.060603876028664058e-03 1.089405512059349768e+00
-9.294999999999999929e-01 1.477157173258155862e-02 1.003044500684532547e+00
-9.284999999999998810e-01 9.542126044886656624e-03 1.031032831883377909e+00
-9.284999999999998810e-01 1.641659123595486103e-02 1.001900966083096645e+00
-9.284999999999998810e-01 6.927256209172872291e-03 1.010074620440160276e+00
-9.284999999999998810e-01 1.454931496385273443e-02 1.004063004123555869e+00
-9.284999999999998810e-01 1.436404846534579394e-02 1.003539896138732512e+00
-9.284999999999998810e-01 1.414045234331367563e-02 1.001780361540838049e+00
-9.284999999999998810e-01 4.148044233785890857e-03 1.042378157352487955e+00
-9.284999999999998810e-01 8.282109347544799535e-03 1.034319548345301598e+00
-9.284999999999998810e-01 8.301458084146015950e-03 1.045817572512003135e+00
-9.284999999999998810e-01 1.299878560350757953e-02 1.049976923224388070e+00
-9.274999999999999911e-01 1.109769177065992284e-02 1.069347147068354431e+00
-9.274999999999999911e-01 1.024413376583498993e-02 1.266932249849987313e+00
-9.274999999999999911e-01 1.181915858027703103e-02 1.085844018177692050e+00
-9.274999999999999911e-01 9.416756972793944441e-03 1.000953501932706047e+00
-9.274999999999999911e-01 5.207959570186821222e-03 1.412238273382183440e+00
-9.274999999999999911e-01 3.840878754396173829e-03 1.139383939247045285e+00
-9.274999999999999911e-01 1.357249700316056837e-02 1.039951739145497100e+00
-9.274999999999999911e-01 1.263744864650744731e-02 1.013834987555543909e+00
-9.274999999999999911e-01 1.176626214397223820e-02 1.040135786381013894e+00
-9.274999999999999911e-01 1.206469962249185485e-02 1.013072040192104950e+00
-9.274999999999999911e-01 1.139308853598061319e-02 1.003120244246219261e+00
-9.274999999999999911e-01 8.899102386974389045e-03 1.099696970391124351e+00
-9.264999999999998792e-01 1.101390200126224975e-02 1.029778813605431553e+00
-9.264999999999998792e-01 4.276125568484695494e-03 1.671677281943644067e+00
-9.264999999999998792e-01 1.259817316142203963e-02 1.003974636574005652e+00
-9.264999999999998792e-01 1.395680441090741894e-02 1.000482251026070468e+00
-9.264999999999998792e-01 1.667515611542347981e-02 1.000042069780706422e+00
-9.264999999999998792e-01 1.321951034310267503e-02 1.001904262075624441e+00
-9.264999999999998792e-01 9.864075822905878782e-03 1.116144996795533917e+00
-9.254999999999999893e-01 1.116589329498589994e-02 1.011710497890859095e+00
-9.254999999999999893e-01 1.209438364257959218e-02 1.022178045406625602e+00
-9.254999999999999893e-01 1.049924447853813753e-02 1.011997883499826667e+00
-9.254999999999999893e-01 1.405107059327091214e-02 1.052417158132748831e+00
-9.254999999999999893e-01 1.149480402041307484e-02 1.009847724011432968e+00
-9.244999999999998774e-01 1.428359107562831784e-02 1.037181171841290883e+00
-9.244999999999998774e-01 1.017866805789177306e-02 1.055272373422608601e+00
-9.244999999999998774e-01 1.251184519309520016e-02 1.024242720098716974e+00
-9.244999999999998774e-01 1.093173496021462160e-02 1.008393307385355486e+00
-9.244999999999998774e-01 1.148054822502479234e-03 4.779862814332637377e+00
-9.234999999999999876e-01 1.113603371255729793e-02 1.007526673575408926e+00
-9.234999999999999876e-01 1.492803831836128116e-02 1.000070661679328898e+00
-9.234999999999999876e-01 2.598177556528507431e-03 1.070503831792523064e+00
-9.234999999999999876e-01 1.178213767555378287e-02 1.012936457373208698e+00
-9.234999999999999876e-01 1.084394438370057251e-02 1.005243401874017506e+00
-9.224999999999998757e-01 1.164910935623073365e-02 1.020835322706896475e+00
-9.224999999999998757e-01 3.628511308000803744e-03 1.137806541234765545e+00
-9.224999999999998757e-01 1.077835769275154419e-02 1.014736475412923999e+00
-9.224999999999998757e-01 7.923455583888929649e-03 1.132986243684517058e+00
-9.214999999999999858e-01 1.012504225016501620e-02 1.006538104429481217e+00
-9.214999999999999858e-01 1.515548751155922774e-02 1.000530607276903572e+00
-9.214999999999999858e-01 1.060306870950511980e-02 1.048481494913771739e+00
-9.214999999999999858e-01 1.023362146649322083e-02 1.006610107118640851e+00
-9.204999999999998739e-01 1.204409970077205058e-02 1.009279300330122142e+00
-9.204999999999998739e-01 1.195455531417005841e-02 1.028568427757996728e+00
-9.204999999999998739e-01 9.143343281546326140e-03 1.073643645784763123e+00
-9.204999999999998739e-01 7.034519575538361255e-03 1.201599688472500649e+00
-9.204999999999998739e-01 8.188144857815621985e-03 1.088575213409814113e+00
-9.204999999999998739e-01 1.441509046004088579e-02 1.017137119544371693e+00
-9.204999999999998739e-01 1.144698346013711676e-02 1.017340794121110781e+00
-9.194999999999999840e-01 1.346375141237470159e-02 1.005041182750406659e+00
-9.194999999999999840e-01 1.329866154452446353e-02 1.000552075461093926e+00
-9.194999999999999840e-01 1.335583810269529333e-02 1.001800388831559196e+00
-9.194999999999999840e-01 1.228228112985728024e-02 1.013908603655546470e+00
-9.184999999999998721e-01 6.260663874820980926e-03 1.025783206311886575e+00
-9.184999999999998721e-01 1.110774476066407959e-02 1.007499115713614168e+00
-9.184999999999998721e-01 1.506976252019797541e-02 1.003244609215428795e+00
-9.184999999999998721e-01 1.125926321097426783e-02 1.021813208519961602e+00
-9.184999999999998721e-01 1.399316700366710041e-02 1.008126231124580441e+00
-9.184999999999998721e-01 1.621956164886308172e-02 1.001440507474413710e+00
-9.184999999999998721e-01 8.419298649407444893e-03 1.022687973740847855e+00
-9.174999999999999822e-01 1.706912206193267334e-02 1.011754425971065796e+00
-9.174999999999999822e-01 1.115987585975657288e-02 1.001736794763361749e+00
-9.174999999999999822e-01 1.245146488492331928e-02 1.016943187676003779e+00
-9.174999999999999822e-01 1.379423912085206948e-02 1.012679301917910113e+00
-9.174999999999999822e-01 1.348829920575253527e-02 1.016297122901812733e+00
-9.174999999999999822e-01 1.250847453413255796e-02 1.001294273284338843e+00
-9.174999999999999822e-01 9.014775807750405670e-03 1.006057131830523366e+00
-9.174999999999999822e-01 5.907354701980414846e-03 1.103138162322243154e+00
-9.174999999999999822e-01 9.125658681148758958e-03 1.000227931825395267e+00
-9.174999999999999822e-01 1.085353015372543875e-02 1.002032247536114307e+00
-9.164999999999998703e-01 4.284086269365256980e-03 1.235559995998594118e+00
-9.164999999999998703e-01 1.488936396042486905e-02 1.011568493451866280e+00
-9.164999999999998703e-01 1.273937433935349965e-02 1.030990945280559457e+00
-9.164999999999998703e-01 1.296116244793497040e-02 1.032372678285302214e+00
-9.164999999999998703e-01 1.101553919790462799e-02 1.002579905549203065e+00
-9.164999999999998703e-01 9.514527015448333638e-03 1.045194923859265046e+00
-9.164999999999998703e-01 7.172363907487562702e-03 1.095822485908614308e+00
-9.164999999999998703e-01 7.511455053671746082e-03 1.057084088650875886e+00
-9.164999999999998703e-01 1.172714928069098529e-02 1.014982654648701077e+00
-9.164999999999998703e-01 1.533247823153001919e-02 1.002660972834904518e+00
-9.164999999999998703e-01 1.137283758240171735e-02 1.005286528333622753e+00
-9.164999999999998703e-01 1.329482376033558691e-02 1.034920043630798814e+00
-9.164999999999998703e-01 1.444553893425799471e-02 1.008938669726773485e+00
-9.164999999999998703e-01 1.199406053585610338e-02 1.003563010507869446e+00
-9.154999999999999805e-01 7.350206966294108718e-03 1.007809987622518388e+00
-9.154999999999999805e-01 1.265406614960727823e-02 1.009187582423537677e+00
-9.154999999999999805e-01 1.242337996819614307e-02 1.003911565150933161e+00
-9.154999999999999805e-01 1.180676710816705444e-02 1.077630683274704237e+00
-9.144999999999998685e-01 1.333334306987779029e-02 1.003222295238400230e+00
-9.144999999999998685e-01 1.076500482986015098e-02 1.008219849224901266e+00
-9.144999999999998685e-01 8.723004868097974929e-03 1.015966636649981103e+00
-9.144999999999998685e-01 1.121294598373226772e-02 1.025247487592273465e+00
-9.144999999999998685e-01 1.460899066994928407e-02 1.001677644124366884e+00
-9.144999999999998685e-01 6.874570967162458614e-03 1.001107332119571147e+00
-9.134999999999999787e-01 9.652025918794739784e-03 1.004029533593169266e+00
-9.134999999999999787e-01 1.263058895009338579e-02 1.008693237278002641e+00
-9.134999999999999787e-01 1.120101872681275590e-02 1.020526348142813955e+00
-9.134999999999999787e-01 3.329005282818411383e-03 1.000279992448289024e+00
-9.134999999999999787e-01 1.242750168708378795e-02 1.001483329146824808e+00
-9.134999999999999787e-01 1.250139860549194688e-02 1.021077159102698140e+00
-9.134999999999999787e-01 1.357722543418279047e-02 1.003747112949370468e+00
-9.134999999999999787e-01 9.662493307621552660e-03 1.040416169842997007e+00
-9.134999999999999787e-01 7.658504447238078175e-03 1.026286512293156594e+00
-9.124999999999998668e-01 1.217886341590481911e-02 1.031371340806597647e+00
-9.124999999999998668e-01 1.276366462765496888e-02 1.083326725868240636e+00
-9.124999999999998668e-01 8.817289585753011055e-03 1.055276029807758142e+00
-9.124999999999998668e-01 1.267267990938515318e-02 1.019517567954402182e+00
-9.124999999999998668e-01 9.323689991998642540e-03 1.114233035105532510e+00
-9.124999999999998668e-01 1.032047664918688511e-02 1.003325518102547775e+00
-9.114999999999999769e-01 6.605516945218195893e-03 1.014975550973425955e+00
-9.114999999999999769e-01 1.841925326763720061e-02 1.004674910980778435e+00
-9.114999999999999769e-01 1.392392420189328579e-02 1.004688541843428151e+00
-9.114999999999999769e-01 1.136914204823838773e-02 1.016844689985087369e+00
-9.114999999999999769e-01 1.470426745066624220e-02 1.001815736301587378e+00
-9.114999999999999769e-01 4.724981988721860954e-03 1.133810424414527285e+00
-9.114999999999999769e-01 1.588775959120584252e-02 1.029339828433267101e+00
-9.114999999999999769e-01 1.036915920919836455e-02 1.025519748735434611e+00
-9.114999999999999769e-01 1.430231886268694755e-02 1.007745455390194556e+00
-9.114999999999999769e-01 1.259952804576980334e-02 1.040596462935158728e+00
-9.114999999999999769e-01 1.843575191848757224e-03 1.335825252790809436e+00
-9.104999999999998650e-01 9.857486962848594630e-03 1.006418846502733722e+00
-9.104999999999998650e-01 1.170663206874350548e-02 1.044298011187285713e+00
-9.104999999999998650e-01 9.616603846439608985e-03 1.026928207598185150e+00
-9.104999999999998650e-01 1.300610962392080398e-02 1.000652919058615309e+00
-9.104999999999998650e-01 1.145901124256461581e-02 1.006436342387995619e+00
-9.104999999999998650e-01 1.303979172772500375e-02 1.001261687313688808e+00
-9.104999999999998650e-01 1.384523957713173180e-02 1.013970203003661252e+00
-9.104999999999998650e-01 7.611909616063557843e-03 1.091189322346173496e+00
-9.104999999999998650e-01 1.131708552380328650e-02 1.017424047705860701e+00
-9.094999999999999751e-01 8.840010442486039705e-03 1.002865318115465199e+00
-9.094999999999999751e-01 1.111509654773399844e-02 1.020295268978896663e+00
-9.094999999999999751e-01 4.873820051511806167e-03 1.050912232204282315e+00
-9.094999999999999751e-01 1.502406715972907057e-02 1.002023025879343221e+00
-9.094999999999999751e-01 9.557224422696514524e-03 1.105353794836749559e+00
-9.084999999999998632e-01 8.927922574043066148e-03 1.000717439372044382e+00
-9.084999999999998632e-01 1.142047895813293537e-02 1.012169962161956871e+00
-9.084999999999998632e-01 1.344827749614609796e-02 1.031551572601497657e+00
-9.084999999999998632e-01 1.258368936571383108e-02 1.001205769511950949e+00
-9.084999999999998632e-01 1.180285451554410024e-02 1.001599436741678284e+00
-9.084999999999998632e-01 1.210007907814091357e-02 1.030412318236761493e+00
-9.084999999999998632e-01 1.252499106716219168e-02 1.024581692271220978e+00
-9.084999999999998632e-01 1.351367680460168093e-02 1.002566198359251093e+00
-9.084999999999998632e-01 1.094861578658149273e-02 1.003741235508908591e+00
-9.074999999999999734e-01 5.756669045119330863e-03 1.069212105470703777e+00
-9.074999999999999734e-01 1.310036632255983866e-02 1.014707916620577022e+00
-9.074999999999999734e-01 8.919525220395034884e-03 1.029115902045748543e+00
-9.074999999999999734e-01 7.539453830051535965e-03 1.010371178927597313e+00
-9.074999999999999734e-01 8.623809460802543334e-03 1.014231774426714860e+00
-9.074999999999999734e-01 1.412633599676749174e-02 1.000088524389740385e+00
-9.074999999999999734e-01 6.308709289324125440e-03 1.118066133455400069e+00
-9.074999999999999734e-01 1.051262961255760957e-02 1.045827266653708731e+00
-9.074999999999999734e-01 1.286478803346840193e-02 1.012251112066772762e+00
-9.074999999999999734e-01 1.522021631437521852e-02 1.010177951624547710e+00
-9.074999999999999734e-01 1.214755293073485447e-02 1.025502942787589467e+00
-9.064999999999998614e-01 1.118696422862620020e-02 1.033314910409558918e+00
-9.064999999999998614e-01 1.179699860218403132e-02 1.015625835535078014e+00
-9.064999999999998614e-01 5.915212574414153816e-03 1.090016262551412041e+00
-9.064999999999998614e-01 8.908501874377108137e-03 1.025819698611988073e+00
-9.064999999999998614e-01 1.142278165008167416e-02 1.012189978124153900e+00
-9.064999999999998614e-01 1.085567995975154042e-02 1.003602155940889640e+00
-9.064999999999998614e-01 9.080405037845323823e-03 1.023811498971251677e+00
-9.064999999999998614e-01 6.269002850495186512e-03 1.084550692080271661e+00
-9.064999999999998614e-01 9.709292473059077597e-03 1.008088887927183430e+00
-9.064999999999998614e-01 8.883363093378322459e-03 1.000345458004914034e+00
-9.064999999999998614e-01 9.552484408175678995e-03 1.002112004355999231e+00
-9.054999999999999716e-01 1.212215185727210341e-02 1.015180005145815523e+00
-9.054999999999999716e-01 1.305642805840764344e-02 1.005835524060383790e+00
-9.054999999999999716e-01 1.112552449707272665e-03 1.421464137414054862e+00
-9.054999999999999716e-01 1.003450086849919098e-02 1.051960075978641163e+00
-9.054999999999999716e-01 1.081724126981719290e-02 1.023986500875080363e+00
-9.054999999999999716e-01 8.780898190308533344e-03 1.001063161304997839e+00
-9.054999999999999716e-01 1.309030331656727345e-02 1.002132123699560617e+00
-9.054999999999999716e-01 9.137138173249766473e-03 1.080163495542418195e+00
-9.054999999999999716e-01 1.119317597253710085e-02 1.018507733220602063e+00
-9.044999999999998597e-01 1.358145500056508539e-02 1.000838663330289258e+00
-9.044999999999998597e-01 1.446222628099156152e-02 1.000409276075593601e+00
-9.044999999999998597e-01 1.026011693749460246e-02 1.034793529893177633e+00
-9.044999999999998597e-01 1.262551859333360844e-02 1.004836936306977124e+00
-9.034999999999999698e-01 4.911829155447039290e-03 1.415391624131599579e+00
-9.034999999999999698e-01 8.968189336434007064e-03 1.205094597442085469e+00
-9.034999999999999698e-01 1.350518571497264821e-02 1.043581282264413046e+00
-9.034999999999999698e-01 2.616808104238473737e-03 3.235828482104497361e+00
-9.034999999999999698e-01 1.015617649657921985e-02 1.002264009427975999e+00
-9.034999999999999698e-01 1.638459622317619754e-02 1.003001744761778280e+00
-9.034999999999999698e-01 9.886354642606441992e-03 1.041423329331991887e+00
-9.034999999999999698e-01 1.190832044825863682e-02 1.020815094942595813e+00
-9.034999999999999698e-01 1.646062540180626144e-02 1.001625566203982798e+00
-9.024999999999998579e-01 8.595660302371634434e-03 1.022707015546785669e+00
-9.024999999999998579e-01 1.364080702130491748e-02 1.020593019977794613e+00
-9.024999999999998579e-01 5.851364874965604701e-03 1.127190897432075234e+00
-9.024999999999998579e-01 9.516355211927708668e-03 1.024868311475020999e+00
-9.014999999999999680e-01 1.106814282565414358e-02 1.019544015865745612e+00
-9.014999999999999680e-01 9.069207587066753853e-03 1.038504863807010459e+00
-9.014999999999999680e-01 8.710478867230017630e-03 1.030432195686146191e+00
-9.014999999999999680e-01 1.081194414009809847e-02 1.010268157216527962e+00
-9.014999999999999680e-01 7.956084350308674849e-03 1.096417594386448924e+00
-9.014999999999999680e-01 1.423328250046201199e-02 1.004289442146309552e+00
-9.014999999999999680e-01 1.232171044280176014e-02 1.002944339542246155e+00
-9.014999999999999680e-01 1.656240771115894891e-02 1.004506986273975500e+00
-9.014999999999999680e-01 7.124477399372996199e-03 1.054645483970241715e+00
-9.014999999999999680e-01 1.420172524253823440e-02 1.021752066471904863e+00
-9.014999999999999680e-01 7.747251171586912351e-03 1.051045866747582380e+00
-9.014999999999999680e-01 6.853629103719972686e-03 1.030702105887958409e+00
-9.004999999999998561e-01 5.746332917099905395e-03 1.064497285557556960e+00
-9.004999999999998561e-01 1.062349981207479956e-02 1.011136896147728725e+00
-9.004999999999998561e-01 1.434287373601385480e-02 1.000212470930672337e+00
-9.004999999999998561e-01 1.174499578135383346e-02 1.000919876749310378e+00
-9.004999999999998561e-01 1.502981159238920249e-02 1.000294516624700814e+00
-9.004999999999998561e-01 1.194151755066267910e-02 1.127781855266781763e+00
-9.004999999999998561e-01 1.016417319530774424e-02 1.050754812604596466e+00
-9.004999999999998561e-01 1.281070816381859288e-02 1.004503793909342191e+00
-9.004999999999998561e-01 5.610758819478283387e-03 1.041445630240930287e+00
-9.004999999999998561e-01 1.288798899908462879e-02 1.006005569821603274e+00
-9.004999999999998561e-01 1.287274476282238879e-02 1.060778095345137562e+00
-9.004999999999998561e-01 1.124176592209873496e-02 1.000847090080468460e+00
-9.004999999999998561e-01 6.414024980216114814e-03 1.003653281433662503e+00
-9.004999999999998561e-01 1.231751092197050541e-02 1.000966138769912472e+00
-9.004999999999998561e-01 1.615765448107016333e-02 1.007506433532479928e+00
-9.004999999999998561e-01 6.253929515786523820e-03 1.144750063687782760e+00
-8.994999999999999662e-01 1.220483296690519012e-02 1.018353511474700213e+00
-8.994999999999999662e-01 1.091633841409014871e-02 1.025786118670003466e+00
-8.994999999999999662e-01 1.124120295388582672e-02 1.057844472010431858e+00
-8.994999999999999662e-01 1.464111778743056209e-02 1.002250428829547513e+00
-8.994999999999999662e-01 1.331444784164534031e-02 1.019918355341237426e+00
-8.994999999999999662e-01 1.066095042073109816e-02 1.000389725827939502e+00
-8.994999999999999662e-01 7.282547576945474360e-03 1.076414680613444919e+00
-8.994999999999999662e-01 9.446620289612942326e-03 1.002694700603588451e+00
-8.994999999999999662e-01 9.594087354214939772e-03 1.032701859706678382e+00
-8.984999999999998543e-01 1.229951568140569100e-02 1.018816394898883981e+00
-8.984999999999998543e-01 1.143657955412666523e-02 1.003465010248157485e+00
-8.984999999999998543e-01 4.449626184276300744e-03 1.002035722414736263e+00
-8.984999999999998543e-01 1.518540071584207306e-02 1.011537001593363128e+00
-8.984999999999998543e-01 8.616163520481100527e-03 1.023791955107427709e+00
-8.984999999999998543e-01 8.498252581850624515e-03 1.184137155563693256e+00
-8.984999999999998543e-01 7.806292059227435721e-03 1.070485100499892761e+00
-8.984999999999998543e-01 1.188984791584366332e-02 1.014872858613950379e+00
-8.974999999999999645e-01 1.055478168200510436e-02 1.038742279854710571e+00
-8.974999999999999645e-01 6.414129472860841813e-03 1.013254686990773701e+00
-8.974999999999999645e-01 8.120607846079494832e-03 1.074409200155506339e+00
-8.974999999999999645e-01 1.395526803098401034e-02 1.012917213064977728e+00
-8.974999999999999645e-01 1.431388914749508710e-02 1.018162029827418769e+00
-8.964999999999998526e-01 1.373114268879413284e-02 1.005243478801100432e+00
-8.964999999999998526e-01 1.106225007648309680e-02 1.024372740183815411e+00
-8.964999999999998526e-01 1.158279368297797547e-02 1.030296709500212682e+00
-8.964999999999998526e-01 1.250275802897482871e-02 1.013774178790439739e+00
-8.964999999999998526e-01 7.398297194988276253e-03 1.009070786327727731e+00
-8.964999999999998526e-01 9.686931475720960208e-03 1.002253701865779334e+00
-8.964999999999998526e-01 9.336890070238686862e-03 1.007869368723808723e+00
-8.964999999999998526e-01 8.922258674231887954e-03 1.135761600967242435e+00
-8.964999999999998526e-01 1.640640451353287191e-02 1.000498299713436401e+00
-8.954999999999999627e-01 1.218702275672021648e-02 1.003395188789872661e+00
-8.954999999999999627e-01 1.195850037705066711e-02 1.030869977389356595e+00
-8.954999999999999627e-01 1.469520890440763686e-02 1.017994951832925876e+00
-8.954999999999999627e-01 1.444871490327168627e-02 1.005635372889692292e+00
-8.954999999999999627e-01 9.628890457420989299e-03 1.022452288610779414e+00
-8.954999999999999627e-01 1.032433104606612743e-02 1.006450671959192800e+00
-8.954999999999999627e-01 1.361538871920818343e-02 1.002068268505676318e+00
-8.954999999999999627e-01 1.258727064911027531e-02 1.012423293643241351e+00
-8.954999999999999627e-01 1.603180125732412906e-02 1.001980591954990452e+00
-8.954999999999999627e-01 7.704274679399636915e-03 1.012919258128742506e+00
-8.944999999999998508e-01 9.775327251358567962e-03 1.009047523929382573e+00
-8.944999999999998508e-01 9.602711803597086329e-03 1.105634800651123850e+00
-8.944999999999998508e-01 7.992922279632462546e-03 1.045005031098975357e+00
-8.944999999999998508e-01 1.532772150688773566e-02 1.014450340985971311e+00
-8.944999999999998508e-01 1.129660435809789858e-02 1.001589151615216444e+00
-8.944999999999998508e-01 8.656788264500841698e-03 1.057608041638546492e+00
-8.944999999999998508e-01 8.993567891818911308e-03 1.059431651595976964e+00
-8.944999999999998508e-01 1.422974677793964991e-02 1.005348371931087614e+00
-8.944999999999998508e-01 5.661676781259923977e-03 1.002955392430780135e+00
-8.944999999999998508e-01 7.024728689638719444e-03 1.004203203326411220e+00
-8.944999999999998508e-01 1.287055043648773107e-02 1.021797261225956488e+00
-8.934999999999999609e-01 1.217887252206640257e-02 1.002899028931953040e+00
-8.934999999999999609e-01 1.113827200625466460e-02 1.015106758143788035e+00
-8.934999999999999609e-01 1.199012933106804882e-03 2.198773492746172842e+00
-8.934999999999999609e-01 1.093489073585989131e-02 1.022063275613500632e+00
-8.934999999999999609e-01 1.274286130772548341e-02 1.000116862358264358e+00
-8.934999999999999609e-01 1.212041539542546391e-02 1.010947009520233530e+00
-8.934999999999999609e-01 1.079844027175574581e-02 1.000640529863559669e+00
-8.934999999999999609e-01 1.622400638066298292e-02 1.010139588925590859e+00
-8.924999999999998490e-01 1.672569715095133767e-03 1.028166662909780982e+00
-8.924999999999998490e-01 1.076900004647562102e-02 1.053335593301579554e+00
-8.924999999999998490e-01 1.232111523232281951e-02 1.001307548943622949e+00
-8.924999999999998490e-01 1.398383868952987087e-02 1.000684264565204540e+00
-8.924999999999998490e-01 1.439212936637206119e-02 1.012457901063665622e+00
-8.924999999999998490e-01 1.262243508577045627e-02 1.000503640568293440e+00
-8.924999999999998490e-01 9.928417514958287962e-03 1.086136052352862924e+00
-8.924999999999998490e-01 1.189413560415206704e-02 1.005980733554722839e+00
-8.924999999999998490e-01 1.065382620031527991e-02 1.064378155696607875e+00
-8.924999999999998490e-01 1.319911484849238016e-02 1.010461813848568147e+00
-8.914999999999999591e-01 1.390955328754304998e-02 1.010363352567865469e+00
-8.914999999999999591e-01 1.253708540840769992e-02 1.005152650559659744e+00
-8.914999999999999591e-01 1.429162374331226400e-02 1.004055344955899320e+00
-8.914999999999999591e-01 1.255097028449107810e-02 1.009821378113800572e+00
-8.914999999999999591e-01 6.914821814414385572e-03 1.157015304907804021e+00
-8.914999999999999591e-01 7.752605481512794133e-03 1.022777708962938403e+00
-8.914999999999999591e-01 1.324360237592294397e-02 1.015362217138768397e+00
-8.904999999999998472e-01 8.306158853203800263e-03 1.017319668802390220e+00
-8.904999999999998472e-01 6.212576454106375802e-03 1.013233081899566512e+00
-8.904999999999998472e-01 1.230977398925336627e-02 1.050548992550165872e+00
-8.904999999999998472e-01 1.000547220096799014e-02 1.054426734915623554e+00
-8.904999999999998472e-01 6.677676404792718019e-03 1.098723889396352460e+00
-8.904999999999998472e-01 1.188337768964936071e-02 1.020230157888140976e+00
-8.904999999999998472e-01 3.939548372929139140e-03 1.000127095579282477e+00
-8.904999999999998472e-01 6.964096949698642125e-03 1.060229487983399110e+00
-8.904999999999998472e-01 1.685038935145136141e-02 1.030033167760944224e+00
-8.904999999999998472e-01 1.156856726168567322e-02 1.014018887870943297e+00
-8.904999999999998472e-01 1.565773184689938508e-02 1.011540444474484213e+00
-8.904999999999998472e-01 6.895894200540318361e-03 1.013746166374867919e+00
-8.904999999999998472e-01 9.761158723827339026e-03 1.118201511452526331e+00
-8.894999999999999574e-01 8.115923100831482634e-03 1.009792822991846695e+00
-8.894999999999999574e-01 1.370072803696060874e-02 1.002956632944748350e+00
-8.894999999999999574e-01 8.882858790547985134e-03 1.094187244631990241e+00
-8.894999999999999574e-01 9.589563905539489480e-03 1.027353053356324430e+00
-8.894999999999999574e-01 1.130381828868208538e-02 1.013482891711323663e+00
-8.894999999999999574e-01 1.202220125515836464e-02 1.000253373143676017e+00
-8.894999999999999574e-01 1.440084339839407292e-02 1.021611672273119664e+00
-8.894999999999999574e-01 8.430001903371581867e-03 1.088132067535493741e+00
-8.894999999999999574e-01 7.965880695350069027e-03 1.009373951552208659e+00
-8.894999999999999574e-01 1.166293556293075163e-02 1.004808492232790451e+00
-8.894999999999999574e-01 1.052418611768389696e-02 1.052057740992622392e+00
-8.894999999999999574e-01 1.437912449613541754e-02 1.002928700318163280e+00
-8.884999999999998455e-01 1.283053720302631748e-02 1.024617716042427018e+00
-8.884999999999998455e-01 4.221781188879454583e-03 1.171485695609962852e+00
-8.884999999999998455e-01 1.363196325453356825e-02 1.014083774452190223e+00
-8.884999999999998455e-01 1.333892989156549441e-02 1.015764976603239278e+00
-8.884999999999998455e-01 1.706431116164678838e-02 1.002632465692828490e+00
-8.884999999999998455e-01 1.424669174626069096e-02 1.001446327607105502e+00
-8.884999999999998455e-01 1.001539420081624769e-02 1.000202911407924056e+00
-8.884999999999998455e-01 1.122754541514805159e-02 1.015968412957229727e+00
-8.874999999999999556e-01 6.520968701240746276e-03 1.018341301637746943e+00
-8.874999999999999556e-01 1.190883365672462668e-02 1.020147661359930735e+00
-8.874999999999999556e-01 7.816160978557114627e-03 1.143894567100105952e+00
-8.874999999999999556e-01 1.125892550848338856e-02 1.000087188372004166e+00
-8.874999999999999556e-01 1.198653417406314071e-02 1.012967499343043754e+00
-8.874999999999999556e-01 7.951190975179645709e-03 1.060893181682792674e+00
-8.874999999999999556e-01 1.281821418499483681e-02 1.013948450626462439e+00
-8.874999999999999556e-01 1.257843541689086103e-02 1.032207253314638251e+00
-8.874999999999999556e-01 1.307472468032174102e-02 1.012788905646752724e+00
-8.864999999999998437e-01 1.515830639541672353e-02 1.008808027165103649e+00
-8.864999999999998437e-01 6.592503121810536909e-03 1.036274492732554009e+00
-8.864999999999998437e-01 1.279815734887087587e-02 1.011163048828072952e+00
-8.864999999999998437e-01 1.557878765535258489e-02 1.001364445052393748e+00
-8.864999999999998437e-01 9.930351619302332095e-03 1.001649358546680357e+00
-8.864999999999998437e-01 1.112337211148417375e-02 1.009234069592143124e+00
-8.864999999999998437e-01 8.192299025663922485e-03 1.018703368118275110e+00
-8.864999999999998437e-01 1.076411162149097482e-02 1.007039302633757849e+00
-8.864999999999998437e-01 1.037538986978573524e-02 1.024490689957771705e+00
-8.864999999999998437e-01 8.356321011257727277e-03 1.037757355886121946e+00
-8.864999999999998437e-01 8.778673419073864878e-03 1.130740971110062443e+00
-8.864999999999998437e-01 1.557622001852706876e-02 1.000943535504886794e+00
-8.864999999999998437e-01 8.748322136400239410e-03 1.000908102523298870e+00
-8.854999999999999538e-01 1.025269251506434783e-02 1.017215088347755758e+00
-8.854999999999999538e-01 1.100823347732070648e-02 1.012966232462978455e+00
-8.854999999999999538e-01 6.490140800588476734e-03 1.003368998363381115e+00
-8.854999999999999538e-01 1.215923203976317785e-02 1.041801861292372733e+00
-8.854999999999999538e-01 1.065068310711492564e-02 1.050580843814026721e+00
-8.854999999999999538e-01 7.455038965513223828e-03 1.055907790952789416e+00
-8.854999999999999538e-01 1.122545586488067626e-02 1.021178151464914086e+00
-8.854999999999999538e-01 1.562213589691229670e-02 1.008903296262614546e+00
-8.854999999999999538e-01 8.617763917271755586e-03 1.017502026958733596e+00
-8.854999999999999538e-01 5.976756447240218553e-03 1.009326577198105257e+00
-8.854999999999999538e-01 8.687145908996676824e-03 1.011044655410209936e+00
-8.844999999999998419e-01 1.674627655725403549e-02 1.012110462516216502e+00
-8.844999999999998419e-01 1.032239239940313004e-02 1.027281480840114281e+00
-8.844999999999998419e-01 1.247630508910351800e-02 1.013997173147100028e+00
-8.844999999999998419e-01 1.298425201352003747e-02 1.014226994334849641e+00
-8.844999999999998419e-01 1.135357243743781962e-02 1.045644472840367101e+00
-8.844999999999998419e-01 1.412022492388238792e-02 1.002857065637713374e+00
-8.844999999999998419e-01 9.297349277063493567e-03 1.047975742491715989e+00
-8.844999999999998419e-01 1.319899941168046521e-02 1.002776031486859010e+00
-8.844999999999998419e-01 7.103198843345958843e-03 1.060886020557156417e+00
-8.844999999999998419e-01 1.029164377857630375e-02 1.031621166389869337e+00
-8.844999999999998419e-01 1.272411083754511341e-02 1.028560768041625106e+00
-8.844999999999998419e-01 7.768538656650544015e-03 1.038252933781820708e+00
-8.844999999999998419e-01 7.525879192173072670e-03 1.010196555263102702e+00
-8.834999999999999520e-01 6.869841603436292049e-03 1.107006256997594695e+00
-8.834999999999999520e-01 1.074087574048785375e-02 1.070248044262334108e+00
-8.834999999999999520e-01 1.552788241745780597e-02 1.001361125029182064e+00
-8.834999999999999520e-01 8.720329653635982767e-03 1.048368819627628845e+00
-8.834999999999999520e-01 7.141502199049973645e-03 1.092302582123991339e+00
-8.834999999999999520e-01 6.423226645666274548e-03 1.097342010890808961e+00
-8.834999999999999520e-01 1.022014936117447356e-02 1.001752231511465974e+00
-8.824999999999998401e-01 1.277258081180153090e-02 1.000393527426643114e+00
-8.824999999999998401e-01 1.160193039097254068e-02 1.002888018661761693e+00
-8.824999999999998401e-01 1.059421016077852218e-02 1.014471319965357221e+00
-8.824999999999998401e-01 1.429475996165823805e-02 1.004628610076553574e+00
-8.824999999999998401e-01 9.252604983008509004e-03 1.013715046388490526e+00
-8.824999999999998401e-01 5.197986949057216421e-03 1.049771570031531986e+00
-8.814999999999999503e-01 6.401562280061483950e-03 1.078285042183686926e+00
-8.814999999999999503e-01 1.093293604182963251e-02 1.006391270157950046e+00
-8.814999999999999503e-01 1.094689734640840080e-02 1.073374641102091909e+00
-8.814999999999999503e-01 1.341778268233608656e-02 1.015779341184264606e+00
-8.814999999999999503e-01 1.616771887819144424e-02 1.019116596553247156e+00
-8.814999999999999503e-01 1.265295501671089527e-02 1.009137275715277449e+00
-8.814999999999999503e-01 1.141715042229264968e-02 1.038893335273033625e+00
-8.814999999999999503e-01 8.737254569110715005e-03 1.013848906243255632e+00
-8.814999999999999503e-01 1.216181047844680160e-02 1.004670412149467396e+00
-8.804999999999998384e-01 1.293631746728245505e-02 1.008407750298229155e+00
-8.804999999999998384e-01 1.121875800862610385e-02 1.021063180263866776e+00
-8.804999999999998384e-01 1.104460566317954501e-02 1.005200199952690054e+00
-8.804999999999998384e-01 3.454932378845497476e-03 1.024979286584802640e+00
-8.804999999999998384e-01 1.364761613487327704e-02 1.019743652399170974e+00
-8.804999999999998384e-01 1.305255886875284974e-02 1.008038526899479370e+00
-8.804999999999998384e-01 1.030345654238846824e-02 1.068133602203409360e+00
-8.804999999999998384e-01 9.685328643230092446e-03 1.000873417539320576e+00
-8.804999999999998384e-01 5.761490073540126433e-03 1.020456150941140283e+00
-8.804999999999998384e-01 8.122588662084774189e-03 1.051745657295066083e+00
-8.804999999999998384e-01 1.045343267301574071e-02 1.015555976828137474e+00
-8.794999999999999485e-01 1.433439595580088960e-02 1.001116232882413026e+00
-8.794999999999999485e-01 7.908479014515600036e-03 1.016020549765216163e+00
-8.794999999999999485e-01 7.569850453760044659e-03 1.015496499571451272e+00
-8.794999999999999485e-01 7.781484918741354666e-03 1.109095433695975297e+00
-8.784999999999998366e-01 7.963480320425384354e-03 1.040782825274480849e+00
-8.784999999999998366e-01 1.170441870040654989e-02 1.065119845725034153e+00
-8.784999999999998366e-01 8.914246429742795838e-03 1.066897006745168852e+00
-8.784999999999998366e-01 8.541464631475060090e-03 1.035505703073499539e+00
-8.784999999999998366e-01 1.266033491326234300e-02 1.006841569825976057e+00
-8.784999999999998366e-01 1.064667250001197045e-02 1.083017265753510872e+00
-8.774999999999999467e-01 1.239297587060500354e-02 1.004522386389930855e+00
-8.774999999999999467e-01 1.460679534823972753e-02 1.020871075609683709e+00
-8.774999999999999467e-01 1.510454174637822569e-02 1.000755922784787755e+00
-8.774999999999999467e-01 7.864011458343719493e-03 1.022723764860018036e+00
-8.774999999999999467e-01 9.923664350672711798e-03 1.024414457923304322e+00
-8.774999999999999467e-01 1.058099885815705007e-02 1.024155270354512925e+00
-8.774999999999999467e-01 1.209430506449908974e-02 1.011193762466843449e+00
-8.764999999999998348e-01 5.496446965394630006e-03 1.032581436345688219e+00
-8.764999999999998348e-01 1.450779877030331129e-02 1.000286731721888867e+00
-8.764999999999998348e-01 1.226667747420948432e-02 1.059409662945103969e+00
-8.764999999999998348e-01 8.572002236541940989e-03 1.050843453877572831e+00
-8.764999999999998348e-01 1.158112767772471324e-02 1.019268281842286239e+00
-8.764999999999998348e-01 5.140903400409062296e-03 1.066617366656159138e+00
-8.764999999999998348e-01 1.066177885028571359e-02 1.026795631780341500e+00
-8.764999999999998348e-01 1.520272767731103460e-02 1.003037115062179296e+00
-8.764999999999998348e-01 1.385864341572990745e-02 1.004755685719025404e+00
-8.764999999999998348e-01 8.842709207527903528e-03 1.002290532205183604e+00
-8.764999999999998348e-01 1.069678859629035958e-02 1.014000212264379863e+00
-8.764999999999998348e-01 8.435412006408293806e-03 1.123583623703594103e+00
-8.764999999999998348e-01 8.764819213301109496e-03 1.036513725715271006e+00
-8.764999999999998348e-01 1.339422637585919486e-02 1.139619782423567207e+00
-8.764999999999998348e-01 1.019346835952643360e-02 1.045613859769535692e+00
-8.764999999999998348e-01 4.604147454837027691e-03 1.144412245130260963e+00
-8.764999999999998348e-01 6.601365340335613521e-03 1.115673506478489729e+00
-8.764999999999998348e-01 9.558123082666156872e-03 1.022654607730725917e+00
-8.754999999999999449e-01 6.559442837983555340e-03 1.070890676090942906e+00
-8.754999999999999449e-01 1.116859400388622164e-02 1.079062719593692155e+00
-8.754999999999999449e-01 9.869075925619320497e-03 1.059010424692468977e+00
-8.754999999999999449e-01 1.372033414993303717e-02 1.006284608281934334e+00
-8.754999999999999449e-01 1.063540015300238131e-02 1.045042769649035197e+00
-8.754999999999999449e-01 6.530742084445354326e-03 1.000477620371491572e+00
-8.754999999999999449e-01 1.561101194100577086e-02 1.004926635391687473e+00
-8.754999999999999449e-01 1.393677276536758360e-02 1.015584723401379286e+00
-8.754999999999999449e-01 1.230243352744373429e-02 1.019468689654045468e+00
-8.754999999999999449e-01 1.063002410067523731e-02 1.047359138867734352e+00
-8.754999999999999449e-01 1.803396666324704259e-02 1.002264039270048812e+00
-8.754999999999999449e-01 8.709094651503709178e-03 1.024493664789524416e+00
-8.754999999999999449e-01 1.039400947960214885e-02 1.055060845940766656e+00
-8.754999999999999449e-01 6.947890925085241018e-03 1.068022982297639700e+00
-8.754999999999999449e-01 8.465609275969416397e-03 1.007586775630824105e+00
-8.744999999999998330e-01 8.356272625748700777e-03 1.123892888513110977e+00
-8.744999999999998330e-01 1.132550720007575833e-02 1.009240917911946367e+00
-8.744999999999998330e-01 1.152497099297711790e-02 1.008265878616990685e+00
-8.744999999999998330e-01 9.204998080615785574e-03 1.015689858241131116e+00
-8.744999999999998330e-01 1.033072807789656329e-02 1.025999330014720767e+00
-8.744999999999998330e-01 1.368366339021329960e-02 1.004084208805564149e+00
-8.744999999999998330e-01 2.800617809799319218e-03 1.291488476686379006e+00
-8.734999999999999432e-01 1.344382791703292723e-02 1.014872517719671796e+00
-8.734999999999999432e-01 6.709009765683968639e-03 1.068767901891276129e+00
-8.734999999999999432e-01 7.485351734328377082e-03 1.026626229662850109e+00
-8.734999999999999432e-01 1.350513388052607816e-02 1.002085297040684386e+00
-8.734999999999999432e-01 8.531378930610886147e-03 1.028859371129505984e+00
-8.734999999999999432e-01 1.139810731406600691e-02 1.003387977835124678e+00
-8.734999999999999432e-01 1.141937422198763090e-02 1.008361890292180707e+00
-8.734999999999999432e-01 1.245758303063891452e-02 1.077745971016504489e+00
-8.724999999999998312e-01 1.225362078072413270e-02 1.002852224775096834e+00
-8.724999999999998312e-01 1.325022155903939243e-02 1.007504951743113830e+00
-8.724999999999998312e-01 8.296902288571682271e-03 1.011107611644508353e+00
-8.724999999999998312e-01 1.512207371759649067e-02 1.001275388961546664e+00
-8.724999999999998312e-01 1.045895710725583579e-02 1.007140824460697415e+00
-8.724999999999998312e-01 1.427614811790094834e-02 1.005213349646535193e+00
-8.724999999999998312e-01 5.998761964125340351e-03 1.171132254673783235e+00
-8.724999999999998312e-01 1.068469457105501903e-02 1.040353792656455223e+00
-8.724999999999998312e-01 7.886816410881668585e-03 1.017638280410143370e+00
-8.724999999999998312e-01 9.494283095167371442e-03 1.024266845841230733e+00
-8.724999999999998312e-01 5.569603722419643431e-03 1.045225665305475893e+00
-8.724999999999998312e-01 2.912884804389655712e-03 -2.702466792879374413e+00
-8.724999999999998312e-01 1.369367351549087564e-02 1.006213116015767906e+00
-8.714999999999999414e-01 6.972911128507040986e-03 1.079846115731782019e+00
-8.714999999999999414e-01 1.241824498994749046e-02 1.015035199158835777e+00
-8.714999999999999414e-01 1.802075030802299804e-02 1.000461880501382295e+00
-8.714999999999999414e-01 8.392205761421005911e-03 1.028901436471125752e+00
-8.714999999999999414e-01 1.190058792933306603e-02 1.016471003356372416e+00
-8.704999999999998295e-01 1.781467732191363909e-02 1.002316511686555556e+00
-8.704999999999998295e-01 1.457741522178603207e-02 1.013748181160731399e+00
-8.704999999999998295e-01 9.965645828152231225e-03 1.021242762558912442e+00
-8.704999999999998295e-01 1.310396292316228124e-02 1.023963947428428334e+00
-8.704999999999998295e-01 1.306723076734222014e-02 1.003159061763809978e+00
-8.704999999999998295e-01 3.622694998371041308e-03 1.077222224683048069e+00
-8.704999999999998295e-01 1.058503162462069540e-02 1.001035143147462669e+00
-8.704999999999998295e-01 1.050939628338647689e-03 -1.226093294143745682e+00
-8.704999999999998295e-01 5.933778872650346745e-03 1.038102426259392086e+00
-8.704999999999998295e-01 1.244275002437161479e-02 1.000288396256744372e+00
-8.694999999999999396e-01 1.228050180070349405e-02 1.001988225627731488e+00
-8.694999999999999396e-01 8.587482705305293784e-03 1.087870487164345201e+00
-8.694999999999999396e-01 1.234869969467216472e-02 1.025444070489746506e+00
-8.694999999999999396e-01 1.060181998076752813e-02 1.009279604266408503e+00
-8.694999999999999396e-01 1.026607065669999860e-02 1.002419654213697164e+00
-8.694999999999999396e-01 1.271234484901215961e-02 1.001795514109883545e+00
-8.694999999999999396e-01 1.070430989069027540e-02 1.047976085075703390e+00
-8.694999999999999396e-01 9.055047941088438176e-03 1.129422020051044973e+00
-8.694999999999999396e-01 1.468821953603503989e-02 1.003131249156432592e+00
-8.694999999999999396e-01 6.030166586035376475e-03 1.151384564704184488e+00
-8.684999999999998277e-01 8.215964650134610289e-03 1.085402987502933847e+00
-8.684999999999998277e-01 1.022544357873252444e-02 1.053464314293847348e+00
-8.684999999999998277e-01 1.602802114982227952e-02 1.003993091841828944e+00
-8.684999999999998277e-01 1.641939546491899896e-02 1.000329813158835179e+00
-8.684999999999998277e-01 4.347740391400164127e-03 1.156597758674721366e+00
-8.684999999999998277e-01 7.612778896390304598e-03 1.003308158499242708e+00
-8.684999999999998277e-01 1.103140413117465433e-02 1.073145382117921320e+00
-8.684999999999998277e-01 1.632748221048242049e-02 1.004067521416664999e+00
-8.684999999999998277e-01 5.751792540030828578e-03 1.050681593543982162e+00
-8.684999999999998277e-01 9.712864110032394527e-03 1.017267377960943131e+00
-8.684999999999998277e-01 7.317606068855957331e-03 1.275783305309874383e+00
-8.684999999999998277e-01 1.177783454872326045e-02 1.089050356947139919e+00
-8.674999999999999378e-01 1.197224492102019408e-02 1.074469432997401164e+00
-8.674999999999999378e-01 8.475901045574217238e-03 1.035770120932364868e+00
-8.674999999999999378e-01 1.391553346364998722e-02 1.000350064994159460e+00
-8.674999999999999378e-01 1.346813454681253241e-02 1.040060728861051942e+00
-8.674999999999999378e-01 7.909404411727884512e-03 1.074790455432636627e+00
-8.674999999999999378e-01 1.043790367201959286e-02 1.005297967976443108e+00
-8.674999999999999378e-01 8.769817362612310901e-03 1.022219127904462344e+00
-8.674999999999999378e-01 5.648231371874345638e-03 1.178072910871477141e+00
-8.674999999999999378e-01 7.397201685664498219e-03 1.049549862768322850e+00
-8.674999999999999378e-01 1.217215300943685734e-02 1.009379843219076589e+00
-8.664999999999998259e-01 6.960694487603781046e-03 1.081126943958075071e+00
-8.664999999999998259e-01 8.640586979301086851e-03 1.034340877115480284e+00
-8.664999999999998259e-01 1.382888414720809950e-02 1.002882318711120657e+00
-8.664999999999998259e-01 5.678657831269843907e-03 1.588109722119027012e+00
-8.664999999999998259e-01 1.320222371333787739e-02 1.029608607406625742e+00
-8.664999999999998259e-01 8.996788979947436052e-03 1.025287330859843582e+00
-8.664999999999998259e-01 1.359632893330766507e-02 1.035176689781492021e+00
-8.664999999999998259e-01 9.053692722549024421e-03 1.012614468450930838e+00
-8.664999999999998259e-01 8.421579193587313064e-03 1.002693518086034796e+00
-8.664999999999998259e-01 1.378831123515749345e-02 1.004070330959597745e+00
-8.664999999999998259e-01 1.079005751194788039e-02 1.002166676973905268e+00
-8.664999999999998259e-01 7.388096413993888029e-03 1.130134945351058740e+00
-8.664999999999998259e-01 1.253636990318622059e-02 1.017453984139679468e+00
-8.664999999999998259e-01 1.357793818611769884e-02 1.064645644446292172e+00
-8.664999999999998259e-01 1.325218327848610121e-02 1.017563524517202778e+00
-8.654999999999999361e-01 9.754671304280999183e-03 1.004997555265051856e+00
-8.654999999999999361e-01 1.501457966429657100e-02 1.000899264205780570e+00
-8.654999999999999361e-01 5.547100265307951944e-03 1.130125958381175577e+00
-8.654999999999999361e-01 1.500412334397936351e-02 1.091803887386606498e+00
-8.654999999999999361e-01 6.544311972377985995e-03 1.098287570931539614e+00
-8.654999999999999361e-01 1.631477475964958346e-02 1.005507406585023356e+00
-8.654999999999999361e-01 1.312157030164844834e-02 1.003312466278270643e+00
-8.644999999999998241e-01 1.018466157739743305e-02 1.014094324854671214e+00
-8.644999999999998241e-01 1.172703560249866578e-02 1.044320828778879440e+00
-8.644999999999998241e-01 1.289487194471912283e-02 1.003126269274978277e+00
-8.644999999999998241e-01 8.419030354914924796e-03 1.070584696217030896e+00
-8.644999999999998241e-01 7.022211946774251437e-03 1.003517917301295581e+00
-8.644999999999998241e-01 1.220904714301428336e-02 1.010854350349589037e+00
-8.644999999999998241e-01 1.058510191493584190e-02 1.005734457708185481e+00
-8.644999999999998241e-01 1.040459638518230305e-02 1.041386760105404319e+00
-8.644999999999998241e-01 1.471162633220918052e-02 1.008850904809717619e+00
-8.644999999999998241e-01 1.400385874101432726e-02 1.004820201007811997e+00
-8.634999999999999343e-01 9.717188348229046160e-03 1.015452008194178468e+00
-8.634999999999999343e-01 1.298426018953292502e-02 1.012781294994105963e+00
-8.634999999999999343e-01 8.111917959625142976e-03 1.004916033610120385e+00
-8.634999999999999343e-01 6.589806094079244531e-03 1.067054107490825743e+00
-8.634999999999999343e-01 7.704515194352288925e-03 1.057262652064308694e+00
-8.634999999999999343e-01 5.941970409446042586e-03 1.045576349576438080e+00
-8.634999999999999343e-01 8.691873442204839720e-03 1.028611133697869384e+00
-8.624999999999998224e-01 7.294559771011766523e-03 1.005717393956667483e+00
-8.624999999999998224e-01 1.170187109577663573e-02 1.002345794012598823e+00
-8.624999999999998224e-01 8.720321768063591522e-03 1.065241511939119867e+00
-8.624999999999998224e-01 1.306632398558238602e-02 1.009210694374635953e+00
-8.624999999999998224e-01 1.241429472409599430e-02 1.003756790788504327e+00
-8.624999999999998224e-01 5.249592957211540040e-03 1.168181424055949380e+00
-8.624999999999998224e-01 1.576514696710860225e-02 1.004884708330760823e+00
-8.624999999999998224e-01 6.926819302395495655e-03 1.130428404709797441e+00
-8.624999999999998224e-01 6.616782426941376222e-03 1.001849673564874754e+00
-8.624999999999998224e-01 1.705441424809613776e-02 1.003195994214048037e+00
-8.614999999999999325e-01 5.344528326212534715e-03 1.201436991059064097e+00
-8.614999999999999325e-01 9.165489015340729309e-03 1.005218262909185478e+00
-8.614999999999999325e-01 1.259380261304086056e-02 1.002604436471002503e+00
-8.614999999999999325e-01 9.813373288972812927e-03 1.000245434223214991e+00
-8.614999999999999325e-01 8.789122939518046601e-03 1.064678834458698820e+00
-8.614999999999999325e-01 9.910755560668380038e-03 1.068399009091661522e+00
-8.614999999999999325e-01 7.110061754221484731e-03 1.015259304925797634e+00
-8.614999999999999325e-01 1.127060014944014643e-02 1.011096608880136083e+00
-8.614999999999999325e-01 1.339693879215083337e-02 1.006896562896766323e+00
-8.614999999999999325e-01 1.051273364276973134e-02 1.005433565087289871e+00
-8.614999999999999325e-01 1.300728241225179022e-02 1.024620688279737069e+00
-8.604999999999998206e-01 7.241141269288492964e-03 1.045972428334031035e+00
-8.604999999999998206e-01 1.172764999337201630e-02 1.013456880399767446e+00
-8.604999999999998206e-01 8.862450075757909509e-03 1.000972763491349449e+00
-8.604999999999998206e-01 8.153155145461964126e-03 1.026570328984597769e+00
-8.604999999999998206e-01 1.193644278336561566e-02 1.006309595022379932e+00
-8.604999999999998206e-01 1.354309440854032341e-02 1.002867871677426193e+00
-8.604999999999998206e-01 1.288220117670758023e-02 1.012909391411112914e+00
-8.604999999999998206e-01 9.981159838971310691e-03 1.079141339988002990e+00
-8.594999999999999307e-01 1.458257461685529173e-02 1.000860508866035392e+00
-8.594999999999999307e-01 1.414394790205024226e-02 1.000927434245199699e+00
-8.594999999999999307e-01 1.181925678127548375e-02 1.074988556656388150e+00
-8.594999999999999307e-01 1.487670548533372855e-02 1.002904825576634629e+00
-8.594999999999999307e-01 6.091388726698613275e-03 1.027582252328401502e+00
-8.594999999999999307e-01 9.012800310555454247e-03 1.019124839307564923e+00
-8.594999999999999307e-01 9.144104644527988393e-03 1.015729945279085999e+00
-8.594999999999999307e-01 6.707648834437300589e-03 1.044211848059357850e+00
-8.594999999999999307e-01 1.119565747376206205e-02 1.003385153191025392e+00
-8.594999999999999307e-01 1.235592259555867711e-02 1.043217386661500656e+00
-8.594999999999999307e-01 7.227810317374260864e-03 1.028482923498710289e+00
-8.594999999999999307e-01 1.161081605504168252e-02 1.003958511708827217e+00
-8.594999999999999307e-01 8.128000747737021414e-03 1.008374467115045636e+00
-8.584999999999998188e-01 9.282399870890236868e-03 1.002566987421149358e+00
-8.584999999999998188e-01 1.122207447074285470e-02 1.042266301916596083e+00
-8.584999999999998188e-01 1.211218162278503846e-02 1.023957147529434453e+00
-8.584999999999998188e-01 1.121846619355140653e-03 1.498038365566771057e+00
-8.584999999999998188e-01 1.030547559017427894e-02 1.042370256216409219e+00
-8.584999999999998188e-01 8.138757349387499770e-03 1.010003175165531841e+00
-8.584999999999998188e-01 1.269522880575550683e-02 1.004675889403133793e+00
-8.584999999999998188e-01 5.599642587929443138e-03 1.013343126753090573e+00
-8.574999999999999289e-01 6.153261005292203455e-03 1.010061009566504797e+00
-8.574999999999999289e-01 1.092009719771146713e-02 1.049013487438543946e+00
-8.574999999999999289e-01 1.230936964947940311e-02 1.019517148856695865e+00
-8.574999999999999289e-01 7.456216677202796329e-03 1.003455562570233939e+00
-8.574999999999999289e-01 1.211247920418778018e-02 1.004780076376080356e+00
-8.574999999999999289e-01 9.754107498584440802e-03 1.026517423904369952e+00
-8.574999999999999289e-01 1.209287962543528078e-02 1.018557052796412732e+00
-8.574999999999999289e-01 1.535434536450442679e-02 1.019046451494157512e+00
-8.574999999999999289e-01 1.246467670110274102e-02 1.023067920176478518e+00
-8.574999999999999289e-01 7.836034183550045357e-03 1.069170991725209241e+00
-8.574999999999999289e-01 5.246705449673095580e-03 1.030619229083441057e+00
-8.574999999999999289e-01 3.825306293844896004e-03 1.022238067839070785e+00
-8.574999999999999289e-01 1.030159667458417638e-02 1.003953743789171016e+00
-8.574999999999999289e-01 8.303911551889585005e-03 1.091308358332542250e+00
-8.574999999999999289e-01 9.336464729448995178e-03 1.007980348831874151e+00
-8.574999999999999289e-01 1.540562095230068457e-02 1.000019506688447635e+00
-8.574999999999999289e-01 1.143710032172468374e-02 1.032677522823219451e+00
-8.564999999999998170e-01 8.302601601377664411e-03 1.097494977207784439e+00
-8.564999999999998170e-01 1.298424372543579772e-02 1.015437088525230402e+00
-8.564999999999998170e-01 1.018913944838601565e-02 1.048438557975072127e+00
-8.564999999999998170e-01 2.744381617478942274e-03 1.327738141857926157e+00
-8.564999999999998170e-01 1.623538677760837448e-02 1.000619385438488829e+00
-8.564999999999998170e-01 6.379688457101021642e-03 1.092585874881695007e+00
-8.564999999999998170e-01 8.334910567805636772e-03 1.004468179622704627e+00
-8.564999999999998170e-01 5.861797068272886664e-03 1.116755585892641012e+00
-8.564999999999998170e-01 9.413830093832897816e-03 1.062585441513061335e+00
-8.564999999999998170e-01 1.367308951967080403e-02 1.001463830243691344e+00
-8.564999999999998170e-01 9.029986985941174452e-03 1.008767086543786329e+00
-8.554999999999999272e-01 6.841747685353219942e-03 1.070038046240970209e+00
-8.554999999999999272e-01 1.298882816832384879e-02 1.005586128992638439e+00
-8.554999999999999272e-01 1.282800787698383516e-02 1.005681528036037387e+00
-8.554999999999999272e-01 7.218540608978226206e-03 1.051768013176304084e+00
-8.554999999999999272e-01 5.569587740289918751e-03 1.113184064606518531e+00
-8.554999999999999272e-01 1.201472516077378531e-02 1.020661414256994526e+00
-8.554999999999999272e-01 9.713164300206382148e-03 1.008309648093487221e+00
-8.544999999999998153e-01 9.660137707465618270e-03 1.002155093499397243e+00
-8.544999999999998153e-01 8.299674699346330786e-03 1.006495226183122593e+00
-8.544999999999998153e-01 1.736798419031981844e-02 1.000787201708754237e+00
-8.544999999999998153e-01 7.160468382915442971e-03 1.038740287271045393e+00
-8.544999999999998153e-01 9.708721916940939861e-03 1.002250980039842920e+00
-8.544999999999998153e-01 5.463929018683540140e-03 1.643578277026749745e+00
-8.544999999999998153e-01 1.069445691326598689e-02 1.003226529045728954e+00
-8.544999999999998153e-01 1.161156567810393316e-02 1.003942838618616884e+00
-8.544999999999998153e-01 1.281810905433252053e-02 1.007917339955100466e+00
-8.544999999999998153e-01 1.270850785562929047e-02 1.003374398232619091e+00
-8.544999999999998153e-01 1.157091243735019863e-02 1.009746056710344453e+00
-8.544999999999998153e-01 9.306199960122826104e-03 1.013146398813079330e+00
-8.544999999999998153e-01 1.272752099721323991e-02 1.022844983294272314e+00
-8.544999999999998153e-01 1.044609668945090802e-02 1.002321305813909103e+00
-8.544999999999998153e-01 8.720870669143237705e-03 1.083623018936351379e+00
-8.544999999999998153e-01 1.488439508178617844e-02 1.009395129473231290e+00
-8.544999999999998153e-01 6.498327667737289863e-03 1.051329668799747097e+00
-8.544999999999998153e-01 1.453849648541399517e-02 1.032094563744541116e+00
-8.534999999999999254e-01 8.776190540494607090e-03 1.016374275057346344e+00
-8.534999999999999254e-01 7.137531222923073140e-03 1.082372912737267434e+00
-8.534999999999999254e-01 1.420893404997562205e-02 1.000105515338699957e+00
-8.534999999999999254e-01 1.159487488830097338e-03 -2.716715963209034523e+00
-8.534999999999999254e-01 1.180619918936201551e-02 1.001225567475774181e+00
-8.534999999999999254e-01 8.831098359703160386e-03 1.036562480598425706e+00
-8.524999999999998135e-01 1.568891447423203730e-02 1.006242079848987281e+00
-8.524999999999998135e-01 1.072998201938927046e-02 1.002602722652422118e+00
-8.524999999999998135e-01 1.262551147950605017e-02 1.008656056277908331e+00
-8.524999999999998135e-01 7.106665169146695639e-03 1.040976341542387607e+00
-8.524999999999998135e-01 1.073170837752174776e-02 1.016224467232834661e+00
-8.524999999999998135e-01 7.893840455905479225e-03 1.014286569115129044e+00
-8.524999999999998135e-01 5.556051241990770523e-03 1.090000844143724779e+00
-8.524999999999998135e-01 1.165832942294615752e-02 1.000171319509612244e+00
-8.524999999999998135e-01 1.073403588122245206e-02 1.004849596440033244e+00
-8.524999999999998135e-01 5.285602045477964632e-03 -4.399852496357345544e+00
-8.524999999999998135e-01 9.494953786668645576e-03 1.089939992860667228e+00
-8.524999999999998135e-01 1.419149222640039322e-02 1.000269823727191421e+00
-8.514999999999999236e-01 8.081889380258075115e-03 1.022323773093971377e+00
-8.514999999999999236e-01 5.630767695270453253e-03 1.027344389477267139e+00
-8.514999999999999236e-01 1.370749129804714299e-02 1.006138548449841297e+00
-8.514999999999999236e-01 8.680334189209944207e-03 1.078362677737833009e+00
-8.514999999999999236e-01 1.515384887052526747e-02 1.017626172090378978e+00
-8.514999999999999236e-01 9.448212431296516833e-03 1.016983273421827372e+00
-8.514999999999999236e-01 1.166631045812695049e-02 1.003847442172762117e+00
-8.514999999999999236e-01 9.724156099927322786e-03 1.013558771590052032e+00
-8.514999999999999236e-01 1.050542101225401814e-02 1.011569346458816021e+00
-8.514999999999999236e-01 1.033976911234561064e-02 1.013807095921909873e+00
-8.514999999999999236e-01 1.398609766363553657e-02 1.018640673632716931e+00
-8.514999999999999236e-01 4.195157662595790440e-03 1.065738836636568321e+00
-8.514999999999999236e-01 1.532103000792801178e-02 1.003874720773738627e+00
-8.514999999999999236e-01 1.201703754783803139e-02 1.000151286437692466e+00
-8.504999999999998117e-01 5.798851854010335372e-03 1.018516503746492718e+00
-8.504999999999998117e-01 1.235600130268425627e-02 1.012081135773365226e+00
-8.504999999999998117e-01 1.139971184811563835e-02 1.005739242312800430e+00
-8.504999999999998117e-01 1.007162561470561872e-02 1.000043247050549367e+00
-8.504999999999998117e-01 8.281706978499827829e-03 1.230062531876159548e+00
-8.504999999999998117e-01 1.668754669552190845e-02 1.001728647262632110e+00
-8.504999999999998117e-01 1.052799434993636346e-02 1.070066648877553206e+00
-8.504999999999998117e-01 9.084792193772920840e-03 1.075862923389293568e+00
-8.504999999999998117e-01 1.233722219749611333e-02 1.002208187973123277e+00
-8.494999999999999218e-01 9.216854404734516754e-03 1.061049917427244749e+00
-8.494999999999999218e-01 9.955679380488821270e-03 1.004834336332983469e+00
-8.494999999999999218e-01 9.116026407022050776e-03 1.041945788414271989e+00
-8.494999999999999218e-01 9.786437809790137984e-03 1.011193417774412628e+00
-8.494999999999999218e-01 1.148490834201492533e-02 1.053598910414950351e+00
-8.484999999999998099e-01 1.112768818623310375e-02 1.028986395776158913e+00
-8.484999999999998099e-01 1.467127231430602648e-02 1.005054232470839137e+00
-8.484999999999998099e-01 9.367405285633829612e-03 1.006627177149786112e+00
-8.484999999999998099e-01 1.220610958985975623e-02 1.051350376790480823e+00
-8.484999999999998099e-01 6.866825814448905899e-03 1.009136084019575996e+00
-8.484999999999998099e-01 9.252220138270152508e-03 1.012005447217744658e+00
-8.484999999999998099e-01 9.524800952730843803e-03 1.007482580430295149e+00
-8.484999999999998099e-01 2.695758047097355451e-03 1.136619413435097092e+00
-8.484999999999998099e-01 1.169286868525807634e-02 1.015586980057357813e+00
-8.484999999999998099e-01 1.411301541144257404e-02 1.003819453361635583e+00
-8.484999999999998099e-01 2.786188086917345923e-03 1.531420501492159802e+00
-8.484999999999998099e-01 1.092066847316013056e-02 1.020578724608167676e+00
-8.484999999999998099e-01 9.338416611487345559e-03 1.109189295958221466e+00
-8.474999999999999201e-01 4.897853687050910711e-03 1.081302584868226280e+00
-8.474999999999999201e-01 1.195555603106497611e-02 1.005828353637457928e+00
-8.474999999999999201e-01 9.371239148930794738e-03 1.071243841401170682e+00
-8.474999999999999201e-01 8.813228292930129146e-03 1.073165341531626238e+00
-8.474999999999999201e-01 1.307689846724731028e-02 1.012351686946602491e+00
-8.474999999999999201e-01 1.271642201822225336e-02 1.002731728722578985e+00
-8.474999999999999201e-01 1.003827672209377762e-02 1.006215969468025495e+00
-8.464999999999998082e-01 1.414177173809839060e-02 1.006808848671694845e+00
-8.464999999999998082e-01 1.099656958470264165e-02 1.001950032622745512e+00
-8.464999999999998082e-01 1.339335632841203057e-02 1.013584140345575868e+00
-8.464999999999998082e-01 1.294768028068749889e-02 1.003650851610625949e+00
-8.464999999999998082e-01 8.327354794333977420e-03 1.001764013293786615e+00
-8.464999999999998082e-01 1.292248968400803999e-02 1.001853787814167340e+00
-8.464999999999998082e-01 1.001762454705819837e-02 1.000026219568290742e+00
-8.464999999999998082e-01 1.170110968401680794e-02 1.036855324596354322e+00
-8.464999999999998082e-01 6.312482163511721860e-03 1.010972159828672501e+00
-8.454999999999999183e-01 9.674968588507130984e-03 1.035357614506354995e+00
-8.454999999999999183e-01 1.240571550530048840e-02 1.015343536618574571e+00
-8.454999999999999183e-01 1.056580927567437635e-02 1.019268168932324414e+00
-8.454999999999999183e-01 6.832575250237564631e-03 1.007817176419824490e+00
-8.454999999999999183e-01 1.084942478788755889e-02 1.077511175240282171e+00
-8.454999999999999183e-01 1.581882650790830333e-02 1.001583632398733492e+00
-8.454999999999999183e-01 1.233110409419733121e-02 1.008138742844085778e+00
-8.444999999999998064e-01 8.878037425100952784e-03 1.060195017972455522e+00
-8.444999999999998064e-01 1.014906724741060536e-02 1.023220673735107722e+00
-8.444999999999998064e-01 1.195087201272131486e-02 1.024589339771202257e+00
-8.444999999999998064e-01 1.235309198715306249e-02 1.003170314526894646e+00
-8.444999999999998064e-01 7.991830132402979320e-03 1.043055859052276491e+00
-8.444999999999998064e-01 9.507143888293160400e-03 1.122084132086905273e+00
-8.444999999999998064e-01 1.362136362686200940e-02 1.029809354857216253e+00
-8.444999999999998064e-01 7.163896040284970131e-03 1.001634293057072966e+00
-8.444999999999998064e-01 1.157594221408093753e-02 1.020922593502699982e+00
-8.444999999999998064e-01 1.020099818067974132e-02 1.028809315191024254e+00
-8.444999999999998064e-01 7.456790983223658340e-03 1.067012930794184244e+00
-8.434999999999999165e-01 1.176958459578733227e-02 1.002734384716843064e+00
-8.434999999999999165e-01 8.370401791398246819e-03 1.069949284125375710e+00
-8.434999999999999165e-01 1.426700076620122763e-02 1.011011872654060895e+00
-8.434999999999999165e-01 1.324851928033287177e-02 1.118841695825101512e+00
-8.434999999999999165e-01 7.887487138644797349e-03 1.142200611813531719e+00
-8.434999999999999165e-01 1.428495991409821191e-02 1.004159428720642788e+00
-8.434999999999999165e-01 8.992281332610629549e-03 1.026980744950954039e+00
-8.434999999999999165e-01 9.877342244994966047e-03 1.020202396512628340e+00
-8.434999999999999165e-01 1.268785381711990193e-02 1.015079791554192479e+00
-8.434999999999999165e-01 5.289791810920613929e-03 1.098370284579592848e+00
-8.434999999999999165e-01 9.066839411498590559e-03 1.058376137542676565e+00
-8.434999999999999165e-01 8.954173633139796834e-03 1.059849775345265144e+00
-8.434999999999999165e-01 8.456190447486617787e-03 1.114646803884368653e+00
-8.434999999999999165e-01 1.463891491315097784e-02 1.006321928713798552e+00
-8.434999999999999165e-01 1.091734477707020923e-02 1.014226192787196501e+00
-8.434999999999999165e-01 1.582856732044990444e-02 1.000606190432460796e+00
-8.424999999999998046e-01 1.045085746174434678e-02 1.012309337284817978e+00
-8.424999999999998046e-01 1.064610763143321662e-02 1.004742490078701644e+00
-8.424999999999998046e-01 1.206667970284384418e-02 1.004924666242387854e+00
-8.424999999999998046e-01 5.910751168347203044e-03 1.212548030282886380e+00
-8.424999999999998046e-01 8.678179526497173391e-03 1.027956474033228318e+00
-8.424999999999998046e-01 1.321718290108060516e-02 1.021736257858243402e+00
-8.424999999999998046e-01 3.616821688757867678e-03 1.022793212216749570e+00
-8.424999999999998046e-01 9.750724135134714726e-03 1.013620776579568838e+00
-8.424999999999998046e-01 4.063919391547817644e-03 1.115338535950658017e+00
-8.424999999999998046e-01 6.092575965444269048e-03 1.103079655391570491e+00
-8.424999999999998046e-01 1.265540645755503651e-02 1.009093513602623116e+00
-8.414999999999999147e-01 1.014899874111898324e-02 1.036975056411077567e+00
-8.414999999999999147e-01 1.393096958470994677e-02 1.001961596457194181e+00
-8.414999999999999147e-01 1.118776555286163377e-02 1.004349843844934753e+00
-8.414999999999999147e-01 8.131099526732745233e-03 1.363886451220344131e+00
-8.414999999999999147e-01 1.259849040537090042e-02 1.013050975809548504e+00
-8.414999999999999147e-01 8.550627376277692912e-03 1.006780419028540097e+00
-8.414999999999999147e-01 1.234064108504627152e-02 1.000839767318631557e+00
-8.414999999999999147e-01 3.578805120743488132e-03 1.013273229092064076e+00
-8.414999999999999147e-01 1.217376952039903558e-02 1.035790014360848721e+00
-8.414999999999999147e-01 1.444486268992362273e-02 1.032723098519522154e+00
-8.414999999999999147e-01 1.118658708131575578e-02 1.013263789973859241e+00
-8.404999999999998028e-01 1.304972852141924461e-02 1.006341544415126021e+00
-8.404999999999998028e-01 1.093058696835303226e-02 1.021402139283710708e+00
-8.404999999999998028e-01 1.570513171194095822e-02 1.021719469078735232e+00
-8.404999999999998028e-01 7.669781930228334113e-03 1.015778425372917626e+00
-8.404999999999998028e-01 1.544144115778627382e-02 1.000457568659597118e+00
-8.404999999999998028e-01 1.196539853610159750e-02 1.005707365317668911e+00
-8.404999999999998028e-01 4.927824991205381581e-03 1.095661996452403031e+00
-8.404999999999998028e-01 1.411372988032057359e-02 1.010243445259685791e+00
-8.404999999999998028e-01 1.024368655090160396e-02 1.025808716604863724e+00
-8.404999999999998028e-01 1.092166387035524433e-02 1.028470580926375222e+00
-8.404999999999998028e-01 1.064727529460545233e-02 1.005071101613789653e+00
-8.404999999999998028e-01 1.171477596309027439e-02 1.041462620674655337e+00
-8.404999999999998028e-01 1.318141837026165671e-02 1.007808892831962844e+00
-8.394999999999999130e-01 1.433280314234123415e-02 1.002185001223844463e+00
-8.394999999999999130e-01 4.525005755050320357e-03 1.041095361397757380e+00
-8.394999999999999130e-01 1.038121230239282509e-02 1.037276787785970322e+00
-8.394999999999999130e-01 6.072644000172819530e-03 1.110626254882542296e+00
-8.394999999999999130e-01 1.136325976721814200e-02 1.112309862112172976e+00
-8.394999999999999130e-01 1.473491328945551911e-02 1.006635202697482523e+00
-8.394999999999999130e-01 1.192699404255715247e-03 1.762511552132977499e+00
-8.394999999999999130e-01 1.442539738982588984e-02 1.008161332739325289e+00
-8.394999999999999130e-01 9.089900977068302718e-03 1.061978664214161094e+00
-8.394999999999999130e-01 2.842858668102429473e-03 1.163342033518535601e+00
-8.394999999999999130e-01 9.746822029357704240e-03 1.007380001357461197e+00
-8.394999999999999130e-01 1.064476504812832298e-02 1.000482181157500650e+00
-8.394999999999999130e-01 1.190695520348295823e-02 1.062683115117167176e+00
-8.384999999999998010e-01 5.913266666747538612e-03 1.072205733450160459e+00
-8.384999999999998010e-01 1.540386606505955713e-02 1.001647848000460916e+00
-8.384999999999998010e-01 7.684995620581118632e-03 1.120981398478783753e+00
-8.384999999999998010e-01 5.784105156914253615e-03 1.076309123825005765e+00
-8.384999999999998010e-01 1.112224715533713859e-03 -4.958450810292977629e+00
-8.384999999999998010e-01 1.193832858608341249e-02 1.022470428792638053e+00
-8.384999999999998010e-01 4.730546972233296010e-03 1.026066802351878859e+00
-8.384999999999998010e-01 1.023389933746801130e-02 1.012607600866546997e+00
-8.384999999999998010e-01 9.952634498611770061e-03 1.001016157848240384e+00
-8.374999999999999112e-01 1.470278207646236700e-02 1.008719786136423657e+00
-8.374999999999999112e-01 1.489082728618204392e-02 1.026817785183245624e+00
-8.374999999999999112e-01 1.215675297833176613e-02 1.009897797142325526e+00
-8.374999999999999112e-01 1.099703086348999617e-03 -2.121195963777364302e+00
-8.374999999999999112e-01 8.950049449904573518e-03 1.038803256659361685e+00
-8.374999999999999112e-01 1.219251461188491058e-02 1.006130394270843054e+00
-8.374999999999999112e-01 1.149856875242214783e-02 1.013821277902183793e+00
-8.374999999999999112e-01 1.436054755512202949e-02 1.000802509361016446e+00
-8.374999999999999112e-01 8.629057780102219674e-03 1.038858088004347868e+00
-8.374999999999999112e-01 7.867407576947923337e-03 1.004392226387374354e+00
-8.374999999999999112e-01 1.191088020551889573e-02 1.003699488294283348e+00
-8.374999999999999112e-01 1.240874870088024169e-02 1.006410250633019920e+00
-8.374999999999999112e-01 4.781236174323916753e-03 1.044029784890187162e+00
-8.374999999999999112e-01 1.020653716279654004e-02 1.018877141110977824e+00
-8.374999999999999112e-01 7.758941830943119101e-03 1.016900608928413607e+00
-8.374999999999999112e-01 9.873919157933256849e-03 1.075969046240136562e+00
-8.364999999999997993e-01 9.169470715570593108e-03 1.004249630686227190e+00
-8.364999999999997993e-01 1.506757689791489441e-02 1.002154631701198007e+00
-8.364999999999997993e-01 1.180689426964499737e-02 1.004883733874764484e+00
-8.364999999999997993e-01 1.125395223604573613e-02 1.041541769506431514e+00
-8.364999999999997993e-01 1.271667292029046541e-02 1.012366413089091477e+00
-8.364999999999997993e-01 1.549924502647404695e-02 1.005189428305479193e+00
-8.364999999999997993e-01 1.289257918775421966e-02 1.076701029133079857e+00
-8.364999999999997993e-01 5.635942853838423264e-03 1.025915331834440725e+00
-8.364999999999997993e-01 1.708538285399838859e-03 1.563038902869630986e+00
-8.364999999999997993e-01 9.398294255240812606e-03 1.026612522612019074e+00
-8.364999999999997993e-01 8.890857526613400730e-03 1.113934577105672119e+00
-8.364999999999997993e-01 6.407618093365151889e-03 1.214346683753664946e+00
-8.364999999999997993e-01 8.655254380963527464e-03 1.082991588965945384e+00
-8.354999999999999094e-01 2.552837526390031031e-03 1.472185567361929071e+00
-8.354999999999999094e-01 8.037551987869111583e-03 1.242502481935660930e+00
-8.354999999999999094e-01 4.329398843288131092e-03 1.017278139753449606e+00
-8.354999999999999094e-01 1.616107603937714382e-02 1.002888929812642660e+00
-8.354999999999999094e-01 1.084987736454328701e-02 1.010296805032084411e+00
-8.354999999999999094e-01 4.090322899765078818e-03 1.016371644558818010e+00
-8.354999999999999094e-01 1.271758225356055781e-02 1.003473147183321812e+00
-8.354999999999999094e-01 1.121510995555765298e-02 1.038036086145798897e+00
-8.354999999999999094e-01 7.182964849921326909e-03 1.000343200793658349e+00
-8.354999999999999094e-01 1.112193206474090465e-02 1.006505480681175957e+00
-8.354999999999999094e-01 1.198510065461869979e-02 1.001148225800761349e+00
-8.354999999999999094e-01 8.974535686245557406e-03 1.016802733631616329e+00
-8.354999999999999094e-01 5.824458678433314975e-03 1.003192703465427771e+00
-8.344999999999997975e-01 5.370914248372199613e-03 1.006938268144494719e+00
-8.344999999999997975e-01 1.035590257633980243e-02 1.014685174307117244e+00
-8.344999999999997975e-01 9.887124921638006103e-03 1.011345997337544933e+00
-8.344999999999997975e-01 1.148805812471779576e-02 1.018455714994151107e+00
-8.344999999999997975e-01 1.002938744013949154e-02 1.013971397541526764e+00
-8.344999999999997975e-01 9.379414192149942639e-03 1.017773610369234749e+00
-8.344999999999997975e-01 1.107114754378647238e-02 1.035907403549771288e+00
-8.344999999999997975e-01 1.230791380089431113e-02 1.003970697553447700e+00
-8.344999999999997975e-01 1.004558373159288899e-02 1.002240112816085160e+00
-8.344999999999997975e-01 1.411966837849686508e-03 -1.927766540151456987e+00
-8.344999999999997975e-01 1.196812931250415893e-02 1.037161975894288934e+00
-8.344999999999997975e-01 1.296412117192405171e-02 1.013499582189614001e+00
-8.334999999999999076e-01 1.050928574783442995e-02 1.012745097900134006e+00
-8.334999999999999076e-01 5.661117430796000667e-03 1.012869858254745514e+00
-8.334999999999999076e-01 7.044469528053957583e-03 1.027565410931123191e+00
-8.334999999999999076e-01 6.589312674765224545e-03 1.003843191715686700e+00
-8.334999999999999076e-01 1.111277276940843099e-02 1.014989378116314178e+00
-8.334999999999999076e-01 7.484941532586854122e-03 1.016426487750288210e+00
-8.334999999999999076e-01 1.294953917334833345e-02 1.000124598295752731e+00
-8.334999999999999076e-01 9.530739239801400836e-03 1.010891015467376697e+00
-8.324999999999997957e-01 1.554579646229030908e-02 1.002197865201112981e+00
-8.324999999999997957e-01 1.425924473104599015e-02 1.000453015611749930e+00
-8.324999999999997957e-01 5.810605108831026593e-03 1.038514847485814352e+00
-8.324999999999997957e-01 1.435744861702528208e-03 1.200632785726961194e+00
-8.324999999999997957e-01 9.483709916105018123e-03 1.017044331550094327e+00
-8.324999999999997957e-01 7.670960568182325946e-03 1.118716469985927109e+00
-8.324999999999997957e-01 1.546810207386700373e-02 1.004575361314467674e+00
-8.324999999999997957e-01 1.159747246786554595e-02 1.017355051135229838e+00
-8.324999999999997957e-01 1.241215724990355970e-02 1.007412273590507779e+00
-8.324999999999997957e-01 8.276098078462456112e-03 1.087733094733990935e+00
-8.314999999999999059e-01 1.480320320723982862e-02 1.000680634929928425e+00
-8.314999999999999059e-01 1.111555481086565038e-02 1.011205878470379460e+00
-8.314999999999999059e-01 1.321409235259756072e-02 1.006675643630651651e+00
-8.314999999999999059e-01 3.274888379424225650e-03 1.048272206445458599e+00
-8.314999999999999059e-01 1.255792851474907008e-03 2.313295123347896887e+00
-8.314999999999999059e-01 1.095419323170175423e-02 1.004435906454160143e+00
-8.304999999999997939e-01 1.176508618167153991e-02 1.027549478745337863e+00
-8.304999999999997939e-01 4.840529991881965984e-03 1.067625522531810311e+00
-8.304999999999997939e-01 1.102655520743569270e-03 2.808442385589008605e+00
-8.304999999999997939e-01 1.043386797722303978e-02 1.001958154699486014e+00
-8.304999999999997939e-01 7.012269568875803896e-03 1.023350846686776894e+00
-8.304999999999997939e-01 1.215006806659382245e-02 1.000353143529534528e+00
-8.294999999999999041e-01 6.172948406886019819e-03 1.012264424462005374e+00
-8.294999999999999041e-01 1.005411994236384519e-03 1.633046603254842077e+00
-8.294999999999999041e-01 1.939786371344323114e-03 1.015660963910971049e+00
-8.294999999999999041e-01 1.283306665122957262e-02 1.022959079217286682e+00
-8.294999999999999041e-01 3.970036509419423883e-03 1.763390482848115060e+00
-8.294999999999999041e-01 1.240390299512616687e-02 1.005015586770835467e+00
-8.294999999999999041e-01 8.143118486928483182e-03 1.048459991108532607e+00
-8.294999999999999041e-01 3.580803713878174480e-03 1.414887357880988850e+00
-8.294999999999999041e-01 5.284066797393898764e-03 1.015554938056430379e+00
-8.294999999999999041e-01 3.306972643844090492e-03 1.001311857145216200e+00
-8.284999999999997922e-01 1.138399462138500046e-02 1.003632626674017869e+00
-8.284999999999997922e-01 4.799293489652859540e-03 1.173609534434737700e+00
-8.284999999999997922e-01 9.326283637917294825e-03 1.003748999794013441e+00
-8.284999999999997922e-01 7.857903340228906963e-03 1.024529405878422006e+00
-8.284999999999997922e-01 5.289056415340752555e-03 1.038590054278853314e+00
-8.284999999999997922e-01 9.313034955177899865e-03 1.017277571809615200e+00
-8.284999999999997922e-01 9.565453276414656592e-03 1.027459935056746154e+00
-8.284999999999997922e-01 6.768983411252683935e-03 1.047717791072340754e+00
-8.274999999999999023e-01 5.184249144291191991e-03 1.090849484943277714e+00
-8.274999999999999023e-01 1.217976136859931112e-03 -2.914091216642904048e+00
-8.274999999999999023e-01 1.148984371211120466e-02 1.016827607070122541e+00
-8.264999999999997904e-01 4.194088151233964050e-03 1.054580712944833021e+00
-8.264999999999997904e-01 1.046358693891078981e-02 1.002839354479888145e+00
-8.264999999999997904e-01 7.537556984568509998e-03 1.048841251324757140e+00
-8.264999999999997904e-01 8.958793515907878535e-03 1.006723787769019829e+00
-8.264999999999997904e-01 1.136284699269414673e-02 1.014863100355749559e+00
-8.264999999999997904e-01 8.508438648577884220e-03 1.014914056974731471e+00
-8.264999999999997904e-01 1.442649890190692182e-02 1.011397441686350485e+00
-8.264999999999997904e-01 7.253639495824760683e-03 1.748892339078075953e+00
-8.264999999999997904e-01 7.154700921890609806e-03 1.026965661055555312e+00
-8.264999999999997904e-01 1.124463039798266790e-02 1.013925255873175502e+00
-8.264999999999997904e-01 4.476035501103376411e-03 1.291399482814657329e+00
-8.264999999999997904e-01 1.096766765422452390e-02 1.110441499500910645e+00
-8.264999999999997904e-01 6.775094574160317115e-03 1.047716409323507181e+00
-8.264999999999997904e-01 7.964169695787544009e-03 1.020465223188245396e+00
-8.264999999999997904e-01 7.749927340263231858e-03 1.017948529408009062e+00
-8.264999999999997904e-01 1.169523388491253840e-02 1.011009498563490316e+00
-8.264999999999997904e-01 9.606077258341403149e-03 1.080763019238173861e+00
-8.264999999999997904e-01 1.625505052465273104e-02 1.004745430860931821e+00
-8.264999999999997904e-01 7.919439431350679473e-03 1.008374707184354957e+00
-8.254999999999999005e-01 2.607230036660480952e-03 1.470537998113073286e+00
-8.254999999999999005e-01 8.631581018668899041e-03 1.005112424384822178e+00
-8.254999999999999005e-01 1.007339334405006094e-02 1.001912723652730763e+00
-8.254999999999999005e-01 1.200702081608072402e-02 1.057132990644577220e+00
-8.254999999999999005e-01 1.102451007691917714e-02 1.003752986802451730e+00
-8.254999999999999005e-01 1.495997413923829712e-02 1.003642922038886720e+00
