-9.984999999999999432e-01 1.922983639408411619e-02 1.000330190244753448e+00
-9.944999999999999396e-01 1.970729404382697697e-02 1.000028688578063596e+00
-9.944999999999999396e-01 1.914869889616100176e-02 1.000171084817224942e+00
-9.944999999999999396e-01 1.925923009201783304e-02 1.000023316511801985e+00
-9.944999999999999396e-01 1.943117878955683345e-02 1.000062999526567964e+00
-9.935000000000000497e-01 1.948502247492982231e-02 1.000024149183256883e+00
-9.935000000000000497e-01 1.912211007305301622e-02 1.000193488319845336e+00
-9.935000000000000497e-01 1.917387986183285986e-02 1.000028315018919089e+00
-9.924999999999999378e-01 1.926440782788205186e-02 1.000017530946416544e+00
-9.924999999999999378e-01 1.917936336305762005e-02 1.000002458581534359e+00
-9.924999999999999378e-01 1.947772282697614321e-02 1.000030477181162336e+00
-9.924999999999999378e-01 1.982360392359018217e-02 1.000020742076476177e+00
-9.915000000000000480e-01 1.956783193788668232e-02 1.000003156407873295e+00
-9.915000000000000480e-01 1.917625683213275423e-02 1.000047747807309761e+00
-9.915000000000000480e-01 1.961819515025307534e-02 1.000026027336918810e+00
-9.915000000000000480e-01 1.903496882932442444e-02 1.000342380414033228e+00
-9.915000000000000480e-01 1.874316209349983706e-02 1.000968188514154811e+00
-9.904999999999999361e-01 1.911962612422727845e-02 1.000193577099891762e+00
-9.904999999999999361e-01 1.965401813630059460e-02 1.000000554018132481e+00
-9.895000000000000462e-01 1.919097560365108646e-02 1.000056591401927264e+00
-9.895000000000000462e-01 1.896199841273133943e-02 1.000354722389450446e+00
-9.884999999999999343e-01 1.978422925491227224e-02 1.000009579322772346e+00
-9.884999999999999343e-01 1.904820715686681570e-02 1.000060572907749634e+00
-9.875000000000000444e-01 1.950547891621643576e-02 1.000039424185858783e+00
-9.864999999999999325e-01 1.912261685106320455e-02 1.000267331792101810e+00
-9.864999999999999325e-01 1.947187729199126305e-02 1.000006708305249292e+00
-9.864999999999999325e-01 1.922027337400676605e-02 1.000190386861248948e+00
-9.864999999999999325e-01 1.958576639863376587e-02 1.000007363727388743e+00
-9.864999999999999325e-01 1.941618999949376242e-02 1.000042981242132312e+00
-9.864999999999999325e-01 1.953802610939432347e-02 1.000105146042856052e+00
-9.864999999999999325e-01 1.952589457373237261e-02 1.000015135463390159e+00
-9.855000000000000426e-01 1.941557647589634700e-02 1.000093485154596173e+00
-9.855000000000000426e-01 1.957425799262014002e-02 1.000004240516310983e+00
-9.855000000000000426e-01 1.962346378254731932e-02 1.000017291179507106e+00
-9.855000000000000426e-01 1.979497697057639935e-02 1.000009197149245299e+00
-9.844999999999999307e-01 1.925074689425945382e-02 1.000114208455769482e+00
-9.844999999999999307e-01 1.941337204552722601e-02 1.000087119700915794e+00
-9.844999999999999307e-01 1.963860675126275282e-02 1.000014799278746258e+00
-9.844999999999999307e-01 1.876133145498526389e-02 1.000503702400490358e+00
-9.835000000000000409e-01 1.940154812700664588e-02 1.000048691635712306e+00
-9.824999999999999289e-01 1.971498007649133757e-02 1.000003823287091809e+00
-9.815000000000000391e-01 1.930315462541921240e-02 1.000000084299752068e+00
-9.815000000000000391e-01 1.924248513285430756e-02 1.000035290883210859e+00
-9.815000000000000391e-01 1.952137552243695881e-02 1.000005485621891621e+00
-9.815000000000000391e-01 1.941254244326989439e-02 1.000024547370092609e+00
-9.804999999999999272e-01 1.951164620868962168e-02 1.000019295589408497e+00
-9.804999999999999272e-01 1.961101359070870423e-02 1.000003330173754978e+00
-9.804999999999999272e-01 1.933146724687544865e-02 1.000425563547787000e+00
-9.804999999999999272e-01 1.931371499295616093e-02 1.000034152098864038e+00
-9.804999999999999272e-01 1.982226111363579943e-02 1.000005091726027473e+00
-9.795000000000000373e-01 1.840264141594369005e-02 1.000280358081418575e+00
-9.795000000000000373e-01 1.919107863986385665e-02 1.000077176054155581e+00
-9.795000000000000373e-01 1.981757623794149631e-02 1.000001319229388397e+00
-9.795000000000000373e-01 1.935001606267570951e-02 1.000021301758298398e+00
-9.784999999999999254e-01 1.957014149834988836e-02 1.000020875601848491e+00
-9.775000000000000355e-01 1.924403975058951513e-02 1.000039102064535612e+00
-9.775000000000000355e-01 1.949392270618486092e-02 1.000006836236224439e+00
-9.764999999999999236e-01 1.932606479198666072e-02 1.000000422572923764e+00
-9.764999999999999236e-01 1.896201281553210397e-02 1.000226596462378437e+00
-9.755000000000000338e-01 1.931858690754253982e-02 1.000019343644100278e+00
-9.755000000000000338e-01 1.934757932379178869e-02 1.000123131022519374e+00
-9.755000000000000338e-01 1.957240903289124423e-02 1.000004535616471957e+00
-9.744999999999999218e-01 1.953288430226393299e-02 1.000097347636239364e+00
-9.744999999999999218e-01 1.920538113746106390e-02 1.000000573153614347e+00
-9.744999999999999218e-01 1.880385826965029830e-02 1.000726343408593788e+00
-9.735000000000000320e-01 1.969989871653492208e-02 1.000022079300837641e+00
-9.735000000000000320e-01 1.946606587823796614e-02 1.000002566211000588e+00
-9.735000000000000320e-01 1.928947754980177634e-02 1.000014132992004923e+00
-9.735000000000000320e-01 1.933741068864418267e-02 1.000018170399258777e+00
-9.724999999999999201e-01 1.894705297529758470e-02 1.000293621903739716e+00
-9.724999999999999201e-01 1.953688375013131959e-02 1.000300853649120914e+00
-9.724999999999999201e-01 1.970501283031139694e-02 1.000007332171939378e+00
-9.724999999999999201e-01 1.902354060428365981e-02 1.000125729461211366e+00
-9.724999999999999201e-01 1.955255670984907060e-02 1.000054712107091293e+00
-9.715000000000000302e-01 1.914192933857048265e-02 1.000002344403187582e+00
-9.715000000000000302e-01 1.920964007785905953e-02 1.000202131136917805e+00
-9.704999999999999183e-01 1.926551794600355957e-02 1.000017214391643927e+00
-9.704999999999999183e-01 1.912855618929585819e-02 1.000232937475823647e+00
-9.704999999999999183e-01 1.952616411558659795e-02 1.000065754284251707e+00
-9.704999999999999183e-01 1.922588912725689547e-02 1.000019616752839680e+00
-9.704999999999999183e-01 1.940476453650705549e-02 1.000028831416875708e+00
-9.704999999999999183e-01 1.926371099953036806e-02 1.000078235232340518e+00
-9.704999999999999183e-01 1.954087782586153010e-02 1.000110595975926220e+00
-9.704999999999999183e-01 1.920948880366308772e-02 1.000129344085696648e+00
-9.704999999999999183e-01 1.920914375211040664e-02 1.000100976664707320e+00
-9.684999999999999165e-01 1.912323370991167795e-02 1.000027267470118719e+00
-9.684999999999999165e-01 1.952666240360894159e-02 1.000096480699881107e+00
-9.684999999999999165e-01 1.912361040531761550e-02 1.000142284761063038e+00
-9.675000000000000266e-01 1.935726248470882524e-02 1.000027460768785792e+00
-9.675000000000000266e-01 1.922994167572317573e-02 1.000397903681699674e+00
-9.675000000000000266e-01 1.924404996215646133e-02 1.000054210798555498e+00
-9.675000000000000266e-01 1.946009754722815427e-02 1.000032938811134642e+00
-9.675000000000000266e-01 1.951261512305626361e-02 1.000243465191674064e+00
-9.675000000000000266e-01 1.904523546336643267e-02 1.000040843311329031e+00
-9.675000000000000266e-01 1.891738168762035349e-02 1.000263147784699269e+00
-9.675000000000000266e-01 1.910880416709331495e-02 1.000131227088700392e+00
-9.675000000000000266e-01 1.931723535040603609e-02 1.000029276953049884e+00
-9.675000000000000266e-01 1.953675420483793820e-02 1.000014906392083569e+00
-9.675000000000000266e-01 1.938552782668541072e-02 1.000022834180512188e+00
-9.675000000000000266e-01 1.958933750739015947e-02 1.000021878619890892e+00
-9.664999999999999147e-01 1.893196348612366173e-02 1.000073738775532073e+00
-9.664999999999999147e-01 1.936247727538242119e-02 1.000186169393694646e+00
-9.664999999999999147e-01 1.907243008865234374e-02 1.000031507352843185e+00
-9.664999999999999147e-01 1.925229703924363073e-02 1.000127426839596767e+00
-9.664999999999999147e-01 1.919219904973218024e-02 1.000050321521221086e+00
-9.664999999999999147e-01 1.941916368287693526e-02 1.000005180939859128e+00
-9.655000000000000249e-01 1.876796194579972293e-02 1.000496259419065392e+00
-9.655000000000000249e-01 1.935951948393795780e-02 1.000086254917609052e+00
-9.655000000000000249e-01 1.957502424069686164e-02 1.000051536843221012e+00
-9.655000000000000249e-01 1.949524147873926000e-02 1.000212350617888601e+00
-9.644999999999999130e-01 1.962116449164852741e-02 1.000015369683628474e+00
-9.644999999999999130e-01 1.952279376745390260e-02 1.000023200268573831e+00
-9.644999999999999130e-01 1.893163741860920402e-02 1.000008143151076334e+00
-9.644999999999999130e-01 1.892544297415305055e-02 1.000137160394897196e+00
-9.635000000000000231e-01 1.950280212937016006e-02 1.000005448540266517e+00
-9.635000000000000231e-01 1.920491912972115481e-02 1.000188084436113733e+00
-9.635000000000000231e-01 1.947975461756659352e-02 1.000014788281457623e+00
-9.635000000000000231e-01 1.904503030546083123e-02 1.000164685528324160e+00
-9.624999999999999112e-01 1.939682775099874426e-02 1.000175418172176922e+00
-9.624999999999999112e-01 1.937346299260759436e-02 1.000003217869110061e+00
-9.624999999999999112e-01 1.911934766483325623e-02 1.000101586375464979e+00
-9.624999999999999112e-01 1.960043988143534907e-02 1.000054392124335889e+00
-9.624999999999999112e-01 1.947178730454105292e-02 1.000031650574157105e+00
-9.624999999999999112e-01 1.916475689629332929e-02 1.000022415034299561e+00
-9.624999999999999112e-01 1.937089926097887785e-02 1.000133029898109482e+00
-9.624999999999999112e-01 1.921679041317936321e-02 1.000055330114000718e+00
-9.624999999999999112e-01 1.920782766257392998e-02 1.000058565272304634e+00
-9.615000000000000213e-01 1.920656494726439081e-02 1.000167219343446323e+00
-9.615000000000000213e-01 1.910368212264940829e-02 1.000072129030557644e+00
-9.615000000000000213e-01 1.939909226258901970e-02 1.000027551344960131e+00
-9.615000000000000213e-01 1.950948453063427665e-02 1.000006547506688159e+00
-9.604999999999999094e-01 1.939697837023736382e-02 1.000155651734640383e+00
-9.604999999999999094e-01 1.951740638515058260e-02 1.000010458608038943e+00
-9.604999999999999094e-01 1.967080178904244067e-02 1.000082627034198701e+00
-9.604999999999999094e-01 1.909755128887547296e-02 1.000522365728705898e+00
-9.595000000000000195e-01 1.932024879152257485e-02 1.000163803728267853e+00
-9.595000000000000195e-01 1.932774321306638537e-02 1.000244691883843018e+00
-9.595000000000000195e-01 1.967847571884275351e-02 1.000020420135950161e+00
-9.595000000000000195e-01 1.895706245111507607e-02 1.000086580734369068e+00
-9.595000000000000195e-01 1.936888297940821124e-02 1.000032486912340923e+00
-9.595000000000000195e-01 1.894883400796920983e-02 1.000132327801436016e+00
-9.595000000000000195e-01 1.947365332542873653e-02 1.000086791661394914e+00
-9.595000000000000195e-01 1.934989670355240568e-02 1.000162834244588961e+00
-9.595000000000000195e-01 1.946435364342601060e-02 1.000017167007064334e+00
-9.584999999999999076e-01 1.959230099843152148e-02 1.000008505275972848e+00
-9.584999999999999076e-01 1.921259536228328568e-02 1.000267665722468058e+00
-9.584999999999999076e-01 1.944325407147824356e-02 1.000012194711580538e+00
-9.584999999999999076e-01 1.966528555742952378e-02 1.000000484659762101e+00
-9.584999999999999076e-01 1.944629262861646488e-02 1.000072263286878371e+00
-9.584999999999999076e-01 1.940929074503633042e-02 1.000010178280524853e+00
-9.584999999999999076e-01 1.936177038185873944e-02 1.000332653746563327e+00
-9.575000000000000178e-01 1.919298050651648685e-02 1.000047488537998186e+00
-9.575000000000000178e-01 1.952781840181181186e-02 1.000022929216888734e+00
-9.575000000000000178e-01 1.957260851555869471e-02 1.000004995037298450e+00
-9.575000000000000178e-01 1.972333801947708312e-02 1.000074583560369268e+00
-9.575000000000000178e-01 1.967145877591709030e-02 1.000005947372842874e+00
-9.564999999999999059e-01 1.914720961996521989e-02 1.000204255452552315e+00
-9.564999999999999059e-01 1.962087828747641899e-02 1.000102983434457693e+00
-9.564999999999999059e-01 1.957610636020087891e-02 1.000017008689131126e+00
-9.564999999999999059e-01 1.941324360190913381e-02 1.000004562381191509e+00
-9.564999999999999059e-01 1.957503859427697085e-02 1.000009066666256663e+00
-9.555000000000000160e-01 1.923677113933486976e-02 1.000178254173022863e+00
-9.555000000000000160e-01 1.862349696710877828e-02 1.000151328884167246e+00
-9.555000000000000160e-01 1.922357456359035863e-02 1.000024258698291701e+00
-9.555000000000000160e-01 1.930979920327623167e-02 1.000234160395828020e+00
-9.544999999999999041e-01 1.937619364765849270e-02 1.000023314147900022e+00
-9.544999999999999041e-01 1.906019037657033163e-02 1.000003481740655342e+00
-9.535000000000000142e-01 1.953461280244127643e-02 1.000010952026495259e+00
-9.535000000000000142e-01 1.941391990104073678e-02 1.000119362259008327e+00
-9.535000000000000142e-01 1.916261428161380315e-02 1.000012775260129994e+00
-9.535000000000000142e-01 1.935238803893873580e-02 1.000073390979505872e+00
-9.535000000000000142e-01 1.900525446264228133e-02 1.000049693993803279e+00
-9.535000000000000142e-01 1.935506694110261661e-02 1.000006792854156723e+00
-9.535000000000000142e-01 1.937051298600214050e-02 1.000321769657412041e+00
-9.535000000000000142e-01 1.902031258045843581e-02 1.000120341570538640e+00
-9.535000000000000142e-01 1.938326551932484376e-02 1.000085762701434122e+00
-9.524999999999999023e-01 1.935563943048903418e-02 1.000021635421705968e+00
-9.524999999999999023e-01 1.919699261727876236e-02 1.000236630875006583e+00
-9.524999999999999023e-01 1.912284359687994525e-02 1.000232428646975480e+00
-9.524999999999999023e-01 1.950254442990000461e-02 1.000008029168647061e+00
-9.524999999999999023e-01 1.985081183023512316e-02 1.000013285803062146e+00
-9.524999999999999023e-01 1.956588773057622160e-02 1.000035325946738274e+00
-9.515000000000000124e-01 1.943263236337158459e-02 1.000004607631695297e+00
-9.515000000000000124e-01 1.925267354696044361e-02 1.000001488820597917e+00
-9.515000000000000124e-01 1.932263025003456286e-02 1.000073574420068834e+00
-9.515000000000000124e-01 1.936979951274759096e-02 1.000049201748623551e+00
-9.515000000000000124e-01 1.970526124537337609e-02 1.000049292028623027e+00
-9.515000000000000124e-01 1.933538531713923855e-02 1.000012441141812536e+00
-9.504999999999999005e-01 1.943592629105616448e-02 1.000144707709712311e+00
-9.504999999999999005e-01 1.843862983175249132e-02 1.000615230405574874e+00
-9.504999999999999005e-01 1.960000437650679522e-02 1.000087384935038015e+00
-9.504999999999999005e-01 1.940115512914526372e-02 1.000020417454169364e+00
-9.504999999999999005e-01 1.850113830972496126e-02 1.000036235094497350e+00
-9.504999999999999005e-01 1.899964819560039098e-02 1.000097685278019899e+00
-9.495000000000000107e-01 1.941737441626514155e-02 1.000013785626905127e+00
-9.495000000000000107e-01 1.939701817655094251e-02 1.000065863765480012e+00
-9.495000000000000107e-01 1.924488436815434758e-02 1.000040794336723105e+00
-9.495000000000000107e-01 1.953757957623271369e-02 1.000064192723730816e+00
-9.495000000000000107e-01 1.968041647616664697e-02 1.000022687940773647e+00
-9.495000000000000107e-01 1.941275751325887561e-02 1.000034911174918273e+00
-9.495000000000000107e-01 1.940695722119813518e-02 1.000102899865238149e+00
-9.495000000000000107e-01 1.903123618074994972e-02 1.000009456201640390e+00
-9.495000000000000107e-01 1.934541140881390620e-02 1.000004805897985349e+00
-9.484999999999998987e-01 1.948422017465855152e-02 1.000021338974518059e+00
-9.484999999999998987e-01 1.925393344347085464e-02 1.000090412338709767e+00
-9.484999999999998987e-01 1.921500038275310296e-02 1.000030001187998119e+00
-9.484999999999998987e-01 1.907383822826532599e-02 1.000337188112797815e+00
-9.484999999999998987e-01 1.954268903690055403e-02 1.000008495252575180e+00
-9.484999999999998987e-01 1.949501570791805846e-02 1.000027091972081283e+00
-9.475000000000000089e-01 1.965395556117627979e-02 1.000072273469764017e+00
-9.475000000000000089e-01 1.939993950546638896e-02 1.000049964374387867e+00
-9.475000000000000089e-01 1.940525338725043042e-02 1.000084586902552086e+00
-9.475000000000000089e-01 1.992645890207104739e-02 1.000014632600111364e+00
-9.475000000000000089e-01 1.925677346285856531e-02 1.000152892856938314e+00
-9.464999999999998970e-01 1.893678576217060552e-02 1.000372755949620496e+00
-9.464999999999998970e-01 1.920080435883701753e-02 1.000112440467222807e+00
-9.464999999999998970e-01 1.933718742446899688e-02 1.000081315637856294e+00
-9.455000000000000071e-01 1.968680670603612654e-02 1.000040272216003556e+00
-9.455000000000000071e-01 1.932648125040556039e-02 1.000124834247883898e+00
-9.444999999999998952e-01 1.955856506929028529e-02 1.000021427397415286e+00
-9.444999999999998952e-01 1.936668394950416192e-02 1.000015838102693788e+00
-9.444999999999998952e-01 1.917211939168798202e-02 1.000119680246238874e+00
-9.444999999999998952e-01 1.957592443982272487e-02 1.000011860422665322e+00
-9.444999999999998952e-01 1.944879776820107944e-02 1.000058142982810594e+00
-9.444999999999998952e-01 1.901086124588431681e-02 1.000012415055072434e+00
-9.444999999999998952e-01 1.954259131383868225e-02 1.000000090321799595e+00
-9.444999999999998952e-01 1.933090792351455089e-02 1.000129343790120640e+00
-9.444999999999998952e-01 1.897988727238756126e-02 1.000105549043988296e+00
-9.444999999999998952e-01 1.911807828659137232e-02 1.000048325968074359e+00
-9.444999999999998952e-01 1.934737025324420254e-02 1.000067681985085111e+00
-9.435000000000000053e-01 1.941577407665695185e-02 1.000010271127524497e+00
-9.435000000000000053e-01 1.944556417670153040e-02 1.000020752383793177e+00
-9.435000000000000053e-01 1.974345756460813700e-02 1.000022177474343188e+00
-9.435000000000000053e-01 1.961517797846223932e-02 1.000005314717646865e+00
-9.435000000000000053e-01 1.954252238325002514e-02 1.000018551275184242e+00
-9.435000000000000053e-01 1.922021888001664361e-02 1.000203457913721561e+00
-9.424999999999998934e-01 1.919990541988879015e-02 1.000021644177963909e+00
-9.424999999999998934e-01 1.889564584483880566e-02 1.000512927871954671e+00
-9.424999999999998934e-01 1.933872253192729304e-02 1.000031618524184651e+00
-9.424999999999998934e-01 1.956657978126795372e-02 1.000014141483497987e+00
-9.424999999999998934e-01 1.949710768556769599e-02 1.000091516181274454e+00
-9.415000000000000036e-01 1.936679763408712465e-02 1.000039284696527364e+00
-9.415000000000000036e-01 1.927812047100464429e-02 1.000050749020014118e+00
-9.415000000000000036e-01 1.946569756868070725e-02 1.000077991652581488e+00
-9.415000000000000036e-01 1.860062169116361366e-02 1.000493272879098505e+00
-9.415000000000000036e-01 1.940876176960410968e-02 1.000021744646365285e+00
-9.415000000000000036e-01 1.864146591563063324e-02 1.000009476905317163e+00
-9.415000000000000036e-01 1.924942335239214139e-02 1.000101621708358923e+00
-9.415000000000000036e-01 1.939687932948419569e-02 1.000127037327507296e+00
-9.415000000000000036e-01 1.945597022365022286e-02 1.000108600006059056e+00
-9.404999999999998916e-01 1.921481877343889783e-02 1.000000483798494599e+00
-9.404999999999998916e-01 1.893767249300968777e-02 1.000034813750080298e+00
-9.404999999999998916e-01 1.904801841360778333e-02 1.000025654297006517e+00
-9.404999999999998916e-01 1.934144274523630011e-02 1.000021135803369265e+00
-9.404999999999998916e-01 1.947420733687079894e-02 1.000026592533480141e+00
-9.395000000000000018e-01 1.895375418478686264e-02 1.000691024807043528e+00
-9.395000000000000018e-01 1.881758930403707938e-02 1.000010945110115568e+00
-9.395000000000000018e-01 1.932218606007114065e-02 1.000071313444873100e+00
-9.395000000000000018e-01 1.944604432360886107e-02 1.000048924645725368e+00
-9.395000000000000018e-01 1.928401945032289302e-02 1.000107096916466265e+00
-9.395000000000000018e-01 1.967709938690700641e-02 1.000079439012389493e+00
-9.384999999999998899e-01 1.938840208382412028e-02 1.000007444192738904e+00
-9.384999999999998899e-01 1.980690204185130837e-02 1.000003918091570965e+00
-9.384999999999998899e-01 1.947258850207728847e-02 1.000026913224852487e+00
-9.384999999999998899e-01 1.972133267737991372e-02 1.000002047616826983e+00
-9.384999999999998899e-01 1.895428882506079368e-02 1.000085353955423528e+00
-9.384999999999998899e-01 1.961461847884338541e-02 1.000052395139010342e+00
-9.384999999999998899e-01 1.899808918472342331e-02 1.000191870154725660e+00
-9.375000000000000000e-01 1.953662212170404616e-02 1.000008610005276521e+00
-9.375000000000000000e-01 1.932372177466405022e-02 1.000233561700301532e+00
-9.375000000000000000e-01 1.921297477974810361e-02 1.000012301686781013e+00
-9.375000000000000000e-01 1.890293516688321823e-02 1.000579230601131631e+00
-9.375000000000000000e-01 1.949790975081045277e-02 1.000001338894768388e+00
-9.375000000000000000e-01 1.934385237430006135e-02 1.000074751885605018e+00
-9.375000000000000000e-01 1.914433450610882048e-02 1.000019942594965405e+00
-9.364999999999998881e-01 1.954229395804906594e-02 1.000016441143006807e+00
-9.364999999999998881e-01 1.923228836387759488e-02 1.000014212383996570e+00
-9.364999999999998881e-01 1.952244265062575562e-02 1.000088033777651875e+00
-9.364999999999998881e-01 1.969388288377503862e-02 1.000028410896388831e+00
-9.364999999999998881e-01 1.910040001002104304e-02 1.000126857343519138e+00
-9.364999999999998881e-01 1.917503925122013633e-02 1.000028271196494956e+00
-9.364999999999998881e-01 1.965416489657582574e-02 1.000005388200975620e+00
-9.364999999999998881e-01 1.922144643675677625e-02 1.000029320631172336e+00
-9.354999999999999982e-01 1.918155517035933372e-02 1.000058918811684405e+00
-9.354999999999999982e-01 1.962827862024342854e-02 1.000027052484763868e+00
-9.354999999999999982e-01 1.908601192814484565e-02 1.000107679288386731e+00
-9.354999999999999982e-01 1.937570748179630320e-02 1.000035031770641236e+00
-9.354999999999999982e-01 1.921340112741028519e-02 1.000018630238562301e+00
-9.344999999999998863e-01 1.946369361389259714e-02 1.000012159247987142e+00
-9.344999999999998863e-01 1.949033544235344306e-02 1.000015988335248185e+00
-9.344999999999998863e-01 1.941263519779347357e-02 1.000018063292781090e+00
-9.334999999999999964e-01 1.893924114433150410e-02 1.000005483084588143e+00
-9.334999999999999964e-01 1.937843907053711859e-02 1.000142395526820271e+00
-9.334999999999999964e-01 1.919806347389408849e-02 1.000096570528619333e+00
-9.334999999999999964e-01 1.972013050593265926e-02 1.000012505236223204e+00
-9.334999999999999964e-01 1.872972887147258958e-02 1.000173685127981438e+00
-9.324999999999998845e-01 1.912848204837707539e-02 1.000090858607360467e+00
-9.324999999999998845e-01 1.935489201059225478e-02 1.000013199584038892e+00
-9.324999999999998845e-01 1.946741107158694167e-02 1.000082648425312026e+00
-9.324999999999998845e-01 1.943138684794413346e-02 1.000138217880596869e+00
-9.324999999999998845e-01 1.895533223964036146e-02 1.000082603051709818e+00
-9.324999999999998845e-01 1.916872975160070075e-02 1.000004689984873796e+00
-9.324999999999998845e-01 1.956689175970459035e-02 1.000037425317267692e+00
-9.324999999999998845e-01 1.969074883506912593e-02 1.000030428248826153e+00
-9.324999999999998845e-01 1.921377608140586654e-02 1.000058389388088109e+00
-9.324999999999998845e-01 1.945180516373913593e-02 1.000057549448032601e+00
-9.324999999999998845e-01 1.960567318482429183e-02 1.000042036608090434e+00
-9.324999999999998845e-01 1.880740849548608734e-02 1.000121343953917386e+00
-9.324999999999998845e-01 1.934867383541101840e-02 1.000097692163713470e+00
-9.314999999999999947e-01 1.949034418549499756e-02 1.000022879248602337e+00
-9.314999999999999947e-01 1.872614765348721427e-02 1.000087249668793810e+00
-9.314999999999999947e-01 1.955669534483485753e-02 1.000137378405690836e+00
-9.314999999999999947e-01 1.951410268882034643e-02 1.000144361971613494e+00
-9.314999999999999947e-01 1.886398596177636319e-02 1.000147572158742060e+00
-9.304999999999998828e-01 1.892101821776619522e-02 1.000197541928633749e+00
-9.304999999999998828e-01 1.920642945430128812e-02 1.000227701534627700e+00
-9.304999999999998828e-01 1.927201611194459888e-02 1.000315491254320621e+00
-9.304999999999998828e-01 1.969227243593190541e-02 1.000007433587218886e+00
-9.304999999999998828e-01 1.932642506045510744e-02 1.000014197695229035e+00
-9.304999999999998828e-01 1.906002140024158978e-02 1.000891139779951144e+00
-9.294999999999999929e-01 1.938927289288559438e-02 1.000025091315045689e+00
-9.294999999999999929e-01 1.960517808266219394e-02 1.000073069033300843e+00
-9.294999999999999929e-01 1.916951308139536528e-02 1.000060917517555437e+00
-9.294999999999999929e-01 1.932181023659692784e-02 1.000065707913418978e+00
-9.294999999999999929e-01 1.948000997057063727e-02 1.000010541860787194e+00
-9.284999999999998810e-01 1.906313581927864681e-02 1.000027433933000420e+00
-9.284999999999998810e-01 1.941477392814734346e-02 1.000045523221458010e+00
-9.284999999999998810e-01 1.966153801499314138e-02 1.000075302045720038e+00
-9.284999999999998810e-01 1.931782826031447006e-02 1.000087974982618144e+00
-9.284999999999998810e-01 1.961497552390522800e-02 1.000011785665136710e+00
-9.284999999999998810e-01 1.957439788218191465e-02 1.000003962790390721e+00
-9.284999999999998810e-01 1.959068223568328701e-02 1.000087153178142785e+00
-9.274999999999999911e-01 1.939328562199748446e-02 1.000096188507918926e+00
-9.274999999999999911e-01 1.912827083448321794e-02 1.000097893793680193e+00
-9.274999999999999911e-01 1.919383922760678485e-02 1.000103218269379202e+00
-9.274999999999999911e-01 1.876105374815757038e-02 1.000051452103532412e+00
-9.274999999999999911e-01 1.934103561242297292e-02 1.000301393253693272e+00
-9.274999999999999911e-01 1.975855146978688914e-02 1.000028316949717944e+00
-9.274999999999999911e-01 1.906270180226902339e-02 1.000053841170603919e+00
-9.264999999999998792e-01 1.912650509767443649e-02 1.000088943093307758e+00
-9.264999999999998792e-01 1.902084329581294614e-02 1.000008666856456285e+00
-9.264999999999998792e-01 1.978420159997696173e-02 1.000011970516197168e+00
-9.264999999999998792e-01 1.935802238040047057e-02 1.000154366983210252e+00
-9.264999999999998792e-01 1.931641447106022952e-02 1.000128640538503477e+00
-9.264999999999998792e-01 1.927550609646716540e-02 1.000233649463002639e+00
-9.254999999999999893e-01 1.968155376296421011e-02 1.000014218429353230e+00
-9.254999999999999893e-01 1.953784627835513515e-02 1.000003148244120066e+00
-9.254999999999999893e-01 1.926289136509271721e-02 1.000000609096424409e+00
-9.254999999999999893e-01 1.955303592066895760e-02 1.000015041231481883e+00
-9.254999999999999893e-01 1.928572339500904398e-02 1.000007650024716144e+00
-9.244999999999998774e-01 1.947056777834158675e-02 1.000150881765023314e+00
-9.244999999999998774e-01 1.892545267996982930e-02 1.000029692657052882e+00
-9.244999999999998774e-01 1.957609030327102373e-02 1.000005581866190818e+00
-9.244999999999998774e-01 1.956750220075106905e-02 1.000016084704698383e+00
-9.244999999999998774e-01 1.923687583068981952e-02 1.000044601327670479e+00
-9.244999999999998774e-01 1.909135350617969726e-02 1.000073135996832008e+00
-9.244999999999998774e-01 1.967663053535063586e-02 1.000019890982031701e+00
-9.244999999999998774e-01 1.934356010039534751e-02 1.000028729660631610e+00
-9.244999999999998774e-01 1.944633645867316005e-02 1.000000174775814044e+00
-9.244999999999998774e-01 1.962700310164820772e-02 1.000034451922172218e+00
-9.244999999999998774e-01 1.983756086035939198e-02 1.000010698477804771e+00
-9.244999999999998774e-01 1.873800967102647042e-02 1.000099935944718910e+00
-9.244999999999998774e-01 1.930353339315260194e-02 1.000051732182492659e+00
-9.234999999999999876e-01 1.934296095285802097e-02 1.000030417491383217e+00
-9.234999999999999876e-01 1.883097319732394970e-02 1.000046610037396810e+00
-9.234999999999999876e-01 1.892026474362031724e-02 1.000050254657121052e+00
-9.234999999999999876e-01 1.926447231035672072e-02 1.000028114250838263e+00
-9.234999999999999876e-01 1.957856876971209373e-02 1.000020560389507818e+00
-9.234999999999999876e-01 1.935105689609818713e-02 1.000014772663022411e+00
-9.234999999999999876e-01 1.950579273838179764e-02 1.000043557413016870e+00
-9.234999999999999876e-01 1.953278929792491916e-02 1.000122715239060822e+00
-9.234999999999999876e-01 1.926511273056444665e-02 1.000080457223972985e+00
-9.224999999999998757e-01 1.898855368217361103e-02 1.000122995554665106e+00
-9.224999999999998757e-01 1.889915813771380487e-02 1.000169130053328415e+00
-9.224999999999998757e-01 1.939286357890480580e-02 1.000021090640237365e+00
-9.224999999999998757e-01 1.902380198570672795e-02 1.000009085499950379e+00
-9.224999999999998757e-01 1.893988821331243563e-02 1.000241043239051830e+00
-9.224999999999998757e-01 1.933380774284390591e-02 1.000041886423263415e+00
-9.224999999999998757e-01 1.947558505413805527e-02 1.000016285578947617e+00
-9.224999999999998757e-01 1.923849188218176506e-02 1.000034346873616142e+00
-9.214999999999999858e-01 1.921949845339120805e-02 1.000098577086008023e+00
-9.214999999999999858e-01 1.951389877539091988e-02 1.000042966296193603e+00
-9.214999999999999858e-01 1.948158284430660803e-02 1.000001652474461489e+00
-9.214999999999999858e-01 1.925740790240615744e-02 1.000095970752923780e+00
-9.214999999999999858e-01 1.927547287929001416e-02 1.000003440400669907e+00
-9.214999999999999858e-01 1.954132383644541920e-02 1.000163083176205836e+00
-9.214999999999999858e-01 1.850638039682620320e-02 1.000098564359003683e+00
-9.214999999999999858e-01 1.957514220616266010e-02 1.000002688324059141e+00
-9.214999999999999858e-01 1.903927506595884042e-02 1.000043955813472385e+00
-9.214999999999999858e-01 1.934417314181370237e-02 1.000010421101423352e+00
-9.204999999999998739e-01 1.951181944219933587e-02 1.000127682093598702e+00
-9.204999999999998739e-01 1.923261301748108512e-02 1.000117818090537902e+00
-9.204999999999998739e-01 1.948813536399128521e-02 1.000011194992308727e+00
-9.204999999999998739e-01 1.897350341092974430e-02 1.000000888171841407e+00
-9.204999999999998739e-01 1.934600327340999307e-02 1.000031326753052952e+00
-9.204999999999998739e-01 1.932790667398849235e-02 1.000159323468249095e+00
-9.204999999999998739e-01 1.945536884715337242e-02 1.000062930788862436e+00
-9.194999999999999840e-01 1.901033039390781498e-02 1.000055658124467284e+00
-9.194999999999999840e-01 1.941175960071447534e-02 1.000031065227317217e+00
-9.194999999999999840e-01 1.947398279747151670e-02 1.000036017749772244e+00
-9.194999999999999840e-01 1.921679789254724519e-02 1.000005830005332719e+00
-9.194999999999999840e-01 1.929466046810343616e-02 1.000000555191852936e+00
-9.194999999999999840e-01 1.955734976065897843e-02 1.000054041682643335e+00
-9.194999999999999840e-01 1.886776987487956761e-02 1.000002949797531349e+00
-9.194999999999999840e-01 1.947860425512215957e-02 1.000001045447093118e+00
-9.194999999999999840e-01 1.894270168261871432e-02 1.000177768808078849e+00
-9.184999999999998721e-01 1.940003729014379633e-02 1.000111461849405359e+00
-9.184999999999998721e-01 1.952352223422994942e-02 1.000004643276058314e+00
-9.184999999999998721e-01 1.922825144451010063e-02 1.000013227284444417e+00
-9.184999999999998721e-01 1.934382184120450252e-02 1.000028416808773191e+00
-9.184999999999998721e-01 1.938150646133995209e-02 1.000024904806892545e+00
-9.184999999999998721e-01 1.949708355660051753e-02 1.000018496472757201e+00
-9.184999999999998721e-01 1.960672513543101209e-02 1.000112358210711871e+00
-9.184999999999998721e-01 1.861874922985979827e-02 1.000270327481588506e+00
-9.174999999999999822e-01 1.943283126717253173e-02 1.000018920131583888e+00
-9.174999999999999822e-01 1.873784210320002599e-02 1.000029734086757660e+00
-9.174999999999999822e-01 1.885943844153661203e-02 1.000320456288442239e+00
-9.174999999999999822e-01 1.969584053098728457e-02 1.000022371298416646e+00
-9.174999999999999822e-01 1.949995927440089857e-02 1.000018456134204037e+00
-9.174999999999999822e-01 1.933692308205557306e-02 1.000000723120823665e+00
-9.174999999999999822e-01 1.907656495687844525e-02 1.000053926332454157e+00
-9.174999999999999822e-01 1.898817497442372923e-02 1.000154112651840288e+00
-9.174999999999999822e-01 1.963964896829604317e-02 1.000005405389384761e+00
-9.174999999999999822e-01 1.898219203824537751e-02 1.000005623618843487e+00
-9.164999999999998703e-01 1.901067609250883111e-02 1.000003152392943351e+00
-9.164999999999998703e-01 1.942464198007276543e-02 1.000018808031162720e+00
-9.164999999999998703e-01 1.954369566199462213e-02 1.000042211058280728e+00
-9.164999999999998703e-01 1.976162152723347568e-02 1.000012553355736689e+00
-9.164999999999998703e-01 1.946635148981335287e-02 1.000011161630871781e+00
-9.164999999999998703e-01 1.911492434315673061e-02 1.000233172765640388e+00
-9.164999999999998703e-01 1.909272630011154756e-02 1.000227705334248318e+00
-9.154999999999999805e-01 1.921684250801718868e-02 1.000074971987520822e+00
-9.154999999999999805e-01 1.859713202750502489e-02 1.000326628867405754e+00
-9.154999999999999805e-01 1.927010889649815109e-02 1.000028493598805746e+00
-9.154999999999999805e-01 1.887507690678482189e-02 1.000547259633788322e+00
-9.154999999999999805e-01 1.928822536451701639e-02 1.000094419883057695e+00
-9.154999999999999805e-01 1.897393061864934005e-02 1.000008033386739381e+00
-9.154999999999999805e-01 1.932156163597631773e-02 1.000077089064753677e+00
-9.154999999999999805e-01 1.945925974175708589e-02 1.000018865971016746e+00
-9.154999999999999805e-01 1.914777262184536727e-02 1.000071180422537065e+00
-9.154999999999999805e-01 1.974558407578800440e-02 1.000017490147132815e+00
-9.154999999999999805e-01 1.900895835228325059e-02 1.000104970046767239e+00
-9.154999999999999805e-01 1.937510214450933327e-02 1.000012566244758760e+00
-9.154999999999999805e-01 1.939265367203715437e-02 1.000050622104237785e+00
-9.144999999999998685e-01 1.951209227217994349e-02 1.000010058108600219e+00
-9.144999999999998685e-01 1.949521395187216177e-02 1.000020589956049921e+00
-9.144999999999998685e-01 1.922335861627612330e-02 1.000073624406779160e+00
-9.144999999999998685e-01 1.895158357182911632e-02 1.000057399475209108e+00
-9.144999999999998685e-01 1.913524604459509657e-02 1.000019823819655151e+00
-9.144999999999998685e-01 1.929321068038626630e-02 1.000232309000488096e+00
-9.134999999999999787e-01 1.950109526192998419e-02 1.000012609458274859e+00
-9.134999999999999787e-01 1.914672087017292926e-02 1.000031565069589234e+00
-9.134999999999999787e-01 1.936273837778361429e-02 1.000031216030999870e+00
-9.134999999999999787e-01 1.895629037832223876e-02 1.000050691300188310e+00
-9.134999999999999787e-01 1.915438937908837611e-02 1.000151611733338441e+00
-9.134999999999999787e-01 1.948083521744708654e-02 1.000002630042829743e+00
-9.134999999999999787e-01 1.883745344994572704e-02 1.000003743070972284e+00
-9.134999999999999787e-01 1.904900912693484674e-02 1.000328074311261473e+00
-9.134999999999999787e-01 1.885719623559761748e-02 1.000064356163009593e+00
-9.124999999999998668e-01 1.943777038045097980e-02 1.000003821797671222e+00
-9.124999999999998668e-01 1.954022980976321058e-02 1.000007789970067451e+00
-9.124999999999998668e-01 1.966060065914202598e-02 1.000005440831696069e+00
-9.124999999999998668e-01 1.870742134486559280e-02 1.000078715110118699e+00
-9.124999999999998668e-01 1.943898753668810153e-02 1.000110331589460611e+00
-9.124999999999998668e-01 1.939759240762893577e-02 1.000058329714218486e+00
-9.124999999999998668e-01 1.945805803826695587e-02 1.000018483279518033e+00
-9.124999999999998668e-01 1.941929699254366787e-02 1.000026419722967130e+00
-9.124999999999998668e-01 1.864488899453178861e-02 1.000287225782594103e+00
-9.124999999999998668e-01 1.880780842530761082e-02 1.000150821060971307e+00
-9.124999999999998668e-01 1.945645233604924654e-02 1.000021960236049612e+00
-9.114999999999999769e-01 1.940140437805979931e-02 1.000012675027020848e+00
-9.114999999999999769e-01 1.931248224316750237e-02 1.000022431194787398e+00
-9.114999999999999769e-01 1.889670421818132398e-02 1.000035877527293060e+00
-9.114999999999999769e-01 1.936247218968742759e-02 1.000095867467682975e+00
-9.114999999999999769e-01 1.929226864927669274e-02 1.000139444830737245e+00
-9.114999999999999769e-01 1.915182366813344278e-02 1.000285578771070050e+00
-9.114999999999999769e-01 1.953293360021515074e-02 1.000173914682041421e+00
-9.114999999999999769e-01 1.947434730185196999e-02 1.000002934441707181e+00
-9.114999999999999769e-01 1.931085621322521304e-02 1.000067029702367716e+00
-9.104999999999998650e-01 1.931389235387384259e-02 1.000059707416954602e+00
-9.104999999999998650e-01 1.931080988961504999e-02 1.000132050765830449e+00
-9.104999999999998650e-01 1.930745570157548635e-02 1.000005619695764958e+00
-9.104999999999998650e-01 1.951457679745639828e-02 1.000104818502148829e+00
-9.104999999999998650e-01 1.925560173563113653e-02 1.000068473181064954e+00
-9.104999999999998650e-01 1.911333779481400041e-02 1.000053093416491290e+00
-9.104999999999998650e-01 1.910069482032538540e-02 1.000066585234888228e+00
-9.104999999999998650e-01 1.893437547637697241e-02 1.000299080320398826e+00
-9.104999999999998650e-01 1.912440092107066392e-02 1.000113062633943173e+00
-9.104999999999998650e-01 1.950688251122208172e-02 1.000045808074503606e+00
-9.104999999999998650e-01 1.929376503276693591e-02 1.000044944438869932e+00
-9.104999999999998650e-01 1.961680596373263294e-02 1.000078916548782226e+00
-9.104999999999998650e-01 1.943628584811575924e-02 1.000003165982156883e+00
-9.104999999999998650e-01 1.867025950820933033e-02 1.000045348791734012e+00
-9.094999999999999751e-01 1.904976142786034277e-02 1.000002045970292297e+00
-9.094999999999999751e-01 1.916696140277105234e-02 1.000015568235148811e+00
-9.094999999999999751e-01 1.921725675430033947e-02 1.000127494089069202e+00
-9.094999999999999751e-01 1.936363195417191777e-02 1.000372464755767465e+00
-9.094999999999999751e-01 1.923698108072697741e-02 1.000075817972691405e+00
-9.094999999999999751e-01 1.884274764663105423e-02 1.000080742984789328e+00
-9.094999999999999751e-01 1.906235997548809402e-02 1.000252454248612199e+00
-9.084999999999998632e-01 1.938931764948175623e-02 1.000075516446577772e+00
-9.084999999999998632e-01 1.941297416458351299e-02 1.000109185911091103e+00
-9.084999999999998632e-01 1.855252284681180308e-02 1.000098073718112435e+00
-9.084999999999998632e-01 1.908387804000044596e-02 1.000098343307504800e+00
-9.084999999999998632e-01 1.903738921874148157e-02 1.000006048290452476e+00
-9.084999999999998632e-01 1.958534949328209068e-02 1.000057609878400644e+00
-9.084999999999998632e-01 1.921578842849350904e-02 1.000016804859350517e+00
-9.084999999999998632e-01 1.918173604726782638e-02 1.000022337024250030e+00
-9.084999999999998632e-01 1.913546743309280443e-02 1.000474923552547857e+00
-9.074999999999999734e-01 1.942907092470632507e-02 1.000024429157016392e+00
-9.074999999999999734e-01 1.954696511751657928e-02 1.000021924217795899e+00
-9.074999999999999734e-01 1.943808828040244699e-02 1.000026099755298326e+00
-9.064999999999998614e-01 1.913952048524519486e-02 1.000201529264808986e+00
-9.064999999999998614e-01 1.882714601831809650e-02 1.000135244931696921e+00
-9.064999999999998614e-01 1.916670452420071377e-02 1.000049641184015403e+00
-9.064999999999998614e-01 1.936438083206807811e-02 1.000031971981234058e+00
-9.054999999999999716e-01 1.944428772849214268e-02 1.000024073796596413e+00
-9.054999999999999716e-01 1.946270674605658432e-02 1.000069314561256917e+00
-9.054999999999999716e-01 1.912902359769158914e-02 1.000202771623002418e+00
-9.054999999999999716e-01 1.958800117158134013e-02 1.000048197720832199e+00
-9.054999999999999716e-01 1.935444513501564934e-02 1.000016744940470881e+00
-9.054999999999999716e-01 1.942862448445338563e-02 1.000010801514517711e+00
-9.054999999999999716e-01 1.924193986315012386e-02 1.000024512496462625e+00
-9.054999999999999716e-01 1.944469958228853268e-02 1.000031549675863607e+00
-9.054999999999999716e-01 1.810033355250640144e-02 1.001029952072840734e+00
-9.054999999999999716e-01 1.895151742866662062e-02 1.000035767161859601e+00
-9.044999999999998597e-01 1.971507471120563168e-02 1.000107000738192031e+00
-9.044999999999998597e-01 1.950179868666400765e-02 1.000110096423732164e+00
-9.044999999999998597e-01 1.923909190614200848e-02 1.000012855009073443e+00
-9.044999999999998597e-01 1.955202069400237622e-02 1.000038571859871883e+00
-9.044999999999998597e-01 1.923349483639833629e-02 1.000143829609389856e+00
-9.044999999999998597e-01 1.908376841635817805e-02 1.000075516919601837e+00
-9.034999999999999698e-01 1.914872559763164742e-02 1.000676859773268257e+00
-9.034999999999999698e-01 1.897674516149699606e-02 1.000021447315112777e+00
-9.034999999999999698e-01 1.954194528040194279e-02 1.000105605553555765e+00
-9.034999999999999698e-01 1.937451695572216595e-02 1.000018658787823478e+00
-9.034999999999999698e-01 1.934195901200951376e-02 1.000262751603621991e+00
-9.034999999999999698e-01 1.967323628822462492e-02 1.000010437282270237e+00
-9.034999999999999698e-01 1.956042203691905554e-02 1.000010365534127921e+00
-9.024999999999998579e-01 1.952550627743316128e-02 1.000017839259349284e+00
-9.024999999999998579e-01 1.929615231860513577e-02 1.000097596922604470e+00
-9.024999999999998579e-01 1.962147077798995221e-02 1.000007264893958636e+00
-9.024999999999998579e-01 1.939129951606207922e-02 1.000039432682594542e+00
-9.024999999999998579e-01 1.963126657303820508e-02 1.000045821949351765e+00
-9.024999999999998579e-01 1.884918641345002810e-02 1.000756861391453256e+00
-9.024999999999998579e-01 1.940023989826545128e-02 1.000132809554721725e+00
-9.024999999999998579e-01 1.856547494628334183e-02 1.000112982478148060e+00
-9.024999999999998579e-01 1.914995711093674460e-02 1.000053844578091988e+00
-9.024999999999998579e-01 1.861129945566233554e-02 1.000195908876045037e+00
-9.024999999999998579e-01 1.938286894990454839e-02 1.000095024066800065e+00
-9.024999999999998579e-01 1.959159583132357926e-02 1.000025733042396503e+00
-9.014999999999999680e-01 1.913950524043247364e-02 1.000030363705658676e+00
-9.014999999999999680e-01 1.938272155972175365e-02 1.000367396383031293e+00
-9.014999999999999680e-01 1.924029632232370640e-02 1.000024544045434283e+00
-9.014999999999999680e-01 1.882132723563141943e-02 1.000102438667817228e+00
-9.014999999999999680e-01 1.934497764793213434e-02 1.000056524821575366e+00
-9.014999999999999680e-01 1.953118625219188095e-02 1.000030849529007559e+00
-9.014999999999999680e-01 1.858521395945569171e-02 1.000816193299044476e+00
-9.004999999999998561e-01 1.936122974215509843e-02 1.000015005201808194e+00
-9.004999999999998561e-01 1.925427775435782987e-02 1.000058815838601234e+00
-9.004999999999998561e-01 1.933604621517116470e-02 1.000023638101095180e+00
-9.004999999999998561e-01 1.948710525384119222e-02 1.000145747457800383e+00
-9.004999999999998561e-01 1.928923898403638731e-02 1.000003325575521407e+00
-9.004999999999998561e-01 1.916082961872611623e-02 1.000026260233506603e+00
-8.994999999999999662e-01 1.922416241477936660e-02 1.000104388232315511e+00
-8.994999999999999662e-01 1.985089418723983562e-02 1.000006208247226080e+00
-8.994999999999999662e-01 1.920830353031708834e-02 1.000001501919531854e+00
-8.994999999999999662e-01 1.970081915722271884e-02 1.000019190797742041e+00
-8.994999999999999662e-01 1.960878340279688728e-02 1.000005103886218327e+00
-8.994999999999999662e-01 1.865674885052972035e-02 1.000243618894694597e+00
-8.984999999999998543e-01 1.939744678347844406e-02 1.000007351522088417e+00
-8.984999999999998543e-01 1.943828227337981648e-02 1.000003617014157520e+00
-8.984999999999998543e-01 1.927841223158507228e-02 1.000080986331404631e+00
-8.984999999999998543e-01 1.832263244569900390e-02 1.000258050076567429e+00
-8.984999999999998543e-01 1.918486364018759383e-02 1.000373172609719363e+00
-8.984999999999998543e-01 1.948791480304873022e-02 1.000003776256733312e+00
-8.984999999999998543e-01 1.938935799475519084e-02 1.000024429085471844e+00
-8.984999999999998543e-01 1.893929812136628185e-02 1.000032510590565860e+00
-8.984999999999998543e-01 1.957016796149635765e-02 1.000001207431115535e+00
-8.984999999999998543e-01 1.911043242092272734e-02 1.000164643888325156e+00
-8.974999999999999645e-01 1.954624233488969423e-02 1.000087358305717045e+00
-8.974999999999999645e-01 1.938781790593660515e-02 1.001305940727398536e+00
-8.974999999999999645e-01 1.965740014153719017e-02 1.000054559109053054e+00
-8.974999999999999645e-01 1.928353314336831575e-02 1.000029628587146613e+00
-8.974999999999999645e-01 1.926334677823646202e-02 1.000040048472202070e+00
-8.974999999999999645e-01 1.913066269254375465e-02 1.000002510334857098e+00
-8.974999999999999645e-01 1.948909752977391260e-02 1.000017508251254794e+00
-8.974999999999999645e-01 1.928975343079558993e-02 1.000014393079466268e+00
-8.974999999999999645e-01 1.955324263622018263e-02 1.000003817683666307e+00
-8.974999999999999645e-01 1.922566754505297681e-02 1.000083866308268510e+00
-8.964999999999998526e-01 1.928884313986044263e-02 1.000012901796253351e+00
-8.964999999999998526e-01 1.907896706870577594e-02 1.000156275273038409e+00
-8.964999999999998526e-01 1.864209123642389040e-02 1.000281931817655012e+00
-8.964999999999998526e-01 1.900377714623050981e-02 1.000031256277655656e+00
-8.964999999999998526e-01 1.936617773148057928e-02 1.000015639647301446e+00
-8.964999999999998526e-01 1.936230661101048453e-02 1.000027871285145364e+00
-8.964999999999998526e-01 1.920164308718174881e-02 1.000106171049634396e+00
-8.954999999999999627e-01 1.823410221733914177e-02 1.000464329821025622e+00
-8.954999999999999627e-01 1.964937197643829361e-02 1.000036688997104850e+00
-8.954999999999999627e-01 1.934132585690543152e-02 1.000230814138374003e+00
-8.954999999999999627e-01 1.936183882835620929e-02 1.000003597780330322e+00
-8.954999999999999627e-01 1.945924507001656548e-02 1.000102601857925766e+00
-8.954999999999999627e-01 1.932608110453086503e-02 1.000025848994174904e+00
-8.954999999999999627e-01 1.941178202780742545e-02 1.000042702138594253e+00
-8.954999999999999627e-01 1.962629677480294543e-02 1.000014317789214902e+00
-8.954999999999999627e-01 1.926442776559680534e-02 1.000145490674517301e+00
-8.944999999999998508e-01 1.954308216093606637e-02 1.000032939873441773e+00
-8.944999999999998508e-01 1.924004801816070129e-02 1.000102243465826213e+00
-8.944999999999998508e-01 1.937271030615772202e-02 1.000024418103957924e+00
-8.944999999999998508e-01 1.955856979272017904e-02 1.000030658408285200e+00
-8.944999999999998508e-01 1.922584956575605283e-02 1.000037983948600662e+00
-8.944999999999998508e-01 1.941497973577547415e-02 1.000014481421465096e+00
-8.944999999999998508e-01 1.930517428778474182e-02 1.000052366278037619e+00
-8.944999999999998508e-01 1.970535779537450211e-02 1.000002896098906913e+00
-8.944999999999998508e-01 1.907790663847332840e-02 1.000099942223025673e+00
-8.934999999999999609e-01 1.897293336635354558e-02 1.000668151497957403e+00
-8.934999999999999609e-01 1.962843800948924078e-02 1.000022530472461479e+00
-8.934999999999999609e-01 1.920501581611661068e-02 1.000096149245975230e+00
-8.934999999999999609e-01 1.927242139225244372e-02 1.000055141581787987e+00
-8.934999999999999609e-01 1.908744964173757913e-02 1.000160096321858649e+00
-8.934999999999999609e-01 1.930613060315652940e-02 1.000089126593419309e+00
-8.934999999999999609e-01 1.914275379931415152e-02 1.000090934687679178e+00
-8.934999999999999609e-01 1.945722922039763020e-02 1.000017595759862044e+00
-8.934999999999999609e-01 1.930605296207594385e-02 1.000038040444677145e+00
-8.934999999999999609e-01 1.873918517544508749e-02 1.000502810719042790e+00
-8.924999999999998490e-01 1.902306838882332138e-02 1.000022600276037066e+00
-8.924999999999998490e-01 1.913284405697947624e-02 1.000008359894398957e+00
-8.924999999999998490e-01 1.874611162760416588e-02 1.000040276153176366e+00
-8.924999999999998490e-01 1.924076073436958856e-02 1.000038411045846232e+00
-8.924999999999998490e-01 1.959517726774759674e-02 1.000028923700258421e+00
-8.924999999999998490e-01 1.921966733570840483e-02 1.000190117069322371e+00
-8.924999999999998490e-01 1.878057647949299067e-02 1.000012670035085982e+00
-8.924999999999998490e-01 1.876781921542337861e-02 1.000508253219818844e+00
-8.924999999999998490e-01 1.962650815148815620e-02 1.000031365001066153e+00
-8.924999999999998490e-01 1.882608428723200888e-02 1.000008221543146503e+00
-8.924999999999998490e-01 1.929281016314274289e-02 1.000040772426130875e+00
-8.924999999999998490e-01 1.952860699161673014e-02 1.000041879515560339e+00
-8.924999999999998490e-01 1.940271569887695377e-02 1.000101334978426459e+00
-8.914999999999999591e-01 1.934365161948494588e-02 1.000011072395871725e+00
-8.914999999999999591e-01 1.938924927386636785e-02 1.000063958875103021e+00
-8.914999999999999591e-01 1.966451048885374878e-02 1.000047711322406219e+00
-8.914999999999999591e-01 1.854761780009566915e-02 1.000550494423918968e+00
-8.904999999999998472e-01 1.923073593970120801e-02 1.000034428163098399e+00
-8.904999999999998472e-01 1.923682535568481053e-02 1.000112427549809668e+00
-8.904999999999998472e-01 1.941574691224895802e-02 1.000008815536710616e+00
-8.904999999999998472e-01 1.917116245219557813e-02 1.000048279722551170e+00
-8.904999999999998472e-01 1.940583780244943546e-02 1.000063562894449642e+00
-8.904999999999998472e-01 1.899195839028761448e-02 1.000155691509963418e+00
-8.904999999999998472e-01 1.952812960957003505e-02 1.000016948359293112e+00
-8.904999999999998472e-01 1.871294332932089272e-02 1.000053485315976154e+00
-8.904999999999998472e-01 1.917687548050281410e-02 1.000075272477922717e+00
-8.894999999999999574e-01 1.948705900406933617e-02 1.000016372947642562e+00
-8.894999999999999574e-01 1.937304910546453970e-02 1.000085919274384505e+00
-8.894999999999999574e-01 1.932895211083349163e-02 1.000016267550155824e+00
-8.894999999999999574e-01 1.940882680561758708e-02 1.000007327162948156e+00
-8.894999999999999574e-01 1.939438987636716780e-02 1.000083164284297110e+00
-8.894999999999999574e-01 1.973290519997513218e-02 1.000054159880525262e+00
-8.894999999999999574e-01 1.961423773402096518e-02 1.000008910132447415e+00
-8.884999999999998455e-01 1.876786227621314931e-02 1.002616608166470691e+00
-8.884999999999998455e-01 1.953454573883887588e-02 1.000040435239732517e+00
-8.884999999999998455e-01 1.909267985029481154e-02 1.000038800396849448e+00
-8.884999999999998455e-01 1.949207935817207776e-02 1.000057666716657190e+00
-8.884999999999998455e-01 1.900737947843708989e-02 1.000092080891215929e+00
-8.884999999999998455e-01 1.926471890333040018e-02 1.000075140054053735e+00
-8.884999999999998455e-01 1.947342017532081165e-02 1.000100183716249980e+00
-8.884999999999998455e-01 1.905214730164320538e-02 1.000113760904985272e+00
-8.884999999999998455e-01 1.935087165651584382e-02 1.000041623364321008e+00
-8.884999999999998455e-01 1.923777814110119722e-02 1.000119667775619670e+00
-8.884999999999998455e-01 1.892671874910375682e-02 1.000167762033383534e+00
-8.874999999999999556e-01 1.906732806506588468e-02 1.000095820869159269e+00
-8.874999999999999556e-01 1.943481798143906203e-02 1.000025418840719160e+00
-8.874999999999999556e-01 1.913225045170699468e-02 1.000021720445417373e+00
-8.874999999999999556e-01 1.893773190528600867e-02 1.000091593256936529e+00
-8.874999999999999556e-01 1.936083742549340320e-02 1.000153204585467970e+00
-8.864999999999998437e-01 1.955051548457215418e-02 1.000013335357683886e+00
-8.864999999999998437e-01 1.962377982384533315e-02 1.000025421128173164e+00
-8.864999999999998437e-01 1.892019704767132146e-02 1.000248083240891095e+00
-8.864999999999998437e-01 1.901397158553474673e-02 1.000041418675562621e+00
-8.864999999999998437e-01 1.886768536964066392e-02 1.000122901471644177e+00
-8.864999999999998437e-01 1.899192448503681310e-02 1.000027099329527935e+00
-8.864999999999998437e-01 1.904216560726548074e-02 1.000023307027141151e+00
-8.864999999999998437e-01 1.928846234114962518e-02 1.000026248492314584e+00
-8.864999999999998437e-01 1.948255671387460336e-02 1.000000755270468167e+00
-8.864999999999998437e-01 1.878729295228792964e-02 1.001248699860505909e+00
-8.864999999999998437e-01 1.942569590872786703e-02 1.000033829883242298e+00
-8.864999999999998437e-01 1.959402190896824755e-02 1.000105882987313288e+00
-8.864999999999998437e-01 1.938129461406678383e-02 1.000334275890888858e+00
-8.864999999999998437e-01 1.926685736463770726e-02 1.000077039166667792e+00
-8.864999999999998437e-01 1.952517667045227182e-02 1.000013347591151014e+00
-8.854999999999999538e-01 1.902692309106850457e-02 1.000006711111760538e+00
-8.854999999999999538e-01 1.910981060265506959e-02 1.000088055386676889e+00
-8.854999999999999538e-01 1.910396743768309410e-02 1.000012045850726450e+00
-8.854999999999999538e-01 1.900987402441100399e-02 1.000018371772224635e+00
-8.854999999999999538e-01 1.933985595537331473e-02 1.000170152105111621e+00
-8.854999999999999538e-01 1.941455521222803376e-02 1.000019023811569818e+00
-8.854999999999999538e-01 1.924405308466837355e-02 1.000067710084502126e+00
-8.854999999999999538e-01 1.965368541712750328e-02 1.000012115080720410e+00
-8.854999999999999538e-01 1.867816477125364485e-02 1.000006357127993573e+00
-8.854999999999999538e-01 1.926410371744306099e-02 1.000000825596091492e+00
-8.844999999999998419e-01 1.928911888021679968e-02 1.000018800965666088e+00
-8.844999999999998419e-01 1.896973368729401588e-02 1.000024791866260587e+00
-8.844999999999998419e-01 1.922154525399738176e-02 1.000059901074621616e+00
-8.844999999999998419e-01 1.884544548679947806e-02 1.000142453703243950e+00
-8.844999999999998419e-01 1.935282661803104307e-02 1.000006969489563913e+00
-8.844999999999998419e-01 1.875071238930143408e-02 1.000009787095309299e+00
-8.834999999999999520e-01 1.890962258849632899e-02 1.000267787231414074e+00
-8.834999999999999520e-01 1.931354369736213231e-02 1.000019489166532605e+00
-8.834999999999999520e-01 1.864843536790117620e-02 1.000308272632788764e+00
-8.834999999999999520e-01 1.972199589422946042e-02 1.000133451799658291e+00
-8.834999999999999520e-01 1.953207516372202149e-02 1.000096821584151918e+00
-8.834999999999999520e-01 1.920079297663790721e-02 1.000011045330589710e+00
-8.824999999999998401e-01 1.914122618923185665e-02 1.000000706983699805e+00
-8.824999999999998401e-01 1.930904735402089872e-02 1.000001265379189208e+00
-8.824999999999998401e-01 1.950494476240535735e-02 1.000204142070601598e+00
-8.824999999999998401e-01 1.953734433207746785e-02 1.000027069381150158e+00
-8.824999999999998401e-01 1.894296022050035930e-02 1.000008434674983349e+00
-8.824999999999998401e-01 1.962965190815961491e-02 1.000000419669614615e+00
-8.824999999999998401e-01 1.884203822968236880e-02 1.000094931981251767e+00
-8.824999999999998401e-01 1.932758113738619610e-02 1.000085305750953335e+00
-8.814999999999999503e-01 1.902508966186845091e-02 1.000164632274793908e+00
-8.814999999999999503e-01 1.895363688588482323e-02 1.000111213000830279e+00
-8.814999999999999503e-01 1.945333894566594890e-02 1.000221156419663471e+00
-8.814999999999999503e-01 1.945444029614950762e-02 1.000058304449475299e+00
-8.814999999999999503e-01 1.941974254044949097e-02 1.000024552891921603e+00
-8.804999999999998384e-01 1.900472048898162181e-02 1.000114745378403613e+00
-8.804999999999998384e-01 1.961191985293572748e-02 1.000016668871939407e+00
-8.804999999999998384e-01 1.925235390731629484e-02 1.000134754613072552e+00
-8.804999999999998384e-01 1.927862606947072788e-02 1.000032975265933599e+00
-8.804999999999998384e-01 1.896672233080900702e-02 1.000038339051693592e+00
-8.804999999999998384e-01 1.957449674095063444e-02 1.000006955461072877e+00
-8.794999999999999485e-01 1.928514838563046702e-02 1.000052800044082479e+00
-8.794999999999999485e-01 1.952496615156995921e-02 1.000167052671783408e+00
-8.794999999999999485e-01 1.908229068833282999e-02 1.000036966407261918e+00
-8.794999999999999485e-01 1.960130981946488563e-02 1.000025572892403680e+00
-8.794999999999999485e-01 1.933043006628943142e-02 1.000057076334281980e+00
-8.794999999999999485e-01 1.961450721096937022e-02 1.000004655596387515e+00
-8.794999999999999485e-01 1.884658412333233349e-02 1.000021644597155035e+00
-8.794999999999999485e-01 1.949527602141503529e-02 1.000040400704033550e+00
-8.794999999999999485e-01 1.906470497640544437e-02 1.000073490238867269e+00
-8.794999999999999485e-01 1.921388961706696485e-02 1.000128073775562898e+00
-8.794999999999999485e-01 1.967343165235761748e-02 1.000043828105456889e+00
-8.794999999999999485e-01 1.911540299338693530e-02 1.000068781794984263e+00
-8.784999999999998366e-01 1.935958872737114644e-02 1.000024763432149966e+00
-8.784999999999998366e-01 1.923052303913473302e-02 1.000001726636313260e+00
-8.784999999999998366e-01 1.863546711590896923e-02 1.000002001024217435e+00
-8.784999999999998366e-01 1.934179133635543710e-02 1.000001134907217759e+00
-8.784999999999998366e-01 1.892175311744875854e-02 1.000207551865680777e+00
-8.784999999999998366e-01 1.877892396809773684e-02 1.000676656637799811e+00
-8.784999999999998366e-01 1.947194214140684360e-02 1.000051183340214145e+00
-8.784999999999998366e-01 1.883778097904465279e-02 1.000239510715835500e+00
-8.774999999999999467e-01 1.950270715801534147e-02 1.000000938416508056e+00
-8.774999999999999467e-01 1.957713024109925329e-02 1.000101025120529563e+00
-8.774999999999999467e-01 1.907675850145089044e-02 1.000039912929687524e+00
-8.774999999999999467e-01 1.923621689268917648e-02 1.000056325696898840e+00
-8.774999999999999467e-01 1.890738050242969648e-02 1.000048092163819291e+00
-8.774999999999999467e-01 1.935983222408445975e-02 1.000203835613393100e+00
-8.774999999999999467e-01 1.911832200992903338e-02 1.000016280624535625e+00
-8.774999999999999467e-01 1.921314344314765249e-02 1.000030903422335138e+00
-8.774999999999999467e-01 1.942988683922984919e-02 1.000044336636494835e+00
-8.764999999999998348e-01 1.951688315384161182e-02 1.000017804215384221e+00
-8.764999999999998348e-01 1.891794880143086999e-02 1.000099339342234606e+00
-8.764999999999998348e-01 1.918151983972585586e-02 1.000000701647784762e+00
-8.764999999999998348e-01 1.907914864722860468e-02 1.000037940014079751e+00
-8.764999999999998348e-01 1.917302399135371524e-02 1.000007522035541330e+00
-8.764999999999998348e-01 1.927220786242870090e-02 1.000010244251788638e+00
-8.764999999999998348e-01 1.968496655106648230e-02 1.000013277873209816e+00
-8.754999999999999449e-01 1.967999906456430192e-02 1.000009762395409618e+00
-8.754999999999999449e-01 1.909154114957289580e-02 1.000092132376767973e+00
-8.754999999999999449e-01 1.836453731692908389e-02 1.000053431362824874e+00
-8.754999999999999449e-01 1.873432232838746769e-02 1.000114179211869958e+00
-8.754999999999999449e-01 1.960988794915918820e-02 1.000054965180000588e+00
-8.754999999999999449e-01 1.905264204572879386e-02 1.000014847467857182e+00
-8.754999999999999449e-01 1.889467288616579130e-02 1.000023555233410244e+00
-8.754999999999999449e-01 1.947083807670068473e-02 1.000564785098780662e+00
-8.754999999999999449e-01 1.946773542043431920e-02 1.000010915796297972e+00
-8.744999999999998330e-01 1.914813660815118529e-02 1.000292279168963905e+00
-8.744999999999998330e-01 1.931656676837368442e-02 1.000052094498969923e+00
-8.744999999999998330e-01 1.959442738660978345e-02 1.000012802714194127e+00
-8.744999999999998330e-01 1.939586912975474128e-02 1.000104607225899223e+00
-8.744999999999998330e-01 1.913643962156793762e-02 1.000052251657791658e+00
-8.744999999999998330e-01 1.906906978486997903e-02 1.000110052886066470e+00
-8.744999999999998330e-01 1.967345020922821666e-02 1.000002370340032032e+00
-8.744999999999998330e-01 1.925950114412502273e-02 1.000076019494685386e+00
-8.744999999999998330e-01 1.886726737208254193e-02 1.000038119647857382e+00
-8.734999999999999432e-01 1.894627190781051837e-02 1.000022159319620796e+00
-8.734999999999999432e-01 1.984337720119098633e-02 1.000003986049409210e+00
-8.734999999999999432e-01 1.922295339487586560e-02 1.000096069536783983e+00
-8.734999999999999432e-01 1.940689617082081223e-02 1.000063657862583222e+00
-8.734999999999999432e-01 1.927527644018361963e-02 1.000014824239567224e+00
-8.734999999999999432e-01 1.907995162732674041e-02 1.000136844125852464e+00
-8.734999999999999432e-01 1.922968607899779372e-02 1.000016562992136482e+00
-8.734999999999999432e-01 1.933142676377255093e-02 1.000111453349976198e+00
-8.734999999999999432e-01 1.919220877580817344e-02 1.000146872687182498e+00
-8.734999999999999432e-01 1.945622722469196944e-02 1.000063706769821037e+00
-8.734999999999999432e-01 1.866149767740854504e-02 1.000476173583239259e+00
-8.724999999999998312e-01 1.940082999697421637e-02 1.000087518284232813e+00
-8.724999999999998312e-01 1.954130233807834308e-02 1.000058235729326839e+00
-8.724999999999998312e-01 1.863181349067555628e-02 1.000814826481957631e+00
-8.724999999999998312e-01 1.950680550216461057e-02 1.000015505128863058e+00
-8.724999999999998312e-01 1.910432734277308850e-02 1.000008322899283097e+00
-8.724999999999998312e-01 1.945132458421790222e-02 1.000048049423473806e+00
-8.724999999999998312e-01 1.910378264608488669e-02 1.000086509801173307e+00
-8.724999999999998312e-01 1.914225378714633566e-02 1.000114223586859641e+00
-8.724999999999998312e-01 1.932771414542684349e-02 1.000011906170500176e+00
-8.714999999999999414e-01 1.907197877469990130e-02 1.000066158518428727e+00
-8.714999999999999414e-01 1.945036964501338506e-02 1.000075536357973638e+00
-8.714999999999999414e-01 1.912536869581442367e-02 1.000037997124563205e+00
-8.714999999999999414e-01 1.935144465726161556e-02 1.000013886633163152e+00
-8.714999999999999414e-01 1.881926247635928862e-02 1.000272267971926698e+00
-8.704999999999998295e-01 1.891125570496077907e-02 1.000125886212529069e+00
-8.704999999999998295e-01 1.921320566230201587e-02 1.000120798630086405e+00
-8.704999999999998295e-01 1.951771635618840955e-02 1.000030926696714229e+00
-8.704999999999998295e-01 1.914105054616690657e-02 1.000229420077958231e+00
-8.704999999999998295e-01 1.924317717559106272e-02 1.000013662147962945e+00
-8.704999999999998295e-01 1.955204718774769534e-02 1.000075104357595279e+00
-8.704999999999998295e-01 1.928299163825252308e-02 1.000165340943423686e+00
-8.704999999999998295e-01 1.909593124453324436e-02 1.000059093856754844e+00
-8.704999999999998295e-01 1.866744489783544320e-02 1.000363876227048365e+00
-8.704999999999998295e-01 1.970671381535585992e-02 1.000059002699173583e+00
-8.704999999999998295e-01 1.942888663645007952e-02 1.000244925121005712e+00
-8.704999999999998295e-01 1.933204667443904484e-02 1.000118475263806594e+00
-8.694999999999999396e-01 1.914254810270538121e-02 1.000035454723732453e+00
-8.694999999999999396e-01 1.900589383068524568e-02 1.000001706235937649e+00
-8.694999999999999396e-01 1.949232386077342019e-02 1.000035871968830481e+00
-8.694999999999999396e-01 1.928833832076593674e-02 1.000020510120856132e+00
-8.694999999999999396e-01 1.929579372549738298e-02 1.000038037057520146e+00
-8.694999999999999396e-01 1.905831217265195610e-02 1.000009213740324032e+00
-8.694999999999999396e-01 1.914685002343270367e-02 1.000029459156643208e+00
-8.684999999999998277e-01 1.953122818923127765e-02 1.000008140188597627e+00
-8.684999999999998277e-01 1.896503956429343093e-02 1.000166645856584324e+00
-8.684999999999998277e-01 1.938516529878597794e-02 1.000003729017673759e+00
-8.684999999999998277e-01 1.921107735190937665e-02 1.000089423053502014e+00
-8.684999999999998277e-01 1.925684730427137253e-02 1.000050365000687336e+00
-8.684999999999998277e-01 1.959079433914209453e-02 1.000027293423764396e+00
-8.684999999999998277e-01 1.943704857403138683e-02 1.000044789529739964e+00
-8.684999999999998277e-01 1.865274038958362676e-02 1.000097903835253543e+00
-8.684999999999998277e-01 1.902569833410989661e-02 1.000370944779301663e+00
-8.684999999999998277e-01 1.932003376920184839e-02 1.000098417496914305e+00
-8.684999999999998277e-01 1.859896657830902023e-02 1.000125535420082867e+00
-8.684999999999998277e-01 1.959795626132007293e-02 1.000012528487960628e+00
-8.684999999999998277e-01 1.957315470098762097e-02 1.000013386104113833e+00
-8.674999999999999378e-01 1.893580801176357811e-02 1.000078245676430999e+00
-8.674999999999999378e-01 1.954527656958429324e-02 1.000058050406742671e+00
-8.674999999999999378e-01 1.961396597039319345e-02 1.000057947728753893e+00
-8.674999999999999378e-01 1.956281982442073866e-02 1.000000697160679852e+00
-8.674999999999999378e-01 1.904247736176558140e-02 1.000348069584603428e+00
-8.674999999999999378e-01 1.931859880705006499e-02 1.000037859027355092e+00
-8.674999999999999378e-01 1.932497245605641761e-02 1.000011518186221249e+00
-8.674999999999999378e-01 1.909929949388661577e-02 1.000107594470774020e+00
-8.674999999999999378e-01 1.945400409863296334e-02 1.000033288603052073e+00
-8.674999999999999378e-01 1.924238993675988704e-02 1.000015939687267874e+00
-8.674999999999999378e-01 1.943500350619772193e-02 1.000046382202883999e+00
-8.664999999999998259e-01 1.933563978964493099e-02 1.000046982725988576e+00
-8.664999999999998259e-01 1.906175735376475222e-02 1.000144524607015084e+00
-8.664999999999998259e-01 1.881955029362756063e-02 1.000126388772201835e+00
-8.664999999999998259e-01 1.908659881152061089e-02 1.000151214426711732e+00
-8.664999999999998259e-01 1.931809858770421745e-02 1.000031322039049986e+00
-8.654999999999999361e-01 1.924764990302669718e-02 1.000044996487364113e+00
-8.654999999999999361e-01 1.958284751874525553e-02 1.000050468795191660e+00
-8.654999999999999361e-01 1.928042853211356378e-02 1.000005559082210116e+00
-8.654999999999999361e-01 1.891627444950356660e-02 1.000011667431899509e+00
-8.654999999999999361e-01 1.956800770143810736e-02 1.000048675174140866e+00
-8.654999999999999361e-01 1.901084119436187089e-02 1.000046027005654814e+00
-8.654999999999999361e-01 1.943465426964089207e-02 1.000050739881951811e+00
-8.654999999999999361e-01 1.947107336977802958e-02 1.000000265493295126e+00
-8.654999999999999361e-01 1.913038904912343213e-02 1.000318614370003356e+00
-8.654999999999999361e-01 1.959842617466489578e-02 1.000010808064676349e+00
-8.654999999999999361e-01 1.940478339965001631e-02 1.000013230317800428e+00
-8.644999999999998241e-01 1.920186993597948824e-02 1.000057356901748795e+00
-8.644999999999998241e-01 1.925368457477980369e-02 1.000051421849389666e+00
-8.644999999999998241e-01 1.943213152939555349e-02 1.000029072920133100e+00
-8.644999999999998241e-01 1.945903943828952015e-02 1.000108708655087497e+00
-8.644999999999998241e-01 1.942999466346529910e-02 1.000016932867124675e+00
-8.644999999999998241e-01 1.881293377867649871e-02 1.000238412834501434e+00
-8.644999999999998241e-01 1.915600996369024034e-02 1.000018403443661441e+00
-8.644999999999998241e-01 1.941572447194687620e-02 1.000011736729005785e+00
-8.644999999999998241e-01 1.924994691520012097e-02 1.000096202979636750e+00
-8.634999999999999343e-01 1.911285210334773624e-02 1.000015602382141822e+00
-8.634999999999999343e-01 1.927446256814862799e-02 1.000108286001343938e+00
-8.634999999999999343e-01 1.922472346195024454e-02 1.000070026750301766e+00
-8.634999999999999343e-01 1.905969610161868319e-02 1.000014821701358247e+00
-8.634999999999999343e-01 1.898885407511388679e-02 1.000101733512010593e+00
-8.634999999999999343e-01 1.943379121988659392e-02 1.000001112892630939e+00
-8.624999999999998224e-01 1.950439201857227800e-02 1.000001845086930574e+00
-8.624999999999998224e-01 1.927907523435560058e-02 1.000057928754573000e+00
-8.624999999999998224e-01 1.928429796798069792e-02 1.000004865966576784e+00
-8.624999999999998224e-01 1.945248790664264385e-02 1.000028436425711931e+00
-8.624999999999998224e-01 1.919083739452137616e-02 1.000042607075139145e+00
-8.624999999999998224e-01 1.905478564275663034e-02 1.000060901038184014e+00
-8.624999999999998224e-01 1.901320835426711583e-02 1.000068821331866920e+00
-8.624999999999998224e-01 1.929873592716096001e-02 1.000031593794681095e+00
-8.624999999999998224e-01 1.931885004082465815e-02 1.000064517032815292e+00
-8.624999999999998224e-01 1.814979757328565729e-02 1.000185654046529926e+00
-8.624999999999998224e-01 1.874837849565971770e-02 1.000836652778854363e+00
-8.624999999999998224e-01 1.930669178699512961e-02 1.000019857519731659e+00
-8.614999999999999325e-01 1.930099931178802866e-02 1.000051671181979795e+00
-8.614999999999999325e-01 1.894410145676688612e-02 1.000026679682576525e+00
-8.614999999999999325e-01 1.961040586323369028e-02 1.000009793870645369e+00
-8.614999999999999325e-01 1.940648140453654982e-02 1.000021464519577075e+00
-8.614999999999999325e-01 1.938109049246975260e-02 1.000011983836180063e+00
-8.614999999999999325e-01 1.946569559772646021e-02 1.000066462952850399e+00
-8.614999999999999325e-01 1.906839350937688388e-02 1.000007760467684470e+00
-8.614999999999999325e-01 1.899941594107353374e-02 1.000135904156417954e+00
-8.614999999999999325e-01 1.919112943660697401e-02 1.000184958338829810e+00
-8.614999999999999325e-01 1.943166770418613618e-02 1.000013677698137871e+00
-8.614999999999999325e-01 1.924287494724568823e-02 1.000130242464796648e+00
-8.604999999999998206e-01 1.957209065110545806e-02 1.000056285331542894e+00
-8.604999999999998206e-01 1.977783280144013514e-02 1.000008517621804094e+00
-8.604999999999998206e-01 1.945430029030039906e-02 1.000311801532228095e+00
-8.604999999999998206e-01 1.953826021880161051e-02 1.000002733691017998e+00
-8.604999999999998206e-01 1.917286957398379316e-02 1.000482469937398422e+00
-8.604999999999998206e-01 1.913029762670503953e-02 1.000027935485735542e+00
-8.604999999999998206e-01 1.968052678622710105e-02 1.000023386899426825e+00
-8.604999999999998206e-01 1.963775211113955033e-02 1.000016694748112611e+00
-8.604999999999998206e-01 1.906077890965720417e-02 1.000005664042257214e+00
-8.604999999999998206e-01 1.888725307681636198e-02 1.000040536326406215e+00
-8.604999999999998206e-01 1.931550187068488758e-02 1.000050243506519054e+00
-8.604999999999998206e-01 1.910259129519519330e-02 1.000054233687905469e+00
-8.604999999999998206e-01 1.812302996879916125e-02 1.000325334170416802e+00
-8.594999999999999307e-01 1.902449539415254284e-02 1.000041031380408896e+00
-8.594999999999999307e-01 1.957478439207648024e-02 1.000009560537382658e+00
-8.594999999999999307e-01 1.876305853688469208e-02 1.000010619599978501e+00
-8.594999999999999307e-01 1.870460481917896739e-02 1.000397813316450391e+00
-8.594999999999999307e-01 1.891849045541524332e-02 1.000036180444351164e+00
-8.594999999999999307e-01 1.984474363276878331e-02 1.000052371308823407e+00
-8.594999999999999307e-01 1.919984991552369999e-02 1.000000184234026701e+00
-8.594999999999999307e-01 1.947997356757441914e-02 1.000021699536158382e+00
-8.594999999999999307e-01 1.934096369718900019e-02 1.000051224044243181e+00
-8.594999999999999307e-01 1.946959763302836752e-02 1.000011163513943702e+00
-8.594999999999999307e-01 1.947439780051682737e-02 1.000000334332904917e+00
-8.594999999999999307e-01 1.925113137754776854e-02 1.000038659351740300e+00
-8.584999999999998188e-01 1.966832257066832360e-02 1.000011994957773487e+00
-8.584999999999998188e-01 1.931740498683894719e-02 1.000137007733950867e+00
-8.584999999999998188e-01 1.975998818853801076e-02 1.000008184402989109e+00
-8.584999999999998188e-01 1.934149134426640243e-02 1.000079598818326865e+00
-8.584999999999998188e-01 1.889930929928517259e-02 1.000281977445576453e+00
-8.584999999999998188e-01 1.939304516273852516e-02 1.000009569481507210e+00
-8.584999999999998188e-01 1.919187487499069908e-02 1.000051607724020686e+00
-8.584999999999998188e-01 1.933988711216165848e-02 1.000039755245247797e+00
-8.584999999999998188e-01 1.911923771987429632e-02 1.000027388922028138e+00
-8.584999999999998188e-01 1.862067985271886883e-02 1.000036100238105741e+00
-8.584999999999998188e-01 1.937848651298221606e-02 1.000196968647821372e+00
-8.574999999999999289e-01 1.898654847282936486e-02 1.000020364486016611e+00
-8.574999999999999289e-01 1.922225488005351729e-02 1.000291925038486962e+00
-8.574999999999999289e-01 1.902510369872138785e-02 1.000054384385848039e+00
-8.574999999999999289e-01 1.950677503251138992e-02 1.000004766510198762e+00
-8.564999999999998170e-01 1.956208042445102199e-02 1.000009768436088464e+00
-8.564999999999998170e-01 1.876687074141343212e-02 1.000443966159398901e+00
-8.564999999999998170e-01 1.952253164726408530e-02 1.000012202190578847e+00
-8.564999999999998170e-01 1.924802169118994613e-02 1.000105975000678216e+00
-8.564999999999998170e-01 1.897522724832054891e-02 1.000044637269885239e+00
-8.564999999999998170e-01 1.938431405440686414e-02 1.000050920087995010e+00
-8.564999999999998170e-01 1.945413903024939897e-02 1.000089811265528539e+00
-8.564999999999998170e-01 1.905176427378133322e-02 1.000273420209329078e+00
-8.564999999999998170e-01 1.883342946163105158e-02 1.000028157075474100e+00
-8.564999999999998170e-01 1.923601350283103695e-02 1.000061747833683290e+00
-8.564999999999998170e-01 1.981808894059285467e-02 1.000022297893583323e+00
-8.564999999999998170e-01 1.903482855199863794e-02 1.000085403876481260e+00
-8.554999999999999272e-01 1.884615738407225197e-02 1.000075356678747918e+00
-8.554999999999999272e-01 1.933994334362113335e-02 1.000009084547192062e+00
-8.554999999999999272e-01 1.936455172329754407e-02 1.000443383531170349e+00
-8.554999999999999272e-01 1.941237231974415542e-02 1.000033450225277676e+00
-8.554999999999999272e-01 1.864626534813213984e-02 1.001308927457880804e+00
-8.554999999999999272e-01 1.959489831497904927e-02 1.000051863178180289e+00
-8.544999999999998153e-01 1.917881220955580321e-02 1.000531732122537099e+00
-8.544999999999998153e-01 1.869598001803341250e-02 1.000057390180089767e+00
-8.544999999999998153e-01 1.921314426133274855e-02 1.000193407056801487e+00
-8.544999999999998153e-01 1.930980524945273905e-02 1.000038551402827602e+00
-8.544999999999998153e-01 1.917719448294510215e-02 1.000082797278749158e+00
-8.544999999999998153e-01 1.919139151356866538e-02 1.000013437411349626e+00
-8.544999999999998153e-01 1.947173565283009597e-02 1.000052911269472933e+00
-8.544999999999998153e-01 1.898721280458522814e-02 1.000045816220964001e+00
-8.544999999999998153e-01 1.921776537881286426e-02 1.000322617795947888e+00
-8.544999999999998153e-01 1.915517585459755590e-02 1.000052919560296072e+00
-8.544999999999998153e-01 1.904716669642917207e-02 1.000420566833129632e+00
-8.544999999999998153e-01 1.894808816765953044e-02 1.000164927743696142e+00
-8.544999999999998153e-01 1.885990886861593774e-02 1.000479526557670695e+00
-8.534999999999999254e-01 1.894868266573380630e-02 1.000082777553940705e+00
-8.534999999999999254e-01 1.910852575801914519e-02 1.000134719085937540e+00
-8.534999999999999254e-01 1.862331926959385348e-02 1.000228597582232704e+00
-8.534999999999999254e-01 1.936574426292001633e-02 1.000005325435527892e+00
-8.534999999999999254e-01 1.946600232954565080e-02 1.000042775253535243e+00
-8.534999999999999254e-01 1.956497160633573901e-02 1.000000888763067364e+00
-8.534999999999999254e-01 1.970415831269431081e-02 1.000044811693058255e+00
-8.534999999999999254e-01 1.937220643839282150e-02 1.000026066435106165e+00
-8.534999999999999254e-01 1.930747922809180131e-02 1.000085519004551671e+00
-8.534999999999999254e-01 1.902157891450619032e-02 1.000288685738992767e+00
-8.524999999999998135e-01 1.853894390881799525e-02 1.000210063680503136e+00
-8.524999999999998135e-01 1.941807094252184784e-02 1.000069509058784112e+00
-8.524999999999998135e-01 1.927818214817834594e-02 1.000087748066024185e+00
-8.524999999999998135e-01 1.958925259121836737e-02 1.000028153250410057e+00
-8.524999999999998135e-01 1.939284455255630216e-02 1.000173142791582315e+00
-8.524999999999998135e-01 1.966123781373459861e-02 1.000016617484694947e+00
-8.524999999999998135e-01 1.926759541392001132e-02 1.000280896076868098e+00
-8.524999999999998135e-01 1.949925988408137550e-02 1.000005936491826786e+00
-8.524999999999998135e-01 1.924985719222477645e-02 1.000001821844057170e+00
-8.524999999999998135e-01 1.926079800790643157e-02 1.000135056938538769e+00
-8.524999999999998135e-01 1.923606453574005365e-02 1.000021941715292018e+00
-8.514999999999999236e-01 1.929919362853158710e-02 1.000019661960660278e+00
-8.514999999999999236e-01 1.939456925153149741e-02 1.000028970773501058e+00
-8.514999999999999236e-01 1.934559933761176298e-02 1.000035721953064671e+00
-8.514999999999999236e-01 1.948637833479883313e-02 1.000071787374152699e+00
-8.514999999999999236e-01 1.895670573736938508e-02 1.000035890831205920e+00
-8.504999999999998117e-01 1.935689701621012837e-02 1.000052850923824899e+00
-8.504999999999998117e-01 1.939378993007688165e-02 1.000054780220963613e+00
-8.504999999999998117e-01 1.934318125604009980e-02 1.000027686081271572e+00
-8.504999999999998117e-01 1.937555643862921145e-02 1.000019127759050219e+00
-8.504999999999998117e-01 1.928992269999210002e-02 1.000298847556954973e+00
-8.504999999999998117e-01 1.916323804421058569e-02 1.000051509548411710e+00
-8.494999999999999218e-01 1.979069718455829519e-02 1.000034151211693034e+00
-8.494999999999999218e-01 1.936683432361122059e-02 1.000020342058676404e+00
-8.494999999999999218e-01 1.918408251587001845e-02 1.000021166373441961e+00
-8.494999999999999218e-01 1.933198974511680934e-02 1.000038435949720528e+00
-8.494999999999999218e-01 1.929571538806425929e-02 1.000053580109480311e+00
-8.494999999999999218e-01 1.907508147451045938e-02 1.000017113390169854e+00
-8.494999999999999218e-01 1.882392653813061770e-02 1.000048235934222873e+00
-8.494999999999999218e-01 1.878024605384039092e-02 1.000030193344520812e+00
-8.494999999999999218e-01 1.935263794605221466e-02 1.000038604320648172e+00
-8.484999999999998099e-01 1.982827620422034781e-02 1.000013939384671424e+00
-8.484999999999998099e-01 1.876847575425498113e-02 1.000097465854928647e+00
-8.484999999999998099e-01 1.925160694473763284e-02 1.000008722797996352e+00
-8.484999999999998099e-01 1.930416768140643183e-02 1.000093543862871304e+00
-8.484999999999998099e-01 1.942332902270662437e-02 1.000008087262766798e+00
-8.484999999999998099e-01 1.925618563507697570e-02 1.000210007956415792e+00
-8.484999999999998099e-01 1.899954236188150514e-02 1.000146449622060230e+00
-8.484999999999998099e-01 1.912793586037554033e-02 1.000095236226696827e+00
-8.484999999999998099e-01 1.940526087010563741e-02 1.000044693999910583e+00
-8.474999999999999201e-01 1.949996938721741679e-02 1.000031894930863308e+00
-8.474999999999999201e-01 1.944553161255997004e-02 1.000008034084132635e+00
-8.474999999999999201e-01 1.944334219679476686e-02 1.000054853335028193e+00
-8.474999999999999201e-01 1.883414691184029377e-02 1.000167253759757013e+00
-8.474999999999999201e-01 1.888040529647785556e-02 1.000286017568767782e+00
-8.474999999999999201e-01 1.961524877229040356e-02 1.000023100559865652e+00
-8.464999999999998082e-01 1.921827184230458230e-02 1.000093616857640200e+00
-8.464999999999998082e-01 1.954910845219861443e-02 1.000009539220356070e+00
-8.464999999999998082e-01 1.935807953088171385e-02 1.000022728162311081e+00
-8.464999999999998082e-01 1.939412183881358137e-02 1.000111566944148489e+00
-8.464999999999998082e-01 1.967867114064229470e-02 1.000027617131278745e+00
-8.464999999999998082e-01 1.958115302482391074e-02 1.000008993834021531e+00
-8.454999999999999183e-01 1.945540870592385452e-02 1.000021811671964356e+00
-8.454999999999999183e-01 1.940833537798754976e-02 1.000009793068143971e+00
-8.454999999999999183e-01 1.889679807445206194e-02 1.000150677522160914e+00
-8.454999999999999183e-01 1.940236510279398988e-02 1.000014907784771756e+00
-8.454999999999999183e-01 1.909444949640418804e-02 1.000145401356500097e+00
-8.454999999999999183e-01 1.900279763708201050e-02 1.000369976496396252e+00
-8.454999999999999183e-01 1.916105952705242366e-02 1.000051133589418217e+00
-8.454999999999999183e-01 1.949189148812340358e-02 1.000136357684760613e+00
-8.454999999999999183e-01 1.974879589636547098e-02 1.000041148240325750e+00
-8.444999999999998064e-01 1.904147950698662287e-02 1.000106527804684120e+00
-8.444999999999998064e-01 1.935079127190964671e-02 1.000056323225947619e+00
-8.444999999999998064e-01 1.939879169834781217e-02 1.000023441244146216e+00
-8.444999999999998064e-01 1.857344286423075544e-02 1.000046120427214857e+00
-8.444999999999998064e-01 1.884350084189323482e-02 1.000003197329737192e+00
-8.444999999999998064e-01 1.943912190587113870e-02 1.000010623399848253e+00
-8.444999999999998064e-01 1.904527024878063801e-02 1.000136758951073457e+00
-8.444999999999998064e-01 1.864719196309713375e-02 1.000148894459428783e+00
-8.444999999999998064e-01 1.877785963689882973e-02 1.000076485385049452e+00
-8.444999999999998064e-01 1.889454782146166023e-02 1.000109753027181858e+00
-8.444999999999998064e-01 1.941683734382523494e-02 1.000062660072478238e+00
-8.444999999999998064e-01 1.909930119388969505e-02 1.000045606514444074e+00
-8.444999999999998064e-01 1.933410444931448272e-02 1.000053627774779574e+00
-8.444999999999998064e-01 1.955486843136769806e-02 1.000062835054575938e+00
-8.444999999999998064e-01 1.919196086571125712e-02 1.000085876720187450e+00
-8.444999999999998064e-01 1.899631677942029834e-02 1.000067274676044837e+00
-8.434999999999999165e-01 1.919946343306166980e-02 1.000120778722253689e+00
-8.434999999999999165e-01 1.933822615821653365e-02 1.000024868708949244e+00
-8.434999999999999165e-01 1.953634093237614083e-02 1.000039955008501957e+00
-8.434999999999999165e-01 1.923572079636172438e-02 1.000073513289771121e+00
-8.434999999999999165e-01 1.924096085605131803e-02 1.000099033425937645e+00
-8.434999999999999165e-01 1.931045047637452300e-02 1.000012671448627932e+00
-8.434999999999999165e-01 1.921085907370124676e-02 1.000077639520088768e+00
-8.434999999999999165e-01 1.933383089610176200e-02 1.000014757564062995e+00
-8.434999999999999165e-01 1.918795332862623451e-02 1.000073795181350311e+00
-8.424999999999998046e-01 1.898217721431107174e-02 1.000105506041823578e+00
-8.424999999999998046e-01 1.862094463129035718e-02 1.000190333732135395e+00
-8.424999999999998046e-01 1.887621293378287379e-02 1.000916673856329986e+00
-8.424999999999998046e-01 1.837338702157310932e-02 1.000105190076060913e+00
-8.424999999999998046e-01 1.934465112147000856e-02 1.000001449592886615e+00
-8.424999999999998046e-01 1.918878714692598061e-02 1.000521571265211351e+00
-8.424999999999998046e-01 1.902846974685517764e-02 1.000123985432813445e+00
-8.414999999999999147e-01 1.937883415082204339e-02 1.000083461366512161e+00
-8.414999999999999147e-01 1.951530355944984876e-02 1.000007638909677476e+00
-8.414999999999999147e-01 1.885584196215008349e-02 1.000020956427658536e+00
-8.414999999999999147e-01 1.932483961061211633e-02 1.000040788597943209e+00
-8.414999999999999147e-01 1.959728856747305556e-02 1.000011287573331797e+00
-8.414999999999999147e-01 1.966706665462347389e-02 1.000025579725401625e+00
-8.404999999999998028e-01 1.945086404086022319e-02 1.000002557484228394e+00
-8.404999999999998028e-01 1.849862682919324944e-02 1.000045293722784390e+00
-8.404999999999998028e-01 1.876325257756499693e-02 1.000346049283276972e+00
-8.404999999999998028e-01 1.879625571344498841e-02 1.000010186782864130e+00
-8.404999999999998028e-01 1.921474709235770559e-02 1.000042672952508260e+00
-8.404999999999998028e-01 1.902112188039607049e-02 1.000080673845757273e+00
-8.404999999999998028e-01 1.918049774300145324e-02 1.000791324648745650e+00
-8.404999999999998028e-01 1.960862545196072684e-02 1.000035929674159219e+00
-8.404999999999998028e-01 1.894655150239214075e-02 1.000072165132012580e+00
-8.404999999999998028e-01 1.913823851844192667e-02 1.000078194992083391e+00
-8.394999999999999130e-01 1.880070334355484277e-02 1.000010477689975863e+00
-8.394999999999999130e-01 1.888363498207119850e-02 1.000082379966700685e+00
-8.394999999999999130e-01 1.927406236924315841e-02 1.000041087584783828e+00
-8.394999999999999130e-01 1.975404102437181703e-02 1.000014737282227006e+00
-8.394999999999999130e-01 1.920448277299214440e-02 1.000010225424958543e+00
-8.394999999999999130e-01 1.926647950576516888e-02 1.000141914634583573e+00
-8.394999999999999130e-01 1.922434475642207860e-02 1.000039864146292645e+00
-8.394999999999999130e-01 1.929877833323925818e-02 1.000126613323922831e+00
-8.394999999999999130e-01 1.919679140975592835e-02 1.000006590091656378e+00
-8.394999999999999130e-01 1.951180041600307849e-02 1.000020618607352807e+00
-8.394999999999999130e-01 1.914110166553014206e-02 1.000073560191910182e+00
-8.394999999999999130e-01 1.935567383501646949e-02 1.000121603236294954e+00
-8.394999999999999130e-01 1.953927182807110169e-02 1.000015934869960876e+00
-8.394999999999999130e-01 1.931075300883427701e-02 1.000101057753528089e+00
-8.394999999999999130e-01 1.925615883182989901e-02 1.000031575487767554e+00
-8.394999999999999130e-01 1.924279416537828108e-02 1.000022429268541790e+00
-8.384999999999998010e-01 1.901875019808871997e-02 1.000050823051822801e+00
-8.384999999999998010e-01 1.905919477185350971e-02 1.000214973501775795e+00
-8.384999999999998010e-01 1.946865783551045975e-02 1.000210564233546817e+00
-8.384999999999998010e-01 1.967451306267656297e-02 1.000030421785961243e+00
-8.384999999999998010e-01 1.979933990698630811e-02 1.000000241521841859e+00
-8.384999999999998010e-01 1.903129142984362129e-02 1.000106665011035290e+00
-8.384999999999998010e-01 1.912168169938398971e-02 1.000065191834751621e+00
-8.384999999999998010e-01 1.909016824157548989e-02 1.000039470515915019e+00
-8.384999999999998010e-01 1.865219589146004803e-02 1.001559194330204683e+00
-8.374999999999999112e-01 1.943245912996773364e-02 1.000021567216565321e+00
-8.374999999999999112e-01 1.931410085451752343e-02 1.000030475796926277e+00
-8.374999999999999112e-01 1.905527136896830939e-02 1.000031582672988639e+00
-8.374999999999999112e-01 1.865737419050454704e-02 1.000425604155561921e+00
-8.374999999999999112e-01 1.906244270719105807e-02 1.000187056952890341e+00
-8.374999999999999112e-01 1.912606607681273732e-02 1.000057592948469409e+00
-8.374999999999999112e-01 1.894960121106074868e-02 1.000111076281105849e+00
-8.374999999999999112e-01 1.928073935356257318e-02 1.000138646400073439e+00
-8.374999999999999112e-01 1.889581945029731452e-02 1.000117617249241864e+00
-8.374999999999999112e-01 1.921506738036635534e-02 1.000080453532313118e+00
-8.374999999999999112e-01 1.911713790913151245e-02 1.000152443016662840e+00
-8.374999999999999112e-01 1.922348348630953732e-02 1.000081914104250291e+00
-8.374999999999999112e-01 1.949662058273969253e-02 1.000002281491161327e+00
-8.364999999999997993e-01 1.892990775347763374e-02 1.000033064991757481e+00
-8.364999999999997993e-01 1.908679722652582150e-02 1.000103194082639479e+00
-8.364999999999997993e-01 1.914942804659585870e-02 1.000123893324820434e+00
-8.364999999999997993e-01 1.942892029804028572e-02 1.000047590798926578e+00
-8.364999999999997993e-01 1.936993773002250452e-02 1.000070464706190876e+00
-8.364999999999997993e-01 1.961152769165806775e-02 1.000003896702541084e+00
-8.364999999999997993e-01 1.928419323600385690e-02 1.000000486981929004e+00
-8.364999999999997993e-01 1.963780601832508174e-02 1.000009862426427087e+00
-8.364999999999997993e-01 1.910258028684927098e-02 1.000105637505662060e+00
-8.364999999999997993e-01 1.925707053318163192e-02 1.000035531026776559e+00
-8.364999999999997993e-01 1.930066381036596793e-02 1.000065353760670295e+00
-8.364999999999997993e-01 1.956851270053639250e-02 1.000049057163085564e+00
-8.354999999999999094e-01 1.956012114965747020e-02 1.000039194181914226e+00
-8.354999999999999094e-01 1.929047217528806132e-02 1.000194560316557180e+00
-8.354999999999999094e-01 1.964229919548134834e-02 1.000020819520252235e+00
-8.354999999999999094e-01 1.943740237918313227e-02 1.000010613329056497e+00
-8.354999999999999094e-01 1.934252940610809574e-02 1.000009678393425139e+00
-8.354999999999999094e-01 1.940863187615336771e-02 1.000125439263737315e+00
-8.344999999999997975e-01 1.948905095766145096e-02 1.000100905629062620e+00
-8.344999999999997975e-01 1.915134960054591662e-02 1.000196443171333494e+00
-8.344999999999997975e-01 1.927493791329377287e-02 1.000004101751031493e+00
-8.344999999999997975e-01 1.913374154382209077e-02 1.000028219666456719e+00
-8.344999999999997975e-01 1.971803947934425497e-02 1.000008176127203718e+00
-8.344999999999997975e-01 1.877197833372491742e-02 1.000287178089478202e+00
-8.344999999999997975e-01 1.936891932458071133e-02 1.000013899668446893e+00
-8.344999999999997975e-01 1.963782841489217224e-02 1.000000036315753960e+00
-8.344999999999997975e-01 1.878516377357897227e-02 1.000022163273889486e+00
-8.344999999999997975e-01 1.887978307383445312e-02 1.000139738030153103e+00
-8.344999999999997975e-01 1.956936993272962583e-02 1.000260005952827269e+00
-8.344999999999997975e-01 1.939350792048637195e-02 1.000024011353052078e+00
-8.344999999999997975e-01 1.870537054706862892e-02 1.000353742653979916e+00
-8.344999999999997975e-01 1.940742836457500300e-02 1.000002215963371910e+00
-8.344999999999997975e-01 1.927923588950890277e-02 1.000055906808664741e+00
-8.344999999999997975e-01 1.925115245678533232e-02 1.000007299434158003e+00
-8.334999999999999076e-01 1.912279602953575672e-02 1.000055597475083324e+00
-8.334999999999999076e-01 1.936944854410924816e-02 1.000020039235745895e+00
-8.334999999999999076e-01 1.882408070558231825e-02 1.000034750453954846e+00
-8.334999999999999076e-01 1.900853724792006538e-02 1.000069306478494457e+00
-8.334999999999999076e-01 1.958973391095835195e-02 1.000063751172656890e+00
-8.334999999999999076e-01 1.893755809859411915e-02 1.000284120628608164e+00
-8.334999999999999076e-01 1.968727128073367513e-02 1.000002300009972700e+00
-8.334999999999999076e-01 1.899532874582415126e-02 1.000154530771175443e+00
-8.334999999999999076e-01 1.895101973052764829e-02 1.000239826463135584e+00
-8.334999999999999076e-01 1.908284247386820773e-02 1.000109724761444774e+00
-8.334999999999999076e-01 1.912959344419154842e-02 1.000061322172999478e+00
-8.334999999999999076e-01 1.916367062305571189e-02 1.000100384133468800e+00
-8.334999999999999076e-01 1.903082437602775928e-02 1.000034795612288141e+00
-8.334999999999999076e-01 1.895243157687338462e-02 1.000070350347971093e+00
-8.324999999999997957e-01 1.893784201626234204e-02 1.000096270249797081e+00
-8.324999999999997957e-01 1.901228784388487095e-02 1.000252782356255032e+00
-8.324999999999997957e-01 1.920833081681204077e-02 1.000037232632440043e+00
-8.324999999999997957e-01 1.941687701088192289e-02 1.000090021354540726e+00
-8.324999999999997957e-01 1.943007268927124387e-02 1.000040950403372486e+00
-8.324999999999997957e-01 1.951802707559355254e-02 1.000018509389090093e+00
-8.324999999999997957e-01 1.945656467571134710e-02 1.000002959040677153e+00
-8.324999999999997957e-01 1.924497849682145142e-02 1.000237991677439320e+00
-8.324999999999997957e-01 1.937303294384720362e-02 1.000007203037268200e+00
-8.314999999999999059e-01 1.902991561416252086e-02 1.000049764101295535e+00
-8.314999999999999059e-01 1.952846780941317958e-02 1.000028891679623833e+00
-8.314999999999999059e-01 1.929232157365524600e-02 1.000058047493812774e+00
-8.314999999999999059e-01 1.915251475226210226e-02 1.000038258778773947e+00
-8.314999999999999059e-01 1.917163706295639189e-02 1.000068901926845610e+00
-8.314999999999999059e-01 1.866327069594548790e-02 1.000139172883015348e+00
-8.314999999999999059e-01 1.886525422947715053e-02 1.000091888026870768e+00
-8.314999999999999059e-01 1.930193896002908860e-02 1.000027447495753119e+00
-8.314999999999999059e-01 1.907636913683335642e-02 1.000016784237867107e+00
-8.314999999999999059e-01 1.891380269217202495e-02 1.000141348393391194e+00
-8.314999999999999059e-01 1.895937589520172231e-02 1.000103422998023239e+00
-8.314999999999999059e-01 1.927992072062094386e-02 1.000103575291220626e+00
-8.314999999999999059e-01 1.910681017619801289e-02 1.000001465991602334e+00
-8.314999999999999059e-01 1.964416141481964764e-02 1.000005796975911521e+00
-8.314999999999999059e-01 1.908424620137426364e-02 1.000006633129527644e+00
-8.304999999999997939e-01 1.939349217116560428e-02 1.000078598994876167e+00
-8.304999999999997939e-01 1.959413023495800918e-02 1.000036155787373149e+00
-8.304999999999997939e-01 1.937666347012141979e-02 1.000007725825141636e+00
-8.304999999999997939e-01 1.958863946772453069e-02 1.000048875515478386e+00
-8.304999999999997939e-01 1.950518663758021506e-02 1.000044563288603028e+00
-8.304999999999997939e-01 1.921048942901681239e-02 1.000054042988140379e+00
-8.304999999999997939e-01 1.842500229864722783e-02 1.000250028590745410e+00
-8.304999999999997939e-01 1.950208694314969904e-02 1.000008636635428605e+00
-8.304999999999997939e-01 1.912028343047787737e-02 1.000260893368527304e+00
-8.304999999999997939e-01 1.933680111237902344e-02 1.000301490259782433e+00
-8.294999999999999041e-01 1.935679516115373922e-02 1.000208285125490093e+00
-8.294999999999999041e-01 1.958843762138763600e-02 1.000042204133397172e+00
-8.294999999999999041e-01 1.954533454138599260e-02 1.000032029322807992e+00
-8.294999999999999041e-01 1.939919209905193245e-02 1.000005062036277925e+00
-8.294999999999999041e-01 1.945994269366158394e-02 1.000026600626282791e+00
-8.294999999999999041e-01 1.914055799033359193e-02 1.000003239733821436e+00
-8.294999999999999041e-01 1.937363025989340473e-02 1.000030155958306022e+00
-8.284999999999997922e-01 1.944009992456247060e-02 1.000079772640808828e+00
-8.284999999999997922e-01 1.904384618920182057e-02 1.000006982305067904e+00
-8.284999999999997922e-01 1.893108755041040744e-02 1.000096716109671879e+00
-8.284999999999997922e-01 1.843231137972995565e-02 1.000043139352756683e+00
-8.284999999999997922e-01 1.949355081409484547e-02 1.000074440280592558e+00
-8.284999999999997922e-01 1.935929246911760604e-02 1.000033025955387567e+00
-8.284999999999997922e-01 1.918557221695811957e-02 1.000055862416270758e+00
-8.284999999999997922e-01 1.939079018778173263e-02 1.000006189519488720e+00
-8.284999999999997922e-01 1.916146488222692651e-02 1.000015918705786433e+00
-8.284999999999997922e-01 1.925220956053518007e-02 1.000098938997314724e+00
-8.274999999999999023e-01 1.878607090590756271e-02 1.000061644525912063e+00
-8.274999999999999023e-01 1.954935512830742461e-02 1.000000307868419647e+00
-8.274999999999999023e-01 1.880582095427098255e-02 1.000410019054168043e+00
-8.274999999999999023e-01 1.938350163879689822e-02 1.000040478244434983e+00
-8.274999999999999023e-01 1.929285434897832704e-02 1.000026703970563036e+00
-8.274999999999999023e-01 1.881106856062561561e-02 1.000479525463014774e+00
-8.274999999999999023e-01 1.939993910949388764e-02 1.000041011999123652e+00
-8.274999999999999023e-01 1.927812226239163790e-02 1.000001999379971807e+00
-8.274999999999999023e-01 1.937322576037805305e-02 1.000127368048245424e+00
-8.274999999999999023e-01 1.906614274693054639e-02 1.000239372955462391e+00
-8.274999999999999023e-01 1.956649210151855181e-02 1.000000267376039087e+00
-8.264999999999997904e-01 1.921506712376388343e-02 1.000058567945174337e+00
-8.264999999999997904e-01 1.893714955753402276e-02 1.000216000057960741e+00
-8.264999999999997904e-01 1.960595040037106315e-02 1.000066287745441596e+00
-8.264999999999997904e-01 1.927307228649041693e-02 1.000061909081384481e+00
-8.264999999999997904e-01 1.938132800419326007e-02 1.000022506128261046e+00
-8.254999999999999005e-01 1.903110883530178057e-02 1.000104066965672667e+00
-8.254999999999999005e-01 1.941191678284938382e-02 1.000026216603421059e+00
-8.254999999999999005e-01 1.901907899772618815e-02 1.000246284154334253e+00
-8.254999999999999005e-01 1.890311205621332188e-02 1.000084365605107717e+00
-8.254999999999999005e-01 1.937030487496195844e-02 1.000101464183281941e+00
-8.254999999999999005e-01 1.885282501818084239e-02 1.000026187290656843e+00
-8.254999999999999005e-01 1.908853954255579008e-02 1.000206763949046396e+00
-8.254999999999999005e-01 1.946725289380931909e-02 1.000059852767306134e+00
-8.254999999999999005e-01 1.951717992200597759e-02 1.000002373063154426e+00
-8.254999999999999005e-01 1.965169386526608927e-02 1.000014531184938882e+00
-8.254999999999999005e-01 1.938653458917355410e-02 1.000036100761214852e+00
-8.254999999999999005e-01 1.919067687557376306e-02 1.000152217140707789e+00
-8.254999999999999005e-01 1.885772479878032246e-02 1.000139087048595110e+00
-8.254999999999999005e-01 1.886344594839332867e-02 1.000097172401680945e+00
-8.244999999999997886e-01 1.944040663407820696e-02 1.000053062358827294e+00
-8.244999999999997886e-01 1.881152213444007432e-02 1.000062535206241110e+00
-8.244999999999997886e-01 1.968556786655867655e-02 1.000048506312801511e+00
-8.244999999999997886e-01 1.915030549886639205e-02 1.000242157217256622e+00
-8.244999999999997886e-01 1.895228752315304341e-02 1.000217348126743788e+00
-8.244999999999997886e-01 1.755542232704776148e-02 1.000517297473195955e+00
-8.244999999999997886e-01 1.906626082975924202e-02 1.000022905207831103e+00
-8.244999999999997886e-01 1.916831339142375731e-02 1.000012886352529051e+00
-8.244999999999997886e-01 1.898548563753362645e-02 1.000038505053623350e+00
-8.244999999999997886e-01 1.900478784599529333e-02 1.000009543051770144e+00
-8.244999999999997886e-01 1.850324177988949340e-02 1.000108684339697129e+00
-8.244999999999997886e-01 1.942483475618695180e-02 1.000004708348727789e+00
-8.234999999999998987e-01 1.917375539121879760e-02 1.000219817756567098e+00
-8.234999999999998987e-01 1.863936615498569885e-02 1.000165392271899378e+00
-8.234999999999998987e-01 1.923404494936401671e-02 1.000129452614953118e+00
-8.234999999999998987e-01 1.923323538760839807e-02 1.000042418433702451e+00
-8.234999999999998987e-01 1.892957994212566761e-02 1.000036248142649908e+00
-8.234999999999998987e-01 1.909947273503628459e-02 1.000087737012124833e+00
-8.234999999999998987e-01 1.936314864704513986e-02 1.000076487198625186e+00
-8.234999999999998987e-01 1.956262700390078157e-02 1.000017032028862829e+00
-8.234999999999998987e-01 1.964833856782138150e-02 1.000033290324204183e+00
-8.234999999999998987e-01 1.902282948472126811e-02 1.000033981142625983e+00
-8.234999999999998987e-01 1.921019758304998853e-02 1.000006270169736533e+00
-8.224999999999997868e-01 1.852538196073713964e-02 1.000041045249356442e+00
-8.224999999999997868e-01 1.936986516739803293e-02 1.000000293819412800e+00
-8.224999999999997868e-01 1.914743223340190439e-02 1.000091163995867394e+00
-8.224999999999997868e-01 1.913611053655012856e-02 1.000116429036231214e+00
-8.224999999999997868e-01 1.864059474336447753e-02 1.000292676138680337e+00
-8.224999999999997868e-01 1.922945283025980986e-02 1.000018993050622251e+00
-8.224999999999997868e-01 1.954772407149613089e-02 1.000006709551943374e+00
-8.224999999999997868e-01 1.898490725927581488e-02 1.000029933097628110e+00
-8.224999999999997868e-01 1.896105619725201724e-02 1.000077927037945624e+00
-8.224999999999997868e-01 1.934016835446309909e-02 1.000019438497975033e+00
-8.214999999999998970e-01 1.947763514498429202e-02 1.000029573333528710e+00
-8.214999999999998970e-01 1.923625320672176300e-02 1.000020736098485630e+00
-8.214999999999998970e-01 1.915091279619338810e-02 1.000006507699705116e+00
-8.214999999999998970e-01 1.847949603025373158e-02 1.000056915762566945e+00
-8.214999999999998970e-01 1.949666868553995638e-02 1.000001573279247546e+00
-8.214999999999998970e-01 1.901217429960782787e-02 1.000103823159363747e+00
-8.214999999999998970e-01 1.912929448766781046e-02 1.000001297019800228e+00
-8.214999999999998970e-01 1.930990632962852060e-02 1.000140629062957309e+00
-8.214999999999998970e-01 1.919123949477592045e-02 1.000228097030743779e+00
-8.204999999999997851e-01 1.906873772972045300e-02 1.000042781871709030e+00
-8.204999999999997851e-01 1.874882976647553393e-02 1.000016446541429405e+00
-8.204999999999997851e-01 1.886122619303862505e-02 1.000449213604767129e+00
-8.204999999999997851e-01 1.911313964046218103e-02 1.000006206394947750e+00
-8.204999999999997851e-01 1.893108313227408884e-02 1.000044496603039068e+00
-8.204999999999997851e-01 1.942069661342714706e-02 1.000117790307819554e+00
-8.204999999999997851e-01 1.896403545456972622e-02 1.000096029003458176e+00
-8.204999999999997851e-01 1.950049834717488759e-02 1.000026499979762340e+00
-8.204999999999997851e-01 1.903158881131026756e-02 1.000000939217842610e+00
-8.204999999999997851e-01 1.955424492783533474e-02 1.000050634482242851e+00
