-9.984999999999999432e-01 2.000000000000000042e-02 1.000000000000000000e+00
-9.964999999999999414e-01 2.000000000000000042e-02 1.000000000000000000e+00
-9.964999999999999414e-01 2.000000000000000042e-02 1.000000000000000000e+00
-9.944999999999999396e-01 2.000000000000000042e-02 1.000000000000000000e+00
-9.935000000000000497e-01 2.000000000000000042e-02 1.000000000000000000e+00
-9.935000000000000497e-01 2.000000000000000042e-02 1.000000000000000000e+00
-9.935000000000000497e-01 2.000000000000000042e-02 1.000000000000000000e+00
-9.924999999999999378e-01 2.000000000000000042e-02 1.000000000000000000e+00
-9.924999999999999378e-01 2.000000000000000042e-02 1.000000000000000000e+00
-9.924999999999999378e-01 2.000000000000000042e-02 1.000000000000000000e+00
-9.924999999999999378e-01 2.000000000000000042e-02 1.000000000000000000e+00
-9.924999999999999378e-01 2.000000000000000042e-02 1.000000000000000000e+00
-9.924999999999999378e-01 2.000000000000000042e-02 1.000000000000000000e+00
-9.915000000000000480e-01 2.000000000000000042e-02 1.000000000000000000e+00
-9.904999999999999361e-01 2.000000000000000042e-02 1.000000000000000000e+00
-9.904999999999999361e-01 2.000000000000000042e-02 1.000000000000000000e+00
-9.904999999999999361e-01 2.000000000000000042e-02 1.000000000000000000e+00
-9.884999999999999343e-01 2.000000000000000042e-02 1.000000000000000000e+00
-9.884999999999999343e-01 2.000000000000000042e-02 1.000000000000000000e+00
-9.884999999999999343e-01 2.000000000000000042e-02 1.000000000000000000e+00
-9.884999999999999343e-01 2.000000000000000042e-02 1.000000000000000000e+00
-9.875000000000000444e-01 2.000000000000000042e-02 1.000000000000000000e+00
-9.864999999999999325e-01 2.000000000000000042e-02 1.000000000000000000e+00
-9.864999999999999325e-01 2.000000000000000042e-02 1.000000000000000000e+00
-9.864999999999999325e-01 2.000000000000000042e-02 1.000000000000000000e+00
-9.855000000000000426e-01 2.000000000000000042e-02 1.000000000000000000e+00
-9.855000000000000426e-01 2.000000000000000042e-02 1.000000000000000000e+00
-9.855000000000000426e-01 2.000000000000000042e-02 1.000000000000000000e+00
-9.855000000000000426e-01 2.000000000000000042e-02 1.000000000000000000e+00
-9.855000000000000426e-01 2.000000000000000042e-02 1.000000000000000000e+00
-9.855000000000000426e-01 2.000000000000000042e-02 1.000000000000000000e+00
-9.844999999999999307e-01 2.000000000000000042e-02 1.000000000000000000e+00
-9.844999999999999307e-01 2.000000000000000042e-02 1.000000000000000000e+00
-9.844999999999999307e-01 2.000000000000000042e-02 1.000000000000000000e+00
-9.844999999999999307e-01 2.000000000000000042e-02 1.000000000000000000e+00
-9.824999999999999289e-01 2.000000000000000042e-02 1.000000000000000000e+00
-9.824999999999999289e-01 2.000000000000000042e-02 1.000000000000000000e+00
-9.824999999999999289e-01 2.000000000000000042e-02 1.000000000000000000e+00
-9.824999999999999289e-01 2.000000000000000042e-02 1.000000000000000000e+00
-9.824999999999999289e-01 2.000000000000000042e-02 1.000000000000000000e+00
-9.815000000000000391e-01 2.000000000000000042e-02 1.000000000000000000e+00
-9.815000000000000391e-01 2.000000000000000042e-02 1.000000000000000000e+00
-9.815000000000000391e-01 2.000000000000000042e-02 1.000000000000000000e+00
-9.815000000000000391e-01 2.000000000000000042e-02 1.000000000000000000e+00
-9.815000000000000391e-01 2.000000000000000042e-02 1.000000000000000000e+00
-9.815000000000000391e-01 2.000000000000000042e-02 1.000000000000000000e+00
-9.795000000000000373e-01 2.000000000000000042e-02 1.000000000000000000e+00
-9.784999999999999254e-01 2.000000000000000042e-02 1.000000000000000000e+00
-9.784999999999999254e-01 2.000000000000000042e-02 1.000000000000000000e+00
-9.784999999999999254e-01 2.000000000000000042e-02 1.000000000000000000e+00
-9.784999999999999254e-01 2.000000000000000042e-02 1.000000000000000000e+00
-9.784999999999999254e-01 2.000000000000000042e-02 1.000000000000000000e+00
-9.784999999999999254e-01 2.000000000000000042e-02 1.000000000000000000e+00
-9.784999999999999254e-01 2.000000000000000042e-02 1.000000000000000000e+00
-9.775000000000000355e-01 2.000000000000000042e-02 1.000000000000000000e+00
-9.775000000000000355e-01 2.000000000000000042e-02 1.000000000000000000e+00
-9.775000000000000355e-01 2.000000000000000042e-02 1.000000000000000000e+00
-9.775000000000000355e-01 2.000000000000000042e-02 1.000000000000000000e+00
-9.775000000000000355e-01 2.000000000000000042e-02 1.000000000000000000e+00
-9.775000000000000355e-01 2.000000000000000042e-02 1.000000000000000000e+00
-9.764999999999999236e-01 2.000000000000000042e-02 1.000000000000000000e+00
-9.764999999999999236e-01 2.000000000000000042e-02 1.000000000000000000e+00
-9.764999999999999236e-01 2.000000000000000042e-02 1.000000000000000000e+00
-9.764999999999999236e-01 2.000000000000000042e-02 1.000000000000000000e+00
-9.764999999999999236e-01 2.000000000000000042e-02 1.000000000000000000e+00
-9.755000000000000338e-01 2.000000000000000042e-02 1.000000000000000000e+00
-9.755000000000000338e-01 2.000000000000000042e-02 1.000000000000000000e+00
-9.755000000000000338e-01 2.000000000000000042e-02 1.000000000000000000e+00
-9.755000000000000338e-01 2.000000000000000042e-02 1.000000000000000000e+00
-9.755000000000000338e-01 2.000000000000000042e-02 1.000000000000000000e+00
-9.755000000000000338e-01 2.000000000000000042e-02 1.000000000000000000e+00
-9.755000000000000338e-01 2.000000000000000042e-02 1.000000000000000000e+00
-9.755000000000000338e-01 2.000000000000000042e-02 1.000000000000000000e+00
-9.755000000000000338e-01 2.000000000000000042e-02 1.000000000000000000e+00
-9.744999999999999218e-01 2.000000000000000042e-02 1.000000000000000000e+00
-9.744999999999999218e-01 1.983731597500883875e-02 1.000239384394376874e+00
-9.744999999999999218e-01 2.000000000000000042e-02 1.000000000000000000e+00
-9.744999999999999218e-01 2.000000000000000042e-02 1.000000000000000000e+00
-9.735000000000000320e-01 2.000000000000000042e-02 1.000000000000000000e+00
-9.735000000000000320e-01 2.000000000000000042e-02 1.000000000000000000e+00
-9.735000000000000320e-01 2.000000000000000042e-02 1.000000000000000000e+00
-9.735000000000000320e-01 2.000000000000000042e-02 1.000000000000000000e+00
-9.735000000000000320e-01 2.000000000000000042e-02 1.000000000000000000e+00
-9.724999999999999201e-01 2.000000000000000042e-02 1.000000000000000000e+00
-9.724999999999999201e-01 2.000000000000000042e-02 1.000000000000000000e+00
-9.724999999999999201e-01 2.000000000000000042e-02 1.000000000000000000e+00
-9.724999999999999201e-01 2.000000000000000042e-02 1.000000000000000000e+00
-9.724999999999999201e-01 2.000000000000000042e-02 1.000000000000000000e+00
-9.715000000000000302e-01 2.000000000000000042e-02 1.000000000000000000e+00
-9.715000000000000302e-01 2.000000000000000042e-02 1.000000000000000000e+00
-9.704999999999999183e-01 2.000000000000000042e-02 1.000000000000000000e+00
-9.704999999999999183e-01 2.000000000000000042e-02 1.000000000000000000e+00
-9.704999999999999183e-01 2.000000000000000042e-02 1.000000000000000000e+00
-9.704999999999999183e-01 2.000000000000000042e-02 1.000000000000000000e+00
-9.704999999999999183e-01 2.000000000000000042e-02 1.000000000000000000e+00
-9.704999999999999183e-01 2.000000000000000042e-02 1.000000000000000000e+00
-9.704999999999999183e-01 2.000000000000000042e-02 1.000000000000000000e+00
-9.695000000000000284e-01 2.000000000000000042e-02 1.000000000000000000e+00
-9.695000000000000284e-01 2.000000000000000042e-02 1.000000000000000000e+00
-9.695000000000000284e-01 2.000000000000000042e-02 1.000000000000000000e+00
-9.695000000000000284e-01 2.000000000000000042e-02 1.000000000000000000e+00
-9.684999999999999165e-01 2.000000000000000042e-02 1.000000000000000000e+00
-9.684999999999999165e-01 2.000000000000000042e-02 1.000000000000000000e+00
-9.684999999999999165e-01 2.000000000000000042e-02 1.000000000000000000e+00
-9.684999999999999165e-01 2.000000000000000042e-02 1.000000000000000000e+00
-9.684999999999999165e-01 2.000000000000000042e-02 1.000000000000000000e+00
-9.675000000000000266e-01 2.000000000000000042e-02 1.000000000000000000e+00
-9.675000000000000266e-01 2.000000000000000042e-02 1.000000000000000000e+00
-9.675000000000000266e-01 2.000000000000000042e-02 1.000000000000000000e+00
-9.675000000000000266e-01 2.000000000000000042e-02 1.000000000000000000e+00
-9.664999999999999147e-01 2.000000000000000042e-02 1.000000000000000000e+00
-9.664999999999999147e-01 2.000000000000000042e-02 1.000000000000000000e+00
-9.655000000000000249e-01 2.000000000000000042e-02 1.000000000000000000e+00
-9.655000000000000249e-01 2.000000000000000042e-02 1.000000000000000000e+00
-9.655000000000000249e-01 2.000000000000000042e-02 1.000000000000000000e+00
-9.655000000000000249e-01 2.000000000000000042e-02 1.000000000000000000e+00
-9.644999999999999130e-01 2.000000000000000042e-02 1.000000000000000000e+00
-9.644999999999999130e-01 2.000000000000000042e-02 1.000000000000000000e+00
-9.644999999999999130e-01 2.000000000000000042e-02 1.000000000000000000e+00
-9.644999999999999130e-01 2.000000000000000042e-02 1.000000000000000000e+00
-9.635000000000000231e-01 2.000000000000000042e-02 1.000000000000000000e+00
-9.635000000000000231e-01 2.000000000000000042e-02 1.000000000000000000e+00
-9.635000000000000231e-01 2.000000000000000042e-02 1.000000000000000000e+00
-9.635000000000000231e-01 2.000000000000000042e-02 1.000000000000000000e+00
-9.635000000000000231e-01 1.997593938378915482e-02 1.000003619693918377e+00
-9.635000000000000231e-01 2.000000000000000042e-02 1.000000000000000000e+00
-9.635000000000000231e-01 2.000000000000000042e-02 1.000000000000000000e+00
-9.624999999999999112e-01 2.000000000000000042e-02 1.000000000000000000e+00
-9.624999999999999112e-01 2.000000000000000042e-02 1.000000000000000000e+00
-9.624999999999999112e-01 2.000000000000000042e-02 1.000000000000000000e+00
-9.615000000000000213e-01 2.000000000000000042e-02 1.000000000000000000e+00
-9.615000000000000213e-01 2.000000000000000042e-02 1.000000000000000000e+00
-9.615000000000000213e-01 2.000000000000000042e-02 1.000000000000000000e+00
-9.615000000000000213e-01 2.000000000000000042e-02 1.000000000000000000e+00
-9.615000000000000213e-01 2.000000000000000042e-02 1.000000000000000000e+00
-9.615000000000000213e-01 2.000000000000000042e-02 1.000000000000000000e+00
-9.615000000000000213e-01 2.000000000000000042e-02 1.000000000000000000e+00
-9.604999999999999094e-01 2.000000000000000042e-02 1.000000000000000000e+00
-9.604999999999999094e-01 2.000000000000000042e-02 1.000000000000000000e+00
-9.595000000000000195e-01 2.000000000000000042e-02 1.000000000000000000e+00
-9.595000000000000195e-01 2.000000000000000042e-02 1.000000000000000000e+00
-9.595000000000000195e-01 2.000000000000000042e-02 1.000000000000000000e+00
-9.595000000000000195e-01 2.000000000000000042e-02 1.000000000000000000e+00
-9.595000000000000195e-01 2.000000000000000042e-02 1.000000000000000000e+00
-9.584999999999999076e-01 2.000000000000000042e-02 1.000000000000000000e+00
-9.584999999999999076e-01 2.000000000000000042e-02 1.000000000000000000e+00
-9.584999999999999076e-01 2.000000000000000042e-02 1.000000000000000000e+00
-9.584999999999999076e-01 2.000000000000000042e-02 1.000000000000000000e+00
-9.575000000000000178e-01 2.000000000000000042e-02 1.000000000000000000e+00
-9.575000000000000178e-01 2.000000000000000042e-02 1.000000000000000000e+00
-9.575000000000000178e-01 2.000000000000000042e-02 1.000000000000000000e+00
-9.575000000000000178e-01 2.000000000000000042e-02 1.000000000000000000e+00
-9.575000000000000178e-01 2.000000000000000042e-02 1.000000000000000000e+00
-9.575000000000000178e-01 2.000000000000000042e-02 1.000000000000000000e+00
-9.575000000000000178e-01 2.000000000000000042e-02 1.000000000000000000e+00
-9.575000000000000178e-01 2.000000000000000042e-02 1.000000000000000000e+00
-9.575000000000000178e-01 2.000000000000000042e-02 1.000000000000000000e+00
-9.564999999999999059e-01 2.000000000000000042e-02 1.000000000000000000e+00
-9.564999999999999059e-01 2.000000000000000042e-02 1.000000000000000000e+00
-9.564999999999999059e-01 2.000000000000000042e-02 1.000000000000000000e+00
-9.564999999999999059e-01 2.000000000000000042e-02 1.000000000000000000e+00
-9.564999999999999059e-01 2.000000000000000042e-02 1.000000000000000000e+00
-9.564999999999999059e-01 2.000000000000000042e-02 1.000000000000000000e+00
-9.564999999999999059e-01 2.000000000000000042e-02 1.000000000000000000e+00
-9.564999999999999059e-01 2.000000000000000042e-02 1.000000000000000000e+00
-9.555000000000000160e-01 2.000000000000000042e-02 1.000000000000000000e+00
-9.555000000000000160e-01 2.000000000000000042e-02 1.000000000000000000e+00
-9.555000000000000160e-01 2.000000000000000042e-02 1.000000000000000000e+00
-9.555000000000000160e-01 2.000000000000000042e-02 1.000000000000000000e+00
-9.555000000000000160e-01 2.000000000000000042e-02 1.000000000000000000e+00
-9.555000000000000160e-01 2.000000000000000042e-02 1.000000000000000000e+00
-9.555000000000000160e-01 2.000000000000000042e-02 1.000000000000000000e+00
-9.544999999999999041e-01 2.000000000000000042e-02 1.000000000000000000e+00
-9.544999999999999041e-01 2.000000000000000042e-02 1.000000000000000000e+00
-9.544999999999999041e-01 2.000000000000000042e-02 1.000000000000000000e+00
-9.544999999999999041e-01 2.000000000000000042e-02 1.000000000000000000e+00
-9.544999999999999041e-01 2.000000000000000042e-02 1.000000000000000000e+00
-9.544999999999999041e-01 2.000000000000000042e-02 1.000000000000000000e+00
-9.535000000000000142e-01 2.000000000000000042e-02 1.000000000000000000e+00
-9.535000000000000142e-01 2.000000000000000042e-02 1.000000000000000000e+00
-9.535000000000000142e-01 2.000000000000000042e-02 1.000000000000000000e+00
-9.535000000000000142e-01 2.000000000000000042e-02 1.000000000000000000e+00
-9.535000000000000142e-01 2.000000000000000042e-02 1.000000000000000000e+00
-9.524999999999999023e-01 2.000000000000000042e-02 1.000000000000000000e+00
-9.524999999999999023e-01 2.000000000000000042e-02 1.000000000000000000e+00
-9.524999999999999023e-01 2.000000000000000042e-02 1.000000000000000000e+00
-9.524999999999999023e-01 2.000000000000000042e-02 1.000000000000000000e+00
-9.524999999999999023e-01 2.000000000000000042e-02 1.000000000000000000e+00
-9.515000000000000124e-01 2.000000000000000042e-02 1.000000000000000000e+00
-9.515000000000000124e-01 2.000000000000000042e-02 1.000000000000000000e+00
-9.515000000000000124e-01 2.000000000000000042e-02 1.000000000000000000e+00
-9.515000000000000124e-01 2.000000000000000042e-02 1.000000000000000000e+00
-9.515000000000000124e-01 2.000000000000000042e-02 1.000000000000000000e+00
-9.515000000000000124e-01 2.000000000000000042e-02 1.000000000000000000e+00
-9.515000000000000124e-01 2.000000000000000042e-02 1.000000000000000000e+00
-9.515000000000000124e-01 2.000000000000000042e-02 1.000000000000000000e+00
-9.515000000000000124e-01 2.000000000000000042e-02 1.000000000000000000e+00
-9.515000000000000124e-01 2.000000000000000042e-02 1.000000000000000000e+00
-9.515000000000000124e-01 2.000000000000000042e-02 1.000000000000000000e+00
-9.515000000000000124e-01 2.000000000000000042e-02 1.000000000000000000e+00
-9.504999999999999005e-01 2.000000000000000042e-02 1.000000000000000000e+00
-9.504999999999999005e-01 2.000000000000000042e-02 1.000000000000000000e+00
-9.504999999999999005e-01 2.000000000000000042e-02 1.000000000000000000e+00
-9.495000000000000107e-01 2.000000000000000042e-02 1.000000000000000000e+00
-9.495000000000000107e-01 2.000000000000000042e-02 1.000000000000000000e+00
-9.495000000000000107e-01 2.000000000000000042e-02 1.000000000000000000e+00
-9.484999999999998987e-01 2.000000000000000042e-02 1.000000000000000000e+00
-9.484999999999998987e-01 2.000000000000000042e-02 1.000000000000000000e+00
-9.475000000000000089e-01 2.000000000000000042e-02 1.000000000000000000e+00
-9.475000000000000089e-01 2.000000000000000042e-02 1.000000000000000000e+00
-9.475000000000000089e-01 2.000000000000000042e-02 1.000000000000000000e+00
-9.475000000000000089e-01 2.000000000000000042e-02 1.000000000000000000e+00
-9.475000000000000089e-01 2.000000000000000042e-02 1.000000000000000000e+00
-9.464999999999998970e-01 2.000000000000000042e-02 1.000000000000000000e+00
-9.464999999999998970e-01 2.000000000000000042e-02 1.000000000000000000e+00
-9.464999999999998970e-01 2.000000000000000042e-02 1.000000000000000000e+00
-9.455000000000000071e-01 2.000000000000000042e-02 1.000000000000000000e+00
-9.455000000000000071e-01 2.000000000000000042e-02 1.000000000000000000e+00
-9.455000000000000071e-01 2.000000000000000042e-02 1.000000000000000000e+00
-9.455000000000000071e-01 2.000000000000000042e-02 1.000000000000000000e+00
-9.455000000000000071e-01 2.000000000000000042e-02 1.000000000000000000e+00
-9.455000000000000071e-01 2.000000000000000042e-02 1.000000000000000000e+00
-9.455000000000000071e-01 2.000000000000000042e-02 1.000000000000000000e+00
-9.455000000000000071e-01 2.000000000000000042e-02 1.000000000000000000e+00
-9.455000000000000071e-01 2.000000000000000042e-02 1.000000000000000000e+00
-9.444999999999998952e-01 2.000000000000000042e-02 1.000000000000000000e+00
-9.444999999999998952e-01 2.000000000000000042e-02 1.000000000000000000e+00
-9.444999999999998952e-01 2.000000000000000042e-02 1.000000000000000000e+00
-9.435000000000000053e-01 2.000000000000000042e-02 1.000000000000000000e+00
-9.435000000000000053e-01 2.000000000000000042e-02 1.000000000000000000e+00
-9.435000000000000053e-01 2.000000000000000042e-02 1.000000000000000000e+00
-9.435000000000000053e-01 2.000000000000000042e-02 1.000000000000000000e+00
-9.435000000000000053e-01 2.000000000000000042e-02 1.000000000000000000e+00
-9.435000000000000053e-01 2.000000000000000042e-02 1.000000000000000000e+00
-9.435000000000000053e-01 2.000000000000000042e-02 1.000000000000000000e+00
-9.435000000000000053e-01 2.000000000000000042e-02 1.000000000000000000e+00
-9.424999999999998934e-01 2.000000000000000042e-02 1.000000000000000000e+00
-9.424999999999998934e-01 2.000000000000000042e-02 1.000000000000000000e+00
-9.424999999999998934e-01 2.000000000000000042e-02 1.000000000000000000e+00
-9.424999999999998934e-01 2.000000000000000042e-02 1.000000000000000000e+00
-9.424999999999998934e-01 2.000000000000000042e-02 1.000000000000000000e+00
-9.424999999999998934e-01 2.000000000000000042e-02 1.000000000000000000e+00
-9.415000000000000036e-01 2.000000000000000042e-02 1.000000000000000000e+00
-9.415000000000000036e-01 2.000000000000000042e-02 1.000000000000000000e+00
-9.415000000000000036e-01 2.000000000000000042e-02 1.000000000000000000e+00
-9.415000000000000036e-01 2.000000000000000042e-02 1.000000000000000000e+00
-9.415000000000000036e-01 2.000000000000000042e-02 1.000000000000000000e+00
-9.415000000000000036e-01 2.000000000000000042e-02 1.000000000000000000e+00
-9.415000000000000036e-01 2.000000000000000042e-02 1.000000000000000000e+00
-9.415000000000000036e-01 2.000000000000000042e-02 1.000000000000000000e+00
-9.404999999999998916e-01 2.000000000000000042e-02 1.000000000000000000e+00
-9.404999999999998916e-01 2.000000000000000042e-02 1.000000000000000000e+00
-9.404999999999998916e-01 2.000000000000000042e-02 1.000000000000000000e+00
-9.404999999999998916e-01 2.000000000000000042e-02 1.000000000000000000e+00
-9.404999999999998916e-01 2.000000000000000042e-02 1.000000000000000000e+00
-9.404999999999998916e-01 2.000000000000000042e-02 1.000000000000000000e+00
-9.404999999999998916e-01 2.000000000000000042e-02 1.000000000000000000e+00
-9.395000000000000018e-01 2.000000000000000042e-02 1.000000000000000000e+00
-9.395000000000000018e-01 2.000000000000000042e-02 1.000000000000000000e+00
-9.395000000000000018e-01 2.000000000000000042e-02 1.000000000000000000e+00
-9.395000000000000018e-01 2.000000000000000042e-02 1.000000000000000000e+00
-9.395000000000000018e-01 2.000000000000000042e-02 1.000000000000000000e+00
-9.395000000000000018e-01 2.000000000000000042e-02 1.000000000000000000e+00
-9.395000000000000018e-01 2.000000000000000042e-02 1.000000000000000000e+00
-9.384999999999998899e-01 2.000000000000000042e-02 1.000000000000000000e+00
-9.384999999999998899e-01 2.000000000000000042e-02 1.000000000000000000e+00
-9.384999999999998899e-01 2.000000000000000042e-02 1.000000000000000000e+00
-9.384999999999998899e-01 2.000000000000000042e-02 1.000000000000000000e+00
-9.384999999999998899e-01 2.000000000000000042e-02 1.000000000000000000e+00
-9.384999999999998899e-01 2.000000000000000042e-02 1.000000000000000000e+00
-9.384999999999998899e-01 2.000000000000000042e-02 1.000000000000000000e+00
-9.384999999999998899e-01 2.000000000000000042e-02 1.000000000000000000e+00
-9.384999999999998899e-01 2.000000000000000042e-02 1.000000000000000000e+00
-9.384999999999998899e-01 2.000000000000000042e-02 1.000000000000000000e+00
-9.375000000000000000e-01 2.000000000000000042e-02 1.000000000000000000e+00
-9.375000000000000000e-01 2.000000000000000042e-02 1.000000000000000000e+00
-9.375000000000000000e-01 2.000000000000000042e-02 1.000000000000000000e+00
-9.375000000000000000e-01 2.000000000000000042e-02 1.000000000000000000e+00
-9.375000000000000000e-01 2.000000000000000042e-02 1.000000000000000000e+00
-9.375000000000000000e-01 2.000000000000000042e-02 1.000000000000000000e+00
-9.364999999999998881e-01 2.000000000000000042e-02 1.000000000000000000e+00
-9.364999999999998881e-01 2.000000000000000042e-02 1.000000000000000000e+00
-9.364999999999998881e-01 2.000000000000000042e-02 1.000000000000000000e+00
-9.364999999999998881e-01 2.000000000000000042e-02 1.000000000000000000e+00
-9.364999999999998881e-01 2.000000000000000042e-02 1.000000000000000000e+00
-9.364999999999998881e-01 2.000000000000000042e-02 1.000000000000000000e+00
-9.364999999999998881e-01 2.000000000000000042e-02 1.000000000000000000e+00
-9.364999999999998881e-01 2.000000000000000042e-02 1.000000000000000000e+00
-9.364999999999998881e-01 2.000000000000000042e-02 1.000000000000000000e+00
-9.364999999999998881e-01 2.000000000000000042e-02 1.000000000000000000e+00
-9.364999999999998881e-01 2.000000000000000042e-02 1.000000000000000000e+00
-9.354999999999999982e-01 2.000000000000000042e-02 1.000000000000000000e+00
-9.354999999999999982e-01 2.000000000000000042e-02 1.000000000000000000e+00
-9.354999999999999982e-01 2.000000000000000042e-02 1.000000000000000000e+00
-9.354999999999999982e-01 2.000000000000000042e-02 1.000000000000000000e+00
-9.354999999999999982e-01 2.000000000000000042e-02 1.000000000000000000e+00
-9.354999999999999982e-01 2.000000000000000042e-02 1.000000000000000000e+00
-9.354999999999999982e-01 2.000000000000000042e-02 1.000000000000000000e+00
-9.354999999999999982e-01 2.000000000000000042e-02 1.000000000000000000e+00
-9.354999999999999982e-01 2.000000000000000042e-02 1.000000000000000000e+00
-9.354999999999999982e-01 2.000000000000000042e-02 1.000000000000000000e+00
-9.344999999999998863e-01 2.000000000000000042e-02 1.000000000000000000e+00
-9.344999999999998863e-01 2.000000000000000042e-02 1.000000000000000000e+00
-9.344999999999998863e-01 2.000000000000000042e-02 1.000000000000000000e+00
-9.344999999999998863e-01 2.000000000000000042e-02 1.000000000000000000e+00
-9.344999999999998863e-01 2.000000000000000042e-02 1.000000000000000000e+00
-9.344999999999998863e-01 2.000000000000000042e-02 1.000000000000000000e+00
-9.344999999999998863e-01 2.000000000000000042e-02 1.000000000000000000e+00
-9.334999999999999964e-01 2.000000000000000042e-02 1.000000000000000000e+00
-9.334999999999999964e-01 2.000000000000000042e-02 1.000000000000000000e+00
-9.334999999999999964e-01 2.000000000000000042e-02 1.000000000000000000e+00
-9.334999999999999964e-01 2.000000000000000042e-02 1.000000000000000000e+00
-9.334999999999999964e-01 2.000000000000000042e-02 1.000000000000000000e+00
-9.334999999999999964e-01 2.000000000000000042e-02 1.000000000000000000e+00
-9.324999999999998845e-01 2.000000000000000042e-02 1.000000000000000000e+00
-9.324999999999998845e-01 2.000000000000000042e-02 1.000000000000000000e+00
-9.324999999999998845e-01 2.000000000000000042e-02 1.000000000000000000e+00
-9.324999999999998845e-01 1.970033119693479634e-02 1.000179831168938271e+00
-9.314999999999999947e-01 2.000000000000000042e-02 1.000000000000000000e+00
-9.314999999999999947e-01 2.000000000000000042e-02 1.000000000000000000e+00
-9.314999999999999947e-01 2.000000000000000042e-02 1.000000000000000000e+00
-9.314999999999999947e-01 2.000000000000000042e-02 1.000000000000000000e+00
-9.314999999999999947e-01 2.000000000000000042e-02 1.000000000000000000e+00
-9.314999999999999947e-01 2.000000000000000042e-02 1.000000000000000000e+00
-9.314999999999999947e-01 2.000000000000000042e-02 1.000000000000000000e+00
-9.314999999999999947e-01 1.883431414039918664e-02 1.000287448115365851e+00
-9.314999999999999947e-01 2.000000000000000042e-02 1.000000000000000000e+00
-9.304999999999998828e-01 2.000000000000000042e-02 1.000000000000000000e+00
-9.304999999999998828e-01 2.000000000000000042e-02 1.000000000000000000e+00
-9.304999999999998828e-01 2.000000000000000042e-02 1.000000000000000000e+00
-9.304999999999998828e-01 2.000000000000000042e-02 1.000000000000000000e+00
-9.304999999999998828e-01 2.000000000000000042e-02 1.000000000000000000e+00
-9.304999999999998828e-01 2.000000000000000042e-02 1.000000000000000000e+00
-9.304999999999998828e-01 2.000000000000000042e-02 1.000000000000000000e+00
-9.304999999999998828e-01 2.000000000000000042e-02 1.000000000000000000e+00
-9.294999999999999929e-01 2.000000000000000042e-02 1.000000000000000000e+00
-9.294999999999999929e-01 2.000000000000000042e-02 1.000000000000000000e+00
-9.294999999999999929e-01 2.000000000000000042e-02 1.000000000000000000e+00
-9.294999999999999929e-01 2.000000000000000042e-02 1.000000000000000000e+00
-9.294999999999999929e-01 2.000000000000000042e-02 1.000000000000000000e+00
-9.294999999999999929e-01 2.000000000000000042e-02 1.000000000000000000e+00
-9.294999999999999929e-01 2.000000000000000042e-02 1.000000000000000000e+00
-9.294999999999999929e-01 2.000000000000000042e-02 1.000000000000000000e+00
-9.294999999999999929e-01 2.000000000000000042e-02 1.000000000000000000e+00
-9.294999999999999929e-01 2.000000000000000042e-02 1.000000000000000000e+00
-9.294999999999999929e-01 2.000000000000000042e-02 1.000000000000000000e+00
-9.294999999999999929e-01 2.000000000000000042e-02 1.000000000000000000e+00
-9.294999999999999929e-01 2.000000000000000042e-02 1.000000000000000000e+00
-9.294999999999999929e-01 2.000000000000000042e-02 1.000000000000000000e+00
-9.284999999999998810e-01 2.000000000000000042e-02 1.000000000000000000e+00
-9.284999999999998810e-01 2.000000000000000042e-02 1.000000000000000000e+00
-9.284999999999998810e-01 2.000000000000000042e-02 1.000000000000000000e+00
-9.284999999999998810e-01 2.000000000000000042e-02 1.000000000000000000e+00
-9.274999999999999911e-01 2.000000000000000042e-02 1.000000000000000000e+00
-9.274999999999999911e-01 2.000000000000000042e-02 1.000000000000000000e+00
-9.274999999999999911e-01 2.000000000000000042e-02 1.000000000000000000e+00
-9.274999999999999911e-01 2.000000000000000042e-02 1.000000000000000000e+00
-9.264999999999998792e-01 2.000000000000000042e-02 1.000000000000000000e+00
-9.264999999999998792e-01 2.000000000000000042e-02 1.000000000000000000e+00
-9.264999999999998792e-01 2.000000000000000042e-02 1.000000000000000000e+00
-9.254999999999999893e-01 2.000000000000000042e-02 1.000000000000000000e+00
-9.254999999999999893e-01 2.000000000000000042e-02 1.000000000000000000e+00
-9.254999999999999893e-01 2.000000000000000042e-02 1.000000000000000000e+00
-9.254999999999999893e-01 2.000000000000000042e-02 1.000000000000000000e+00
-9.254999999999999893e-01 2.000000000000000042e-02 1.000000000000000000e+00
-9.254999999999999893e-01 2.000000000000000042e-02 1.000000000000000000e+00
-9.254999999999999893e-01 2.000000000000000042e-02 1.000000000000000000e+00
-9.244999999999998774e-01 2.000000000000000042e-02 1.000000000000000000e+00
-9.244999999999998774e-01 2.000000000000000042e-02 1.000000000000000000e+00
-9.244999999999998774e-01 2.000000000000000042e-02 1.000000000000000000e+00
-9.244999999999998774e-01 2.000000000000000042e-02 1.000000000000000000e+00
-9.244999999999998774e-01 2.000000000000000042e-02 1.000000000000000000e+00
-9.244999999999998774e-01 2.000000000000000042e-02 1.000000000000000000e+00
-9.234999999999999876e-01 2.000000000000000042e-02 1.000000000000000000e+00
-9.234999999999999876e-01 2.000000000000000042e-02 1.000000000000000000e+00
-9.234999999999999876e-01 2.000000000000000042e-02 1.000000000000000000e+00
-9.234999999999999876e-01 2.000000000000000042e-02 1.000000000000000000e+00
-9.234999999999999876e-01 2.000000000000000042e-02 1.000000000000000000e+00
-9.234999999999999876e-01 2.000000000000000042e-02 1.000000000000000000e+00
-9.234999999999999876e-01 2.000000000000000042e-02 1.000000000000000000e+00
-9.234999999999999876e-01 2.000000000000000042e-02 1.000000000000000000e+00
-9.234999999999999876e-01 2.000000000000000042e-02 1.000000000000000000e+00
-9.224999999999998757e-01 2.000000000000000042e-02 1.000000000000000000e+00
-9.224999999999998757e-01 2.000000000000000042e-02 1.000000000000000000e+00
-9.224999999999998757e-01 2.000000000000000042e-02 1.000000000000000000e+00
-9.224999999999998757e-01 2.000000000000000042e-02 1.000000000000000000e+00
-9.224999999999998757e-01 2.000000000000000042e-02 1.000000000000000000e+00
-9.224999999999998757e-01 2.000000000000000042e-02 1.000000000000000000e+00
-9.224999999999998757e-01 2.000000000000000042e-02 1.000000000000000000e+00
-9.224999999999998757e-01 2.000000000000000042e-02 1.000000000000000000e+00
-9.214999999999999858e-01 2.000000000000000042e-02 1.000000000000000000e+00
-9.214999999999999858e-01 2.000000000000000042e-02 1.000000000000000000e+00
-9.214999999999999858e-01 2.000000000000000042e-02 1.000000000000000000e+00
-9.214999999999999858e-01 2.000000000000000042e-02 1.000000000000000000e+00
-9.214999999999999858e-01 2.000000000000000042e-02 1.000000000000000000e+00
-9.214999999999999858e-01 2.000000000000000042e-02 1.000000000000000000e+00
-9.214999999999999858e-01 2.000000000000000042e-02 1.000000000000000000e+00
-9.204999999999998739e-01 2.000000000000000042e-02 1.000000000000000000e+00
-9.204999999999998739e-01 2.000000000000000042e-02 1.000000000000000000e+00
-9.204999999999998739e-01 2.000000000000000042e-02 1.000000000000000000e+00
-9.204999999999998739e-01 2.000000000000000042e-02 1.000000000000000000e+00
-9.204999999999998739e-01 2.000000000000000042e-02 1.000000000000000000e+00
-9.204999999999998739e-01 2.000000000000000042e-02 1.000000000000000000e+00
-9.204999999999998739e-01 2.000000000000000042e-02 1.000000000000000000e+00
-9.204999999999998739e-01 2.000000000000000042e-02 1.000000000000000000e+00
-9.204999999999998739e-01 2.000000000000000042e-02 1.000000000000000000e+00
-9.204999999999998739e-01 2.000000000000000042e-02 1.000000000000000000e+00
-9.194999999999999840e-01 1.931992433501427894e-02 1.000172480834986111e+00
-9.194999999999999840e-01 2.000000000000000042e-02 1.000000000000000000e+00
-9.194999999999999840e-01 2.000000000000000042e-02 1.000000000000000000e+00
-9.194999999999999840e-01 2.000000000000000042e-02 1.000000000000000000e+00
-9.194999999999999840e-01 2.000000000000000042e-02 1.000000000000000000e+00
-9.194999999999999840e-01 2.000000000000000042e-02 1.000000000000000000e+00
-9.194999999999999840e-01 2.000000000000000042e-02 1.000000000000000000e+00
-9.184999999999998721e-01 2.000000000000000042e-02 1.000000000000000000e+00
-9.184999999999998721e-01 2.000000000000000042e-02 1.000000000000000000e+00
-9.184999999999998721e-01 2.000000000000000042e-02 1.000000000000000000e+00
-9.184999999999998721e-01 2.000000000000000042e-02 1.000000000000000000e+00
-9.184999999999998721e-01 2.000000000000000042e-02 1.000000000000000000e+00
-9.184999999999998721e-01 2.000000000000000042e-02 1.000000000000000000e+00
-9.174999999999999822e-01 2.000000000000000042e-02 1.000000000000000000e+00
-9.174999999999999822e-01 2.000000000000000042e-02 1.000000000000000000e+00
-9.174999999999999822e-01 2.000000000000000042e-02 1.000000000000000000e+00
-9.174999999999999822e-01 2.000000000000000042e-02 1.000000000000000000e+00
-9.174999999999999822e-01 2.000000000000000042e-02 1.000000000000000000e+00
-9.174999999999999822e-01 2.000000000000000042e-02 1.000000000000000000e+00
-9.164999999999998703e-01 2.000000000000000042e-02 1.000000000000000000e+00
-9.164999999999998703e-01 2.000000000000000042e-02 1.000000000000000000e+00
-9.164999999999998703e-01 1.973242929352371500e-02 1.000073389742750063e+00
-9.164999999999998703e-01 2.000000000000000042e-02 1.000000000000000000e+00
-9.164999999999998703e-01 2.000000000000000042e-02 1.000000000000000000e+00
-9.164999999999998703e-01 2.000000000000000042e-02 1.000000000000000000e+00
-9.164999999999998703e-01 2.000000000000000042e-02 1.000000000000000000e+00
-9.164999999999998703e-01 2.000000000000000042e-02 1.000000000000000000e+00
-9.164999999999998703e-01 2.000000000000000042e-02 1.000000000000000000e+00
-9.164999999999998703e-01 2.000000000000000042e-02 1.000000000000000000e+00
-9.164999999999998703e-01 2.000000000000000042e-02 1.000000000000000000e+00
-9.164999999999998703e-01 2.000000000000000042e-02 1.000000000000000000e+00
-9.164999999999998703e-01 2.000000000000000042e-02 1.000000000000000000e+00
-9.164999999999998703e-01 2.000000000000000042e-02 1.000000000000000000e+00
-9.154999999999999805e-01 2.000000000000000042e-02 1.000000000000000000e+00
-9.154999999999999805e-01 2.000000000000000042e-02 1.000000000000000000e+00
-9.154999999999999805e-01 2.000000000000000042e-02 1.000000000000000000e+00
-9.154999999999999805e-01 2.000000000000000042e-02 1.000000000000000000e+00
-9.154999999999999805e-01 2.000000000000000042e-02 1.000000000000000000e+00
-9.154999999999999805e-01 2.000000000000000042e-02 1.000000000000000000e+00
-9.154999999999999805e-01 2.000000000000000042e-02 1.000000000000000000e+00
-9.154999999999999805e-01 2.000000000000000042e-02 1.000000000000000000e+00
-9.154999999999999805e-01 2.000000000000000042e-02 1.000000000000000000e+00
-9.144999999999998685e-01 2.000000000000000042e-02 1.000000000000000000e+00
-9.144999999999998685e-01 2.000000000000000042e-02 1.000000000000000000e+00
-9.144999999999998685e-01 2.000000000000000042e-02 1.000000000000000000e+00
-9.134999999999999787e-01 2.000000000000000042e-02 1.000000000000000000e+00
-9.134999999999999787e-01 2.000000000000000042e-02 1.000000000000000000e+00
-9.134999999999999787e-01 2.000000000000000042e-02 1.000000000000000000e+00
-9.134999999999999787e-01 2.000000000000000042e-02 1.000000000000000000e+00
-9.134999999999999787e-01 2.000000000000000042e-02 1.000000000000000000e+00
-9.134999999999999787e-01 2.000000000000000042e-02 1.000000000000000000e+00
-9.134999999999999787e-01 2.000000000000000042e-02 1.000000000000000000e+00
-9.134999999999999787e-01 2.000000000000000042e-02 1.000000000000000000e+00
-9.134999999999999787e-01 2.000000000000000042e-02 1.000000000000000000e+00
-9.134999999999999787e-01 2.000000000000000042e-02 1.000000000000000000e+00
-9.134999999999999787e-01 2.000000000000000042e-02 1.000000000000000000e+00
-9.134999999999999787e-01 2.000000000000000042e-02 1.000000000000000000e+00
-9.134999999999999787e-01 2.000000000000000042e-02 1.000000000000000000e+00
-9.134999999999999787e-01 2.000000000000000042e-02 1.000000000000000000e+00
-9.124999999999998668e-01 2.000000000000000042e-02 1.000000000000000000e+00
-9.124999999999998668e-01 2.000000000000000042e-02 1.000000000000000000e+00
-9.124999999999998668e-01 2.000000000000000042e-02 1.000000000000000000e+00
-9.124999999999998668e-01 2.000000000000000042e-02 1.000000000000000000e+00
-9.114999999999999769e-01 2.000000000000000042e-02 1.000000000000000000e+00
-9.114999999999999769e-01 2.000000000000000042e-02 1.000000000000000000e+00
-9.114999999999999769e-01 2.000000000000000042e-02 1.000000000000000000e+00
-9.114999999999999769e-01 2.000000000000000042e-02 1.000000000000000000e+00
-9.114999999999999769e-01 2.000000000000000042e-02 1.000000000000000000e+00
-9.114999999999999769e-01 2.000000000000000042e-02 1.000000000000000000e+00
-9.114999999999999769e-01 2.000000000000000042e-02 1.000000000000000000e+00
-9.114999999999999769e-01 2.000000000000000042e-02 1.000000000000000000e+00
-9.114999999999999769e-01 2.000000000000000042e-02 1.000000000000000000e+00
-9.114999999999999769e-01 2.000000000000000042e-02 1.000000000000000000e+00
-9.104999999999998650e-01 2.000000000000000042e-02 1.000000000000000000e+00
-9.104999999999998650e-01 2.000000000000000042e-02 1.000000000000000000e+00
-9.104999999999998650e-01 2.000000000000000042e-02 1.000000000000000000e+00
-9.104999999999998650e-01 2.000000000000000042e-02 1.000000000000000000e+00
-9.104999999999998650e-01 2.000000000000000042e-02 1.000000000000000000e+00
-9.104999999999998650e-01 2.000000000000000042e-02 1.000000000000000000e+00
-9.104999999999998650e-01 2.000000000000000042e-02 1.000000000000000000e+00
-9.104999999999998650e-01 2.000000000000000042e-02 1.000000000000000000e+00
-9.104999999999998650e-01 2.000000000000000042e-02 1.000000000000000000e+00
-9.094999999999999751e-01 2.000000000000000042e-02 1.000000000000000000e+00
-9.094999999999999751e-01 2.000000000000000042e-02 1.000000000000000000e+00
-9.094999999999999751e-01 2.000000000000000042e-02 1.000000000000000000e+00
-9.094999999999999751e-01 2.000000000000000042e-02 1.000000000000000000e+00
-9.094999999999999751e-01 2.000000000000000042e-02 1.000000000000000000e+00
-9.094999999999999751e-01 2.000000000000000042e-02 1.000000000000000000e+00
-9.094999999999999751e-01 2.000000000000000042e-02 1.000000000000000000e+00
-9.094999999999999751e-01 2.000000000000000042e-02 1.000000000000000000e+00
-9.094999999999999751e-01 2.000000000000000042e-02 1.000000000000000000e+00
-9.084999999999998632e-01 2.000000000000000042e-02 1.000000000000000000e+00
-9.084999999999998632e-01 2.000000000000000042e-02 1.000000000000000000e+00
-9.084999999999998632e-01 2.000000000000000042e-02 1.000000000000000000e+00
-9.084999999999998632e-01 2.000000000000000042e-02 1.000000000000000000e+00
-9.084999999999998632e-01 2.000000000000000042e-02 1.000000000000000000e+00
-9.084999999999998632e-01 2.000000000000000042e-02 1.000000000000000000e+00
-9.084999999999998632e-01 2.000000000000000042e-02 1.000000000000000000e+00
-9.084999999999998632e-01 2.000000000000000042e-02 1.000000000000000000e+00
-9.084999999999998632e-01 2.000000000000000042e-02 1.000000000000000000e+00
-9.074999999999999734e-01 2.000000000000000042e-02 1.000000000000000000e+00
-9.074999999999999734e-01 2.000000000000000042e-02 1.000000000000000000e+00
-9.074999999999999734e-01 2.000000000000000042e-02 1.000000000000000000e+00
-9.074999999999999734e-01 2.000000000000000042e-02 1.000000000000000000e+00
-9.074999999999999734e-01 2.000000000000000042e-02 1.000000000000000000e+00
-9.074999999999999734e-01 1.960473590200362617e-02 1.000157421871032515e+00
-9.074999999999999734e-01 2.000000000000000042e-02 1.000000000000000000e+00
-9.074999999999999734e-01 2.000000000000000042e-02 1.000000000000000000e+00
-9.064999999999998614e-01 2.000000000000000042e-02 1.000000000000000000e+00
-9.064999999999998614e-01 1.967484242420906859e-02 1.000005606107579270e+00
-9.064999999999998614e-01 2.000000000000000042e-02 1.000000000000000000e+00
-9.064999999999998614e-01 2.000000000000000042e-02 1.000000000000000000e+00
-9.064999999999998614e-01 2.000000000000000042e-02 1.000000000000000000e+00
-9.064999999999998614e-01 2.000000000000000042e-02 1.000000000000000000e+00
-9.064999999999998614e-01 2.000000000000000042e-02 1.000000000000000000e+00
-9.064999999999998614e-01 2.000000000000000042e-02 1.000000000000000000e+00
-9.064999999999998614e-01 2.000000000000000042e-02 1.000000000000000000e+00
-9.064999999999998614e-01 2.000000000000000042e-02 1.000000000000000000e+00
-9.064999999999998614e-01 2.000000000000000042e-02 1.000000000000000000e+00
-9.054999999999999716e-01 2.000000000000000042e-02 1.000000000000000000e+00
-9.054999999999999716e-01 2.000000000000000042e-02 1.000000000000000000e+00
-9.054999999999999716e-01 2.000000000000000042e-02 1.000000000000000000e+00
-9.054999999999999716e-01 2.000000000000000042e-02 1.000000000000000000e+00
-9.054999999999999716e-01 2.000000000000000042e-02 1.000000000000000000e+00
-9.054999999999999716e-01 2.000000000000000042e-02 1.000000000000000000e+00
-9.054999999999999716e-01 2.000000000000000042e-02 1.000000000000000000e+00
-9.054999999999999716e-01 2.000000000000000042e-02 1.000000000000000000e+00
-9.054999999999999716e-01 2.000000000000000042e-02 1.000000000000000000e+00
-9.054999999999999716e-01 2.000000000000000042e-02 1.000000000000000000e+00
-9.054999999999999716e-01 2.000000000000000042e-02 1.000000000000000000e+00
-9.054999999999999716e-01 2.000000000000000042e-02 1.000000000000000000e+00
-9.044999999999998597e-01 2.000000000000000042e-02 1.000000000000000000e+00
-9.044999999999998597e-01 2.000000000000000042e-02 1.000000000000000000e+00
-9.044999999999998597e-01 2.000000000000000042e-02 1.000000000000000000e+00
-9.044999999999998597e-01 2.000000000000000042e-02 1.000000000000000000e+00
-9.044999999999998597e-01 2.000000000000000042e-02 1.000000000000000000e+00
-9.044999999999998597e-01 2.000000000000000042e-02 1.000000000000000000e+00
-9.034999999999999698e-01 2.000000000000000042e-02 1.000000000000000000e+00
-9.034999999999999698e-01 2.000000000000000042e-02 1.000000000000000000e+00
-9.034999999999999698e-01 2.000000000000000042e-02 1.000000000000000000e+00
-9.034999999999999698e-01 2.000000000000000042e-02 1.000000000000000000e+00
-9.034999999999999698e-01 2.000000000000000042e-02 1.000000000000000000e+00
-9.034999999999999698e-01 2.000000000000000042e-02 1.000000000000000000e+00
-9.034999999999999698e-01 2.000000000000000042e-02 1.000000000000000000e+00
-9.034999999999999698e-01 2.000000000000000042e-02 1.000000000000000000e+00
-9.034999999999999698e-01 2.000000000000000042e-02 1.000000000000000000e+00
-9.034999999999999698e-01 2.000000000000000042e-02 1.000000000000000000e+00
-9.034999999999999698e-01 2.000000000000000042e-02 1.000000000000000000e+00
-9.024999999999998579e-01 2.000000000000000042e-02 1.000000000000000000e+00
-9.024999999999998579e-01 2.000000000000000042e-02 1.000000000000000000e+00
-9.024999999999998579e-01 2.000000000000000042e-02 1.000000000000000000e+00
-9.024999999999998579e-01 2.000000000000000042e-02 1.000000000000000000e+00
-9.024999999999998579e-01 2.000000000000000042e-02 1.000000000000000000e+00
-9.024999999999998579e-01 2.000000000000000042e-02 1.000000000000000000e+00
-9.014999999999999680e-01 2.000000000000000042e-02 1.000000000000000000e+00
-9.014999999999999680e-01 2.000000000000000042e-02 1.000000000000000000e+00
-9.014999999999999680e-01 2.000000000000000042e-02 1.000000000000000000e+00
-9.014999999999999680e-01 2.000000000000000042e-02 1.000000000000000000e+00
-9.004999999999998561e-01 2.000000000000000042e-02 1.000000000000000000e+00
-9.004999999999998561e-01 2.000000000000000042e-02 1.000000000000000000e+00
-9.004999999999998561e-01 2.000000000000000042e-02 1.000000000000000000e+00
-9.004999999999998561e-01 2.000000000000000042e-02 1.000000000000000000e+00
-9.004999999999998561e-01 2.000000000000000042e-02 1.000000000000000000e+00
-9.004999999999998561e-01 2.000000000000000042e-02 1.000000000000000000e+00
-8.994999999999999662e-01 2.000000000000000042e-02 1.000000000000000000e+00
-8.994999999999999662e-01 2.000000000000000042e-02 1.000000000000000000e+00
-8.994999999999999662e-01 2.000000000000000042e-02 1.000000000000000000e+00
-8.994999999999999662e-01 2.000000000000000042e-02 1.000000000000000000e+00
-8.994999999999999662e-01 2.000000000000000042e-02 1.000000000000000000e+00
-8.994999999999999662e-01 2.000000000000000042e-02 1.000000000000000000e+00
-8.994999999999999662e-01 2.000000000000000042e-02 1.000000000000000000e+00
-8.994999999999999662e-01 2.000000000000000042e-02 1.000000000000000000e+00
-8.994999999999999662e-01 2.000000000000000042e-02 1.000000000000000000e+00
-8.994999999999999662e-01 2.000000000000000042e-02 1.000000000000000000e+00
-8.994999999999999662e-01 2.000000000000000042e-02 1.000000000000000000e+00
-8.984999999999998543e-01 2.000000000000000042e-02 1.000000000000000000e+00
-8.984999999999998543e-01 2.000000000000000042e-02 1.000000000000000000e+00
-8.984999999999998543e-01 2.000000000000000042e-02 1.000000000000000000e+00
-8.984999999999998543e-01 2.000000000000000042e-02 1.000000000000000000e+00
-8.984999999999998543e-01 2.000000000000000042e-02 1.000000000000000000e+00
-8.984999999999998543e-01 2.000000000000000042e-02 1.000000000000000000e+00
-8.984999999999998543e-01 2.000000000000000042e-02 1.000000000000000000e+00
-8.984999999999998543e-01 2.000000000000000042e-02 1.000000000000000000e+00
-8.984999999999998543e-01 2.000000000000000042e-02 1.000000000000000000e+00
-8.984999999999998543e-01 2.000000000000000042e-02 1.000000000000000000e+00
-8.974999999999999645e-01 2.000000000000000042e-02 1.000000000000000000e+00
-8.974999999999999645e-01 2.000000000000000042e-02 1.000000000000000000e+00
-8.974999999999999645e-01 2.000000000000000042e-02 1.000000000000000000e+00
-8.974999999999999645e-01 2.000000000000000042e-02 1.000000000000000000e+00
-8.974999999999999645e-01 2.000000000000000042e-02 1.000000000000000000e+00
-8.974999999999999645e-01 2.000000000000000042e-02 1.000000000000000000e+00
-8.974999999999999645e-01 2.000000000000000042e-02 1.000000000000000000e+00
-8.974999999999999645e-01 2.000000000000000042e-02 1.000000000000000000e+00
-8.974999999999999645e-01 2.000000000000000042e-02 1.000000000000000000e+00
-8.964999999999998526e-01 2.000000000000000042e-02 1.000000000000000000e+00
-8.964999999999998526e-01 2.000000000000000042e-02 1.000000000000000000e+00
-8.964999999999998526e-01 2.000000000000000042e-02 1.000000000000000000e+00
-8.964999999999998526e-01 2.000000000000000042e-02 1.000000000000000000e+00
-8.964999999999998526e-01 2.000000000000000042e-02 1.000000000000000000e+00
-8.964999999999998526e-01 2.000000000000000042e-02 1.000000000000000000e+00
-8.954999999999999627e-01 7.548866729026329969e-04 -1.493670841196990562e+00
-8.954999999999999627e-01 2.000000000000000042e-02 1.000000000000000000e+00
-8.954999999999999627e-01 2.000000000000000042e-02 1.000000000000000000e+00
-8.954999999999999627e-01 2.000000000000000042e-02 1.000000000000000000e+00
-8.954999999999999627e-01 2.000000000000000042e-02 1.000000000000000000e+00
-8.954999999999999627e-01 2.000000000000000042e-02 1.000000000000000000e+00
-8.954999999999999627e-01 2.000000000000000042e-02 1.000000000000000000e+00
-8.944999999999998508e-01 2.000000000000000042e-02 1.000000000000000000e+00
-8.944999999999998508e-01 2.000000000000000042e-02 1.000000000000000000e+00
-8.944999999999998508e-01 2.000000000000000042e-02 1.000000000000000000e+00
-8.944999999999998508e-01 2.000000000000000042e-02 1.000000000000000000e+00
-8.944999999999998508e-01 2.000000000000000042e-02 1.000000000000000000e+00
-8.944999999999998508e-01 2.000000000000000042e-02 1.000000000000000000e+00
-8.944999999999998508e-01 2.000000000000000042e-02 1.000000000000000000e+00
-8.944999999999998508e-01 2.000000000000000042e-02 1.000000000000000000e+00
-8.944999999999998508e-01 2.000000000000000042e-02 1.000000000000000000e+00
-8.944999999999998508e-01 2.000000000000000042e-02 1.000000000000000000e+00
-8.944999999999998508e-01 2.000000000000000042e-02 1.000000000000000000e+00
-8.934999999999999609e-01 2.000000000000000042e-02 1.000000000000000000e+00
-8.934999999999999609e-01 2.000000000000000042e-02 1.000000000000000000e+00
-8.934999999999999609e-01 2.000000000000000042e-02 1.000000000000000000e+00
-8.934999999999999609e-01 2.000000000000000042e-02 1.000000000000000000e+00
-8.934999999999999609e-01 2.000000000000000042e-02 1.000000000000000000e+00
-8.934999999999999609e-01 2.000000000000000042e-02 1.000000000000000000e+00
-8.934999999999999609e-01 2.000000000000000042e-02 1.000000000000000000e+00
-8.934999999999999609e-01 2.000000000000000042e-02 1.000000000000000000e+00
-8.934999999999999609e-01 2.000000000000000042e-02 1.000000000000000000e+00
-8.934999999999999609e-01 2.000000000000000042e-02 1.000000000000000000e+00
-8.924999999999998490e-01 2.000000000000000042e-02 1.000000000000000000e+00
-8.924999999999998490e-01 2.000000000000000042e-02 1.000000000000000000e+00
-8.924999999999998490e-01 2.000000000000000042e-02 1.000000000000000000e+00
-8.924999999999998490e-01 2.000000000000000042e-02 1.000000000000000000e+00
-8.924999999999998490e-01 2.000000000000000042e-02 1.000000000000000000e+00
-8.924999999999998490e-01 2.000000000000000042e-02 1.000000000000000000e+00
-8.924999999999998490e-01 2.000000000000000042e-02 1.000000000000000000e+00
-8.914999999999999591e-01 2.000000000000000042e-02 1.000000000000000000e+00
-8.914999999999999591e-01 2.000000000000000042e-02 1.000000000000000000e+00
-8.914999999999999591e-01 2.000000000000000042e-02 1.000000000000000000e+00
-8.914999999999999591e-01 2.000000000000000042e-02 1.000000000000000000e+00
-8.914999999999999591e-01 2.000000000000000042e-02 1.000000000000000000e+00
-8.914999999999999591e-01 2.000000000000000042e-02 1.000000000000000000e+00
-8.914999999999999591e-01 2.000000000000000042e-02 1.000000000000000000e+00
-8.914999999999999591e-01 2.000000000000000042e-02 1.000000000000000000e+00
-8.914999999999999591e-01 2.000000000000000042e-02 1.000000000000000000e+00
-8.914999999999999591e-01 2.000000000000000042e-02 1.000000000000000000e+00
-8.914999999999999591e-01 2.000000000000000042e-02 1.000000000000000000e+00
-8.914999999999999591e-01 2.000000000000000042e-02 1.000000000000000000e+00
-8.914999999999999591e-01 2.000000000000000042e-02 1.000000000000000000e+00
-8.904999999999998472e-01 2.000000000000000042e-02 1.000000000000000000e+00
-8.904999999999998472e-01 2.000000000000000042e-02 1.000000000000000000e+00
-8.904999999999998472e-01 2.000000000000000042e-02 1.000000000000000000e+00
-8.904999999999998472e-01 2.000000000000000042e-02 1.000000000000000000e+00
-8.894999999999999574e-01 2.000000000000000042e-02 1.000000000000000000e+00
-8.894999999999999574e-01 2.000000000000000042e-02 1.000000000000000000e+00
-8.894999999999999574e-01 2.000000000000000042e-02 1.000000000000000000e+00
-8.894999999999999574e-01 2.000000000000000042e-02 1.000000000000000000e+00
-8.894999999999999574e-01 2.000000000000000042e-02 1.000000000000000000e+00
-8.894999999999999574e-01 2.000000000000000042e-02 1.000000000000000000e+00
-8.884999999999998455e-01 2.000000000000000042e-02 1.000000000000000000e+00
-8.884999999999998455e-01 2.000000000000000042e-02 1.000000000000000000e+00
-8.884999999999998455e-01 2.000000000000000042e-02 1.000000000000000000e+00
-8.884999999999998455e-01 2.000000000000000042e-02 1.000000000000000000e+00
-8.884999999999998455e-01 2.000000000000000042e-02 1.000000000000000000e+00
-8.884999999999998455e-01 2.000000000000000042e-02 1.000000000000000000e+00
-8.884999999999998455e-01 2.000000000000000042e-02 1.000000000000000000e+00
-8.884999999999998455e-01 2.000000000000000042e-02 1.000000000000000000e+00
-8.874999999999999556e-01 2.000000000000000042e-02 1.000000000000000000e+00
-8.874999999999999556e-01 2.000000000000000042e-02 1.000000000000000000e+00
-8.874999999999999556e-01 2.000000000000000042e-02 1.000000000000000000e+00
-8.874999999999999556e-01 2.000000000000000042e-02 1.000000000000000000e+00
-8.874999999999999556e-01 2.000000000000000042e-02 1.000000000000000000e+00
-8.874999999999999556e-01 2.000000000000000042e-02 1.000000000000000000e+00
-8.874999999999999556e-01 2.000000000000000042e-02 1.000000000000000000e+00
-8.874999999999999556e-01 2.000000000000000042e-02 1.000000000000000000e+00
-8.874999999999999556e-01 2.000000000000000042e-02 1.000000000000000000e+00
-8.874999999999999556e-01 2.000000000000000042e-02 1.000000000000000000e+00
-8.874999999999999556e-01 2.000000000000000042e-02 1.000000000000000000e+00
-8.864999999999998437e-01 2.000000000000000042e-02 1.000000000000000000e+00
-8.864999999999998437e-01 2.000000000000000042e-02 1.000000000000000000e+00
-8.864999999999998437e-01 2.000000000000000042e-02 1.000000000000000000e+00
-8.864999999999998437e-01 1.990535136759305490e-02 1.000036346042623592e+00
-8.864999999999998437e-01 2.000000000000000042e-02 1.000000000000000000e+00
-8.864999999999998437e-01 1.996309511763999164e-02 1.000042060570793812e+00
-8.864999999999998437e-01 2.000000000000000042e-02 1.000000000000000000e+00
-8.864999999999998437e-01 2.000000000000000042e-02 1.000000000000000000e+00
-8.864999999999998437e-01 2.000000000000000042e-02 1.000000000000000000e+00
-8.854999999999999538e-01 2.000000000000000042e-02 1.000000000000000000e+00
-8.854999999999999538e-01 2.000000000000000042e-02 1.000000000000000000e+00
-8.854999999999999538e-01 2.000000000000000042e-02 1.000000000000000000e+00
-8.854999999999999538e-01 2.000000000000000042e-02 1.000000000000000000e+00
-8.854999999999999538e-01 2.000000000000000042e-02 1.000000000000000000e+00
-8.854999999999999538e-01 2.000000000000000042e-02 1.000000000000000000e+00
-8.854999999999999538e-01 2.000000000000000042e-02 1.000000000000000000e+00
-8.854999999999999538e-01 2.000000000000000042e-02 1.000000000000000000e+00
-8.854999999999999538e-01 2.000000000000000042e-02 1.000000000000000000e+00
-8.844999999999998419e-01 2.000000000000000042e-02 1.000000000000000000e+00
-8.844999999999998419e-01 2.000000000000000042e-02 1.000000000000000000e+00
-8.844999999999998419e-01 2.000000000000000042e-02 1.000000000000000000e+00
-8.844999999999998419e-01 2.000000000000000042e-02 1.000000000000000000e+00
-8.844999999999998419e-01 2.000000000000000042e-02 1.000000000000000000e+00
-8.844999999999998419e-01 2.000000000000000042e-02 1.000000000000000000e+00
-8.844999999999998419e-01 2.000000000000000042e-02 1.000000000000000000e+00
-8.844999999999998419e-01 2.000000000000000042e-02 1.000000000000000000e+00
-8.844999999999998419e-01 2.000000000000000042e-02 1.000000000000000000e+00
-8.844999999999998419e-01 2.000000000000000042e-02 1.000000000000000000e+00
-8.834999999999999520e-01 2.000000000000000042e-02 1.000000000000000000e+00
-8.834999999999999520e-01 2.000000000000000042e-02 1.000000000000000000e+00
-8.834999999999999520e-01 2.000000000000000042e-02 1.000000000000000000e+00
-8.834999999999999520e-01 2.000000000000000042e-02 1.000000000000000000e+00
-8.834999999999999520e-01 2.000000000000000042e-02 1.000000000000000000e+00
-8.834999999999999520e-01 2.000000000000000042e-02 1.000000000000000000e+00
-8.834999999999999520e-01 1.980152089466385990e-02 1.000020097898814520e+00
-8.834999999999999520e-01 2.000000000000000042e-02 1.000000000000000000e+00
-8.824999999999998401e-01 2.000000000000000042e-02 1.000000000000000000e+00
-8.824999999999998401e-01 2.000000000000000042e-02 1.000000000000000000e+00
-8.824999999999998401e-01 2.000000000000000042e-02 1.000000000000000000e+00
-8.824999999999998401e-01 2.000000000000000042e-02 1.000000000000000000e+00
-8.824999999999998401e-01 2.000000000000000042e-02 1.000000000000000000e+00
-8.824999999999998401e-01 2.000000000000000042e-02 1.000000000000000000e+00
-8.824999999999998401e-01 2.000000000000000042e-02 1.000000000000000000e+00
-8.824999999999998401e-01 2.000000000000000042e-02 1.000000000000000000e+00
-8.824999999999998401e-01 2.000000000000000042e-02 1.000000000000000000e+00
-8.824999999999998401e-01 2.000000000000000042e-02 1.000000000000000000e+00
-8.824999999999998401e-01 2.000000000000000042e-02 1.000000000000000000e+00
-8.814999999999999503e-01 2.000000000000000042e-02 1.000000000000000000e+00
-8.814999999999999503e-01 2.000000000000000042e-02 1.000000000000000000e+00
-8.814999999999999503e-01 2.000000000000000042e-02 1.000000000000000000e+00
-8.814999999999999503e-01 2.000000000000000042e-02 1.000000000000000000e+00
-8.814999999999999503e-01 2.000000000000000042e-02 1.000000000000000000e+00
-8.814999999999999503e-01 2.000000000000000042e-02 1.000000000000000000e+00
-8.804999999999998384e-01 2.000000000000000042e-02 1.000000000000000000e+00
-8.804999999999998384e-01 2.000000000000000042e-02 1.000000000000000000e+00
-8.804999999999998384e-01 2.000000000000000042e-02 1.000000000000000000e+00
-8.804999999999998384e-01 2.000000000000000042e-02 1.000000000000000000e+00
-8.804999999999998384e-01 2.000000000000000042e-02 1.000000000000000000e+00
-8.804999999999998384e-01 2.000000000000000042e-02 1.000000000000000000e+00
-8.804999999999998384e-01 2.000000000000000042e-02 1.000000000000000000e+00
-8.794999999999999485e-01 2.000000000000000042e-02 1.000000000000000000e+00
-8.794999999999999485e-01 2.000000000000000042e-02 1.000000000000000000e+00
-8.794999999999999485e-01 2.000000000000000042e-02 1.000000000000000000e+00
-8.794999999999999485e-01 2.000000000000000042e-02 1.000000000000000000e+00
-8.794999999999999485e-01 2.000000000000000042e-02 1.000000000000000000e+00
-8.794999999999999485e-01 2.000000000000000042e-02 1.000000000000000000e+00
-8.794999999999999485e-01 2.000000000000000042e-02 1.000000000000000000e+00
-8.794999999999999485e-01 2.000000000000000042e-02 1.000000000000000000e+00
-8.794999999999999485e-01 2.000000000000000042e-02 1.000000000000000000e+00
-8.794999999999999485e-01 2.000000000000000042e-02 1.000000000000000000e+00
-8.794999999999999485e-01 2.000000000000000042e-02 1.000000000000000000e+00
-8.794999999999999485e-01 2.000000000000000042e-02 1.000000000000000000e+00
-8.794999999999999485e-01 2.000000000000000042e-02 1.000000000000000000e+00
-8.794999999999999485e-01 2.000000000000000042e-02 1.000000000000000000e+00
-8.784999999999998366e-01 2.000000000000000042e-02 1.000000000000000000e+00
-8.784999999999998366e-01 2.000000000000000042e-02 1.000000000000000000e+00
-8.784999999999998366e-01 2.000000000000000042e-02 1.000000000000000000e+00
-8.784999999999998366e-01 2.000000000000000042e-02 1.000000000000000000e+00
-8.784999999999998366e-01 1.965664604345264757e-02 1.000225539057591817e+00
-8.774999999999999467e-01 1.965508407908305930e-02 1.000073430154608589e+00
-8.774999999999999467e-01 2.000000000000000042e-02 1.000000000000000000e+00
-8.774999999999999467e-01 2.000000000000000042e-02 1.000000000000000000e+00
-8.774999999999999467e-01 2.000000000000000042e-02 1.000000000000000000e+00
-8.774999999999999467e-01 2.000000000000000042e-02 1.000000000000000000e+00
-8.774999999999999467e-01 2.000000000000000042e-02 1.000000000000000000e+00
-8.774999999999999467e-01 2.000000000000000042e-02 1.000000000000000000e+00
-8.774999999999999467e-01 2.000000000000000042e-02 1.000000000000000000e+00
-8.764999999999998348e-01 2.000000000000000042e-02 1.000000000000000000e+00
-8.764999999999998348e-01 2.000000000000000042e-02 1.000000000000000000e+00
-8.764999999999998348e-01 2.000000000000000042e-02 1.000000000000000000e+00
-8.764999999999998348e-01 2.000000000000000042e-02 1.000000000000000000e+00
-8.764999999999998348e-01 2.000000000000000042e-02 1.000000000000000000e+00
-8.764999999999998348e-01 2.000000000000000042e-02 1.000000000000000000e+00
-8.764999999999998348e-01 2.000000000000000042e-02 1.000000000000000000e+00
-8.764999999999998348e-01 2.000000000000000042e-02 1.000000000000000000e+00
-8.764999999999998348e-01 2.000000000000000042e-02 1.000000000000000000e+00
-8.754999999999999449e-01 2.000000000000000042e-02 1.000000000000000000e+00
-8.754999999999999449e-01 2.000000000000000042e-02 1.000000000000000000e+00
-8.754999999999999449e-01 2.000000000000000042e-02 1.000000000000000000e+00
-8.744999999999998330e-01 2.000000000000000042e-02 1.000000000000000000e+00
-8.744999999999998330e-01 2.000000000000000042e-02 1.000000000000000000e+00
-8.744999999999998330e-01 2.000000000000000042e-02 1.000000000000000000e+00
-8.744999999999998330e-01 2.000000000000000042e-02 1.000000000000000000e+00
-8.744999999999998330e-01 2.000000000000000042e-02 1.000000000000000000e+00
-8.744999999999998330e-01 2.000000000000000042e-02 1.000000000000000000e+00
-8.744999999999998330e-01 2.000000000000000042e-02 1.000000000000000000e+00
-8.744999999999998330e-01 2.000000000000000042e-02 1.000000000000000000e+00
-8.744999999999998330e-01 2.000000000000000042e-02 1.000000000000000000e+00
-8.734999999999999432e-01 2.000000000000000042e-02 1.000000000000000000e+00
-8.734999999999999432e-01 2.000000000000000042e-02 1.000000000000000000e+00
-8.734999999999999432e-01 2.000000000000000042e-02 1.000000000000000000e+00
-8.734999999999999432e-01 2.000000000000000042e-02 1.000000000000000000e+00
-8.734999999999999432e-01 2.000000000000000042e-02 1.000000000000000000e+00
-8.734999999999999432e-01 2.000000000000000042e-02 1.000000000000000000e+00
-8.734999999999999432e-01 2.000000000000000042e-02 1.000000000000000000e+00
-8.734999999999999432e-01 2.000000000000000042e-02 1.000000000000000000e+00
-8.724999999999998312e-01 2.000000000000000042e-02 1.000000000000000000e+00
-8.724999999999998312e-01 2.000000000000000042e-02 1.000000000000000000e+00
-8.724999999999998312e-01 2.000000000000000042e-02 1.000000000000000000e+00
-8.724999999999998312e-01 2.000000000000000042e-02 1.000000000000000000e+00
-8.724999999999998312e-01 2.000000000000000042e-02 1.000000000000000000e+00
-8.724999999999998312e-01 2.000000000000000042e-02 1.000000000000000000e+00
-8.724999999999998312e-01 2.000000000000000042e-02 1.000000000000000000e+00
-8.724999999999998312e-01 2.000000000000000042e-02 1.000000000000000000e+00
-8.714999999999999414e-01 2.000000000000000042e-02 1.000000000000000000e+00
-8.714999999999999414e-01 2.000000000000000042e-02 1.000000000000000000e+00
-8.714999999999999414e-01 2.000000000000000042e-02 1.000000000000000000e+00
-8.714999999999999414e-01 2.000000000000000042e-02 1.000000000000000000e+00
-8.714999999999999414e-01 2.000000000000000042e-02 1.000000000000000000e+00
-8.714999999999999414e-01 2.000000000000000042e-02 1.000000000000000000e+00
-8.714999999999999414e-01 2.000000000000000042e-02 1.000000000000000000e+00
-8.714999999999999414e-01 2.000000000000000042e-02 1.000000000000000000e+00
-8.714999999999999414e-01 2.000000000000000042e-02 1.000000000000000000e+00
-8.704999999999998295e-01 2.000000000000000042e-02 1.000000000000000000e+00
-8.704999999999998295e-01 2.000000000000000042e-02 1.000000000000000000e+00
-8.704999999999998295e-01 2.000000000000000042e-02 1.000000000000000000e+00
-8.704999999999998295e-01 2.000000000000000042e-02 1.000000000000000000e+00
-8.704999999999998295e-01 2.000000000000000042e-02 1.000000000000000000e+00
-8.704999999999998295e-01 2.000000000000000042e-02 1.000000000000000000e+00
-8.704999999999998295e-01 2.000000000000000042e-02 1.000000000000000000e+00
-8.704999999999998295e-01 2.000000000000000042e-02 1.000000000000000000e+00
-8.704999999999998295e-01 2.000000000000000042e-02 1.000000000000000000e+00
-8.694999999999999396e-01 2.000000000000000042e-02 1.000000000000000000e+00
-8.694999999999999396e-01 2.000000000000000042e-02 1.000000000000000000e+00
-8.694999999999999396e-01 2.000000000000000042e-02 1.000000000000000000e+00
-8.694999999999999396e-01 2.000000000000000042e-02 1.000000000000000000e+00
-8.694999999999999396e-01 2.000000000000000042e-02 1.000000000000000000e+00
-8.694999999999999396e-01 2.000000000000000042e-02 1.000000000000000000e+00
-8.694999999999999396e-01 2.000000000000000042e-02 1.000000000000000000e+00
-8.694999999999999396e-01 2.000000000000000042e-02 1.000000000000000000e+00
-8.694999999999999396e-01 2.000000000000000042e-02 1.000000000000000000e+00
-8.694999999999999396e-01 2.000000000000000042e-02 1.000000000000000000e+00
-8.684999999999998277e-01 2.000000000000000042e-02 1.000000000000000000e+00
-8.684999999999998277e-01 2.000000000000000042e-02 1.000000000000000000e+00
-8.684999999999998277e-01 2.000000000000000042e-02 1.000000000000000000e+00
-8.684999999999998277e-01 2.000000000000000042e-02 1.000000000000000000e+00
-8.684999999999998277e-01 2.000000000000000042e-02 1.000000000000000000e+00
-8.684999999999998277e-01 2.000000000000000042e-02 1.000000000000000000e+00
-8.674999999999999378e-01 2.000000000000000042e-02 1.000000000000000000e+00
-8.674999999999999378e-01 2.000000000000000042e-02 1.000000000000000000e+00
-8.674999999999999378e-01 2.000000000000000042e-02 1.000000000000000000e+00
-8.674999999999999378e-01 2.000000000000000042e-02 1.000000000000000000e+00
-8.674999999999999378e-01 2.000000000000000042e-02 1.000000000000000000e+00
-8.674999999999999378e-01 2.000000000000000042e-02 1.000000000000000000e+00
-8.674999999999999378e-01 2.000000000000000042e-02 1.000000000000000000e+00
-8.674999999999999378e-01 2.000000000000000042e-02 1.000000000000000000e+00
-8.674999999999999378e-01 2.000000000000000042e-02 1.000000000000000000e+00
-8.664999999999998259e-01 2.000000000000000042e-02 1.000000000000000000e+00
-8.664999999999998259e-01 2.000000000000000042e-02 1.000000000000000000e+00
-8.664999999999998259e-01 2.000000000000000042e-02 1.000000000000000000e+00
-8.664999999999998259e-01 2.000000000000000042e-02 1.000000000000000000e+00
-8.664999999999998259e-01 2.000000000000000042e-02 1.000000000000000000e+00
-8.664999999999998259e-01 2.000000000000000042e-02 1.000000000000000000e+00
-8.664999999999998259e-01 2.000000000000000042e-02 1.000000000000000000e+00
-8.664999999999998259e-01 2.000000000000000042e-02 1.000000000000000000e+00
-8.654999999999999361e-01 2.000000000000000042e-02 1.000000000000000000e+00
-8.654999999999999361e-01 2.000000000000000042e-02 1.000000000000000000e+00
-8.654999999999999361e-01 2.000000000000000042e-02 1.000000000000000000e+00
-8.654999999999999361e-01 2.000000000000000042e-02 1.000000000000000000e+00
-8.644999999999998241e-01 2.000000000000000042e-02 1.000000000000000000e+00
-8.644999999999998241e-01 2.000000000000000042e-02 1.000000000000000000e+00
-8.644999999999998241e-01 2.000000000000000042e-02 1.000000000000000000e+00
-8.644999999999998241e-01 2.000000000000000042e-02 1.000000000000000000e+00
-8.644999999999998241e-01 2.000000000000000042e-02 1.000000000000000000e+00
-8.644999999999998241e-01 2.000000000000000042e-02 1.000000000000000000e+00
-8.644999999999998241e-01 2.000000000000000042e-02 1.000000000000000000e+00
-8.644999999999998241e-01 2.000000000000000042e-02 1.000000000000000000e+00
-8.644999999999998241e-01 2.000000000000000042e-02 1.000000000000000000e+00
-8.644999999999998241e-01 2.000000000000000042e-02 1.000000000000000000e+00
-8.644999999999998241e-01 2.000000000000000042e-02 1.000000000000000000e+00
-8.634999999999999343e-01 2.000000000000000042e-02 1.000000000000000000e+00
-8.634999999999999343e-01 2.000000000000000042e-02 1.000000000000000000e+00
-8.634999999999999343e-01 2.000000000000000042e-02 1.000000000000000000e+00
-8.634999999999999343e-01 2.000000000000000042e-02 1.000000000000000000e+00
-8.634999999999999343e-01 2.000000000000000042e-02 1.000000000000000000e+00
-8.634999999999999343e-01 2.000000000000000042e-02 1.000000000000000000e+00
-8.624999999999998224e-01 2.000000000000000042e-02 1.000000000000000000e+00
-8.624999999999998224e-01 2.000000000000000042e-02 1.000000000000000000e+00
-8.624999999999998224e-01 2.000000000000000042e-02 1.000000000000000000e+00
-8.624999999999998224e-01 2.000000000000000042e-02 1.000000000000000000e+00
-8.624999999999998224e-01 2.000000000000000042e-02 1.000000000000000000e+00
-8.614999999999999325e-01 2.000000000000000042e-02 1.000000000000000000e+00
-8.614999999999999325e-01 2.000000000000000042e-02 1.000000000000000000e+00
-8.614999999999999325e-01 2.000000000000000042e-02 1.000000000000000000e+00
-8.614999999999999325e-01 2.000000000000000042e-02 1.000000000000000000e+00
-8.614999999999999325e-01 2.000000000000000042e-02 1.000000000000000000e+00
-8.614999999999999325e-01 2.000000000000000042e-02 1.000000000000000000e+00
-8.614999999999999325e-01 2.000000000000000042e-02 1.000000000000000000e+00
-8.614999999999999325e-01 2.000000000000000042e-02 1.000000000000000000e+00
-8.614999999999999325e-01 2.000000000000000042e-02 1.000000000000000000e+00
-8.604999999999998206e-01 2.000000000000000042e-02 1.000000000000000000e+00
-8.604999999999998206e-01 2.000000000000000042e-02 1.000000000000000000e+00
-8.604999999999998206e-01 2.000000000000000042e-02 1.000000000000000000e+00
-8.604999999999998206e-01 2.000000000000000042e-02 1.000000000000000000e+00
-8.604999999999998206e-01 2.000000000000000042e-02 1.000000000000000000e+00
-8.604999999999998206e-01 2.000000000000000042e-02 1.000000000000000000e+00
-8.604999999999998206e-01 2.000000000000000042e-02 1.000000000000000000e+00
-8.594999999999999307e-01 2.000000000000000042e-02 1.000000000000000000e+00
-8.594999999999999307e-01 2.000000000000000042e-02 1.000000000000000000e+00
-8.594999999999999307e-01 2.000000000000000042e-02 1.000000000000000000e+00
-8.594999999999999307e-01 2.000000000000000042e-02 1.000000000000000000e+00
-8.594999999999999307e-01 2.000000000000000042e-02 1.000000000000000000e+00
-8.594999999999999307e-01 2.000000000000000042e-02 1.000000000000000000e+00
-8.594999999999999307e-01 2.000000000000000042e-02 1.000000000000000000e+00
-8.594999999999999307e-01 2.000000000000000042e-02 1.000000000000000000e+00
-8.594999999999999307e-01 2.000000000000000042e-02 1.000000000000000000e+00
-8.594999999999999307e-01 1.976322165336884262e-02 1.000121753394245916e+00
-8.594999999999999307e-01 2.000000000000000042e-02 1.000000000000000000e+00
-8.594999999999999307e-01 2.000000000000000042e-02 1.000000000000000000e+00
-8.584999999999998188e-01 2.000000000000000042e-02 1.000000000000000000e+00
-8.584999999999998188e-01 2.000000000000000042e-02 1.000000000000000000e+00
-8.584999999999998188e-01 2.000000000000000042e-02 1.000000000000000000e+00
-8.584999999999998188e-01 2.000000000000000042e-02 1.000000000000000000e+00
-8.584999999999998188e-01 2.000000000000000042e-02 1.000000000000000000e+00
-8.584999999999998188e-01 2.000000000000000042e-02 1.000000000000000000e+00
-8.584999999999998188e-01 2.000000000000000042e-02 1.000000000000000000e+00
-8.584999999999998188e-01 2.000000000000000042e-02 1.000000000000000000e+00
-8.584999999999998188e-01 2.000000000000000042e-02 1.000000000000000000e+00
-8.584999999999998188e-01 2.000000000000000042e-02 1.000000000000000000e+00
-8.584999999999998188e-01 2.000000000000000042e-02 1.000000000000000000e+00
-8.584999999999998188e-01 2.000000000000000042e-02 1.000000000000000000e+00
-8.584999999999998188e-01 2.000000000000000042e-02 1.000000000000000000e+00
-8.584999999999998188e-01 2.000000000000000042e-02 1.000000000000000000e+00
-8.574999999999999289e-01 2.000000000000000042e-02 1.000000000000000000e+00
-8.574999999999999289e-01 2.000000000000000042e-02 1.000000000000000000e+00
-8.574999999999999289e-01 1.975225633678394377e-02 1.000350070392421964e+00
-8.574999999999999289e-01 2.000000000000000042e-02 1.000000000000000000e+00
-8.574999999999999289e-01 2.000000000000000042e-02 1.000000000000000000e+00
-8.574999999999999289e-01 2.000000000000000042e-02 1.000000000000000000e+00
-8.574999999999999289e-01 2.000000000000000042e-02 1.000000000000000000e+00
-8.574999999999999289e-01 2.000000000000000042e-02 1.000000000000000000e+00
-8.564999999999998170e-01 2.000000000000000042e-02 1.000000000000000000e+00
-8.564999999999998170e-01 2.000000000000000042e-02 1.000000000000000000e+00
-8.564999999999998170e-01 2.000000000000000042e-02 1.000000000000000000e+00
-8.564999999999998170e-01 2.000000000000000042e-02 1.000000000000000000e+00
-8.564999999999998170e-01 2.000000000000000042e-02 1.000000000000000000e+00
-8.564999999999998170e-01 2.000000000000000042e-02 1.000000000000000000e+00
-8.564999999999998170e-01 2.000000000000000042e-02 1.000000000000000000e+00
-8.564999999999998170e-01 1.972753647814479150e-02 1.000091274583725376e+00
-8.554999999999999272e-01 2.000000000000000042e-02 1.000000000000000000e+00
-8.554999999999999272e-01 2.000000000000000042e-02 1.000000000000000000e+00
-8.554999999999999272e-01 2.000000000000000042e-02 1.000000000000000000e+00
-8.554999999999999272e-01 2.000000000000000042e-02 1.000000000000000000e+00
-8.554999999999999272e-01 2.000000000000000042e-02 1.000000000000000000e+00
-8.554999999999999272e-01 2.000000000000000042e-02 1.000000000000000000e+00
-8.554999999999999272e-01 2.000000000000000042e-02 1.000000000000000000e+00
-8.554999999999999272e-01 2.000000000000000042e-02 1.000000000000000000e+00
-8.554999999999999272e-01 2.000000000000000042e-02 1.000000000000000000e+00
-8.554999999999999272e-01 2.000000000000000042e-02 1.000000000000000000e+00
-8.554999999999999272e-01 2.000000000000000042e-02 1.000000000000000000e+00
-8.554999999999999272e-01 2.000000000000000042e-02 1.000000000000000000e+00
-8.544999999999998153e-01 2.000000000000000042e-02 1.000000000000000000e+00
-8.544999999999998153e-01 2.000000000000000042e-02 1.000000000000000000e+00
-8.544999999999998153e-01 2.000000000000000042e-02 1.000000000000000000e+00
-8.544999999999998153e-01 2.000000000000000042e-02 1.000000000000000000e+00
-8.544999999999998153e-01 2.000000000000000042e-02 1.000000000000000000e+00
-8.544999999999998153e-01 2.000000000000000042e-02 1.000000000000000000e+00
-8.544999999999998153e-01 2.000000000000000042e-02 1.000000000000000000e+00
-8.534999999999999254e-01 2.000000000000000042e-02 1.000000000000000000e+00
-8.534999999999999254e-01 2.000000000000000042e-02 1.000000000000000000e+00
-8.534999999999999254e-01 2.000000000000000042e-02 1.000000000000000000e+00
-8.534999999999999254e-01 2.000000000000000042e-02 1.000000000000000000e+00
-8.534999999999999254e-01 2.000000000000000042e-02 1.000000000000000000e+00
-8.534999999999999254e-01 2.000000000000000042e-02 1.000000000000000000e+00
-8.534999999999999254e-01 2.000000000000000042e-02 1.000000000000000000e+00
-8.534999999999999254e-01 2.000000000000000042e-02 1.000000000000000000e+00
-8.534999999999999254e-01 2.000000000000000042e-02 1.000000000000000000e+00
-8.534999999999999254e-01 2.000000000000000042e-02 1.000000000000000000e+00
-8.524999999999998135e-01 2.000000000000000042e-02 1.000000000000000000e+00
-8.524999999999998135e-01 2.000000000000000042e-02 1.000000000000000000e+00
-8.524999999999998135e-01 1.950600649639903927e-02 1.000286117705800004e+00
-8.524999999999998135e-01 2.000000000000000042e-02 1.000000000000000000e+00
-8.524999999999998135e-01 2.000000000000000042e-02 1.000000000000000000e+00
-8.524999999999998135e-01 2.000000000000000042e-02 1.000000000000000000e+00
-8.524999999999998135e-01 2.000000000000000042e-02 1.000000000000000000e+00
-8.524999999999998135e-01 2.000000000000000042e-02 1.000000000000000000e+00
-8.524999999999998135e-01 2.000000000000000042e-02 1.000000000000000000e+00
-8.524999999999998135e-01 2.000000000000000042e-02 1.000000000000000000e+00
-8.524999999999998135e-01 2.000000000000000042e-02 1.000000000000000000e+00
-8.524999999999998135e-01 2.000000000000000042e-02 1.000000000000000000e+00
-8.524999999999998135e-01 2.000000000000000042e-02 1.000000000000000000e+00
-8.524999999999998135e-01 2.000000000000000042e-02 1.000000000000000000e+00
-8.524999999999998135e-01 6.617400712230472794e-04 -1.620376200331113070e+00
-8.524999999999998135e-01 2.000000000000000042e-02 1.000000000000000000e+00
-8.524999999999998135e-01 2.000000000000000042e-02 1.000000000000000000e+00
-8.524999999999998135e-01 2.000000000000000042e-02 1.000000000000000000e+00
-8.514999999999999236e-01 2.000000000000000042e-02 1.000000000000000000e+00
-8.514999999999999236e-01 2.000000000000000042e-02 1.000000000000000000e+00
-8.514999999999999236e-01 2.000000000000000042e-02 1.000000000000000000e+00
-8.514999999999999236e-01 2.000000000000000042e-02 1.000000000000000000e+00
-8.514999999999999236e-01 2.000000000000000042e-02 1.000000000000000000e+00
-8.514999999999999236e-01 2.000000000000000042e-02 1.000000000000000000e+00
-8.514999999999999236e-01 2.000000000000000042e-02 1.000000000000000000e+00
-8.514999999999999236e-01 2.000000000000000042e-02 1.000000000000000000e+00
-8.504999999999998117e-01 2.000000000000000042e-02 1.000000000000000000e+00
-8.504999999999998117e-01 2.000000000000000042e-02 1.000000000000000000e+00
-8.504999999999998117e-01 2.000000000000000042e-02 1.000000000000000000e+00
-8.504999999999998117e-01 2.000000000000000042e-02 1.000000000000000000e+00
-8.504999999999998117e-01 2.000000000000000042e-02 1.000000000000000000e+00
-8.504999999999998117e-01 2.000000000000000042e-02 1.000000000000000000e+00
-8.504999999999998117e-01 2.000000000000000042e-02 1.000000000000000000e+00
-8.504999999999998117e-01 2.000000000000000042e-02 1.000000000000000000e+00
-8.504999999999998117e-01 2.000000000000000042e-02 1.000000000000000000e+00
-8.504999999999998117e-01 2.000000000000000042e-02 1.000000000000000000e+00
-8.494999999999999218e-01 2.000000000000000042e-02 1.000000000000000000e+00
-8.494999999999999218e-01 2.000000000000000042e-02 1.000000000000000000e+00
-8.494999999999999218e-01 2.000000000000000042e-02 1.000000000000000000e+00
-8.494999999999999218e-01 2.000000000000000042e-02 1.000000000000000000e+00
-8.494999999999999218e-01 2.000000000000000042e-02 1.000000000000000000e+00
-8.494999999999999218e-01 2.000000000000000042e-02 1.000000000000000000e+00
-8.494999999999999218e-01 2.000000000000000042e-02 1.000000000000000000e+00
-8.494999999999999218e-01 2.000000000000000042e-02 1.000000000000000000e+00
-8.494999999999999218e-01 2.000000000000000042e-02 1.000000000000000000e+00
-8.494999999999999218e-01 2.000000000000000042e-02 1.000000000000000000e+00
-8.494999999999999218e-01 2.000000000000000042e-02 1.000000000000000000e+00
-8.484999999999998099e-01 2.000000000000000042e-02 1.000000000000000000e+00
-8.484999999999998099e-01 2.000000000000000042e-02 1.000000000000000000e+00
-8.484999999999998099e-01 2.000000000000000042e-02 1.000000000000000000e+00
-8.484999999999998099e-01 2.000000000000000042e-02 1.000000000000000000e+00
-8.484999999999998099e-01 2.000000000000000042e-02 1.000000000000000000e+00
-8.484999999999998099e-01 2.000000000000000042e-02 1.000000000000000000e+00
-8.484999999999998099e-01 2.000000000000000042e-02 1.000000000000000000e+00
-8.474999999999999201e-01 2.000000000000000042e-02 1.000000000000000000e+00
-8.474999999999999201e-01 2.000000000000000042e-02 1.000000000000000000e+00
-8.474999999999999201e-01 2.000000000000000042e-02 1.000000000000000000e+00
-8.464999999999998082e-01 2.000000000000000042e-02 1.000000000000000000e+00
-8.464999999999998082e-01 2.000000000000000042e-02 1.000000000000000000e+00
-8.464999999999998082e-01 2.000000000000000042e-02 1.000000000000000000e+00
-8.464999999999998082e-01 2.000000000000000042e-02 1.000000000000000000e+00
-8.464999999999998082e-01 2.000000000000000042e-02 1.000000000000000000e+00
-8.464999999999998082e-01 2.000000000000000042e-02 1.000000000000000000e+00
-8.464999999999998082e-01 2.000000000000000042e-02 1.000000000000000000e+00
-8.464999999999998082e-01 2.000000000000000042e-02 1.000000000000000000e+00
-8.464999999999998082e-01 2.000000000000000042e-02 1.000000000000000000e+00
-8.464999999999998082e-01 2.000000000000000042e-02 1.000000000000000000e+00
-8.464999999999998082e-01 2.000000000000000042e-02 1.000000000000000000e+00
-8.454999999999999183e-01 2.000000000000000042e-02 1.000000000000000000e+00
-8.454999999999999183e-01 2.000000000000000042e-02 1.000000000000000000e+00
-8.454999999999999183e-01 2.000000000000000042e-02 1.000000000000000000e+00
-8.454999999999999183e-01 2.000000000000000042e-02 1.000000000000000000e+00
-8.454999999999999183e-01 2.000000000000000042e-02 1.000000000000000000e+00
-8.454999999999999183e-01 2.000000000000000042e-02 1.000000000000000000e+00
-8.454999999999999183e-01 1.974658347505879943e-02 1.000142416878506468e+00
-8.454999999999999183e-01 2.000000000000000042e-02 1.000000000000000000e+00
-8.454999999999999183e-01 2.000000000000000042e-02 1.000000000000000000e+00
-8.454999999999999183e-01 2.000000000000000042e-02 1.000000000000000000e+00
-8.454999999999999183e-01 2.000000000000000042e-02 1.000000000000000000e+00
-8.444999999999998064e-01 2.000000000000000042e-02 1.000000000000000000e+00
-8.444999999999998064e-01 2.000000000000000042e-02 1.000000000000000000e+00
-8.444999999999998064e-01 2.000000000000000042e-02 1.000000000000000000e+00
-8.444999999999998064e-01 2.000000000000000042e-02 1.000000000000000000e+00
-8.444999999999998064e-01 2.000000000000000042e-02 1.000000000000000000e+00
-8.444999999999998064e-01 2.000000000000000042e-02 1.000000000000000000e+00
-8.444999999999998064e-01 2.000000000000000042e-02 1.000000000000000000e+00
-8.444999999999998064e-01 2.000000000000000042e-02 1.000000000000000000e+00
-8.444999999999998064e-01 2.000000000000000042e-02 1.000000000000000000e+00
-8.444999999999998064e-01 2.000000000000000042e-02 1.000000000000000000e+00
-8.444999999999998064e-01 2.000000000000000042e-02 1.000000000000000000e+00
-8.444999999999998064e-01 2.000000000000000042e-02 1.000000000000000000e+00
-8.444999999999998064e-01 2.000000000000000042e-02 1.000000000000000000e+00
-8.444999999999998064e-01 2.000000000000000042e-02 1.000000000000000000e+00
-8.444999999999998064e-01 2.000000000000000042e-02 1.000000000000000000e+00
-8.444999999999998064e-01 2.000000000000000042e-02 1.000000000000000000e+00
-8.444999999999998064e-01 2.000000000000000042e-02 1.000000000000000000e+00
-8.434999999999999165e-01 2.000000000000000042e-02 1.000000000000000000e+00
-8.434999999999999165e-01 2.000000000000000042e-02 1.000000000000000000e+00
-8.434999999999999165e-01 2.000000000000000042e-02 1.000000000000000000e+00
-8.434999999999999165e-01 2.000000000000000042e-02 1.000000000000000000e+00
-8.434999999999999165e-01 2.000000000000000042e-02 1.000000000000000000e+00
-8.434999999999999165e-01 2.000000000000000042e-02 1.000000000000000000e+00
-8.434999999999999165e-01 2.000000000000000042e-02 1.000000000000000000e+00
-8.424999999999998046e-01 2.000000000000000042e-02 1.000000000000000000e+00
-8.424999999999998046e-01 2.000000000000000042e-02 1.000000000000000000e+00
-8.424999999999998046e-01 2.000000000000000042e-02 1.000000000000000000e+00
-8.424999999999998046e-01 2.000000000000000042e-02 1.000000000000000000e+00
-8.424999999999998046e-01 2.000000000000000042e-02 1.000000000000000000e+00
-8.424999999999998046e-01 2.000000000000000042e-02 1.000000000000000000e+00
-8.424999999999998046e-01 2.000000000000000042e-02 1.000000000000000000e+00
-8.424999999999998046e-01 2.000000000000000042e-02 1.000000000000000000e+00
-8.424999999999998046e-01 2.000000000000000042e-02 1.000000000000000000e+00
-8.424999999999998046e-01 2.000000000000000042e-02 1.000000000000000000e+00
-8.424999999999998046e-01 2.000000000000000042e-02 1.000000000000000000e+00
-8.424999999999998046e-01 2.000000000000000042e-02 1.000000000000000000e+00
-8.424999999999998046e-01 2.000000000000000042e-02 1.000000000000000000e+00
-8.414999999999999147e-01 2.000000000000000042e-02 1.000000000000000000e+00
-8.414999999999999147e-01 2.000000000000000042e-02 1.000000000000000000e+00
-8.414999999999999147e-01 2.000000000000000042e-02 1.000000000000000000e+00
-8.414999999999999147e-01 2.000000000000000042e-02 1.000000000000000000e+00
-8.414999999999999147e-01 2.000000000000000042e-02 1.000000000000000000e+00
-8.414999999999999147e-01 2.000000000000000042e-02 1.000000000000000000e+00
-8.414999999999999147e-01 2.000000000000000042e-02 1.000000000000000000e+00
-8.414999999999999147e-01 2.000000000000000042e-02 1.000000000000000000e+00
-8.414999999999999147e-01 2.000000000000000042e-02 1.000000000000000000e+00
-8.414999999999999147e-01 1.962057406362947495e-02 1.000759357101551839e+00
-8.404999999999998028e-01 2.000000000000000042e-02 1.000000000000000000e+00
-8.404999999999998028e-01 2.000000000000000042e-02 1.000000000000000000e+00
-8.404999999999998028e-01 2.000000000000000042e-02 1.000000000000000000e+00
-8.404999999999998028e-01 2.000000000000000042e-02 1.000000000000000000e+00
-8.404999999999998028e-01 2.000000000000000042e-02 1.000000000000000000e+00
-8.404999999999998028e-01 2.000000000000000042e-02 1.000000000000000000e+00
-8.404999999999998028e-01 2.000000000000000042e-02 1.000000000000000000e+00
-8.404999999999998028e-01 2.000000000000000042e-02 1.000000000000000000e+00
-8.404999999999998028e-01 2.000000000000000042e-02 1.000000000000000000e+00
-8.404999999999998028e-01 2.000000000000000042e-02 1.000000000000000000e+00
-8.404999999999998028e-01 2.000000000000000042e-02 1.000000000000000000e+00
-8.404999999999998028e-01 2.000000000000000042e-02 1.000000000000000000e+00
-8.394999999999999130e-01 2.000000000000000042e-02 1.000000000000000000e+00
-8.394999999999999130e-01 2.000000000000000042e-02 1.000000000000000000e+00
-8.394999999999999130e-01 2.000000000000000042e-02 1.000000000000000000e+00
-8.394999999999999130e-01 2.000000000000000042e-02 1.000000000000000000e+00
-8.394999999999999130e-01 2.000000000000000042e-02 1.000000000000000000e+00
-8.394999999999999130e-01 2.000000000000000042e-02 1.000000000000000000e+00
-8.394999999999999130e-01 2.000000000000000042e-02 1.000000000000000000e+00
-8.394999999999999130e-01 2.000000000000000042e-02 1.000000000000000000e+00
-8.394999999999999130e-01 2.000000000000000042e-02 1.000000000000000000e+00
-8.394999999999999130e-01 2.000000000000000042e-02 1.000000000000000000e+00
-8.394999999999999130e-01 2.000000000000000042e-02 1.000000000000000000e+00
-8.394999999999999130e-01 2.000000000000000042e-02 1.000000000000000000e+00
-8.384999999999998010e-01 2.000000000000000042e-02 1.000000000000000000e+00
-8.384999999999998010e-01 2.000000000000000042e-02 1.000000000000000000e+00
-8.384999999999998010e-01 2.000000000000000042e-02 1.000000000000000000e+00
-8.384999999999998010e-01 2.000000000000000042e-02 1.000000000000000000e+00
-8.384999999999998010e-01 2.000000000000000042e-02 1.000000000000000000e+00
-8.384999999999998010e-01 2.000000000000000042e-02 1.000000000000000000e+00
-8.384999999999998010e-01 2.000000000000000042e-02 1.000000000000000000e+00
-8.384999999999998010e-01 2.000000000000000042e-02 1.000000000000000000e+00
-8.384999999999998010e-01 2.000000000000000042e-02 1.000000000000000000e+00
-8.384999999999998010e-01 2.000000000000000042e-02 1.000000000000000000e+00
-8.384999999999998010e-01 2.000000000000000042e-02 1.000000000000000000e+00
-8.384999999999998010e-01 2.000000000000000042e-02 1.000000000000000000e+00
-8.384999999999998010e-01 2.000000000000000042e-02 1.000000000000000000e+00
-8.384999999999998010e-01 2.000000000000000042e-02 1.000000000000000000e+00
-8.374999999999999112e-01 2.000000000000000042e-02 1.000000000000000000e+00
-8.374999999999999112e-01 2.000000000000000042e-02 1.000000000000000000e+00
-8.374999999999999112e-01 2.000000000000000042e-02 1.000000000000000000e+00
-8.374999999999999112e-01 2.000000000000000042e-02 1.000000000000000000e+00
-8.374999999999999112e-01 2.000000000000000042e-02 1.000000000000000000e+00
-8.374999999999999112e-01 2.000000000000000042e-02 1.000000000000000000e+00
-8.374999999999999112e-01 2.000000000000000042e-02 1.000000000000000000e+00
-8.374999999999999112e-01 2.000000000000000042e-02 1.000000000000000000e+00
-8.374999999999999112e-01 2.000000000000000042e-02 1.000000000000000000e+00
-8.374999999999999112e-01 2.000000000000000042e-02 1.000000000000000000e+00
-8.374999999999999112e-01 2.000000000000000042e-02 1.000000000000000000e+00
-8.374999999999999112e-01 2.000000000000000042e-02 1.000000000000000000e+00
-8.364999999999997993e-01 2.000000000000000042e-02 1.000000000000000000e+00
-8.364999999999997993e-01 2.000000000000000042e-02 1.000000000000000000e+00
-8.364999999999997993e-01 2.000000000000000042e-02 1.000000000000000000e+00
-8.364999999999997993e-01 2.000000000000000042e-02 1.000000000000000000e+00
-8.364999999999997993e-01 2.000000000000000042e-02 1.000000000000000000e+00
-8.364999999999997993e-01 2.000000000000000042e-02 1.000000000000000000e+00
-8.364999999999997993e-01 2.000000000000000042e-02 1.000000000000000000e+00
-8.364999999999997993e-01 2.000000000000000042e-02 1.000000000000000000e+00
-8.354999999999999094e-01 2.000000000000000042e-02 1.000000000000000000e+00
-8.354999999999999094e-01 2.000000000000000042e-02 1.000000000000000000e+00
-8.354999999999999094e-01 2.000000000000000042e-02 1.000000000000000000e+00
-8.344999999999997975e-01 2.000000000000000042e-02 1.000000000000000000e+00
-8.344999999999997975e-01 2.000000000000000042e-02 1.000000000000000000e+00
-8.344999999999997975e-01 2.000000000000000042e-02 1.000000000000000000e+00
-8.344999999999997975e-01 2.000000000000000042e-02 1.000000000000000000e+00
-8.344999999999997975e-01 2.000000000000000042e-02 1.000000000000000000e+00
-8.344999999999997975e-01 2.000000000000000042e-02 1.000000000000000000e+00
-8.344999999999997975e-01 2.000000000000000042e-02 1.000000000000000000e+00
-8.344999999999997975e-01 2.000000000000000042e-02 1.000000000000000000e+00
-8.344999999999997975e-01 2.000000000000000042e-02 1.000000000000000000e+00
-8.344999999999997975e-01 2.000000000000000042e-02 1.000000000000000000e+00
-8.344999999999997975e-01 2.000000000000000042e-02 1.000000000000000000e+00
-8.344999999999997975e-01 2.000000000000000042e-02 1.000000000000000000e+00
-8.344999999999997975e-01 1.974077985735074245e-02 1.000121268812046438e+00
-8.334999999999999076e-01 2.000000000000000042e-02 1.000000000000000000e+00
-8.334999999999999076e-01 2.000000000000000042e-02 1.000000000000000000e+00
-8.334999999999999076e-01 2.000000000000000042e-02 1.000000000000000000e+00
-8.334999999999999076e-01 2.000000000000000042e-02 1.000000000000000000e+00
-8.334999999999999076e-01 2.000000000000000042e-02 1.000000000000000000e+00
-8.334999999999999076e-01 2.000000000000000042e-02 1.000000000000000000e+00
-8.334999999999999076e-01 2.000000000000000042e-02 1.000000000000000000e+00
-8.334999999999999076e-01 2.000000000000000042e-02 1.000000000000000000e+00
-8.334999999999999076e-01 2.000000000000000042e-02 1.000000000000000000e+00
-8.334999999999999076e-01 2.000000000000000042e-02 1.000000000000000000e+00
-8.334999999999999076e-01 2.000000000000000042e-02 1.000000000000000000e+00
-8.334999999999999076e-01 2.000000000000000042e-02 1.000000000000000000e+00
-8.334999999999999076e-01 2.000000000000000042e-02 1.000000000000000000e+00
-8.334999999999999076e-01 2.000000000000000042e-02 1.000000000000000000e+00
-8.334999999999999076e-01 2.000000000000000042e-02 1.000000000000000000e+00
-8.324999999999997957e-01 2.000000000000000042e-02 1.000000000000000000e+00
-8.324999999999997957e-01 2.000000000000000042e-02 1.000000000000000000e+00
-8.324999999999997957e-01 2.000000000000000042e-02 1.000000000000000000e+00
-8.324999999999997957e-01 2.000000000000000042e-02 1.000000000000000000e+00
-8.324999999999997957e-01 2.000000000000000042e-02 1.000000000000000000e+00
-8.324999999999997957e-01 2.000000000000000042e-02 1.000000000000000000e+00
-8.324999999999997957e-01 2.000000000000000042e-02 1.000000000000000000e+00
-8.324999999999997957e-01 2.000000000000000042e-02 1.000000000000000000e+00
-8.324999999999997957e-01 2.000000000000000042e-02 1.000000000000000000e+00
-8.324999999999997957e-01 2.000000000000000042e-02 1.000000000000000000e+00
-8.324999999999997957e-01 2.000000000000000042e-02 1.000000000000000000e+00
-8.324999999999997957e-01 2.000000000000000042e-02 1.000000000000000000e+00
-8.324999999999997957e-01 2.000000000000000042e-02 1.000000000000000000e+00
-8.324999999999997957e-01 2.000000000000000042e-02 1.000000000000000000e+00
-8.324999999999997957e-01 2.000000000000000042e-02 1.000000000000000000e+00
-8.314999999999999059e-01 2.000000000000000042e-02 1.000000000000000000e+00
-8.314999999999999059e-01 2.000000000000000042e-02 1.000000000000000000e+00
-8.314999999999999059e-01 2.000000000000000042e-02 1.000000000000000000e+00
-8.314999999999999059e-01 2.000000000000000042e-02 1.000000000000000000e+00
-8.314999999999999059e-01 2.000000000000000042e-02 1.000000000000000000e+00
-8.314999999999999059e-01 2.000000000000000042e-02 1.000000000000000000e+00
-8.314999999999999059e-01 2.000000000000000042e-02 1.000000000000000000e+00
-8.314999999999999059e-01 2.000000000000000042e-02 1.000000000000000000e+00
-8.314999999999999059e-01 2.000000000000000042e-02 1.000000000000000000e+00
-8.314999999999999059e-01 2.000000000000000042e-02 1.000000000000000000e+00
-8.314999999999999059e-01 2.000000000000000042e-02 1.000000000000000000e+00
-8.314999999999999059e-01 2.000000000000000042e-02 1.000000000000000000e+00
-8.314999999999999059e-01 2.000000000000000042e-02 1.000000000000000000e+00
-8.314999999999999059e-01 2.000000000000000042e-02 1.000000000000000000e+00
-8.304999999999997939e-01 2.000000000000000042e-02 1.000000000000000000e+00
-8.304999999999997939e-01 2.000000000000000042e-02 1.000000000000000000e+00
-8.304999999999997939e-01 2.000000000000000042e-02 1.000000000000000000e+00
-8.304999999999997939e-01 2.000000000000000042e-02 1.000000000000000000e+00
-8.304999999999997939e-01 2.000000000000000042e-02 1.000000000000000000e+00
-8.304999999999997939e-01 2.000000000000000042e-02 1.000000000000000000e+00
-8.304999999999997939e-01 2.000000000000000042e-02 1.000000000000000000e+00
-8.304999999999997939e-01 2.000000000000000042e-02 1.000000000000000000e+00
-8.304999999999997939e-01 2.000000000000000042e-02 1.000000000000000000e+00
-8.304999999999997939e-01 2.000000000000000042e-02 1.000000000000000000e+00
-8.304999999999997939e-01 2.000000000000000042e-02 1.000000000000000000e+00
-8.304999999999997939e-01 2.000000000000000042e-02 1.000000000000000000e+00
-8.294999999999999041e-01 2.000000000000000042e-02 1.000000000000000000e+00
-8.294999999999999041e-01 2.000000000000000042e-02 1.000000000000000000e+00
-8.294999999999999041e-01 2.000000000000000042e-02 1.000000000000000000e+00
-8.294999999999999041e-01 2.000000000000000042e-02 1.000000000000000000e+00
-8.284999999999997922e-01 2.000000000000000042e-02 1.000000000000000000e+00
-8.284999999999997922e-01 2.000000000000000042e-02 1.000000000000000000e+00
-8.284999999999997922e-01 2.000000000000000042e-02 1.000000000000000000e+00
-8.284999999999997922e-01 2.000000000000000042e-02 1.000000000000000000e+00
-8.284999999999997922e-01 1.973484242952060208e-02 1.000029584387378545e+00
-8.284999999999997922e-01 2.000000000000000042e-02 1.000000000000000000e+00
-8.284999999999997922e-01 2.000000000000000042e-02 1.000000000000000000e+00
-8.284999999999997922e-01 2.000000000000000042e-02 1.000000000000000000e+00
-8.284999999999997922e-01 2.000000000000000042e-02 1.000000000000000000e+00
-8.284999999999997922e-01 2.000000000000000042e-02 1.000000000000000000e+00
-8.284999999999997922e-01 2.000000000000000042e-02 1.000000000000000000e+00
-8.274999999999999023e-01 2.000000000000000042e-02 1.000000000000000000e+00
-8.274999999999999023e-01 2.000000000000000042e-02 1.000000000000000000e+00
-8.274999999999999023e-01 2.000000000000000042e-02 1.000000000000000000e+00
-8.274999999999999023e-01 2.000000000000000042e-02 1.000000000000000000e+00
-8.274999999999999023e-01 2.000000000000000042e-02 1.000000000000000000e+00
-8.274999999999999023e-01 2.000000000000000042e-02 1.000000000000000000e+00
-8.274999999999999023e-01 2.000000000000000042e-02 1.000000000000000000e+00
-8.274999999999999023e-01 2.000000000000000042e-02 1.000000000000000000e+00
-8.274999999999999023e-01 2.000000000000000042e-02 1.000000000000000000e+00
-8.274999999999999023e-01 2.000000000000000042e-02 1.000000000000000000e+00
-8.274999999999999023e-01 2.000000000000000042e-02 1.000000000000000000e+00
-8.274999999999999023e-01 2.000000000000000042e-02 1.000000000000000000e+00
-8.274999999999999023e-01 2.000000000000000042e-02 1.000000000000000000e+00
-8.274999999999999023e-01 2.000000000000000042e-02 1.000000000000000000e+00
-8.264999999999997904e-01 2.000000000000000042e-02 1.000000000000000000e+00
-8.264999999999997904e-01 2.000000000000000042e-02 1.000000000000000000e+00
-8.264999999999997904e-01 2.000000000000000042e-02 1.000000000000000000e+00
-8.264999999999997904e-01 2.000000000000000042e-02 1.000000000000000000e+00
-8.264999999999997904e-01 2.000000000000000042e-02 1.000000000000000000e+00
-8.264999999999997904e-01 2.000000000000000042e-02 1.000000000000000000e+00
-8.264999999999997904e-01 2.000000000000000042e-02 1.000000000000000000e+00
-8.264999999999997904e-01 2.000000000000000042e-02 1.000000000000000000e+00
-8.264999999999997904e-01 2.000000000000000042e-02 1.000000000000000000e+00
-8.264999999999997904e-01 2.000000000000000042e-02 1.000000000000000000e+00
-8.264999999999997904e-01 2.000000000000000042e-02 1.000000000000000000e+00
-8.264999999999997904e-01 2.000000000000000042e-02 1.000000000000000000e+00
-8.254999999999999005e-01 2.000000000000000042e-02 1.000000000000000000e+00
-8.254999999999999005e-01 2.000000000000000042e-02 1.000000000000000000e+00
-8.254999999999999005e-01 2.000000000000000042e-02 1.000000000000000000e+00
-8.254999999999999005e-01 2.000000000000000042e-02 1.000000000000000000e+00
-8.254999999999999005e-01 2.000000000000000042e-02 1.000000000000000000e+00
-8.254999999999999005e-01 2.000000000000000042e-02 1.000000000000000000e+00
-8.254999999999999005e-01 2.000000000000000042e-02 1.000000000000000000e+00
-8.254999999999999005e-01 2.000000000000000042e-02 1.000000000000000000e+00
-8.244999999999997886e-01 2.000000000000000042e-02 1.000000000000000000e+00
-8.244999999999997886e-01 2.000000000000000042e-02 1.000000000000000000e+00
-8.244999999999997886e-01 2.000000000000000042e-02 1.000000000000000000e+00
-8.244999999999997886e-01 2.000000000000000042e-02 1.000000000000000000e+00
-8.244999999999997886e-01 2.000000000000000042e-02 1.000000000000000000e+00
-8.244999999999997886e-01 2.000000000000000042e-02 1.000000000000000000e+00
-8.244999999999997886e-01 2.000000000000000042e-02 1.000000000000000000e+00
-8.244999999999997886e-01 2.000000000000000042e-02 1.000000000000000000e+00
-8.244999999999997886e-01 2.000000000000000042e-02 1.000000000000000000e+00
-8.244999999999997886e-01 2.000000000000000042e-02 1.000000000000000000e+00
-8.234999999999998987e-01 2.000000000000000042e-02 1.000000000000000000e+00
-8.234999999999998987e-01 1.974543330868822402e-02 1.000014791388918134e+00
-8.234999999999998987e-01 2.000000000000000042e-02 1.000000000000000000e+00
-8.234999999999998987e-01 2.000000000000000042e-02 1.000000000000000000e+00
-8.234999999999998987e-01 2.000000000000000042e-02 1.000000000000000000e+00
-8.234999999999998987e-01 2.000000000000000042e-02 1.000000000000000000e+00
-8.224999999999997868e-01 2.000000000000000042e-02 1.000000000000000000e+00
-8.224999999999997868e-01 2.000000000000000042e-02 1.000000000000000000e+00
-8.224999999999997868e-01 2.000000000000000042e-02 1.000000000000000000e+00
-8.224999999999997868e-01 2.000000000000000042e-02 1.000000000000000000e+00
-8.224999999999997868e-01 2.000000000000000042e-02 1.000000000000000000e+00
-8.224999999999997868e-01 2.000000000000000042e-02 1.000000000000000000e+00
-8.224999999999997868e-01 2.000000000000000042e-02 1.000000000000000000e+00
-8.224999999999997868e-01 2.000000000000000042e-02 1.000000000000000000e+00
-8.224999999999997868e-01 2.000000000000000042e-02 1.000000000000000000e+00
-8.224999999999997868e-01 2.000000000000000042e-02 1.000000000000000000e+00
-8.224999999999997868e-01 2.000000000000000042e-02 1.000000000000000000e+00
-8.224999999999997868e-01 2.000000000000000042e-02 1.000000000000000000e+00
-8.224999999999997868e-01 2.000000000000000042e-02 1.000000000000000000e+00
-8.224999999999997868e-01 2.000000000000000042e-02 1.000000000000000000e+00
-8.224999999999997868e-01 2.000000000000000042e-02 1.000000000000000000e+00
-8.224999999999997868e-01 2.000000000000000042e-02 1.000000000000000000e+00
-8.214999999999998970e-01 2.000000000000000042e-02 1.000000000000000000e+00
-8.214999999999998970e-01 2.000000000000000042e-02 1.000000000000000000e+00
-8.214999999999998970e-01 2.000000000000000042e-02 1.000000000000000000e+00
-8.214999999999998970e-01 2.000000000000000042e-02 1.000000000000000000e+00
-8.214999999999998970e-01 2.000000000000000042e-02 1.000000000000000000e+00
-8.214999999999998970e-01 2.000000000000000042e-02 1.000000000000000000e+00
