-9.995000000000000551e-01 6.979960805782006728e-02 1.001147120362777754e+00
-9.995000000000000551e-01 6.658018098996552891e-02 1.000043384521024148e+00
-9.995000000000000551e-01 7.498833083363365404e-02 1.000917890096477691e+00
-9.955000000000000515e-01 6.401948428644023414e-02 1.000111981010026074e+00
-9.944999999999999396e-01 6.475172830580439021e-02 1.000297248375684900e+00
-9.944999999999999396e-01 6.776021695667830413e-02 1.000618287217290403e+00
-9.935000000000000497e-01 6.484757080788772221e-02 1.001824133021928853e+00
-9.935000000000000497e-01 6.637648821738181826e-02 1.000083158466996691e+00
-9.935000000000000497e-01 6.493999121113824824e-02 1.000705486373815623e+00
-9.935000000000000497e-01 6.942638541614223890e-02 1.001123406774588664e+00
-9.924999999999999378e-01 6.950876127761308754e-02 1.000237917397258203e+00
-9.924999999999999378e-01 6.837224121754185979e-02 1.000091149889767328e+00
-9.924999999999999378e-01 6.853106354057211802e-02 1.002875970714125708e+00
-9.915000000000000480e-01 6.925748467368463002e-02 1.000063656351728891e+00
-9.915000000000000480e-01 7.296912746169355313e-02 1.000318282616163179e+00
-9.915000000000000480e-01 6.799192340961120185e-02 1.000043920979454048e+00
-9.904999999999999361e-01 6.665186233104332392e-02 1.000559213451211571e+00
-9.904999999999999361e-01 7.092472228570372017e-02 1.000063226457878152e+00
-9.895000000000000462e-01 6.664889932091103142e-02 1.000065072214174178e+00
-9.884999999999999343e-01 6.972513952057975140e-02 1.000674008983523766e+00
-9.864999999999999325e-01 6.748017708727363506e-02 1.000532500729284235e+00
-9.864999999999999325e-01 7.221193300144482241e-02 1.000421077915706780e+00
-9.864999999999999325e-01 7.004100299373527960e-02 1.000610071974623594e+00
-9.864999999999999325e-01 6.521947022204091504e-02 1.000003653153509253e+00
-9.864999999999999325e-01 6.688993433995432669e-02 1.001300007671440451e+00
-9.864999999999999325e-01 6.404864045296676522e-02 1.000680164248151538e+00
-9.864999999999999325e-01 6.148000267531188168e-02 1.002150554598210119e+00
-9.855000000000000426e-01 7.108966418114219532e-02 1.000967934713386187e+00
-9.855000000000000426e-01 6.577848495475609181e-02 1.000190620251522500e+00
-9.855000000000000426e-01 6.719138131099208766e-02 1.000259547071973953e+00
-9.844999999999999307e-01 7.012317999874340124e-02 1.000180276408811908e+00
-9.844999999999999307e-01 6.978510518529423834e-02 1.001038124033647003e+00
-9.844999999999999307e-01 7.183536087311219454e-02 1.000096045382475873e+00
-9.844999999999999307e-01 5.740189211863697821e-02 1.000122842253658106e+00
-9.844999999999999307e-01 5.997437590689058684e-02 1.002001044826524856e+00
-9.844999999999999307e-01 6.529853792303287607e-02 1.000618880995418847e+00
-9.835000000000000409e-01 6.869963121856174915e-02 1.000268898422872477e+00
-9.835000000000000409e-01 6.809239248755506735e-02 1.000167172270084670e+00
-9.835000000000000409e-01 6.605943601410065036e-02 1.000016189322207261e+00
-9.835000000000000409e-01 6.459806338764902123e-02 1.000464684013578687e+00
-9.824999999999999289e-01 5.987544982632965473e-02 1.001254108417845901e+00
-9.824999999999999289e-01 6.933962198086464357e-02 1.002307623229239386e+00
-9.815000000000000391e-01 7.175120470913820547e-02 1.000140796121010034e+00
-9.815000000000000391e-01 6.901952696387771147e-02 1.001953256183888197e+00
-9.804999999999999272e-01 6.384947904859625267e-02 1.002247480199324858e+00
-9.804999999999999272e-01 6.242221167092856793e-02 1.006189774942896076e+00
-9.795000000000000373e-01 7.076837165194287127e-02 1.000324340724987771e+00
-9.795000000000000373e-01 6.765701942652840861e-02 1.001396521907609971e+00
-9.795000000000000373e-01 6.796004843244549121e-02 1.001060182245127050e+00
-9.784999999999999254e-01 6.962104205250800593e-02 1.000054181561741862e+00
-9.784999999999999254e-01 7.168148159127768482e-02 1.000428200612178076e+00
-9.784999999999999254e-01 6.986187889361701597e-02 1.000263854975417699e+00
-9.775000000000000355e-01 7.064611669148124218e-02 1.000002174072934125e+00
-9.775000000000000355e-01 6.499888222501097601e-02 1.001532726003252050e+00
-9.775000000000000355e-01 7.168583262000290113e-02 1.000184027426225697e+00
-9.764999999999999236e-01 6.785884605385983370e-02 1.003141831438603582e+00
-9.764999999999999236e-01 6.453990692941649621e-02 1.000863611223136163e+00
-9.764999999999999236e-01 7.182495754708638491e-02 1.000579673096922084e+00
-9.755000000000000338e-01 6.949090190038449688e-02 1.000340794934591271e+00
-9.755000000000000338e-01 6.993629267613510336e-02 1.000770464968655071e+00
-9.755000000000000338e-01 6.843850259869688202e-02 1.001540332282440326e+00
-9.755000000000000338e-01 6.328131126842846677e-02 1.001102359036659895e+00
-9.755000000000000338e-01 7.167937240197719273e-02 1.000334482242604350e+00
-9.755000000000000338e-01 6.768789896855184618e-02 1.000093058388765499e+00
-9.755000000000000338e-01 6.408911428290710310e-02 1.000402101572874125e+00
-9.744999999999999218e-01 6.495437379447917270e-02 1.000319587522485509e+00
-9.744999999999999218e-01 6.681038341728036400e-02 1.001073510338792438e+00
-9.735000000000000320e-01 7.311359259492022922e-02 1.001522902986445196e+00
-9.735000000000000320e-01 6.781447726433686984e-02 1.001652642569567542e+00
-9.735000000000000320e-01 6.645685233386862401e-02 1.000596160133103263e+00
-9.735000000000000320e-01 7.400379318092023539e-02 1.000743842469502098e+00
-9.724999999999999201e-01 6.485043661438806561e-02 1.000308812678893489e+00
-9.724999999999999201e-01 6.856400983588924192e-02 1.000808099045045862e+00
-9.724999999999999201e-01 7.173127200697790307e-02 1.000466297705096430e+00
-9.724999999999999201e-01 6.863386378757367623e-02 1.001128324155148741e+00
-9.715000000000000302e-01 6.826589304414057424e-02 1.000481271289008101e+00
-9.715000000000000302e-01 6.396941879219834870e-02 1.002408124128133737e+00
-9.715000000000000302e-01 7.032976558583280136e-02 1.000395403271486572e+00
-9.715000000000000302e-01 6.545052130652319333e-02 1.001144258320281422e+00
-9.715000000000000302e-01 7.338618578773696555e-02 1.001045949801203649e+00
-9.715000000000000302e-01 6.697584061173732228e-02 1.001752116976301510e+00
-9.704999999999999183e-01 7.113611987363314959e-02 1.000436554497070141e+00
-9.704999999999999183e-01 7.179758769928491768e-02 1.000235511338533723e+00
-9.704999999999999183e-01 7.134836967468309588e-02 1.000082698232063860e+00
-9.695000000000000284e-01 6.676327011412579171e-02 1.000562899512344783e+00
-9.695000000000000284e-01 7.133686081440640536e-02 1.000069149787901956e+00
-9.695000000000000284e-01 6.566647596317910784e-02 1.000247219523963116e+00
-9.695000000000000284e-01 6.456740473730122887e-02 1.002791244305747398e+00
-9.695000000000000284e-01 6.614358411602329346e-02 1.000840162145299583e+00
-9.684999999999999165e-01 6.496164568778517445e-02 1.000516739377517617e+00
-9.684999999999999165e-01 6.207185229059016679e-02 1.001785127058316904e+00
-9.675000000000000266e-01 6.788244250367145294e-02 1.000339204082858258e+00
-9.675000000000000266e-01 7.052679154006288864e-02 1.000712223518293920e+00
-9.675000000000000266e-01 7.430652370448781463e-02 1.000479962903093822e+00
-9.675000000000000266e-01 6.984318538599676440e-02 1.000079175905857154e+00
-9.675000000000000266e-01 7.166336311315722740e-02 1.000148846131809988e+00
-9.664999999999999147e-01 6.700929866799000545e-02 1.000360029492372460e+00
-9.664999999999999147e-01 6.989883768534452257e-02 1.000215800508007513e+00
-9.664999999999999147e-01 7.312470727205962195e-02 1.000872409054342826e+00
-9.664999999999999147e-01 7.087199170138443194e-02 1.002329534789734744e+00
-9.664999999999999147e-01 6.993037990119214953e-02 1.000470731945527270e+00
-9.664999999999999147e-01 6.643441899539384576e-02 1.002189756190829950e+00
-9.655000000000000249e-01 6.625428201332107803e-02 1.000302127231895488e+00
-9.655000000000000249e-01 6.559106245726703532e-02 1.000837787767498543e+00
-9.655000000000000249e-01 6.890275421984944082e-02 1.000100610181273275e+00
-9.655000000000000249e-01 7.210067259242630699e-02 1.000124153387739412e+00
-9.655000000000000249e-01 7.007128852793266527e-02 1.000901038561497147e+00
-9.655000000000000249e-01 6.853662433239757212e-02 1.000011391333043065e+00
-9.655000000000000249e-01 6.374789395635199751e-02 1.000914798625480717e+00
-9.655000000000000249e-01 6.048075036288845518e-02 1.004140106232537466e+00
-9.644999999999999130e-01 7.580520568554577343e-02 1.000040900687639622e+00
-9.644999999999999130e-01 6.833074027483779234e-02 1.000152924235498286e+00
-9.644999999999999130e-01 6.506931163963673714e-02 1.000140724341153753e+00
-9.644999999999999130e-01 6.855628999388517497e-02 1.000024891011113137e+00
-9.644999999999999130e-01 6.694706568680086622e-02 1.000539200651664018e+00
-9.644999999999999130e-01 6.398783322057813305e-02 1.003339954910093645e+00
-9.635000000000000231e-01 6.673230326596771289e-02 1.002774734856150207e+00
-9.635000000000000231e-01 6.238018047850533293e-02 1.000041061642993334e+00
-9.635000000000000231e-01 6.863935882005019196e-02 1.000405602849326892e+00
-9.635000000000000231e-01 5.926215039053441686e-02 1.001075853965747831e+00
-9.635000000000000231e-01 6.408435475032472906e-02 1.000603568256377862e+00
-9.635000000000000231e-01 7.111209024290555958e-02 1.001094491340759118e+00
-9.624999999999999112e-01 6.445955300444743130e-02 1.000659209131198546e+00
-9.624999999999999112e-01 6.567228747930185795e-02 1.003916710003427415e+00
-9.615000000000000213e-01 6.596747211447574755e-02 1.000654154226151338e+00
-9.615000000000000213e-01 7.108881863981590665e-02 1.000377411114389492e+00
-9.615000000000000213e-01 6.957101965549550293e-02 1.000523936135210290e+00
-9.604999999999999094e-01 7.157807050122218240e-02 1.000036820720400010e+00
-9.604999999999999094e-01 6.613969721594623041e-02 1.001372560484968588e+00
-9.604999999999999094e-01 6.690643228896177297e-02 1.000006881754808230e+00
-9.604999999999999094e-01 6.752454877302598024e-02 1.000300896012649599e+00
-9.604999999999999094e-01 6.411920268417971303e-02 1.000615568204413997e+00
-9.604999999999999094e-01 6.354847954953117550e-02 1.000158370597260094e+00
-9.595000000000000195e-01 7.391036123497796151e-02 1.000269351757066882e+00
-9.595000000000000195e-01 6.577572046896963676e-02 1.000826467895937544e+00
-9.595000000000000195e-01 7.514449002869079408e-02 1.000162672042486323e+00
-9.595000000000000195e-01 6.858844403142336232e-02 1.001056691431822410e+00
-9.595000000000000195e-01 6.363766352485129840e-02 1.000694467196245441e+00
-9.584999999999999076e-01 6.251473378735238062e-02 1.001454631747777269e+00
-9.584999999999999076e-01 7.220658905224508484e-02 1.000365016267092511e+00
-9.584999999999999076e-01 7.062916518684153599e-02 1.000732184173437345e+00
-9.584999999999999076e-01 6.231952608649955067e-02 1.000330291385731707e+00
-9.575000000000000178e-01 6.727929988094343006e-02 1.003930139412562150e+00
-9.575000000000000178e-01 6.116782283188549468e-02 1.000162585995877373e+00
-9.575000000000000178e-01 6.096479798294072994e-02 1.001418194120387239e+00
-9.575000000000000178e-01 6.660645675096149576e-02 1.002478640577237012e+00
-9.575000000000000178e-01 6.926627792908554571e-02 1.001319991865108561e+00
-9.564999999999999059e-01 6.509788479319890409e-02 1.000501655357979081e+00
-9.564999999999999059e-01 6.201313651644745767e-02 1.001725177668690625e+00
-9.564999999999999059e-01 6.526048457726082996e-02 1.000401863176604955e+00
-9.564999999999999059e-01 6.440727238870533333e-02 1.001659463656014326e+00
-9.564999999999999059e-01 7.208235635463905444e-02 1.000859802968625534e+00
-9.564999999999999059e-01 6.663995004709037662e-02 1.001261157961712556e+00
-9.564999999999999059e-01 6.528419125118027633e-02 1.000235986443201108e+00
-9.564999999999999059e-01 6.840730086169891089e-02 1.000199886518506220e+00
-9.564999999999999059e-01 6.483950025290824426e-02 1.000207848411988509e+00
-9.555000000000000160e-01 6.891006948611806682e-02 1.000948715982054482e+00
-9.555000000000000160e-01 6.755626077722771960e-02 1.000094565734497065e+00
-9.555000000000000160e-01 6.717706612248432185e-02 1.001597150128157754e+00
-9.555000000000000160e-01 6.979612983381354441e-02 1.000140298710593179e+00
-9.555000000000000160e-01 6.381964810397197652e-02 1.003771551365017833e+00
-9.544999999999999041e-01 6.573136634737303252e-02 1.000441718704335736e+00
-9.544999999999999041e-01 6.958781687781807890e-02 1.001728010852984463e+00
-9.544999999999999041e-01 7.157105846059956533e-02 1.000337387943710299e+00
-9.544999999999999041e-01 6.804515701093974411e-02 1.000295862853870732e+00
-9.544999999999999041e-01 6.745867369493055432e-02 1.000826103281771351e+00
-9.544999999999999041e-01 6.844888931650058850e-02 1.002329760149219595e+00
-9.535000000000000142e-01 6.545904316078600405e-02 1.000501895345218939e+00
-9.524999999999999023e-01 6.021797279567101674e-02 1.000507394343828071e+00
-9.524999999999999023e-01 6.940693444988152438e-02 1.000658950769041544e+00
-9.515000000000000124e-01 6.036030509378642606e-02 1.000422326050245836e+00
-9.515000000000000124e-01 5.971812449886734764e-02 1.000614975797819772e+00
-9.515000000000000124e-01 7.314595559311899697e-02 1.000465705647914705e+00
-9.515000000000000124e-01 6.640456086972530703e-02 1.000313732538886002e+00
-9.515000000000000124e-01 6.666525814431016606e-02 1.000705974849209090e+00
-9.515000000000000124e-01 6.459392105712236098e-02 1.000615497726031755e+00
-9.515000000000000124e-01 6.589832715301294219e-02 1.000065537456350295e+00
-9.504999999999999005e-01 6.785658828564351819e-02 1.001413165245831349e+00
-9.504999999999999005e-01 6.981456971010517598e-02 1.000589146169164945e+00
-9.504999999999999005e-01 7.174728675888773777e-02 1.000281491318698812e+00
-9.504999999999999005e-01 6.673138893078252309e-02 1.000597545295442314e+00
-9.504999999999999005e-01 6.067769989940055564e-02 1.001294228711740342e+00
-9.504999999999999005e-01 6.713603405999193918e-02 1.001315997219337284e+00
-9.495000000000000107e-01 7.196503084356099811e-02 1.000131049065274169e+00
-9.495000000000000107e-01 7.230145945028813859e-02 1.000082783314325985e+00
-9.495000000000000107e-01 6.488503672166517910e-02 1.000279037626613521e+00
-9.495000000000000107e-01 6.273722744181506328e-02 1.001038123743473784e+00
-9.495000000000000107e-01 6.642349178657744324e-02 1.000715168523036436e+00
-9.495000000000000107e-01 6.714782808296622385e-02 1.000349142837597016e+00
-9.495000000000000107e-01 6.758370791565114499e-02 1.000522914278132891e+00
-9.495000000000000107e-01 6.757164776966428921e-02 1.000220991268837567e+00
-9.495000000000000107e-01 7.036215629898662227e-02 1.000994441003995039e+00
-9.484999999999998987e-01 7.048585683058612716e-02 1.000323236904706814e+00
-9.484999999999998987e-01 6.876166031079077035e-02 1.004718734829891824e+00
-9.484999999999998987e-01 7.122418715414759183e-02 1.000787192161036288e+00
-9.484999999999998987e-01 6.937528055202234201e-02 1.000316227608553987e+00
-9.484999999999998987e-01 6.523988794429370908e-02 1.001354543300736921e+00
-9.475000000000000089e-01 6.430553699475086149e-02 1.000645989293135196e+00
-9.475000000000000089e-01 7.018794306676348627e-02 1.001076311589038648e+00
-9.475000000000000089e-01 7.187737435721175405e-02 1.000227612460053317e+00
-9.475000000000000089e-01 6.168999882758609277e-02 1.000281045905678790e+00
-9.475000000000000089e-01 7.132606429794718927e-02 1.000682780363177926e+00
-9.464999999999998970e-01 6.655358644594222550e-02 1.000153865314345580e+00
-9.464999999999998970e-01 7.209164379480777207e-02 1.000203742513499305e+00
-9.464999999999998970e-01 7.045399614448541459e-02 1.000106334701543087e+00
-9.464999999999998970e-01 7.301219613497596239e-02 1.000619798130719662e+00
-9.464999999999998970e-01 6.156855125867050776e-02 1.000631834193816072e+00
-9.464999999999998970e-01 6.693683570093313107e-02 1.000267349709144327e+00
-9.455000000000000071e-01 6.280387439482307266e-02 1.000497728289776678e+00
-9.455000000000000071e-01 6.662307634029658587e-02 1.002196797873155631e+00
-9.455000000000000071e-01 7.106547270114443871e-02 1.001222280629183725e+00
-9.455000000000000071e-01 6.624621920542500542e-02 1.000902783050598543e+00
-9.455000000000000071e-01 6.993026918058121988e-02 1.000975322215648111e+00
-9.455000000000000071e-01 7.329900204081121751e-02 1.000075466028244264e+00
-9.455000000000000071e-01 7.028793437943672839e-02 1.000926290125718765e+00
-9.444999999999998952e-01 6.854948561063288481e-02 1.001445018780373841e+00
-9.444999999999998952e-01 6.655673013228037560e-02 1.000267980540095580e+00
-9.444999999999998952e-01 6.101521208231307225e-02 1.000079468489249335e+00
-9.444999999999998952e-01 6.237506458408514226e-02 1.000934777682399801e+00
-9.444999999999998952e-01 7.029451182307994150e-02 1.000009254460971997e+00
-9.444999999999998952e-01 7.255269567069481951e-02 1.000594125930865275e+00
-9.435000000000000053e-01 6.884071758304434463e-02 1.000407472051812796e+00
-9.435000000000000053e-01 6.853298031721345718e-02 1.000709835463771347e+00
-9.435000000000000053e-01 6.709029912993882960e-02 1.002431862375557925e+00
-9.435000000000000053e-01 7.475108899535433393e-02 1.000373563066639937e+00
-9.424999999999998934e-01 7.599386054550850977e-02 1.000446447380720416e+00
-9.424999999999998934e-01 6.807859864822740636e-02 1.001491701658094202e+00
-9.424999999999998934e-01 7.057790426721151367e-02 1.000339929543795803e+00
-9.424999999999998934e-01 6.981552205319568882e-02 1.000765068385353285e+00
-9.415000000000000036e-01 6.062615147068641658e-02 1.000019660198171456e+00
-9.415000000000000036e-01 6.475277245586281982e-02 1.000684937365396099e+00
-9.415000000000000036e-01 7.404427024535557844e-02 1.000146182597190680e+00
-9.415000000000000036e-01 6.985763406218771510e-02 1.000199797168456861e+00
-9.415000000000000036e-01 6.737561130998698244e-02 1.001767032222895315e+00
-9.415000000000000036e-01 6.524354387271884270e-02 1.002559211807824813e+00
-9.404999999999998916e-01 5.851250864381066924e-02 1.000128882437202549e+00
-9.404999999999998916e-01 7.022717334795539057e-02 1.001309217262206896e+00
-9.404999999999998916e-01 6.351674958438709162e-02 1.002977566597401005e+00
-9.404999999999998916e-01 6.217346698749618567e-02 1.000705783532361171e+00
-9.404999999999998916e-01 6.975498104049421277e-02 1.001554628835301219e+00
-9.404999999999998916e-01 7.152631709370151081e-02 1.000129810998042545e+00
-9.404999999999998916e-01 6.561474689600552135e-02 1.002809683768287607e+00
-9.404999999999998916e-01 6.573948293481035599e-02 1.000748533845354560e+00
-9.395000000000000018e-01 6.780758081031701412e-02 1.000437465673440274e+00
-9.395000000000000018e-01 6.605327903512796250e-02 1.000669996314966337e+00
-9.395000000000000018e-01 7.217299404838688204e-02 1.000052920746995699e+00
-9.395000000000000018e-01 6.559634238307300580e-02 1.001205038504846323e+00
-9.395000000000000018e-01 6.474903077929000661e-02 1.001483216202633475e+00
-9.395000000000000018e-01 6.629912226219433768e-02 1.001570784956989035e+00
-9.395000000000000018e-01 6.507540736435432627e-02 1.000646551827568898e+00
-9.395000000000000018e-01 6.383391665315633901e-02 1.000697955587128263e+00
-9.395000000000000018e-01 6.068102163606187149e-02 1.001699630880404257e+00
-9.384999999999998899e-01 6.469242017371053255e-02 1.000764775442811061e+00
-9.384999999999998899e-01 6.989677227052887298e-02 1.000119985929658561e+00
-9.384999999999998899e-01 7.007910775001316428e-02 1.000775050454636217e+00
-9.384999999999998899e-01 6.331062062308175087e-02 1.001810704767829741e+00
-9.384999999999998899e-01 6.584585282749705337e-02 1.002153562467444914e+00
-9.375000000000000000e-01 6.272167777010698164e-02 1.000330369494431437e+00
-9.375000000000000000e-01 6.835751677116473635e-02 1.000246539950740088e+00
-9.375000000000000000e-01 6.408466968238793471e-02 1.001655025483252581e+00
-9.375000000000000000e-01 6.950880210510018697e-02 1.000483342803046183e+00
-9.375000000000000000e-01 7.039429928566484640e-02 1.001964927393090399e+00
-9.375000000000000000e-01 6.928411076274094971e-02 1.000141253841414279e+00
-9.375000000000000000e-01 6.461360950615689658e-02 1.001852457986676548e+00
-9.364999999999998881e-01 6.850268257782353432e-02 1.000284641545384989e+00
-9.364999999999998881e-01 6.718799025991586960e-02 1.002211826354882263e+00
-9.364999999999998881e-01 7.077772940974257077e-02 1.000068324353319271e+00
-9.364999999999998881e-01 6.071232474225986969e-02 1.000108607274455608e+00
-9.354999999999999982e-01 6.729157214138309362e-02 1.000342938941228166e+00
-9.354999999999999982e-01 7.595000608523454211e-02 1.000993647157078614e+00
-9.354999999999999982e-01 6.900861315929417150e-02 1.001193027311373607e+00
-9.354999999999999982e-01 6.553049949290791487e-02 1.002265790425356240e+00
-9.354999999999999982e-01 6.947209958493981430e-02 1.000699513171305899e+00
-9.354999999999999982e-01 6.905990021201424689e-02 1.000884182313166670e+00
-9.354999999999999982e-01 6.532831332451201345e-02 1.000261238844336598e+00
-9.344999999999998863e-01 7.017809834982448314e-02 1.000563195695066687e+00
-9.344999999999998863e-01 7.074390964941776327e-02 1.002714474848114268e+00
-9.344999999999998863e-01 7.135340305107866488e-02 1.000129631249184969e+00
-9.344999999999998863e-01 6.918498062866203224e-02 1.000021809280108309e+00
-9.344999999999998863e-01 6.922160972951524327e-02 1.000147937200678294e+00
-9.344999999999998863e-01 6.501949503538848041e-02 1.001078511248912450e+00
-9.344999999999998863e-01 6.951208411441618662e-02 1.000964838000554913e+00
-9.344999999999998863e-01 7.056510553433878452e-02 1.001674668715103245e+00
-9.344999999999998863e-01 6.677580479919387191e-02 1.003411621566254519e+00
-9.334999999999999964e-01 6.839964030765659231e-02 1.001050451965966204e+00
-9.334999999999999964e-01 7.475231647912314314e-02 1.000190349993062222e+00
-9.334999999999999964e-01 6.386374108991542398e-02 1.003514617526041874e+00
-9.334999999999999964e-01 6.291499459562377439e-02 1.002896159873310600e+00
-9.334999999999999964e-01 6.262037800811409705e-02 1.000968159770926347e+00
-9.334999999999999964e-01 6.740550287474765534e-02 1.000245050678159942e+00
-9.334999999999999964e-01 7.349477385653142847e-02 1.000672115712958554e+00
-9.324999999999998845e-01 6.851306544651607211e-02 1.001745581137173158e+00
-9.324999999999998845e-01 7.003159358335667162e-02 1.000573712598878728e+00
-9.324999999999998845e-01 7.078052052518099546e-02 1.001039211569780818e+00
-9.324999999999998845e-01 7.174194549902297713e-02 1.000114576369135033e+00
-9.314999999999999947e-01 6.782298053397056714e-02 1.000186568700075940e+00
-9.314999999999999947e-01 6.981305119478539711e-02 1.000093401894927680e+00
-9.314999999999999947e-01 6.855310643148650185e-02 1.001011872019401228e+00
-9.314999999999999947e-01 6.783778848963332997e-02 1.001852303452305248e+00
-9.314999999999999947e-01 6.468389112170071231e-02 1.001397266022519661e+00
-9.314999999999999947e-01 6.768901143170295842e-02 1.000302163948335821e+00
-9.314999999999999947e-01 7.427743396376663976e-02 1.000015493265416389e+00
-9.314999999999999947e-01 6.979298720076021478e-02 1.000758835867568086e+00
-9.314999999999999947e-01 6.419961451805218655e-02 1.000587498111960905e+00
-9.314999999999999947e-01 6.326417786252318265e-02 1.000088767327614647e+00
-9.314999999999999947e-01 7.176007864645840562e-02 1.000082476190804703e+00
-9.304999999999998828e-01 6.618262502162212957e-02 1.000766314603328100e+00
-9.304999999999998828e-01 6.359801488968530592e-02 1.000438578815566304e+00
-9.304999999999998828e-01 6.817150852099544689e-02 1.000734759660279138e+00
-9.304999999999998828e-01 7.376657069877545769e-02 1.000773422556378023e+00
-9.304999999999998828e-01 7.006166122531999607e-02 1.000270660415029988e+00
-9.304999999999998828e-01 7.264769277888517840e-02 1.000524261123918235e+00
-9.304999999999998828e-01 6.785250238685869295e-02 1.000219938613633897e+00
-9.304999999999998828e-01 7.214645710897507613e-02 1.000385392567969545e+00
-9.304999999999998828e-01 7.026816442699282406e-02 1.000178285016046331e+00
-9.304999999999998828e-01 6.352812507477202664e-02 1.001920230666307310e+00
-9.304999999999998828e-01 6.760352877366269941e-02 1.000000435690764800e+00
-9.294999999999999929e-01 5.733500653042175599e-02 1.000816972224953361e+00
-9.294999999999999929e-01 7.210422234603082459e-02 1.000296753313681730e+00
-9.294999999999999929e-01 6.293903679734656753e-02 1.002465146546819508e+00
-9.294999999999999929e-01 6.538778985288776213e-02 1.000274087252927657e+00
-9.294999999999999929e-01 6.337542661694492430e-02 1.000904257087176230e+00
-9.294999999999999929e-01 6.833093070909514177e-02 1.001410081777858618e+00
-9.284999999999998810e-01 6.554964959674257352e-02 1.000225656328150858e+00
-9.284999999999998810e-01 6.438000537844135174e-02 1.000109471296962704e+00
-9.284999999999998810e-01 6.542519423343173823e-02 1.001366777980922551e+00
-9.284999999999998810e-01 6.480915826617811293e-02 1.003169622195065669e+00
-9.284999999999998810e-01 6.785133669661662370e-02 1.000406781541309131e+00
-9.284999999999998810e-01 6.416720566554474925e-02 1.001726358880505430e+00
-9.284999999999998810e-01 7.411025563940881744e-02 1.000234525803341157e+00
-9.284999999999998810e-01 6.504747196748832117e-02 1.000442048034866582e+00
-9.274999999999999911e-01 6.901710408117893436e-02 1.000386505652606672e+00
-9.274999999999999911e-01 5.670531274302553770e-02 1.000365781660555120e+00
-9.274999999999999911e-01 6.394707759673161351e-02 1.003186613202387889e+00
-9.274999999999999911e-01 6.658882748543516750e-02 1.000723990744738945e+00
-9.274999999999999911e-01 6.544342428458410632e-02 1.001746051967681073e+00
-9.274999999999999911e-01 6.858471642711254368e-02 1.001763752017592379e+00
-9.274999999999999911e-01 6.903336121934032510e-02 1.000017895270733481e+00
-9.274999999999999911e-01 6.632847944239222970e-02 1.000666294974970061e+00
-9.274999999999999911e-01 6.469843083335444223e-02 1.002016251289257642e+00
-9.274999999999999911e-01 6.997828956735133166e-02 1.000730284257670188e+00
-9.274999999999999911e-01 6.029652486421624435e-02 1.000141500308173947e+00
-9.274999999999999911e-01 6.431466963177483176e-02 1.000621557691549812e+00
-9.264999999999998792e-01 6.525390827478726175e-02 1.000208109143517765e+00
-9.264999999999998792e-01 6.323306829831011611e-02 1.002397231623475715e+00
-9.264999999999998792e-01 6.332320511268411944e-02 1.001692248593757162e+00
-9.264999999999998792e-01 6.470341614227687055e-02 1.000821312521833262e+00
-9.264999999999998792e-01 6.785947086951280016e-02 1.000504930888532762e+00
-9.264999999999998792e-01 6.765843314444239254e-02 1.002198209948805596e+00
-9.264999999999998792e-01 6.665794877754316339e-02 1.000171833801403176e+00
-9.264999999999998792e-01 6.679777257717420258e-02 1.000998960758740175e+00
-9.254999999999999893e-01 7.234286255249648689e-02 1.000014888812541525e+00
-9.254999999999999893e-01 5.432676638930852148e-02 1.000382837253252610e+00
-9.254999999999999893e-01 6.074284983637010665e-02 1.001333314206806380e+00
-9.254999999999999893e-01 6.825419751114748801e-02 1.000968175848343078e+00
-9.254999999999999893e-01 7.159965682936481057e-02 1.002819058497573801e+00
-9.254999999999999893e-01 7.239988373306757707e-02 1.001036687424417870e+00
-9.254999999999999893e-01 6.713769085895050781e-02 1.000102550351273933e+00
-9.254999999999999893e-01 6.384783492653350878e-02 1.001548509138498355e+00
-9.244999999999998774e-01 6.282317392860736760e-02 1.000094019742789442e+00
-9.244999999999998774e-01 6.293532479159205661e-02 1.000238790779386155e+00
-9.244999999999998774e-01 6.533108063547109212e-02 1.000020756702682867e+00
-9.244999999999998774e-01 6.720981289143677928e-02 1.001503053450098601e+00
-9.244999999999998774e-01 6.928119760657655557e-02 1.001317896230330406e+00
-9.234999999999999876e-01 6.410043177353030863e-02 1.002051279209349222e+00
-9.234999999999999876e-01 6.947034295859028097e-02 1.000360817511864342e+00
-9.234999999999999876e-01 7.154964601632989030e-02 1.000375474429068046e+00
-9.234999999999999876e-01 6.630749090060364392e-02 1.001254129308743357e+00
-9.234999999999999876e-01 6.383301732250767913e-02 1.000384532443504115e+00
-9.234999999999999876e-01 6.782750850454030700e-02 1.000197959729235642e+00
-9.234999999999999876e-01 6.820492165501984561e-02 1.000030370153027981e+00
-9.234999999999999876e-01 6.638845878746814366e-02 1.000169599289298272e+00
-9.234999999999999876e-01 6.709537380272427576e-02 1.002834342667051182e+00
-9.234999999999999876e-01 6.160565474681958115e-02 1.000333439323562779e+00
-9.234999999999999876e-01 6.711212426509931273e-02 1.001008661431403546e+00
-9.234999999999999876e-01 6.321524751835422284e-02 1.000817203334027905e+00
-9.234999999999999876e-01 7.189171616972038492e-02 1.001902375917802290e+00
-9.234999999999999876e-01 6.823429140940125148e-02 1.000235073042055722e+00
-9.224999999999998757e-01 6.753005183636183462e-02 1.000709896435391322e+00
-9.224999999999998757e-01 7.093333323249738365e-02 1.001144879649829456e+00
-9.224999999999998757e-01 6.580142417212980765e-02 1.000574107015276493e+00
-9.224999999999998757e-01 6.415431298118973169e-02 1.000934229672072906e+00
-9.224999999999998757e-01 6.940262717322606689e-02 1.000643912725128537e+00
-9.224999999999998757e-01 7.023351609458676481e-02 1.000387430136034705e+00
-9.224999999999998757e-01 7.005193276292115412e-02 1.000373249798786279e+00
-9.224999999999998757e-01 6.576480459123276723e-02 1.001445559530924845e+00
-9.224999999999998757e-01 6.728976452264892605e-02 1.000949911444617868e+00
-9.224999999999998757e-01 6.621318222543604026e-02 1.000022297676665284e+00
-9.224999999999998757e-01 6.656310442902238500e-02 1.005793123769129327e+00
-9.214999999999999858e-01 7.093450296455956761e-02 1.000176022063219650e+00
-9.214999999999999858e-01 6.828171033065218165e-02 1.001103200856863440e+00
-9.214999999999999858e-01 5.810627151373351507e-02 1.000643188809608564e+00
-9.214999999999999858e-01 7.115476808173777645e-02 1.000177693461551609e+00
-9.214999999999999858e-01 6.472508840230419003e-02 1.000845484788546180e+00
-9.214999999999999858e-01 7.500660737145539714e-02 1.001733023971455472e+00
-9.214999999999999858e-01 6.891231866572677944e-02 1.000026751698751104e+00
-9.214999999999999858e-01 6.300428888463700805e-02 1.000323108145784401e+00
-9.204999999999998739e-01 6.351876727701016856e-02 1.001075892861999828e+00
-9.204999999999998739e-01 6.439639473317786134e-02 1.000525543384009675e+00
-9.204999999999998739e-01 6.900038198593246019e-02 1.000324137420142812e+00
-9.204999999999998739e-01 6.990625183375868967e-02 1.000214115522409575e+00
-9.204999999999998739e-01 6.664824583198197816e-02 1.000128619603927849e+00
-9.204999999999998739e-01 6.518157488659133414e-02 1.000564049335675998e+00
-9.204999999999998739e-01 6.634519516275665107e-02 1.000833612253365201e+00
-9.194999999999999840e-01 6.606280487314723782e-02 1.001435719523101842e+00
-9.194999999999999840e-01 7.564179135557964895e-02 1.001065683284871888e+00
-9.194999999999999840e-01 6.322274892430340687e-02 1.000794427314016133e+00
-9.194999999999999840e-01 7.288181461789711157e-02 1.000131000782421120e+00
-9.184999999999998721e-01 5.671277489703595992e-02 1.002415087635276647e+00
-9.184999999999998721e-01 6.681606227487646432e-02 1.000144543459737578e+00
-9.184999999999998721e-01 6.546269575979965505e-02 1.000366241506644327e+00
-9.184999999999998721e-01 6.784819168406576451e-02 1.002079637751501107e+00
-9.184999999999998721e-01 6.991035761597490239e-02 1.002887022081191182e+00
-9.174999999999999822e-01 7.159530145582718164e-02 1.000460016971073562e+00
-9.174999999999999822e-01 6.606125783019818620e-02 1.000109643637047796e+00
-9.174999999999999822e-01 6.767282387756395901e-02 1.000231870384239663e+00
-9.174999999999999822e-01 6.205017703690202807e-02 1.001442635899559619e+00
-9.174999999999999822e-01 6.752209642494749753e-02 1.003458638996028052e+00
-9.174999999999999822e-01 6.828584224475568731e-02 1.000260812786901266e+00
-9.164999999999998703e-01 6.098425096639972093e-02 1.000332586539326662e+00
-9.164999999999998703e-01 7.043946597759269401e-02 1.001672523890259070e+00
-9.164999999999998703e-01 6.139079077027879278e-02 1.002190074235121964e+00
-9.164999999999998703e-01 5.900206070377821826e-02 1.001804139247858050e+00
-9.164999999999998703e-01 6.585014833008775992e-02 1.000120337104190904e+00
-9.164999999999998703e-01 7.057309150788819430e-02 1.000066311859999058e+00
-9.164999999999998703e-01 6.706637039315667403e-02 1.003370993651503174e+00
-9.164999999999998703e-01 6.826361687005262635e-02 1.000272241869550438e+00
-9.154999999999999805e-01 7.019657165697845702e-02 1.000347542877116247e+00
-9.154999999999999805e-01 6.689776180486425861e-02 1.001411530381792314e+00
-9.154999999999999805e-01 7.056182912831097942e-02 1.000022510045042168e+00
-9.154999999999999805e-01 5.999446512501554335e-02 1.002785763978681688e+00
-9.154999999999999805e-01 6.254241878819505329e-02 1.001702622628348305e+00
-9.154999999999999805e-01 6.527840685814281785e-02 1.000092892532497002e+00
-9.154999999999999805e-01 6.778027577293715966e-02 1.002142067942762838e+00
-9.154999999999999805e-01 6.910309704769382333e-02 1.000959047032242255e+00
-9.154999999999999805e-01 6.348859718683415310e-02 1.000934889476953416e+00
-9.154999999999999805e-01 6.553545970078597516e-02 1.004176821835450539e+00
-9.144999999999998685e-01 6.214980015042764067e-02 1.000001874088123355e+00
-9.144999999999998685e-01 5.824961863005855001e-02 1.003025117934952970e+00
-9.144999999999998685e-01 6.786597159331345108e-02 1.002291959868693016e+00
-9.144999999999998685e-01 6.915256163056478222e-02 1.006406806273516086e+00
-9.144999999999998685e-01 6.125695744020744765e-02 1.000056417931437514e+00
-9.144999999999998685e-01 6.690324817404452729e-02 1.001693858807410020e+00
-9.144999999999998685e-01 6.833100635267057299e-02 1.001017316137867263e+00
-9.144999999999998685e-01 6.817757364392629249e-02 1.001846135355806577e+00
-9.144999999999998685e-01 6.277099773084500456e-02 1.002177327396683415e+00
-9.144999999999998685e-01 7.154195408622143759e-02 1.001691703526109256e+00
-9.144999999999998685e-01 6.902766537140307690e-02 1.000029648916299863e+00
-9.134999999999999787e-01 6.153270725284938625e-02 1.000501964243339703e+00
-9.134999999999999787e-01 6.110978230732993371e-02 1.000148571046132195e+00
-9.134999999999999787e-01 7.066659181398915468e-02 1.000413322159537266e+00
-9.134999999999999787e-01 6.866230083404419038e-02 1.000940692233961204e+00
-9.134999999999999787e-01 6.845601798613547284e-02 1.000581397399446848e+00
-9.134999999999999787e-01 6.440576696061005302e-02 1.000519232236753764e+00
-9.124999999999998668e-01 6.786067861890542063e-02 1.000873070015830368e+00
-9.124999999999998668e-01 6.350715723086201858e-02 1.000048142133086237e+00
-9.124999999999998668e-01 6.853682806180634579e-02 1.005276421949879317e+00
-9.124999999999998668e-01 6.336986885896703225e-02 1.001068434268234553e+00
-9.124999999999998668e-01 7.141968035855794650e-02 1.000843526381036019e+00
-9.124999999999998668e-01 6.816552951389706627e-02 1.000409655970331269e+00
-9.124999999999998668e-01 6.676767242115738688e-02 1.000309089552122721e+00
-9.124999999999998668e-01 6.724540930535743977e-02 1.004911602038892404e+00
-9.124999999999998668e-01 7.032282132352149495e-02 1.000500274168711456e+00
-9.124999999999998668e-01 6.578592852959151693e-02 1.000452689343407808e+00
-9.124999999999998668e-01 6.706759368843656643e-02 1.001502387372971370e+00
-9.114999999999999769e-01 6.890040088229275328e-02 1.000727311385815499e+00
-9.114999999999999769e-01 7.495104192877352633e-02 1.000016205076251996e+00
-9.114999999999999769e-01 6.436690977033923677e-02 1.005336354560223189e+00
-9.114999999999999769e-01 6.622567327199511966e-02 1.000381628959672309e+00
-9.114999999999999769e-01 7.297910285674358288e-02 1.000039078795089464e+00
-9.114999999999999769e-01 7.079289326976982710e-02 1.000120084198851345e+00
-9.114999999999999769e-01 7.148826876822707288e-02 1.003562723479316743e+00
-9.114999999999999769e-01 6.184999221890515042e-02 1.000117521410752053e+00
-9.104999999999998650e-01 6.904662015090508309e-02 1.000438360483381972e+00
-9.104999999999998650e-01 6.720231998046874433e-02 1.003548022154629571e+00
-9.104999999999998650e-01 6.463812488858518279e-02 1.000277792894650686e+00
-9.104999999999998650e-01 6.968777685134108779e-02 1.000255324497668630e+00
-9.104999999999998650e-01 6.354215808115504238e-02 1.000246386169311608e+00
-9.104999999999998650e-01 5.289316273979078470e-02 1.007109208019545621e+00
-9.094999999999999751e-01 7.327209027695084920e-02 1.000728258121999170e+00
-9.094999999999999751e-01 6.916403421103933802e-02 1.000624542153772056e+00
-9.094999999999999751e-01 6.584548850189336777e-02 1.000130619594332471e+00
-9.094999999999999751e-01 6.866782802164286825e-02 1.000200268128920156e+00
-9.094999999999999751e-01 6.776760598445007167e-02 1.001499951317408765e+00
-9.084999999999998632e-01 6.459340018927318960e-02 1.000351426491738804e+00
-9.084999999999998632e-01 6.777342878158523765e-02 1.000151794303829833e+00
-9.084999999999998632e-01 6.416934769308417497e-02 1.000444208448090455e+00
-9.084999999999998632e-01 7.275208245308219246e-02 1.000082244676776977e+00
-9.084999999999998632e-01 6.879282930610837454e-02 1.000860911934196018e+00
-9.084999999999998632e-01 6.726448534456552775e-02 1.000200087828458040e+00
-9.084999999999998632e-01 6.859465471551005888e-02 1.001006672336494985e+00
-9.084999999999998632e-01 6.882064781548846710e-02 1.000460208043596255e+00
-9.084999999999998632e-01 5.802266102636782080e-02 1.002365453144288931e+00
-9.084999999999998632e-01 6.902706716257529795e-02 1.000073425611719191e+00
-9.084999999999998632e-01 6.777221276969104535e-02 1.001903291231748705e+00
-9.084999999999998632e-01 6.876224395199741213e-02 1.000188004339669368e+00
-9.074999999999999734e-01 6.835630819722736395e-02 1.003355748618511178e+00
-9.074999999999999734e-01 6.480141341089021290e-02 1.000471876026943763e+00
-9.074999999999999734e-01 6.811293792026199001e-02 1.001710928106532172e+00
-9.074999999999999734e-01 6.597425116078389773e-02 1.001291983111174400e+00
-9.074999999999999734e-01 6.748692781115328554e-02 1.001551306237874472e+00
-9.074999999999999734e-01 6.254724281502362093e-02 1.000247826042135912e+00
-9.074999999999999734e-01 6.854653318370430848e-02 1.000988411337987216e+00
-9.064999999999998614e-01 6.421479502827612262e-02 1.001502984839643506e+00
-9.064999999999998614e-01 6.872538646506333448e-02 1.003488801668382058e+00
-9.064999999999998614e-01 6.527131420092915914e-02 1.000105780471490347e+00
-9.064999999999998614e-01 6.080148509126565709e-02 1.000781217726200545e+00
-9.064999999999998614e-01 7.252602905684674139e-02 1.000209734086990876e+00
-9.064999999999998614e-01 6.647127377781600344e-02 1.000417317502386494e+00
-9.064999999999998614e-01 7.100495081611740700e-02 1.000380755356000684e+00
-9.064999999999998614e-01 6.866209422031126219e-02 1.000432752363569211e+00
-9.064999999999998614e-01 6.819633935051845619e-02 1.003454630031849204e+00
-9.064999999999998614e-01 7.511154492973490249e-02 1.000114946036705366e+00
-9.064999999999998614e-01 7.409081542190110170e-02 1.001040483672412496e+00
-9.054999999999999716e-01 7.214615563373451279e-02 1.000167773366207991e+00
-9.054999999999999716e-01 6.400927988252418099e-02 1.001669283546267053e+00
-9.054999999999999716e-01 7.297507109656109492e-02 1.000190338387176192e+00
-9.054999999999999716e-01 6.301058894588965065e-02 1.000114748192854286e+00
-9.054999999999999716e-01 6.872769899621763989e-02 1.001066953802288717e+00
-9.054999999999999716e-01 6.532818063436714173e-02 1.001077960169440839e+00
-9.054999999999999716e-01 6.408734272409861987e-02 1.000829421793787644e+00
-9.054999999999999716e-01 6.590040054648779733e-02 1.001740415475059098e+00
-9.054999999999999716e-01 6.600721823290456314e-02 1.001009967994314520e+00
-9.054999999999999716e-01 6.324281004362271308e-02 1.003123896387420722e+00
-9.054999999999999716e-01 6.474614578674253718e-02 1.001571962590030118e+00
-9.044999999999998597e-01 7.164517389312517748e-02 1.000927670366239086e+00
-9.044999999999998597e-01 7.393392219466558835e-02 1.000671528282908618e+00
-9.044999999999998597e-01 6.799739454005486461e-02 1.000451099517516429e+00
-9.044999999999998597e-01 7.043693062857400711e-02 1.000190550042032278e+00
-9.044999999999998597e-01 6.771933329478814489e-02 1.001441459345521867e+00
-9.044999999999998597e-01 6.627666343316315767e-02 1.001060713195180085e+00
-9.044999999999998597e-01 6.202969432735152416e-02 1.001210771440301128e+00
-9.044999999999998597e-01 7.385406537164970753e-02 1.000480229738399451e+00
-9.044999999999998597e-01 6.865105925135667198e-02 1.003316528347970582e+00
-9.044999999999998597e-01 6.725579384654198356e-02 1.000089065763031249e+00
-9.034999999999999698e-01 7.020947568450587595e-02 1.000090093821611736e+00
-9.034999999999999698e-01 6.849501959762821501e-02 1.000574508165633425e+00
-9.034999999999999698e-01 7.392538390925884606e-02 1.000103020834474554e+00
-9.034999999999999698e-01 7.210244173567553760e-02 1.000868569119505169e+00
-9.034999999999999698e-01 6.295890027869922856e-02 1.001378908832740278e+00
-9.034999999999999698e-01 7.046804873792283930e-02 1.001702147279732280e+00
-9.034999999999999698e-01 6.524206033783087888e-02 1.000437202397887138e+00
-9.034999999999999698e-01 6.804249530745082319e-02 1.000914634613048193e+00
-9.024999999999998579e-01 6.895880091463998940e-02 1.002632994371527531e+00
-9.024999999999998579e-01 6.195068305604646552e-02 1.000309563158433113e+00
-9.024999999999998579e-01 6.774142657621057273e-02 1.003663498618461380e+00
-9.024999999999998579e-01 6.364666858865680732e-02 1.000118764449300146e+00
-9.024999999999998579e-01 6.763053528076538867e-02 1.001046695200659364e+00
-9.024999999999998579e-01 6.168115038990072685e-02 1.000219942411069152e+00
-9.014999999999999680e-01 6.954237276618906172e-02 1.000583700699275491e+00
-9.014999999999999680e-01 7.203232277546503526e-02 1.001047920273863134e+00
-9.014999999999999680e-01 5.691240707208627958e-02 1.004566639732227040e+00
-9.014999999999999680e-01 6.653605268190071476e-02 1.000210228800774814e+00
-9.014999999999999680e-01 7.003571072136900721e-02 1.000172257755448157e+00
-9.004999999999998561e-01 6.869307929541895730e-02 1.002240087398482693e+00
-9.004999999999998561e-01 6.518422195356859961e-02 1.002149235285193063e+00
-9.004999999999998561e-01 6.861542210904794659e-02 1.001470999321398381e+00
-9.004999999999998561e-01 6.228059807532531494e-02 1.001430853125933051e+00
-9.004999999999998561e-01 7.555769781869743629e-02 1.000384508727409694e+00
-9.004999999999998561e-01 6.306595301957100552e-02 1.000211717849786686e+00
-9.004999999999998561e-01 6.724811488555199057e-02 1.000603389671952170e+00
-9.004999999999998561e-01 6.466873346948356915e-02 1.000945945571491746e+00
-8.994999999999999662e-01 6.562609991440777890e-02 1.000998619168442572e+00
-8.994999999999999662e-01 7.449396877175630538e-02 1.001347761642424006e+00
-8.994999999999999662e-01 6.354155825379696754e-02 1.001467225707815212e+00
-8.994999999999999662e-01 6.526680453869498910e-02 1.002023988215463346e+00
-8.994999999999999662e-01 6.821386939792530024e-02 1.000518085801375578e+00
-8.994999999999999662e-01 6.788488636970911594e-02 1.000946559638999034e+00
-8.994999999999999662e-01 6.511487514814315314e-02 1.000796268314650073e+00
-8.994999999999999662e-01 6.724572811449776311e-02 1.000699201370624181e+00
-8.994999999999999662e-01 6.427855112598404586e-02 1.000114752789047934e+00
-8.994999999999999662e-01 6.686608335308198703e-02 1.001654846494272055e+00
-8.984999999999998543e-01 6.368255345198874096e-02 1.000122319100538837e+00
-8.984999999999998543e-01 6.036518795839437845e-02 1.000556998832845768e+00
-8.984999999999998543e-01 6.660320783906290010e-02 1.000021622169344093e+00
-8.984999999999998543e-01 6.996165416952744576e-02 1.000379147282295600e+00
-8.984999999999998543e-01 6.404622806894270937e-02 1.000460721677319365e+00
-8.984999999999998543e-01 6.805076781209623560e-02 1.003158469911593853e+00
-8.984999999999998543e-01 6.826646481035142378e-02 1.000883711504404250e+00
-8.984999999999998543e-01 6.946466943124350590e-02 1.000199766424344494e+00
-8.974999999999999645e-01 6.347456210689979283e-02 1.002799273268532909e+00
-8.974999999999999645e-01 6.737623283197864688e-02 1.000363317275550168e+00
-8.974999999999999645e-01 7.325537516636759783e-02 1.000183360036516422e+00
-8.974999999999999645e-01 6.619838268156802430e-02 1.000405544859430451e+00
-8.974999999999999645e-01 6.285426619491178701e-02 1.002309837612552990e+00
-8.974999999999999645e-01 6.074807413951273383e-02 1.003295385047543453e+00
-8.974999999999999645e-01 6.523219713719370649e-02 1.000311125488943409e+00
-8.964999999999998526e-01 6.668940592999773875e-02 1.000360485732947557e+00
-8.964999999999998526e-01 6.704714975642786512e-02 1.000366636719607571e+00
-8.964999999999998526e-01 6.360590493668076550e-02 1.002158356155309349e+00
-8.964999999999998526e-01 6.786051791744746042e-02 1.000276722223605974e+00
-8.964999999999998526e-01 7.176955450667375780e-02 1.000250275374626074e+00
-8.964999999999998526e-01 6.286067064501994761e-02 1.000375415379092692e+00
-8.954999999999999627e-01 6.520378316689971754e-02 1.000321135486992086e+00
-8.954999999999999627e-01 7.057811538042685351e-02 1.000646436641899006e+00
-8.954999999999999627e-01 6.210783776059362882e-02 1.000191298232869119e+00
-8.954999999999999627e-01 6.106294023660832626e-02 1.000387905482146511e+00
-8.954999999999999627e-01 6.625974885834841344e-02 1.000231550761163879e+00
-8.954999999999999627e-01 6.665838740074098157e-02 1.000240614331357580e+00
-8.944999999999998508e-01 6.265464453917721221e-02 1.000607795721002891e+00
-8.944999999999998508e-01 7.185996408644620970e-02 1.000966060640433808e+00
-8.944999999999998508e-01 6.946902251131262251e-02 1.000201435012424644e+00
-8.944999999999998508e-01 6.762015947394051096e-02 1.000741840665836158e+00
-8.944999999999998508e-01 6.367711643903174734e-02 1.000755056488877637e+00
-8.944999999999998508e-01 6.219947505808730293e-02 1.002677371994365574e+00
-8.944999999999998508e-01 6.786137035289949160e-02 1.000899633505940578e+00
-8.944999999999998508e-01 7.298680573556551310e-02 1.000154097388087582e+00
-8.944999999999998508e-01 6.188310976647507650e-02 1.000195327237678011e+00
-8.934999999999999609e-01 6.219480118367848309e-02 1.000120949077737187e+00
-8.934999999999999609e-01 5.970097865754991906e-02 1.002070976611281639e+00
-8.934999999999999609e-01 6.113040334335002879e-02 1.001209937839421249e+00
-8.934999999999999609e-01 6.973138172487153286e-02 1.000221036974894728e+00
-8.934999999999999609e-01 6.967331342379912140e-02 1.001019620957358303e+00
-8.934999999999999609e-01 6.269329503455377262e-02 1.004589046860730361e+00
-8.934999999999999609e-01 6.806920360272231130e-02 1.001641831971219920e+00
-8.934999999999999609e-01 7.132198013906110301e-02 1.001860520078355021e+00
-8.924999999999998490e-01 7.013962902555778700e-02 1.000078558817058649e+00
-8.924999999999998490e-01 6.760612734145021729e-02 1.002056861294838175e+00
-8.924999999999998490e-01 6.759322628781130882e-02 1.001622860758030420e+00
-8.924999999999998490e-01 6.704004720856841792e-02 1.000016703410813834e+00
-8.924999999999998490e-01 6.789458808889177466e-02 1.000262828520303904e+00
-8.924999999999998490e-01 6.449635143805931836e-02 1.000437166091307617e+00
-8.924999999999998490e-01 7.452394707097188820e-02 1.000001201425680053e+00
-8.924999999999998490e-01 6.896019685485989259e-02 1.000272653587032101e+00
-8.914999999999999591e-01 6.889404156849995853e-02 1.000764288011423364e+00
-8.914999999999999591e-01 6.188577782997112253e-02 1.000746855508071409e+00
-8.914999999999999591e-01 6.183207229974003322e-02 1.000787755734317663e+00
-8.914999999999999591e-01 6.398627671634525560e-02 1.001245949167105298e+00
-8.914999999999999591e-01 6.729061470519935584e-02 1.000046932583149362e+00
-8.914999999999999591e-01 7.414507596838336434e-02 1.000113415961769059e+00
-8.914999999999999591e-01 6.071227493117627855e-02 1.001122984031534324e+00
-8.914999999999999591e-01 7.099232694036845814e-02 1.000089657582551306e+00
-8.914999999999999591e-01 6.313536236426486870e-02 1.000968723169838537e+00
-8.914999999999999591e-01 6.754698830211644522e-02 1.000263618065358129e+00
-8.914999999999999591e-01 6.477854824107108500e-02 1.000289545028558269e+00
-8.914999999999999591e-01 6.443267568849156413e-02 1.001771600926469663e+00
-8.914999999999999591e-01 6.518562933117369451e-02 1.001064523974079412e+00
-8.904999999999998472e-01 7.101920174455245149e-02 1.000329043056531475e+00
-8.904999999999998472e-01 6.890228163947899331e-02 1.001329188160239969e+00
-8.904999999999998472e-01 6.995886503507747767e-02 1.000570690362250215e+00
-8.904999999999998472e-01 6.489287529238360608e-02 1.000307444019859604e+00
-8.904999999999998472e-01 5.906833519792277498e-02 1.004268746134362900e+00
-8.904999999999998472e-01 7.296848652039782113e-02 1.000141945393796528e+00
-8.904999999999998472e-01 7.229806237229739752e-02 1.000110213459226349e+00
-8.904999999999998472e-01 5.943283642683500761e-02 1.000555685893120828e+00
-8.904999999999998472e-01 5.748414370398435141e-02 1.001828932818786821e+00
-8.904999999999998472e-01 6.106112898023675906e-02 1.000579885665354940e+00
-8.894999999999999574e-01 7.372457098731691194e-02 1.000397358825143579e+00
-8.894999999999999574e-01 6.733942534640870170e-02 1.002445270303279123e+00
-8.894999999999999574e-01 6.615229119079135689e-02 1.000327494398256079e+00
-8.894999999999999574e-01 6.658903050646239330e-02 1.001114495111515845e+00
-8.894999999999999574e-01 7.152719674484801782e-02 1.000501459781258706e+00
-8.894999999999999574e-01 6.774570075673384817e-02 1.000620766037854992e+00
-8.894999999999999574e-01 6.966577189657111036e-02 1.000216040920760774e+00
-8.894999999999999574e-01 6.712102206526104897e-02 1.000046024523168597e+00
-8.894999999999999574e-01 6.371873184701223880e-02 1.001312336089365873e+00
-8.894999999999999574e-01 7.040657334066316442e-02 1.000408184927456645e+00
-8.894999999999999574e-01 6.737992951739725511e-02 1.000905855301758463e+00
-8.894999999999999574e-01 6.417422488734786379e-02 1.000466689687248723e+00
-8.894999999999999574e-01 6.873576771850110900e-02 1.000013365392676379e+00
-8.884999999999998455e-01 6.410950931047795787e-02 1.000137651724892329e+00
-8.884999999999998455e-01 6.898288156059281806e-02 1.000130750662403090e+00
-8.884999999999998455e-01 7.009712012056756869e-02 1.001389095411116426e+00
-8.884999999999998455e-01 7.055128322227234572e-02 1.000263711989039628e+00
-8.884999999999998455e-01 6.680897942682612056e-02 1.000060233513099028e+00
-8.884999999999998455e-01 6.805274876456474109e-02 1.000208726692920935e+00
-8.884999999999998455e-01 6.957963030367653179e-02 1.000144484150809587e+00
-8.884999999999998455e-01 7.357770986932056501e-02 1.000193501259431628e+00
-8.884999999999998455e-01 6.161723124360023174e-02 1.000479824355811287e+00
-8.884999999999998455e-01 6.832174137703866945e-02 1.001033614094291480e+00
-8.874999999999999556e-01 6.954756306487586137e-02 1.000043686820419664e+00
-8.874999999999999556e-01 6.145368202492298287e-02 1.000280597326432375e+00
-8.874999999999999556e-01 6.809693401945558777e-02 1.001932552296487478e+00
-8.874999999999999556e-01 5.921432940783898091e-02 1.000215168396224819e+00
-8.874999999999999556e-01 7.097129220676777484e-02 1.000068650916638768e+00
-8.864999999999998437e-01 7.222830971864470373e-02 1.000318074440055049e+00
-8.864999999999998437e-01 6.724386889932200406e-02 1.001722387460143526e+00
-8.864999999999998437e-01 6.627005176332262382e-02 1.000792185754658004e+00
-8.864999999999998437e-01 7.238356394075083633e-02 1.000156667060821514e+00
-8.864999999999998437e-01 6.661140418806565933e-02 1.002159691282820342e+00
-8.864999999999998437e-01 6.376523783565882231e-02 1.001351492381385766e+00
-8.864999999999998437e-01 6.123726490994321064e-02 1.000470990814511296e+00
-8.864999999999998437e-01 6.538957442334943082e-02 1.000322675593782185e+00
-8.864999999999998437e-01 6.669553783248260981e-02 1.001010279077042986e+00
-8.864999999999998437e-01 6.780164614735728623e-02 1.001750422103885318e+00
-8.864999999999998437e-01 6.429035240843584964e-02 1.001405589400117924e+00
-8.854999999999999538e-01 6.127790972930594049e-02 1.002360710630766594e+00
-8.854999999999999538e-01 6.484628025317359934e-02 1.000304894360541708e+00
-8.854999999999999538e-01 7.024343536144683764e-02 1.000758194892642061e+00
-8.854999999999999538e-01 6.081068465482628721e-02 1.001354901399913899e+00
-8.854999999999999538e-01 5.828475687974627589e-02 1.000439947950082953e+00
-8.854999999999999538e-01 7.072678217821053159e-02 1.000047181821807296e+00
-8.854999999999999538e-01 6.847138162056483346e-02 1.000769847587853922e+00
-8.854999999999999538e-01 5.960310192000725649e-02 1.004420208016782556e+00
-8.854999999999999538e-01 6.106425775346616819e-02 1.023676288787041866e+00
-8.844999999999998419e-01 6.693569388659331709e-02 1.001011467984123104e+00
-8.844999999999998419e-01 7.036816564443855448e-02 1.000850121976405882e+00
-8.844999999999998419e-01 6.790626704133277680e-02 1.000644137380140464e+00
-8.844999999999998419e-01 6.170695886737060515e-02 1.001013572670158336e+00
-8.844999999999998419e-01 6.832570996456713286e-02 1.000289451267394103e+00
-8.844999999999998419e-01 5.951022022692165764e-02 1.001943387748292391e+00
-8.844999999999998419e-01 6.988851397801774945e-02 1.000736326484039207e+00
-8.844999999999998419e-01 6.815044856508192805e-02 1.000387373604193275e+00
-8.834999999999999520e-01 6.335706065201816839e-02 1.000310300759052140e+00
-8.834999999999999520e-01 6.295840287087169085e-02 1.000192180354450011e+00
-8.834999999999999520e-01 6.479178182861622393e-02 1.001300461722236301e+00
-8.834999999999999520e-01 6.654717583122132796e-02 1.000942015151681241e+00
-8.834999999999999520e-01 6.604066948864127651e-02 1.000092577290146778e+00
-8.834999999999999520e-01 6.824739441450043687e-02 1.000935193684271418e+00
-8.834999999999999520e-01 6.448576267188185773e-02 1.000901410969256444e+00
-8.824999999999998401e-01 6.734753295159369435e-02 1.000544020815797186e+00
-8.824999999999998401e-01 5.552282461999878682e-02 1.003750897226898475e+00
-8.824999999999998401e-01 6.048730660941640386e-02 1.000401054333958983e+00
-8.824999999999998401e-01 6.646755360188925932e-02 1.000053269981433512e+00
-8.824999999999998401e-01 6.625030351787403182e-02 1.001155231534485379e+00
-8.824999999999998401e-01 7.102513155927224486e-02 1.000911965857244290e+00
-8.824999999999998401e-01 6.857125581705653117e-02 1.000588543094288019e+00
-8.824999999999998401e-01 6.510214729518477850e-02 1.000766623635481301e+00
-8.814999999999999503e-01 7.202329286794276197e-02 1.000944253021269104e+00
-8.814999999999999503e-01 5.810654578428545852e-02 1.000039245969222668e+00
-8.814999999999999503e-01 6.531040127850808175e-02 1.002156917771472644e+00
-8.814999999999999503e-01 6.755593741502229077e-02 1.001918126339344628e+00
-8.814999999999999503e-01 6.730853544538528688e-02 1.000186495054558256e+00
-8.814999999999999503e-01 6.455412812600158645e-02 1.000374809902990103e+00
-8.814999999999999503e-01 6.664394359869929563e-02 1.001717617924746673e+00
-8.814999999999999503e-01 6.886749079441109589e-02 1.001417419326349645e+00
-8.814999999999999503e-01 7.081291441170102507e-02 1.000222059511521433e+00
-8.814999999999999503e-01 6.941500768764240215e-02 1.000006815788694992e+00
-8.814999999999999503e-01 6.545936416855298312e-02 1.000685242861930391e+00
-8.814999999999999503e-01 6.652586966571856497e-02 1.000914551794895857e+00
-8.814999999999999503e-01 6.473137360727516942e-02 1.001976051210083707e+00
-8.804999999999998384e-01 6.589436302205729790e-02 1.002206858368517750e+00
-8.804999999999998384e-01 6.100533582547449513e-02 1.000390208818718873e+00
-8.804999999999998384e-01 6.693179357767571613e-02 1.001358271453642645e+00
-8.804999999999998384e-01 6.539787874654506838e-02 1.001362276560839870e+00
-8.804999999999998384e-01 6.841019543228657462e-02 1.000667386430301065e+00
-8.804999999999998384e-01 6.713757338557348187e-02 1.001288301818532345e+00
-8.804999999999998384e-01 6.513228166692251742e-02 1.003251718961408523e+00
-8.804999999999998384e-01 6.990871279543899031e-02 1.000617520481778211e+00
-8.804999999999998384e-01 6.411978066695925293e-02 1.000488512344052783e+00
-8.804999999999998384e-01 7.252447671518584549e-02 1.000432125716254950e+00
-8.804999999999998384e-01 7.199331498480986136e-02 1.000507443188569656e+00
-8.804999999999998384e-01 6.369346617113576248e-02 1.001420321154438131e+00
-8.804999999999998384e-01 7.113107686515109107e-02 1.000054275736372622e+00
-8.804999999999998384e-01 6.554586127231772086e-02 1.000618087505271259e+00
-8.794999999999999485e-01 6.495472599026626270e-02 1.000128923223546851e+00
-8.794999999999999485e-01 6.991813665807754263e-02 1.000112949032732956e+00
-8.794999999999999485e-01 6.874650852280947411e-02 1.000468231739402469e+00
-8.794999999999999485e-01 7.001547365295726633e-02 1.000620576218567148e+00
-8.794999999999999485e-01 6.218327290640105615e-02 1.001079397617613331e+00
-8.794999999999999485e-01 6.167854468642759713e-02 1.000590892947739841e+00
-8.794999999999999485e-01 6.691642420176362183e-02 1.000922493188636908e+00
-8.794999999999999485e-01 6.120635765146012486e-02 1.002768028473545181e+00
-8.794999999999999485e-01 7.105292294010336074e-02 1.000014513949122774e+00
-8.794999999999999485e-01 6.664309653382788357e-02 1.000369850051802123e+00
-8.794999999999999485e-01 6.562771245159362832e-02 1.000243260798685752e+00
-8.794999999999999485e-01 6.586663411805500357e-02 1.000024396562678497e+00
-8.784999999999998366e-01 6.837889436976429813e-02 1.000988028684032916e+00
-8.784999999999998366e-01 6.504420452911098549e-02 1.001278886302829463e+00
-8.784999999999998366e-01 6.394580978614783362e-02 1.000705998339770586e+00
-8.784999999999998366e-01 7.091686270737466991e-02 1.000811569137382007e+00
-8.784999999999998366e-01 6.883692420117920596e-02 1.000535765222841933e+00
-8.784999999999998366e-01 6.757748989771474035e-02 1.000012963279785838e+00
-8.774999999999999467e-01 7.058350416304361163e-02 1.000197821547576860e+00
-8.774999999999999467e-01 6.326413574484675284e-02 1.002394206189636261e+00
-8.774999999999999467e-01 6.167726478509619886e-02 1.000072751657936188e+00
-8.774999999999999467e-01 6.608047402740542531e-02 1.000411382130884430e+00
-8.774999999999999467e-01 7.357746089026767633e-02 1.000178750790790216e+00
-8.774999999999999467e-01 6.645065590936408140e-02 1.001032211295188601e+00
-8.774999999999999467e-01 6.083960771444742871e-02 1.000907592701204996e+00
-8.774999999999999467e-01 6.359203668203201876e-02 1.000589103872172592e+00
-8.764999999999998348e-01 6.245494243516790112e-02 1.001573891645663128e+00
-8.764999999999998348e-01 6.929424904851540223e-02 1.001238152422701200e+00
-8.764999999999998348e-01 7.053103331929526376e-02 1.000300885857359656e+00
-8.764999999999998348e-01 6.884565238313224145e-02 1.000400163496624195e+00
-8.764999999999998348e-01 6.611136445822612950e-02 1.001279484480421367e+00
-8.764999999999998348e-01 6.617605546201468791e-02 1.000097345265853255e+00
-8.764999999999998348e-01 6.541040165534087181e-02 1.003403915846678318e+00
-8.764999999999998348e-01 6.550412160512671111e-02 1.001017676070498519e+00
-8.764999999999998348e-01 6.356327183050163032e-02 1.000254146776625719e+00
-8.764999999999998348e-01 6.708579291006609713e-02 1.000401066594944322e+00
-8.764999999999998348e-01 6.364305525227950677e-02 1.001201535978571755e+00
-8.754999999999999449e-01 6.864496372518782974e-02 1.000611373107639368e+00
-8.754999999999999449e-01 6.443371067514672146e-02 1.000147593784823208e+00
-8.754999999999999449e-01 6.922840246539579967e-02 1.000021646680571141e+00
-8.754999999999999449e-01 6.444956406309319819e-02 1.000086626828289083e+00
-8.754999999999999449e-01 6.702962089271324864e-02 1.000019429574362961e+00
-8.754999999999999449e-01 6.422484402068541487e-02 1.000865706039425929e+00
-8.754999999999999449e-01 6.943669334814096816e-02 1.000665830918608723e+00
-8.754999999999999449e-01 6.305400280570309934e-02 1.000853283916986136e+00
-8.754999999999999449e-01 5.900121750952366795e-02 1.001905898515545790e+00
-8.744999999999998330e-01 6.559237992133670758e-02 1.000515965877000202e+00
-8.744999999999998330e-01 6.481922865827968727e-02 1.000656639330878450e+00
-8.744999999999998330e-01 6.816141762927215020e-02 1.000229215530709537e+00
-8.744999999999998330e-01 6.926989604031630332e-02 1.000707665265722301e+00
-8.744999999999998330e-01 6.830904882509723774e-02 1.000453668868191315e+00
-8.744999999999998330e-01 6.848400163439881394e-02 1.000593532763527138e+00
-8.744999999999998330e-01 7.116103311650974483e-02 1.000148807955203001e+00
-8.744999999999998330e-01 6.615020603004927169e-02 1.000929417528859666e+00
-8.744999999999998330e-01 6.313650356710497069e-02 1.000207531214650558e+00
-8.744999999999998330e-01 6.604707873751859692e-02 1.000185252895659849e+00
-8.734999999999999432e-01 6.215611527592720259e-02 1.000046167933153596e+00
-8.734999999999999432e-01 6.398184643467709487e-02 1.001288972320264925e+00
-8.734999999999999432e-01 6.126719754642152155e-02 1.000004266311596002e+00
-8.734999999999999432e-01 7.042411083723847109e-02 1.001323188275424103e+00
-8.734999999999999432e-01 6.711288921222806347e-02 1.000639670981545493e+00
-8.734999999999999432e-01 6.643635785281870598e-02 1.000351329622014562e+00
-8.734999999999999432e-01 6.772306879354142439e-02 1.000002430081197602e+00
-8.734999999999999432e-01 7.346452751523155356e-02 1.000017066339682126e+00
-8.724999999999998312e-01 6.680373095382279025e-02 1.000850900463390758e+00
-8.724999999999998312e-01 6.570074038205336864e-02 1.000969948480365357e+00
-8.724999999999998312e-01 6.691214886984138410e-02 1.000056777403072195e+00
-8.724999999999998312e-01 6.153051521160644161e-02 1.000409754604216106e+00
-8.724999999999998312e-01 6.282008170572814243e-02 1.000145497530361860e+00
-8.724999999999998312e-01 6.798895150783336450e-02 1.002156975804888051e+00
-8.724999999999998312e-01 5.829080356920750272e-02 1.000447406751354240e+00
-8.724999999999998312e-01 7.128339602014617526e-02 1.000730789348507122e+00
-8.724999999999998312e-01 6.775178319278168937e-02 1.000317543590022895e+00
-8.724999999999998312e-01 6.998439186960575542e-02 1.002164259116471445e+00
-8.724999999999998312e-01 6.601646407050514032e-02 1.000186247248890270e+00
-8.724999999999998312e-01 7.394319198949718397e-02 1.000258167942789544e+00
-8.724999999999998312e-01 7.330904268833390858e-02 1.000870507379927998e+00
-8.714999999999999414e-01 6.515485844471337329e-02 1.000063753820381374e+00
-8.714999999999999414e-01 6.454804911458703054e-02 1.000271829334782092e+00
-8.714999999999999414e-01 7.356820038889110014e-02 1.000401254889546898e+00
-8.714999999999999414e-01 6.622002822157747881e-02 1.001548513640228899e+00
-8.714999999999999414e-01 6.399241146882561626e-02 1.000437918858166242e+00
-8.714999999999999414e-01 7.347680241263335188e-02 1.001072682440051320e+00
-8.714999999999999414e-01 6.361973969189614608e-02 1.000050684177150151e+00
-8.714999999999999414e-01 6.298003705978294509e-02 1.003489140746955943e+00
-8.714999999999999414e-01 6.538001671380931634e-02 1.000052935404270871e+00
-8.714999999999999414e-01 6.364650688200311490e-02 1.001310718955737533e+00
-8.704999999999998295e-01 6.870883249861163555e-02 1.000573395959620582e+00
-8.704999999999998295e-01 5.912099763691598675e-02 1.000207845513490401e+00
-8.704999999999998295e-01 7.066900042690722750e-02 1.000202041187659097e+00
-8.704999999999998295e-01 6.682217329513313875e-02 1.001495926287704785e+00
-8.704999999999998295e-01 6.052068913707124576e-02 1.002058704288523616e+00
-8.704999999999998295e-01 7.198886545421306904e-02 1.000917023386191707e+00
-8.704999999999998295e-01 7.311728202810829913e-02 1.000352110415956508e+00
-8.704999999999998295e-01 5.858936348480966311e-02 1.006039848797637859e+00
-8.694999999999999396e-01 7.066606377597065003e-02 1.000588387452324257e+00
-8.694999999999999396e-01 6.598858315541079878e-02 1.000452266624013431e+00
-8.694999999999999396e-01 6.449713479507368508e-02 1.000262770879331908e+00
-8.694999999999999396e-01 7.153570387481338055e-02 1.000013925748301835e+00
-8.694999999999999396e-01 6.723930911868390703e-02 1.001694656061400179e+00
-8.694999999999999396e-01 6.176177714214109438e-02 1.000853388698323077e+00
-8.694999999999999396e-01 6.695024393623159875e-02 1.000636872627824969e+00
-8.694999999999999396e-01 6.741247778917874856e-02 1.000557731452408117e+00
-8.694999999999999396e-01 6.644950551477916967e-02 1.000456388404376451e+00
-8.694999999999999396e-01 6.129794504627832791e-02 1.001712468197525574e+00
-8.694999999999999396e-01 6.097552425162322542e-02 1.001522499951356338e+00
-8.684999999999998277e-01 6.398225904901831684e-02 1.000056622222452507e+00
-8.684999999999998277e-01 6.621582203140616296e-02 1.000517395176190760e+00
-8.684999999999998277e-01 6.553617295254046682e-02 1.000932884504610598e+00
-8.684999999999998277e-01 6.317609057255460514e-02 1.000690357001916997e+00
-8.684999999999998277e-01 6.850988056260531867e-02 1.001218704502539358e+00
-8.684999999999998277e-01 6.309394478320058675e-02 1.001457241966274836e+00
-8.684999999999998277e-01 6.031882608777411336e-02 1.000899244716745740e+00
-8.684999999999998277e-01 6.708596004983803651e-02 1.000045347584254563e+00
-8.684999999999998277e-01 5.852667115179797236e-02 1.000955946997781565e+00
-8.684999999999998277e-01 6.697341709383415609e-02 1.000779486337361579e+00
-8.684999999999998277e-01 6.624003594313966625e-02 1.003993499389173261e+00
-8.684999999999998277e-01 6.339441684035246327e-02 1.002623000712062007e+00
-8.684999999999998277e-01 6.616685380120383708e-02 1.001191256692423037e+00
-8.684999999999998277e-01 6.773450263581690112e-02 1.000727765831623595e+00
-8.674999999999999378e-01 6.260288598428470630e-02 1.001720650060974993e+00
-8.674999999999999378e-01 6.160638893093992041e-02 1.000753000443494578e+00
-8.674999999999999378e-01 6.779599628813333390e-02 1.000150910804565862e+00
-8.674999999999999378e-01 6.811213207686232785e-02 1.000338533594772761e+00
-8.674999999999999378e-01 6.564372453419700659e-02 1.000509882585807198e+00
-8.674999999999999378e-01 7.581506622692797681e-02 1.000058183522503308e+00
-8.674999999999999378e-01 6.134170472754353620e-02 1.001056570050919303e+00
-8.674999999999999378e-01 6.671297151510599543e-02 1.000610981612184425e+00
-8.674999999999999378e-01 6.546240176079086426e-02 1.001323245669470952e+00
-8.674999999999999378e-01 6.244960201032077191e-02 1.000073256512115316e+00
-8.664999999999998259e-01 7.030549041507533348e-02 1.001544779713062328e+00
-8.664999999999998259e-01 6.556407653080031928e-02 1.000863987992198778e+00
-8.664999999999998259e-01 5.601235593334862733e-02 1.000065652759888568e+00
-8.664999999999998259e-01 6.821546963270189168e-02 1.000066357264375538e+00
-8.664999999999998259e-01 6.492556093444158682e-02 1.000515486748096539e+00
-8.664999999999998259e-01 5.835006808295541830e-02 1.001344012941701944e+00
-8.664999999999998259e-01 6.979998139719162387e-02 1.000402248237588498e+00
-8.664999999999998259e-01 6.752018140841255234e-02 1.001336494856487347e+00
-8.664999999999998259e-01 7.082402554248327931e-02 1.000574101942574679e+00
-8.664999999999998259e-01 6.832096023034882337e-02 1.002066229715053103e+00
-8.664999999999998259e-01 6.603191545191761103e-02 1.000633455822912188e+00
-8.664999999999998259e-01 6.557247869429429221e-02 1.002519763654282636e+00
-8.664999999999998259e-01 7.172215658257286020e-02 1.000309907170026102e+00
-8.654999999999999361e-01 6.343893461181404625e-02 1.000337520535835356e+00
-8.654999999999999361e-01 6.576814756009741192e-02 1.000114288366397153e+00
-8.654999999999999361e-01 6.883537619701303456e-02 1.000861319865689492e+00
-8.654999999999999361e-01 6.987909850102715092e-02 1.000968656525367262e+00
-8.654999999999999361e-01 6.388457932274622941e-02 1.000102268432364605e+00
-8.654999999999999361e-01 6.785510307438959166e-02 1.001171252934500711e+00
-8.654999999999999361e-01 5.719412578456995605e-02 1.000336127243576678e+00
-8.654999999999999361e-01 6.764898133961216864e-02 1.000196748529225577e+00
-8.654999999999999361e-01 5.782268999698012696e-02 1.003374950029319868e+00
-8.654999999999999361e-01 6.055859423513468287e-02 1.001523190526047324e+00
-8.654999999999999361e-01 6.575842202192440367e-02 1.000077449583979927e+00
-8.654999999999999361e-01 6.970078121207347321e-02 1.001172318262574024e+00
-8.654999999999999361e-01 5.765542023214300510e-02 1.000316435823514816e+00
-8.644999999999998241e-01 6.899696732210987282e-02 1.000940270570548574e+00
-8.644999999999998241e-01 6.351495788318406444e-02 1.002939704759773454e+00
-8.644999999999998241e-01 6.413033047134822362e-02 1.001484960269424240e+00
-8.644999999999998241e-01 6.953825082985452821e-02 1.000689123335829045e+00
-8.644999999999998241e-01 6.871594796589972076e-02 1.000341045446634602e+00
-8.644999999999998241e-01 7.153042715346172309e-02 1.001550701358831397e+00
-8.634999999999999343e-01 7.135306123881432483e-02 1.000382695275533473e+00
-8.634999999999999343e-01 7.160360590950928805e-02 1.000764321793614853e+00
-8.634999999999999343e-01 7.253354574936482502e-02 1.000325853720706037e+00
-8.634999999999999343e-01 7.367956415339436960e-02 1.000796048588662224e+00
-8.634999999999999343e-01 7.052904880249281916e-02 1.000504342972428518e+00
-8.634999999999999343e-01 6.355774156325179336e-02 1.001608852609664257e+00
-8.634999999999999343e-01 5.598221599156849582e-02 1.000663132521232068e+00
-8.634999999999999343e-01 6.557475383914862510e-02 1.000222716074468332e+00
-8.634999999999999343e-01 6.226964340444674645e-02 1.000198313258008342e+00
-8.634999999999999343e-01 6.451829945661939625e-02 1.003347215256663150e+00
-8.624999999999998224e-01 5.730291997888127542e-02 1.000945246746080874e+00
-8.624999999999998224e-01 6.301202445120802909e-02 1.000776660939600715e+00
-8.624999999999998224e-01 7.049920917476308613e-02 1.000688420563672798e+00
-8.624999999999998224e-01 6.087357307805691536e-02 1.000867574592197329e+00
-8.624999999999998224e-01 6.884342795805514781e-02 1.000291445937333323e+00
-8.624999999999998224e-01 6.720623183870812201e-02 1.000347387782406505e+00
-8.624999999999998224e-01 6.369337056598145530e-02 1.000026678021566306e+00
-8.624999999999998224e-01 7.106894355690471232e-02 1.000926977489771108e+00
-8.624999999999998224e-01 6.849718210269424568e-02 1.000893824150191458e+00
-8.624999999999998224e-01 5.455789546729491318e-02 1.000400301061629360e+00
-8.624999999999998224e-01 7.193280412787707301e-02 1.000193990160602731e+00
-8.624999999999998224e-01 6.428515294586113760e-02 1.001123229804155912e+00
-8.614999999999999325e-01 6.758125333422977665e-02 1.001795029767934331e+00
-8.614999999999999325e-01 6.372499812996679225e-02 1.003368127842645174e+00
-8.614999999999999325e-01 5.895094813830036723e-02 1.003760205143176432e+00
-8.614999999999999325e-01 6.402001968833483103e-02 1.000250272404004326e+00
-8.614999999999999325e-01 7.314822799627078431e-02 1.000389632916375282e+00
-8.604999999999998206e-01 6.508133931532270045e-02 1.000824873788300984e+00
-8.604999999999998206e-01 6.564141688592192714e-02 1.000472591450295878e+00
-8.604999999999998206e-01 6.018252322671995003e-02 1.000317423463311428e+00
-8.604999999999998206e-01 5.825125022326470975e-02 1.002456747156523997e+00
-8.604999999999998206e-01 6.455421991791839009e-02 1.004363518189069326e+00
-8.604999999999998206e-01 6.968366331453768048e-02 1.000694305392517691e+00
-8.604999999999998206e-01 6.867643414302776472e-02 1.000094871702252197e+00
-8.604999999999998206e-01 6.645996115204236276e-02 1.001233008003733049e+00
-8.604999999999998206e-01 6.797337905945348424e-02 1.001080343969518838e+00
-8.594999999999999307e-01 6.917249768027884660e-02 1.002913839829160381e+00
-8.594999999999999307e-01 7.284968157999950622e-02 1.001359853989755244e+00
-8.594999999999999307e-01 7.094047617961901642e-02 1.000356238700547129e+00
-8.594999999999999307e-01 6.886079239871321922e-02 1.000775164981565268e+00
-8.594999999999999307e-01 6.597791635283710432e-02 1.000076927094374346e+00
-8.594999999999999307e-01 6.717172214659616891e-02 1.002959943467196302e+00
-8.594999999999999307e-01 6.709780915923543865e-02 1.000559764496242510e+00
-8.594999999999999307e-01 6.370611989725330493e-02 1.001097942941700847e+00
-8.594999999999999307e-01 6.788694263117496519e-02 1.000395320417258205e+00
-8.594999999999999307e-01 6.373048983426625458e-02 1.000593512224964288e+00
-8.594999999999999307e-01 6.817964134902522455e-02 1.001447005534373824e+00
-8.594999999999999307e-01 6.690433928861008739e-02 1.000351717754765168e+00
-8.594999999999999307e-01 6.312308821521904478e-02 1.002672898435880144e+00
-8.594999999999999307e-01 6.878276599716019735e-02 1.000594020981477428e+00
-8.594999999999999307e-01 6.509876090236153823e-02 1.000314324686149892e+00
-8.594999999999999307e-01 6.421035694045837405e-02 1.000648506682028982e+00
-8.584999999999998188e-01 6.457658172263788798e-02 1.001054942955519556e+00
-8.584999999999998188e-01 5.864159075429088014e-02 1.004784110913633288e+00
-8.584999999999998188e-01 6.786959730576339056e-02 1.000025106249151641e+00
-8.584999999999998188e-01 6.186686125640449008e-02 1.000012774992215192e+00
-8.584999999999998188e-01 6.196239008486870842e-02 1.003330303872377316e+00
-8.584999999999998188e-01 6.962512625881063510e-02 1.001393933356050647e+00
-8.584999999999998188e-01 7.108384525189842540e-02 1.000053357023050316e+00
-8.584999999999998188e-01 6.686328877044299401e-02 1.001203458037181582e+00
-8.574999999999999289e-01 7.373989505509342957e-02 1.000196495763470805e+00
-8.574999999999999289e-01 6.352145218956870010e-02 1.001809627096925892e+00
-8.574999999999999289e-01 6.400439097133991950e-02 1.000070701568544829e+00
-8.574999999999999289e-01 7.141346880948117037e-02 1.000206667922656667e+00
-8.574999999999999289e-01 6.352941047808040309e-02 1.000911044162521302e+00
-8.574999999999999289e-01 6.003768874606771333e-02 1.001548000852672038e+00
-8.574999999999999289e-01 5.860525845198633066e-02 1.000797309246332034e+00
-8.574999999999999289e-01 6.249975026812825546e-02 1.002114546480537438e+00
-8.574999999999999289e-01 6.954061850548169665e-02 1.000357692552148459e+00
-8.574999999999999289e-01 6.178169567127961281e-02 1.000525205053677924e+00
-8.574999999999999289e-01 6.430490867711938230e-02 1.000137085185640595e+00
-8.574999999999999289e-01 6.309020043064005046e-02 1.000230527272978787e+00
-8.574999999999999289e-01 6.788090093038329220e-02 1.000925684693600326e+00
-8.574999999999999289e-01 6.471657942952507847e-02 1.000234197111839141e+00
-8.564999999999998170e-01 5.921918223665555842e-02 1.008555749463214024e+00
-8.564999999999998170e-01 6.414780639612645274e-02 1.000546519058764128e+00
-8.564999999999998170e-01 6.154936386425555878e-02 1.000539476123777360e+00
-8.564999999999998170e-01 6.760914868311489190e-02 1.000204829135295626e+00
-8.564999999999998170e-01 6.508677484772711075e-02 1.000318584582942982e+00
-8.554999999999999272e-01 6.605407229228330013e-02 1.000008134954452954e+00
-8.554999999999999272e-01 6.528739400099463353e-02 1.000977379923344568e+00
-8.554999999999999272e-01 6.341966754343296431e-02 1.000229599144582648e+00
-8.554999999999999272e-01 6.756136964132104794e-02 1.002436721550088450e+00
-8.554999999999999272e-01 6.537737874171946351e-02 1.000862621637459871e+00
-8.544999999999998153e-01 6.642977379138469141e-02 1.001187584415127452e+00
-8.544999999999998153e-01 6.498463872936356689e-02 1.000231276688373638e+00
-8.544999999999998153e-01 5.300202871130754029e-02 1.001150449010680621e+00
-8.544999999999998153e-01 7.140598002349432538e-02 1.000253507295580713e+00
-8.544999999999998153e-01 7.676648993196759363e-02 1.000305298437865309e+00
-8.544999999999998153e-01 6.539452281881519280e-02 1.002579863971992058e+00
-8.544999999999998153e-01 6.519505179769524705e-02 1.001317771020323821e+00
-8.544999999999998153e-01 6.385586700544940153e-02 1.000432029790972566e+00
-8.544999999999998153e-01 7.097522094889092970e-02 1.001049289342819115e+00
-8.534999999999999254e-01 6.365372930833687604e-02 1.002687922207485816e+00
-8.534999999999999254e-01 6.138047060794241810e-02 1.001609963525099456e+00
-8.534999999999999254e-01 6.775911824870869959e-02 1.000296192480148783e+00
-8.534999999999999254e-01 6.369369939512425915e-02 1.001168142583262810e+00
-8.534999999999999254e-01 7.040322687000581670e-02 1.000168467913862713e+00
-8.534999999999999254e-01 7.116875424716366527e-02 1.000505517408000866e+00
-8.524999999999998135e-01 6.796326145619389913e-02 1.000913307008213460e+00
-8.524999999999998135e-01 7.352613514427100427e-02 1.000722564371230305e+00
-8.524999999999998135e-01 6.497326913103106116e-02 1.000028926659547235e+00
-8.524999999999998135e-01 6.484601133405903939e-02 1.002029407515770743e+00
-8.524999999999998135e-01 6.069870820998549132e-02 1.000476109036004368e+00
-8.524999999999998135e-01 6.976932723343738652e-02 1.000815757926324157e+00
-8.524999999999998135e-01 6.699822023420370920e-02 1.000480414347015179e+00
-8.524999999999998135e-01 6.329578526180486275e-02 1.000005729796278997e+00
-8.524999999999998135e-01 6.750202731867313566e-02 1.001668964884950386e+00
-8.524999999999998135e-01 7.597212819091760105e-02 1.000155962015562228e+00
-8.524999999999998135e-01 5.870661173983975079e-02 1.000428007882772308e+00
-8.524999999999998135e-01 5.830284128126380500e-02 1.000306184731294179e+00
-8.524999999999998135e-01 6.480052392267668382e-02 1.004788291472610062e+00
-8.514999999999999236e-01 6.566810587861560133e-02 1.001440389122355556e+00
-8.514999999999999236e-01 6.850967177699791855e-02 1.001681876660933224e+00
-8.514999999999999236e-01 6.465038674932171991e-02 1.001282083227750253e+00
-8.514999999999999236e-01 6.450596912180642239e-02 1.000020271230580793e+00
-8.514999999999999236e-01 6.786692689820662816e-02 1.000210034451981533e+00
-8.514999999999999236e-01 6.387045346847007588e-02 1.000638847355088679e+00
-8.514999999999999236e-01 6.765066999619268051e-02 1.001315116136355154e+00
-8.514999999999999236e-01 6.265508040301830117e-02 1.001877736545544240e+00
-8.514999999999999236e-01 6.666506761787008295e-02 1.000443729007548521e+00
-8.514999999999999236e-01 7.305706506673154133e-02 1.000303897731558811e+00
-8.514999999999999236e-01 6.066138141090299252e-02 1.004539328051299529e+00
-8.514999999999999236e-01 6.171019551561798128e-02 1.000643868677791204e+00
-8.514999999999999236e-01 6.294622343061222203e-02 1.000044870902647709e+00
-8.504999999999998117e-01 6.857549996009651427e-02 1.001062158418423165e+00
-8.504999999999998117e-01 6.174465265929359598e-02 1.002407285430627848e+00
-8.504999999999998117e-01 6.502015822673100354e-02 1.000533336932793782e+00
-8.504999999999998117e-01 6.604511809333908634e-02 1.000069793184844569e+00
-8.504999999999998117e-01 6.471249927305848526e-02 1.000148673007299260e+00
-8.494999999999999218e-01 6.717931777588116715e-02 1.000156437772424578e+00
-8.494999999999999218e-01 7.036990043735312506e-02 1.000195801526032380e+00
-8.494999999999999218e-01 6.792288519677351644e-02 1.001678027037791630e+00
-8.494999999999999218e-01 6.174861119132708104e-02 1.000796919506759641e+00
-8.494999999999999218e-01 6.390280683677451723e-02 1.000047472128228421e+00
-8.494999999999999218e-01 6.471344416302292346e-02 1.000744449047879625e+00
-8.494999999999999218e-01 6.346524335813745477e-02 1.000069164650441600e+00
-8.494999999999999218e-01 6.847285370672623328e-02 1.000075686168461431e+00
-8.494999999999999218e-01 6.822956410555557072e-02 1.000612293701980349e+00
-8.484999999999998099e-01 7.165112246778282401e-02 1.000633631040583671e+00
-8.484999999999998099e-01 6.651806635899532028e-02 1.000290399616851067e+00
-8.484999999999998099e-01 7.135715848336887657e-02 1.000079780027421927e+00
-8.484999999999998099e-01 6.723198880083372520e-02 1.001104845089637152e+00
-8.484999999999998099e-01 6.612868056546422624e-02 1.000102586847850139e+00
-8.484999999999998099e-01 5.375525750073654324e-02 1.003390953063898472e+00
-8.484999999999998099e-01 6.768636628641616637e-02 1.000448703193203004e+00
-8.484999999999998099e-01 6.597462096986436708e-02 1.000086051941033061e+00
-8.484999999999998099e-01 6.399837915981529401e-02 1.000182242477902994e+00
-8.484999999999998099e-01 6.539160803282108303e-02 1.001862407920199427e+00
-8.484999999999998099e-01 6.509985170524860976e-02 1.000676143557413411e+00
-8.474999999999999201e-01 5.938493081663714923e-02 1.000462995468164307e+00
-8.474999999999999201e-01 6.846198142370106543e-02 1.001435138982403439e+00
-8.474999999999999201e-01 6.678027075077869190e-02 1.000879273645979506e+00
-8.474999999999999201e-01 6.386133039505147158e-02 1.002113883035273600e+00
-8.474999999999999201e-01 5.785191007277314112e-02 1.001617231813031639e+00
-8.474999999999999201e-01 7.295876941026410711e-02 1.000059433131517350e+00
-8.474999999999999201e-01 6.461472926270139805e-02 1.000342365231612130e+00
-8.474999999999999201e-01 6.395181640295302672e-02 1.001976790220469926e+00
-8.474999999999999201e-01 6.214728707149789338e-02 1.002783508067789819e+00
-8.474999999999999201e-01 5.762240924263607039e-02 1.008116583660797705e+00
-8.474999999999999201e-01 6.534792773592150439e-02 1.000919390699302358e+00
-8.474999999999999201e-01 6.592079031637718134e-02 1.003188628429525497e+00
-8.474999999999999201e-01 7.067043816611534579e-02 1.000515318053351921e+00
-8.474999999999999201e-01 6.678101229082414325e-02 1.000969667361795157e+00
-8.464999999999998082e-01 6.751499907951478974e-02 1.000357683997219249e+00
-8.464999999999998082e-01 7.047314066394763654e-02 1.000687678783963586e+00
-8.464999999999998082e-01 6.606608037431535574e-02 1.000547666845974959e+00
-8.464999999999998082e-01 6.506509888017177057e-02 1.000296436729509741e+00
-8.464999999999998082e-01 6.998823510259757907e-02 1.000061465735018862e+00
-8.464999999999998082e-01 6.867800587346870045e-02 1.000103242264412273e+00
-8.464999999999998082e-01 6.750883078233789469e-02 1.000026962282559273e+00
-8.464999999999998082e-01 6.532016361168452301e-02 1.000145041712671601e+00
-8.464999999999998082e-01 6.919052215998246214e-02 1.000363272736543019e+00
-8.464999999999998082e-01 6.837183872169570742e-02 1.000540241043693879e+00
-8.464999999999998082e-01 6.524723155488650062e-02 1.000280704080533489e+00
-8.464999999999998082e-01 6.696758536726646338e-02 1.000291692479881922e+00
-8.464999999999998082e-01 5.786297207609297777e-02 1.000524004406548206e+00
-8.454999999999999183e-01 6.501147063655572655e-02 1.001078120163893415e+00
-8.454999999999999183e-01 6.667589205125956653e-02 1.001068414658213612e+00
-8.454999999999999183e-01 6.282094735628729332e-02 1.000305662251230965e+00
-8.454999999999999183e-01 6.646683660750904443e-02 1.002022232345834318e+00
-8.454999999999999183e-01 6.637267707237558267e-02 1.000198097380746720e+00
-8.454999999999999183e-01 6.238650161289856916e-02 1.000691204774388110e+00
-8.454999999999999183e-01 6.237418053902394482e-02 1.000865497039508334e+00
-8.444999999999998064e-01 6.746896363774269878e-02 1.000194583812501259e+00
-8.444999999999998064e-01 6.604394361484682008e-02 1.000330835200363255e+00
-8.444999999999998064e-01 5.818776256853063628e-02 1.000964523719307886e+00
-8.444999999999998064e-01 6.205343320867866275e-02 1.000808195975147807e+00
-8.444999999999998064e-01 7.043277253951808758e-02 1.001299359425397606e+00
-8.444999999999998064e-01 5.692523225983640855e-02 1.003701551776170930e+00
-8.434999999999999165e-01 6.394106341711312813e-02 1.001070660830577275e+00
-8.434999999999999165e-01 7.313301000045294153e-02 1.000987112423418646e+00
-8.434999999999999165e-01 6.285087788254463403e-02 1.000941466942482094e+00
-8.434999999999999165e-01 6.598311788230769304e-02 1.000026836246354023e+00
-8.434999999999999165e-01 6.227351539094984345e-02 1.000625181106985950e+00
-8.424999999999998046e-01 5.998043845376033883e-02 1.001046603905748178e+00
-8.424999999999998046e-01 6.310713088353031575e-02 1.000725406404528339e+00
-8.424999999999998046e-01 6.304820848964848290e-02 1.005168464975812137e+00
-8.424999999999998046e-01 6.249624264162680770e-02 1.000927004029172229e+00
-8.424999999999998046e-01 5.924915549459403713e-02 1.003538459344605949e+00
-8.424999999999998046e-01 6.220868243689195443e-02 1.000252720873407775e+00
-8.424999999999998046e-01 6.388026984688759125e-02 1.000007011934389567e+00
-8.424999999999998046e-01 5.988165970859992554e-02 1.000298621167269086e+00
-8.424999999999998046e-01 6.598686262568152772e-02 1.003550435159949794e+00
-8.424999999999998046e-01 5.926311688926514526e-02 1.000169047399387834e+00
-8.424999999999998046e-01 6.184009383877495103e-02 1.000101444742163004e+00
-8.414999999999999147e-01 6.297528942998688317e-02 1.000894878671650501e+00
-8.414999999999999147e-01 6.714256671994477121e-02 1.001156879163887403e+00
-8.414999999999999147e-01 6.535926299673168460e-02 1.000558975139231865e+00
-8.414999999999999147e-01 6.221103979679785262e-02 1.000548254962871031e+00
-8.414999999999999147e-01 5.908094336410962821e-02 1.000456413365957031e+00
-8.414999999999999147e-01 7.045007284508926493e-02 1.000750595148860222e+00
-8.414999999999999147e-01 6.170998751485434058e-02 1.000693031079197270e+00
-8.414999999999999147e-01 6.708819805659413382e-02 1.001889145079815524e+00
-8.414999999999999147e-01 6.031556296066038769e-02 1.002314371682410998e+00
-8.414999999999999147e-01 6.347141575561715543e-02 1.000647494783505564e+00
-8.414999999999999147e-01 6.764062479363198988e-02 1.000025875646196827e+00
-8.404999999999998028e-01 7.107168226807673850e-02 1.000746443951731735e+00
-8.404999999999998028e-01 6.536674472747218412e-02 1.000309245185241558e+00
-8.404999999999998028e-01 6.530191040332038177e-02 1.000267476377781017e+00
-8.404999999999998028e-01 6.917540611130430783e-02 1.000560113178373012e+00
-8.404999999999998028e-01 6.468583095769918356e-02 1.001472595827485268e+00
-8.404999999999998028e-01 6.836886299971343950e-02 1.000553586149609098e+00
-8.404999999999998028e-01 6.371783482550620603e-02 1.006736599112414865e+00
-8.404999999999998028e-01 5.799556221729899180e-02 1.003365880881850636e+00
-8.404999999999998028e-01 6.233795920488088838e-02 1.000149925466477852e+00
-8.404999999999998028e-01 7.055956672675657571e-02 1.000612432933952300e+00
-8.404999999999998028e-01 6.690709607741088250e-02 1.000555947565053838e+00
-8.404999999999998028e-01 6.355650434837792351e-02 1.000550280944950465e+00
-8.394999999999999130e-01 6.872754728863730844e-02 1.000075077098049992e+00
-8.394999999999999130e-01 6.835034590891619910e-02 1.001556516770998329e+00
-8.394999999999999130e-01 6.885098983665556560e-02 1.000183997858103080e+00
-8.394999999999999130e-01 7.159546224049416485e-02 1.000001617333153403e+00
-8.394999999999999130e-01 6.536222662409281459e-02 1.002979019401770255e+00
-8.394999999999999130e-01 6.626250491833410305e-02 1.000081385082045138e+00
-8.394999999999999130e-01 6.382404031788378729e-02 1.000473620662476470e+00
-8.394999999999999130e-01 6.117131128756043285e-02 1.000610958292154518e+00
-8.384999999999998010e-01 6.657540528822757098e-02 1.001444338592075711e+00
-8.384999999999998010e-01 7.035565524218634348e-02 1.000363301761650003e+00
-8.384999999999998010e-01 6.151337127245841419e-02 1.002094722171976704e+00
-8.384999999999998010e-01 6.643917289803762116e-02 1.000194611947371470e+00
-8.384999999999998010e-01 6.364775888905840895e-02 1.001273819996178371e+00
-8.384999999999998010e-01 5.982349782832102614e-02 1.000451036708192243e+00
-8.384999999999998010e-01 6.966399749793407425e-02 1.000958216669004308e+00
-8.384999999999998010e-01 6.667827194141304203e-02 1.001360302839098271e+00
-8.384999999999998010e-01 6.442380894457888640e-02 1.001132829139791625e+00
-8.384999999999998010e-01 7.275615741368378353e-02 1.000716794686219213e+00
-8.384999999999998010e-01 7.377896766199101841e-02 1.000045766377368750e+00
-8.374999999999999112e-01 6.459286170771821878e-02 1.000270408922049770e+00
-8.374999999999999112e-01 7.008269716065128330e-02 1.000017366743174874e+00
-8.374999999999999112e-01 5.833415156526310791e-02 1.003429885496210927e+00
-8.374999999999999112e-01 6.372370537671098734e-02 1.001555522361407435e+00
-8.374999999999999112e-01 6.690955835120858397e-02 1.000542876965540673e+00
-8.374999999999999112e-01 6.526956316022791693e-02 1.004604139335777857e+00
-8.374999999999999112e-01 7.054274851614134034e-02 1.000072008822975311e+00
-8.374999999999999112e-01 7.389649508822791757e-02 1.001706630829525047e+00
-8.374999999999999112e-01 6.545772106162496551e-02 1.000087937718412867e+00
-8.374999999999999112e-01 5.990204392121626503e-02 1.001601985631631608e+00
-8.374999999999999112e-01 6.728653837220979761e-02 1.000936199270131333e+00
-8.374999999999999112e-01 6.987732852277106499e-02 1.000801314446797319e+00
-8.364999999999997993e-01 6.539971941785946430e-02 1.004379703448102346e+00
-8.364999999999997993e-01 6.173951851392936452e-02 1.000918748201653496e+00
-8.364999999999997993e-01 6.442326491899028063e-02 1.001492370247585972e+00
-8.364999999999997993e-01 5.967680573790917764e-02 1.000713176136805105e+00
-8.364999999999997993e-01 6.068243399737972138e-02 1.010018341041857060e+00
-8.364999999999997993e-01 6.988840840597039528e-02 1.000255260449684824e+00
-8.364999999999997993e-01 7.149286887226960485e-02 1.001866565517204100e+00
-8.364999999999997993e-01 6.846024685688668898e-02 1.000124284631263016e+00
-8.364999999999997993e-01 6.295611796254604875e-02 1.001225272969000324e+00
-8.364999999999997993e-01 6.560219057550828459e-02 1.001462910439423704e+00
-8.354999999999999094e-01 6.213640784659336253e-02 1.000297992002644021e+00
-8.354999999999999094e-01 7.338444515860678696e-02 1.000529046010507850e+00
-8.354999999999999094e-01 7.453978251743874350e-02 1.000418750295661852e+00
-8.354999999999999094e-01 7.064427633330024048e-02 1.000133647880024457e+00
-8.354999999999999094e-01 6.757413399434357426e-02 1.002478022787503642e+00
-8.354999999999999094e-01 6.954693131869449374e-02 1.001183871190917118e+00
-8.354999999999999094e-01 6.402234111325327826e-02 1.003450260689308315e+00
-8.354999999999999094e-01 6.167407934674935116e-02 1.000689397393902613e+00
-8.354999999999999094e-01 6.925830099777624538e-02 1.000363458246993131e+00
-8.354999999999999094e-01 6.161732492064765643e-02 1.000627335590734912e+00
-8.354999999999999094e-01 6.037885349568209575e-02 1.000757770635109400e+00
-8.354999999999999094e-01 6.345837511621238436e-02 1.001655062123103512e+00
-8.344999999999997975e-01 7.019570568260141696e-02 1.001129102253855541e+00
-8.344999999999997975e-01 6.751115595020447391e-02 1.000981320154117782e+00
-8.344999999999997975e-01 6.708374659202115398e-02 1.002788091913623170e+00
-8.344999999999997975e-01 5.753587841498054162e-02 1.000664999812565847e+00
-8.344999999999997975e-01 6.505461110499280442e-02 1.000734388374330042e+00
-8.344999999999997975e-01 5.572257595131733382e-02 1.004693881754236573e+00
-8.344999999999997975e-01 6.936727983473661707e-02 1.000205940681867745e+00
-8.344999999999997975e-01 6.294164544114824733e-02 1.001449146014302016e+00
-8.344999999999997975e-01 7.090213352309038264e-02 1.000745676002059215e+00
-8.344999999999997975e-01 6.359730209674832602e-02 1.000233548034374254e+00
-8.344999999999997975e-01 6.681555272245325028e-02 1.000152878790253386e+00
-8.334999999999999076e-01 5.776672838977911506e-02 1.004229703009539953e+00
-8.334999999999999076e-01 6.512450495163780995e-02 1.000181664547515226e+00
-8.334999999999999076e-01 6.542008632527113177e-02 1.001599343556004662e+00
-8.334999999999999076e-01 6.474276622613760190e-02 1.000363976528107823e+00
-8.334999999999999076e-01 5.946367653167106831e-02 1.000398659046406680e+00
-8.334999999999999076e-01 6.423951709219936912e-02 1.000513286776834931e+00
-8.334999999999999076e-01 6.541151731862640539e-02 1.000393946791323208e+00
-8.334999999999999076e-01 6.220641147233735291e-02 1.000638971911966824e+00
-8.334999999999999076e-01 6.376092640927157051e-02 1.000377939726858179e+00
-8.334999999999999076e-01 6.846379998061800920e-02 1.001427932175552593e+00
-8.334999999999999076e-01 6.358603434773740792e-02 1.002211617015388301e+00
-8.334999999999999076e-01 6.827977039410788873e-02 1.000106784668391535e+00
-8.334999999999999076e-01 6.840306792391502577e-02 1.000103070544538397e+00
-8.334999999999999076e-01 6.380388029028165320e-02 1.001432799114925443e+00
-8.334999999999999076e-01 7.328850762413410824e-02 1.000032733779827598e+00
-8.324999999999997957e-01 7.006567379457685762e-02 1.000520749409971932e+00
-8.324999999999997957e-01 6.561897383154091656e-02 1.001315199351014762e+00
-8.324999999999997957e-01 6.128200836716379829e-02 1.000956758503460886e+00
-8.324999999999997957e-01 6.158619693604113626e-02 1.000116333749877295e+00
-8.324999999999997957e-01 6.745937020371842174e-02 1.000030145358692391e+00
-8.324999999999997957e-01 7.134668362947560460e-02 1.000918336516700924e+00
-8.324999999999997957e-01 6.874645976979391893e-02 1.000446502108279567e+00
-8.324999999999997957e-01 6.627562313359752766e-02 1.001242576391360606e+00
-8.324999999999997957e-01 6.895888863802748792e-02 1.000187974007312963e+00
-8.324999999999997957e-01 6.001080645296977267e-02 1.000611978623424436e+00
-8.324999999999997957e-01 6.588477537802200912e-02 1.000443795121938262e+00
-8.324999999999997957e-01 6.542049602554961263e-02 1.000206633280956936e+00
-8.324999999999997957e-01 6.700226939901215983e-02 1.000225170038463229e+00
-8.324999999999997957e-01 6.852216507422193015e-02 1.000531807117736260e+00
-8.314999999999999059e-01 6.261537571518505096e-02 1.003968215531438446e+00
-8.314999999999999059e-01 7.024033084683428685e-02 1.000133192740932042e+00
-8.314999999999999059e-01 7.144306093123473089e-02 1.001316389311385668e+00
-8.314999999999999059e-01 7.075397011848405526e-02 1.000168144063829256e+00
-8.314999999999999059e-01 7.305259831214669375e-02 1.000245340478493672e+00
-8.314999999999999059e-01 6.788252485418068416e-02 1.000018007957366617e+00
-8.314999999999999059e-01 6.520729367068356375e-02 1.000579698993021571e+00
-8.314999999999999059e-01 6.565201165727903299e-02 1.002589768786576130e+00
-8.314999999999999059e-01 6.310425578370752742e-02 1.000926799877911888e+00
-8.314999999999999059e-01 6.735108883064606922e-02 1.003106344678283968e+00
-8.314999999999999059e-01 6.683210215573726076e-02 1.000227889708291018e+00
-8.304999999999997939e-01 6.888191256827756737e-02 1.000065903558944758e+00
-8.304999999999997939e-01 6.384383511942592904e-02 1.003843563760112634e+00
-8.304999999999997939e-01 6.089604450179789824e-02 1.000124642692666654e+00
-8.304999999999997939e-01 6.303772029395110499e-02 1.000161203419766220e+00
-8.304999999999997939e-01 6.818804084578100611e-02 1.000374920365161069e+00
-8.304999999999997939e-01 6.347863908724338255e-02 1.001021445523280651e+00
-8.304999999999997939e-01 6.532326039495346681e-02 1.001173484678317349e+00
-8.304999999999997939e-01 5.687531944665265293e-02 1.000720599045924031e+00
-8.294999999999999041e-01 6.603302293543114598e-02 1.000109677827231369e+00
-8.294999999999999041e-01 7.186271311971705045e-02 1.002183246592682542e+00
-8.294999999999999041e-01 6.755688695103163888e-02 1.000061914464389634e+00
-8.294999999999999041e-01 6.633652381260039810e-02 1.000789128653716720e+00
-8.294999999999999041e-01 6.555316143421137387e-02 1.000191448187817800e+00
-8.294999999999999041e-01 6.469709801393550008e-02 1.000614734700713493e+00
-8.294999999999999041e-01 6.951769340701231814e-02 1.000026959847112984e+00
-8.284999999999997922e-01 6.416281409966347049e-02 1.002514846181785435e+00
-8.284999999999997922e-01 6.419319410518305180e-02 1.000555042695937980e+00
-8.284999999999997922e-01 6.803690389273156502e-02 1.000079629896462485e+00
-8.284999999999997922e-01 6.372336315677244734e-02 1.000925088501315008e+00
-8.284999999999997922e-01 6.544561094609065155e-02 1.003333421488701305e+00
-8.284999999999997922e-01 7.014768353459957528e-02 1.001210741538703042e+00
-8.284999999999997922e-01 5.908355657885108747e-02 1.002593360618236895e+00
-8.284999999999997922e-01 5.933631768540406637e-02 1.000049143802478557e+00
-8.284999999999997922e-01 6.612410313448466304e-02 1.000603602702913264e+00
-8.284999999999997922e-01 6.744652457612258789e-02 1.000741405401198936e+00
-8.274999999999999023e-01 6.265546925515104448e-02 1.000015231399409954e+00
-8.274999999999999023e-01 6.940647890890148941e-02 1.000216383319410207e+00
-8.274999999999999023e-01 6.586213335961804693e-02 1.000834030440993283e+00
-8.274999999999999023e-01 6.845169239661721972e-02 1.000058765111972336e+00
-8.274999999999999023e-01 6.016091264761656149e-02 1.001520929336482180e+00
-8.274999999999999023e-01 6.654521191996297380e-02 1.000237021597904841e+00
-8.274999999999999023e-01 6.138971416152098903e-02 1.000149760411685795e+00
-8.274999999999999023e-01 6.847376064076983460e-02 1.002491905568974717e+00
-8.274999999999999023e-01 5.918574358930782375e-02 1.000066212681614441e+00
-8.274999999999999023e-01 7.272731425954084838e-02 1.000377198627938169e+00
-8.274999999999999023e-01 6.649909691984838556e-02 1.000170632121941683e+00
-8.274999999999999023e-01 7.061215891306567294e-02 1.000099594892625676e+00
-8.274999999999999023e-01 6.439532551172465202e-02 1.000741086943571778e+00
-8.274999999999999023e-01 6.835264093363119242e-02 1.000332115368580022e+00
-8.274999999999999023e-01 7.026091742944823304e-02 1.000675465941899711e+00
-8.274999999999999023e-01 6.394978737591880402e-02 1.001419186244433934e+00
-8.264999999999997904e-01 7.027786771517728626e-02 1.000486953688482838e+00
-8.264999999999997904e-01 6.755128200104829062e-02 1.000834529166912068e+00
-8.264999999999997904e-01 7.409958398928538637e-02 1.000997014763367998e+00
-8.264999999999997904e-01 6.996990475579596691e-02 1.001047313413881978e+00
-8.264999999999997904e-01 6.987036672267163406e-02 1.000081804983357969e+00
-8.264999999999997904e-01 7.185064983060103494e-02 1.000053622369118766e+00
-8.264999999999997904e-01 6.706560453515329756e-02 1.000918651880781107e+00
-8.264999999999997904e-01 6.319204849519988176e-02 1.003065565458791220e+00
-8.264999999999997904e-01 6.620750945358004624e-02 1.000628061046107575e+00
-8.264999999999997904e-01 6.844297673551641426e-02 1.001087151295547706e+00
-8.264999999999997904e-01 6.942068654579947040e-02 1.000945694277333819e+00
-8.264999999999997904e-01 6.759107092301375186e-02 1.000121814874699089e+00
-8.264999999999997904e-01 5.882893580952395368e-02 1.004636574677585825e+00
-8.264999999999997904e-01 6.367618760316980098e-02 1.000798605387712925e+00
-8.264999999999997904e-01 5.925730092865870435e-02 1.004773837658567315e+00
-8.264999999999997904e-01 6.094160816096812899e-02 1.000241956611295668e+00
-8.254999999999999005e-01 6.693118824295959945e-02 1.000433753305014717e+00
-8.254999999999999005e-01 7.429363592659071758e-02 1.001032123823971220e+00
-8.244999999999997886e-01 6.828330570875225380e-02 1.001323868116025473e+00
-8.244999999999997886e-01 6.823440249222072207e-02 1.001463909332447999e+00
-8.244999999999997886e-01 6.844896620607079929e-02 1.000721857060816733e+00
-8.244999999999997886e-01 5.939616731434469582e-02 1.000508226649285959e+00
-8.244999999999997886e-01 6.664156443963172027e-02 1.003459576714401003e+00
-8.244999999999997886e-01 5.979197700546629718e-02 1.000154080420201597e+00
-8.244999999999997886e-01 6.403595315177290637e-02 1.000232136511007397e+00
-8.244999999999997886e-01 6.646798941525973448e-02 1.000101895666900331e+00
-8.244999999999997886e-01 6.309689535940100902e-02 1.000218702664766424e+00
-8.244999999999997886e-01 7.067851544638938110e-02 1.000395479293170853e+00
-8.234999999999998987e-01 6.748391718265103756e-02 1.000243142306480149e+00
-8.234999999999998987e-01 5.895971097611060058e-02 1.001148465651492625e+00
-8.234999999999998987e-01 6.606092534935532889e-02 1.001320027893411346e+00
-8.234999999999998987e-01 6.304181959421303882e-02 1.000345642927128464e+00
-8.234999999999998987e-01 6.541602384307552975e-02 1.000201699931993371e+00
-8.234999999999998987e-01 6.133539306854471351e-02 1.000600361279874173e+00
