-9.975000000000000533e-01 3.070709081835597785e-03 1.032308862777584268e+00
-9.964999999999999414e-01 2.293484284777175947e-03 1.028972082806512311e+00
-9.964999999999999414e-01 2.422948215135737639e-03 1.081007681114774188e+00
-9.964999999999999414e-01 1.832852124666433475e-03 1.320341761232388222e+00
-9.955000000000000515e-01 2.080345010002411163e-03 1.021340628529666672e+00
-9.955000000000000515e-01 2.905463900018732774e-03 1.012912540782871629e+00
-9.944999999999999396e-01 4.053528018360706871e-03 1.006664159905031442e+00
-9.944999999999999396e-01 1.373014717601048120e-03 1.204735571008352046e+00
-9.935000000000000497e-01 2.325031179514873859e-03 1.052926325705135113e+00
-9.935000000000000497e-01 2.707807554866100992e-03 1.096522619833448786e+00
-9.935000000000000497e-01 2.767788481430165023e-03 1.009853542102887358e+00
-9.935000000000000497e-01 3.338668973174090289e-03 1.019561492519525547e+00
-9.935000000000000497e-01 2.325138574490124340e-03 1.052527587289417532e+00
-9.924999999999999378e-01 4.031853420638741026e-03 1.001575026985156658e+00
-9.924999999999999378e-01 3.534090787151414077e-03 1.000553510268591184e+00
-9.924999999999999378e-01 2.319207095812620203e-03 -3.126458829782984949e+00
-9.915000000000000480e-01 2.310538080549377933e-03 1.077801245628488225e+00
-9.904999999999999361e-01 2.863111758979135398e-03 1.053939726429715007e+00
-9.904999999999999361e-01 4.058078978560503147e-03 1.001856488504961229e+00
-9.904999999999999361e-01 2.237821833859362716e-03 1.139954079072070581e+00
-9.895000000000000462e-01 4.340678566583255731e-03 1.044841772742430841e+00
-9.895000000000000462e-01 1.988269149873258743e-03 1.598847796397474763e+00
-9.884999999999999343e-01 1.811502620859204750e-03 1.091054560866927758e+00
-9.884999999999999343e-01 2.401965062428119361e-03 1.027862760336150538e+00
-9.884999999999999343e-01 3.569260879323949906e-03 1.015928016690767599e+00
-9.875000000000000444e-01 2.930706971944430257e-03 1.021540554137941426e+00
-9.875000000000000444e-01 3.492997942564026684e-03 1.023384853665221028e+00
-9.864999999999999325e-01 1.913870726101125214e-03 1.062630187490497757e+00
-9.864999999999999325e-01 1.592675632803471075e-03 1.193387815597464874e+00
-9.864999999999999325e-01 2.083130290704319435e-03 1.276794878814430323e+00
-9.855000000000000426e-01 2.693485298348042255e-03 1.016107828525557810e+00
-9.855000000000000426e-01 1.252579812722420154e-03 1.042152903394730767e+00
-9.855000000000000426e-01 1.371407109123481570e-03 1.029226259944089783e+00
-9.855000000000000426e-01 4.450638975882261969e-03 1.003170048421424099e+00
-9.855000000000000426e-01 2.768470408608730924e-03 1.025122650999408913e+00
-9.855000000000000426e-01 3.377051940369972267e-03 1.006494146079446983e+00
-9.844999999999999307e-01 2.044532441733854303e-03 1.148489294085481838e+00
-9.844999999999999307e-01 2.628767772974413813e-03 1.025514145695279655e+00
-9.844999999999999307e-01 2.554261668082522842e-03 1.182413158617056981e+00
-9.844999999999999307e-01 1.620064466610740116e-03 1.003034686405595233e+00
-9.835000000000000409e-01 3.757000831525502890e-03 1.006466085825438173e+00
-9.835000000000000409e-01 3.959662530615814385e-03 1.005390981195357858e+00
-9.835000000000000409e-01 1.574622221210941406e-03 1.074633102395631701e+00
-9.824999999999999289e-01 3.802384600199319731e-03 1.001456990058035013e+00
-9.824999999999999289e-01 2.111555061283545282e-03 1.097401787129631101e+00
-9.824999999999999289e-01 2.766586328465778146e-03 1.050818496836180893e+00
-9.824999999999999289e-01 3.880632198066385954e-03 1.022524221883743367e+00
-9.815000000000000391e-01 3.313398349479896362e-03 1.012322225569588507e+00
-9.815000000000000391e-01 1.610064229887190907e-03 1.089810602895906477e+00
-9.804999999999999272e-01 1.500562904456489511e-03 1.102343661285724030e+00
-9.804999999999999272e-01 1.811820068940470964e-03 1.197104439068262138e+00
-9.804999999999999272e-01 3.902220488902015307e-03 1.001102148579863016e+00
-9.804999999999999272e-01 2.919616563887470883e-03 1.017572326237684344e+00
-9.795000000000000373e-01 2.570193069396298300e-03 1.030068328349997619e+00
-9.795000000000000373e-01 2.572598095615342192e-03 1.038288785734381658e+00
-9.795000000000000373e-01 2.063337792013820570e-03 1.059320369940889073e+00
-9.795000000000000373e-01 3.468704751761608231e-03 1.006790176387193370e+00
-9.795000000000000373e-01 2.501459961268617804e-03 1.019082861759561309e+00
-9.784999999999999254e-01 1.993995119193370160e-03 1.022838957252072190e+00
-9.784999999999999254e-01 1.502920324587143875e-03 1.540893916175444023e+00
-9.784999999999999254e-01 2.160698289749570650e-03 1.018300179312233711e+00
-9.775000000000000355e-01 2.564086357412145595e-03 1.004372731354916892e+00
-9.775000000000000355e-01 2.139390213838160415e-03 1.017628009454759841e+00
-9.764999999999999236e-01 2.349302287642382730e-03 1.133637533770286421e+00
-9.764999999999999236e-01 2.061845140030972145e-03 1.038642261975299963e+00
-9.764999999999999236e-01 3.462337299262234144e-03 1.001224169059440117e+00
-9.764999999999999236e-01 1.166926103811612506e-03 1.138092763377800187e+00
-9.764999999999999236e-01 2.660172362611647016e-03 1.018728624713714614e+00
-9.764999999999999236e-01 3.004188226409392620e-03 1.013960341211346927e+00
-9.755000000000000338e-01 2.726186493082064996e-03 1.090489725789605346e+00
-9.755000000000000338e-01 1.805900414818109373e-03 1.168975795391968830e+00
-9.755000000000000338e-01 3.797264472261061702e-03 1.011583018023096026e+00
-9.744999999999999218e-01 4.083071564295216206e-03 1.008137246151043165e+00
-9.744999999999999218e-01 1.340374801473143574e-03 1.095066227733647590e+00
-9.744999999999999218e-01 1.874895292391192108e-03 1.019276109783473050e+00
-9.744999999999999218e-01 3.564571441659553867e-03 1.013481393264443975e+00
-9.735000000000000320e-01 2.391787663078428355e-03 1.095234033107371996e+00
-9.735000000000000320e-01 3.294986950118585986e-03 1.017620795536008815e+00
-9.735000000000000320e-01 1.411128917196655206e-03 1.034422242262218905e+00
-9.735000000000000320e-01 1.976121697228458082e-03 1.043197787360630624e+00
-9.735000000000000320e-01 2.576418727908604944e-03 1.009560335349276805e+00
-9.735000000000000320e-01 2.628561757980577354e-03 1.005128663123294963e+00
-9.735000000000000320e-01 3.008367438362030341e-03 1.006093389249275383e+00
-9.724999999999999201e-01 2.025158096942598906e-03 1.016919884142676755e+00
-9.724999999999999201e-01 4.019411526285665733e-03 1.003176285617300767e+00
-9.724999999999999201e-01 2.474415778108389127e-03 1.037781760680793752e+00
-9.715000000000000302e-01 2.367827585033031000e-03 1.004816854930718595e+00
-9.715000000000000302e-01 1.321087095592999531e-03 1.088040794265587863e+00
-9.704999999999999183e-01 2.635620076953324332e-03 1.211382840129941574e+00
-9.704999999999999183e-01 1.987748500090604029e-03 1.006720688602685598e+00
-9.704999999999999183e-01 1.482532074647305862e-03 1.139728874886892118e+00
-9.704999999999999183e-01 1.096745731480088621e-03 1.797911088922193645e+00
-9.695000000000000284e-01 2.604500063274552742e-03 1.076496087528299395e+00
-9.695000000000000284e-01 2.817387068969431484e-03 1.010229596517724149e+00
-9.695000000000000284e-01 3.467779969139144196e-03 1.012351867949076833e+00
-9.684999999999999165e-01 1.939376002613001646e-03 1.056259652228527912e+00
-9.684999999999999165e-01 3.621904347674369772e-03 1.003403880141708227e+00
-9.684999999999999165e-01 3.184387771579943495e-03 1.002937061660187368e+00
-9.684999999999999165e-01 2.289203276433072250e-03 1.022265150381462373e+00
-9.684999999999999165e-01 2.235563780306764389e-03 1.057470443950479400e+00
-9.684999999999999165e-01 3.226667185984855891e-03 1.000932890279158327e+00
-9.684999999999999165e-01 1.941009362133449146e-03 1.221676612944246676e+00
-9.675000000000000266e-01 2.080087320535973627e-03 1.068320919272775615e+00
-9.675000000000000266e-01 1.897598295013972576e-03 1.225790855789596234e+00
-9.664999999999999147e-01 3.806350820757543971e-03 1.001369859871725110e+00
-9.664999999999999147e-01 1.803930482635440974e-03 1.078408289504457551e+00
-9.664999999999999147e-01 3.698719778470792655e-03 1.031724457866157296e+00
-9.664999999999999147e-01 3.196268317073574367e-03 1.013632424261754483e+00
-9.655000000000000249e-01 2.742969488087483240e-03 1.047121520763077518e+00
-9.655000000000000249e-01 2.626978622720837001e-03 1.186203625837675135e+00
-9.655000000000000249e-01 2.007614168696018973e-03 1.009170035589753933e+00
-9.655000000000000249e-01 2.835499110958495869e-03 1.019071649705832749e+00
-9.655000000000000249e-01 2.505527450725769656e-03 1.010850843649171216e+00
-9.655000000000000249e-01 3.553325166027046251e-03 1.006760279872715325e+00
-9.655000000000000249e-01 2.012262040525677337e-03 1.127330419895640645e+00
-9.644999999999999130e-01 3.592037393260854184e-03 1.006120798438377539e+00
-9.644999999999999130e-01 2.342261495277887275e-03 1.005177646079941089e+00
-9.644999999999999130e-01 2.687311830563654698e-03 1.033752395250961742e+00
-9.644999999999999130e-01 3.761959555642335144e-03 1.027974623968109347e+00
-9.644999999999999130e-01 1.882721453949206527e-03 1.161828177871451429e+00
-9.644999999999999130e-01 1.952596050599448262e-03 1.122359058919525143e+00
-9.644999999999999130e-01 3.464430531172881834e-03 1.001446499272384383e+00
-9.644999999999999130e-01 1.627930206138471399e-03 1.034159949143568236e+00
-9.635000000000000231e-01 1.931088055739175286e-03 1.035494512146243551e+00
-9.635000000000000231e-01 2.596591072339466538e-03 1.005955575438598038e+00
-9.635000000000000231e-01 1.046846324081672453e-03 1.061869970658315454e+00
-9.624999999999999112e-01 1.277788046202321020e-03 1.023616972387713764e+00
-9.624999999999999112e-01 3.022273739809898906e-03 1.045399271297158705e+00
-9.624999999999999112e-01 2.010012778726588244e-03 1.072036437391547192e+00
-9.624999999999999112e-01 1.802718161195601384e-03 1.016294156986049524e+00
-9.624999999999999112e-01 3.451313357072056942e-03 1.008487534352191517e+00
-9.624999999999999112e-01 3.198481337490875938e-03 1.069137876050503477e+00
-9.624999999999999112e-01 1.384697045832717016e-03 1.008259329255395409e+00
-9.615000000000000213e-01 3.993520003177741459e-03 1.009758293335707657e+00
-9.615000000000000213e-01 2.274212892576264050e-03 1.002585857948806503e+00
-9.615000000000000213e-01 2.774043315983502726e-03 1.003265615248298381e+00
-9.615000000000000213e-01 2.089619401576409304e-03 1.121412129000637581e+00
-9.615000000000000213e-01 4.575629365963942638e-03 1.000974990981646773e+00
-9.615000000000000213e-01 2.069430925498841334e-03 1.001816005362774931e+00
-9.615000000000000213e-01 2.256464361839228411e-03 1.030343910275534069e+00
-9.615000000000000213e-01 2.532130499026149020e-03 1.012614065497106086e+00
-9.604999999999999094e-01 3.061569186744321058e-03 1.027693032039742160e+00
-9.595000000000000195e-01 3.872704144344252513e-03 1.003751190293624695e+00
-9.595000000000000195e-01 3.395670064364457279e-03 1.009826033331078232e+00
-9.595000000000000195e-01 3.390684190013923578e-03 1.008790217662686173e+00
-9.595000000000000195e-01 2.985092599145204324e-03 1.022665426572784808e+00
-9.595000000000000195e-01 3.199760307289968055e-03 1.006405889684632848e+00
-9.595000000000000195e-01 1.753350971427974610e-03 1.015282238614363397e+00
-9.595000000000000195e-01 2.014660946525621051e-03 1.036436826935671407e+00
-9.595000000000000195e-01 2.321965038335011434e-03 1.080055813767945017e+00
-9.584999999999999076e-01 3.644251962836095836e-03 1.016050042868821279e+00
-9.584999999999999076e-01 2.416556920218279007e-03 1.014589199987142809e+00
-9.584999999999999076e-01 1.261885833358545065e-03 1.272572228429593499e+00
-9.584999999999999076e-01 2.459484021437916609e-03 1.019989915699829552e+00
-9.584999999999999076e-01 2.417914525817119620e-03 1.000523177595418201e+00
-9.584999999999999076e-01 1.942563237246569628e-03 1.027979600286285100e+00
-9.584999999999999076e-01 1.989962596472048904e-03 1.010079789977788245e+00
-9.584999999999999076e-01 2.100447811506340502e-03 1.501158919579209661e+00
-9.584999999999999076e-01 3.801807397384062218e-03 1.008327772959444424e+00
-9.575000000000000178e-01 1.821745131755097332e-03 1.051711900393111909e+00
-9.575000000000000178e-01 1.975410855691124221e-03 1.003194437268632333e+00
-9.575000000000000178e-01 2.024432014642111796e-03 1.043209930044728617e+00
-9.575000000000000178e-01 3.618282623481956176e-03 1.011016869044266020e+00
-9.564999999999999059e-01 2.028201139509446405e-03 1.055837468165550241e+00
-9.564999999999999059e-01 1.390401123012124885e-03 1.029709222100957611e+00
-9.564999999999999059e-01 3.120230632114605763e-03 1.083924237510964783e+00
-9.564999999999999059e-01 1.923920934523511064e-03 1.048258813294169034e+00
-9.564999999999999059e-01 1.602955889072410186e-03 1.026096090523363147e+00
-9.564999999999999059e-01 3.268370629156830843e-03 1.004097827572586032e+00
-9.564999999999999059e-01 3.391126573151683615e-03 1.006389981838401892e+00
-9.564999999999999059e-01 2.469069651051617516e-03 1.010676522842938851e+00
-9.555000000000000160e-01 2.940299368550698591e-03 1.031288193420788479e+00
-9.555000000000000160e-01 3.564889846602549255e-03 1.010406546788347404e+00
-9.555000000000000160e-01 3.136626530994476251e-03 1.021633836020047426e+00
-9.555000000000000160e-01 3.181134038443806256e-03 1.001854180420580054e+00
-9.555000000000000160e-01 2.774806942016663346e-03 1.066261488342376218e+00
-9.555000000000000160e-01 2.406820800801138995e-03 1.038167893896003502e+00
-9.544999999999999041e-01 3.065679015050101763e-03 1.048028581752741939e+00
-9.544999999999999041e-01 3.797478496959307438e-03 1.005471272822942463e+00
-9.544999999999999041e-01 1.745897246692833206e-03 1.006234886246850202e+00
-9.544999999999999041e-01 3.997002252857493991e-03 1.055350624358395439e+00
-9.544999999999999041e-01 3.110965378356191254e-03 1.018566192780782309e+00
-9.544999999999999041e-01 1.904214018708984876e-03 1.016463823122259580e+00
-9.535000000000000142e-01 4.524645580254087716e-03 1.001052774149693958e+00
-9.535000000000000142e-01 2.699301533013083627e-03 1.001704716105270787e+00
-9.535000000000000142e-01 1.705538757083377042e-03 1.264470346011137725e+00
-9.535000000000000142e-01 2.285344390297920202e-03 1.097010874367090549e+00
-9.535000000000000142e-01 2.975909435379112209e-03 1.023049146275093024e+00
-9.524999999999999023e-01 1.441639942390841997e-03 1.261925834167338945e+00
-9.524999999999999023e-01 2.917308319452169112e-03 1.003971696994851781e+00
-9.524999999999999023e-01 2.417755702203130876e-03 1.005517260271261426e+00
-9.524999999999999023e-01 2.663536789523465037e-03 1.006115002278521242e+00
-9.515000000000000124e-01 2.773947511423476616e-03 1.020147476641363404e+00
-9.515000000000000124e-01 2.719743724254820774e-03 1.006539822627850578e+00
-9.515000000000000124e-01 3.726936649292074671e-03 1.030221779552247030e+00
-9.515000000000000124e-01 1.374753812859749822e-03 1.002972097295805831e+00
-9.515000000000000124e-01 1.439447005854102308e-03 1.212121522570249521e+00
-9.504999999999999005e-01 2.563689611757375732e-03 1.020303040751170176e+00
-9.504999999999999005e-01 1.650775680875341293e-03 1.023475702596404302e+00
-9.504999999999999005e-01 1.763607387714090369e-03 1.753508289727214287e+00
-9.504999999999999005e-01 3.273253981263459216e-03 1.072823523905547694e+00
-9.504999999999999005e-01 3.018505427396577217e-03 1.081108577489825695e+00
-9.504999999999999005e-01 2.177620399329487349e-03 1.094276646274888964e+00
-9.504999999999999005e-01 2.201615844695704524e-03 1.001013088088454239e+00
-9.504999999999999005e-01 2.101267016122517362e-03 1.008622528734367751e+00
-9.504999999999999005e-01 2.875179173966044104e-03 1.124908582728813888e+00
-9.495000000000000107e-01 2.316613254981803819e-03 1.055949556223061636e+00
-9.495000000000000107e-01 2.158374308752570182e-03 1.020731723805457181e+00
-9.495000000000000107e-01 2.113892602342251625e-03 1.251273098158092401e+00
-9.495000000000000107e-01 2.086102665837099267e-03 1.022966377328992982e+00
-9.495000000000000107e-01 4.279221198142697281e-03 1.072213244493223083e+00
-9.495000000000000107e-01 1.371288350070934284e-03 1.054292571091267394e+00
-9.484999999999998987e-01 1.191647183934735170e-03 1.032648565165619425e+00
-9.484999999999998987e-01 1.818759894876068300e-03 1.018281285283128224e+00
-9.484999999999998987e-01 1.985269773690177472e-03 1.046724766979130417e+00
-9.484999999999998987e-01 2.048233127348012342e-03 1.014355009741597202e+00
-9.484999999999998987e-01 1.728904153114721063e-03 1.182665211136229688e+00
-9.484999999999998987e-01 2.664519635910539679e-03 1.005292540912303245e+00
-9.484999999999998987e-01 3.461674220397333718e-03 1.016322371360319554e+00
-9.475000000000000089e-01 3.260601189868407145e-03 1.002621300283674355e+00
-9.475000000000000089e-01 3.395690348594091346e-03 1.003017155308327579e+00
-9.475000000000000089e-01 3.239921300811479232e-03 1.015265535560838650e+00
-9.475000000000000089e-01 4.064525173240622624e-03 1.006352533252440340e+00
-9.464999999999998970e-01 2.136821061374442974e-03 1.033446348198190590e+00
-9.464999999999998970e-01 1.418281645448530963e-03 1.215177063472282271e+00
-9.464999999999998970e-01 3.638266373884230676e-03 1.045492207078404512e+00
-9.464999999999998970e-01 3.052164263100730877e-03 1.041568001286741207e+00
-9.464999999999998970e-01 2.609949800460012372e-03 1.001407508903973564e+00
-9.464999999999998970e-01 1.864155503825130856e-03 1.092764359713532585e+00
-9.464999999999998970e-01 1.434397439962413739e-03 1.036727531673140135e+00
-9.455000000000000071e-01 3.720567260552956959e-03 1.017152619872592201e+00
-9.455000000000000071e-01 1.896826552575593466e-03 1.050824908136579916e+00
-9.455000000000000071e-01 3.718975236854729638e-03 1.022673989661827543e+00
-9.455000000000000071e-01 2.595626962074627612e-03 1.053423823944676707e+00
-9.455000000000000071e-01 3.421599221519043121e-03 1.010825073298166954e+00
-9.455000000000000071e-01 3.332516415686494551e-03 1.019969915397229032e+00
-9.444999999999998952e-01 1.571803096646402558e-03 1.047746804466078707e+00
-9.444999999999998952e-01 3.516858368369362234e-03 1.065435419741742384e+00
-9.444999999999998952e-01 2.348006606573597044e-03 1.030736610525767372e+00
-9.444999999999998952e-01 3.184665195710248073e-03 1.008181521106033207e+00
-9.444999999999998952e-01 2.698857463568796015e-03 1.021549514528679037e+00
-9.444999999999998952e-01 2.577329003077982478e-03 1.008827130336668487e+00
-9.435000000000000053e-01 3.245832358351883901e-03 1.069778378676965236e+00
-9.435000000000000053e-01 1.459718688977898644e-03 1.009362975191413936e+00
-9.435000000000000053e-01 2.601547673430103409e-03 1.039943131590861602e+00
-9.435000000000000053e-01 2.090460954983617940e-03 1.035754784667771933e+00
-9.424999999999998934e-01 3.950377084560104286e-03 1.001517578009210485e+00
-9.424999999999998934e-01 4.728900815958362799e-03 1.002843151654352560e+00
-9.424999999999998934e-01 2.093839494655655963e-03 1.033529009714714064e+00
-9.424999999999998934e-01 2.877362324632439915e-03 1.003155792753920084e+00
-9.424999999999998934e-01 2.734338733758051934e-03 1.036792621218202148e+00
-9.415000000000000036e-01 1.778243771472300637e-03 1.173394410909532892e+00
-9.415000000000000036e-01 4.110871157514059404e-03 1.003037916037019306e+00
-9.415000000000000036e-01 3.264194827898568053e-03 1.012054817067312928e+00
-9.415000000000000036e-01 2.649281677619627802e-03 1.085850516936809784e+00
-9.415000000000000036e-01 1.090807467588273284e-03 1.067793789877885091e+00
-9.415000000000000036e-01 1.601870127439109859e-03 1.003358582783578923e+00
-9.415000000000000036e-01 2.479810512816125329e-03 1.022827843274733528e+00
-9.404999999999998916e-01 2.311488656365461979e-03 1.006182866186990266e+00
-9.404999999999998916e-01 3.308260246052247520e-03 1.030141512062096920e+00
-9.404999999999998916e-01 3.012063019073524597e-03 1.017502505016381509e+00
-9.404999999999998916e-01 3.973600217781417775e-03 1.024508950455198297e+00
-9.404999999999998916e-01 2.910615769552436609e-03 1.004093866914521849e+00
-9.404999999999998916e-01 3.165594697286088118e-03 1.060164352885054173e+00
-9.404999999999998916e-01 3.313684426472129647e-03 1.003988811267174430e+00
-9.395000000000000018e-01 1.780377077764047026e-03 1.053578059558974989e+00
-9.395000000000000018e-01 1.350900833684261096e-03 1.026693030349231872e+00
-9.395000000000000018e-01 2.060424747744603585e-03 1.008312649162711239e+00
-9.395000000000000018e-01 2.959862344494898490e-03 1.021038226843030250e+00
-9.395000000000000018e-01 1.385445789656366026e-03 1.191466130838921389e+00
-9.395000000000000018e-01 3.576696472565151809e-03 1.032416632638410547e+00
-9.395000000000000018e-01 1.224669058894364056e-03 1.251234280214556849e+00
-9.395000000000000018e-01 2.826917244682782687e-03 1.005066811237670388e+00
-9.395000000000000018e-01 1.889443384748983740e-03 1.001647699781645695e+00
-9.384999999999998899e-01 3.410082204152632777e-03 1.026368522984795861e+00
-9.384999999999998899e-01 2.268228764985369926e-03 1.013518869948668577e+00
-9.384999999999998899e-01 1.707466099513746567e-03 1.215607568037117669e+00
-9.384999999999998899e-01 1.882044726657778038e-03 1.065801740990021562e+00
-9.384999999999998899e-01 3.714957663800778302e-03 1.009313452311287662e+00
-9.384999999999998899e-01 3.479714432079984276e-03 1.014436658288979443e+00
-9.384999999999998899e-01 2.355536349701423723e-03 1.058625770687620538e+00
-9.384999999999998899e-01 2.903330597013089546e-03 1.045057698283516023e+00
-9.384999999999998899e-01 1.116237542542540366e-03 1.040014750417583844e+00
-9.384999999999998899e-01 1.795348994031921008e-03 1.496104216110818008e+00
-9.375000000000000000e-01 2.400692399647532359e-03 1.225984078122512422e+00
-9.375000000000000000e-01 2.488444136766286476e-03 1.043667709872643234e+00
-9.375000000000000000e-01 3.987296123311306895e-03 1.020479658601828543e+00
-9.375000000000000000e-01 2.085751801821068147e-03 1.036577373252175249e+00
-9.375000000000000000e-01 3.139937119995806457e-03 1.000586951925204193e+00
-9.375000000000000000e-01 2.783136585713312343e-03 1.006482516040457353e+00
-9.375000000000000000e-01 1.205446017073426431e-03 1.018687216743078716e+00
-9.375000000000000000e-01 4.117370311657974138e-03 1.024632585682110131e+00
-9.375000000000000000e-01 2.250916956224411659e-03 1.004083973292706711e+00
-9.375000000000000000e-01 2.830545386106840360e-03 1.057461420447023182e+00
-9.375000000000000000e-01 2.532551939168226334e-03 1.097440927723732917e+00
-9.364999999999998881e-01 2.289530010746576930e-03 1.135883617594700246e+00
-9.364999999999998881e-01 2.060466990949762298e-03 1.024542458467401218e+00
-9.364999999999998881e-01 2.026728704410988950e-03 1.032643013159172396e+00
-9.364999999999998881e-01 2.826025345967202607e-03 1.020010789656441208e+00
-9.364999999999998881e-01 4.103944871221005923e-03 1.188328463381595146e+00
-9.364999999999998881e-01 3.104652848006921474e-03 1.005437556391646226e+00
-9.364999999999998881e-01 1.133032775474588152e-03 1.236831712892316082e+00
-9.364999999999998881e-01 2.967754475517576668e-03 1.009865821465182112e+00
-9.364999999999998881e-01 3.678197064755137687e-03 1.000474089475222206e+00
-9.364999999999998881e-01 2.612961421722478136e-03 1.031446954827877516e+00
-9.364999999999998881e-01 2.520569109215668041e-03 1.392562829377330447e+00
-9.364999999999998881e-01 1.860856728439694774e-03 1.001402958100166440e+00
-9.364999999999998881e-01 2.232182533342969705e-03 1.114164490666858409e+00
-9.354999999999999982e-01 2.313704991179834584e-03 1.047691396927472818e+00
-9.354999999999999982e-01 1.881378298291983301e-03 1.003456138869564196e+00
-9.354999999999999982e-01 2.641794020422280880e-03 1.023712868667507436e+00
-9.344999999999998863e-01 1.878616087620269383e-03 1.040697331019475813e+00
-9.344999999999998863e-01 2.236557559597663909e-03 1.743521919774690954e+00
-9.344999999999998863e-01 1.231184919761828950e-03 1.311493200100106060e+00
-9.344999999999998863e-01 1.103152256590357724e-03 1.098975067178509901e+00
-9.344999999999998863e-01 1.759203023394420497e-03 1.101666965444431101e+00
-9.344999999999998863e-01 1.403703165724828244e-03 1.025095328256286020e+00
-9.344999999999998863e-01 1.659687926232585606e-03 1.032055422994883065e+00
-9.344999999999998863e-01 4.129221225570749339e-03 1.004757361366569013e+00
-9.334999999999999964e-01 1.397256534387978895e-03 1.042569825599737543e+00
-9.334999999999999964e-01 3.437558772621296648e-03 1.005777773374696205e+00
-9.334999999999999964e-01 1.698983523325890916e-03 1.409491288900158068e+00
-9.334999999999999964e-01 2.097983149357500205e-03 1.040648311851940511e+00
-9.334999999999999964e-01 2.781411564476512967e-03 1.073370772255497707e+00
-9.334999999999999964e-01 2.708280568242480389e-03 1.007533968219241016e+00
-9.334999999999999964e-01 1.175761530287601367e-03 1.158273888406656793e+00
-9.324999999999998845e-01 2.337930380364015241e-03 1.189161280857772729e+00
-9.324999999999998845e-01 2.578299380549417975e-03 1.003064538430790353e+00
-9.324999999999998845e-01 2.499401523505080918e-03 1.041817503187564498e+00
-9.324999999999998845e-01 2.942732378570877758e-03 1.029562596801086638e+00
-9.324999999999998845e-01 1.841580462745092458e-03 1.062301089141804322e+00
-9.314999999999999947e-01 1.649199715535281481e-03 1.004309974787704451e+00
-9.314999999999999947e-01 1.633336481700975971e-03 1.017604937652330399e+00
-9.314999999999999947e-01 2.384458228621253763e-03 1.032972623107201171e+00
-9.314999999999999947e-01 2.841694543854296744e-03 1.022986304112046607e+00
-9.314999999999999947e-01 1.865542382903095714e-03 1.044807197110984243e+00
-9.314999999999999947e-01 2.677602380813358992e-03 1.122413009774955839e+00
-9.314999999999999947e-01 4.100281404044316125e-03 1.011119723831179096e+00
-9.304999999999998828e-01 2.772501997977447775e-03 1.001193958878153101e+00
-9.304999999999998828e-01 2.752811690996615802e-03 1.024549475114598485e+00
-9.304999999999998828e-01 3.744770862240438467e-03 1.001926104305176812e+00
-9.304999999999998828e-01 1.935592710667216566e-03 1.106735010300035960e+00
-9.304999999999998828e-01 3.707719671114796493e-03 1.003226701216619832e+00
-9.304999999999998828e-01 1.553719462443161952e-03 1.050273880442594399e+00
-9.304999999999998828e-01 1.576010185985107608e-03 1.054425307486442476e+00
-9.304999999999998828e-01 4.229333693434650897e-03 1.001490335834594125e+00
-9.294999999999999929e-01 2.928094313160030035e-03 1.034316009009054182e+00
-9.294999999999999929e-01 1.449312308051353649e-03 1.294318451010994409e+00
-9.294999999999999929e-01 4.307814470965627696e-03 1.021863939920401254e+00
-9.294999999999999929e-01 1.642521971419602395e-03 1.250270884258173565e+00
-9.294999999999999929e-01 1.333510606267114193e-03 -1.274371538303114448e+00
-9.294999999999999929e-01 1.777384234128079679e-03 1.033801531447683608e+00
-9.294999999999999929e-01 2.032467681995166978e-03 1.041957948679069768e+00
-9.294999999999999929e-01 2.276779891928978634e-03 1.028442401960208530e+00
-9.284999999999998810e-01 2.293373340299068898e-03 1.053711142382240507e+00
-9.284999999999998810e-01 2.951185649512207305e-03 1.027074726737833510e+00
-9.284999999999998810e-01 2.675500325597204940e-03 1.045933236911001929e+00
-9.274999999999999911e-01 3.276539349055293971e-03 1.031148292205992245e+00
-9.274999999999999911e-01 3.295697688579227267e-03 1.019497388361354728e+00
-9.274999999999999911e-01 3.134407688809233688e-03 1.009585720385147489e+00
-9.274999999999999911e-01 1.733436966310853257e-03 1.021100110580847931e+00
-9.274999999999999911e-01 2.235580640525170696e-03 1.018338513937139700e+00
-9.274999999999999911e-01 3.271618814984587204e-03 1.003838582906323662e+00
-9.274999999999999911e-01 2.117447920036104759e-03 1.003590625325577301e+00
-9.264999999999998792e-01 2.176165946732912856e-03 1.038000584162278805e+00
-9.264999999999998792e-01 2.902663356493737079e-03 1.042578818793706175e+00
-9.264999999999998792e-01 2.866980894298735202e-03 1.006956446862204091e+00
-9.264999999999998792e-01 1.936525220189487875e-03 1.024320040229788065e+00
-9.264999999999998792e-01 1.762807410326358744e-03 1.139316204117538645e+00
-9.264999999999998792e-01 2.107017944933516941e-03 1.016200127671331277e+00
-9.254999999999999893e-01 3.038563815634651166e-03 1.030049433886549792e+00
-9.254999999999999893e-01 2.362698106925217693e-03 1.003818042785359799e+00
-9.254999999999999893e-01 1.082084788087712360e-03 6.541048666007979406e+00
-9.254999999999999893e-01 2.419921621198745879e-03 1.065797411617256829e+00
-9.254999999999999893e-01 3.700179125314546121e-03 1.012502346023257838e+00
-9.254999999999999893e-01 3.045986736329863061e-03 1.058852661498754122e+00
-9.254999999999999893e-01 2.995563332443843419e-03 1.058865208814497638e+00
-9.244999999999998774e-01 3.058842945799201095e-03 1.099371009839034352e+00
-9.244999999999998774e-01 1.249174422755247073e-03 1.058722384688570939e+00
-9.244999999999998774e-01 2.467312083492892438e-03 1.690492701227457095e+00
-9.244999999999998774e-01 1.392097898310815833e-03 -3.063933018998970415e+00
-9.244999999999998774e-01 2.380990441753381200e-03 1.016773362554641347e+00
-9.244999999999998774e-01 2.364513022184423080e-03 1.021265406656911567e+00
-9.244999999999998774e-01 2.629447910656413159e-03 1.092473103486299335e+00
-9.244999999999998774e-01 2.109790402710365765e-03 1.000682090574301908e+00
-9.244999999999998774e-01 2.426060842874215150e-03 1.043282624968195238e+00
-9.244999999999998774e-01 1.209856547232517803e-03 1.114372036193614468e+00
-9.244999999999998774e-01 1.027110084776340160e-03 1.374119942009019102e+00
-9.244999999999998774e-01 1.247050478957251445e-03 1.037701509475250861e+00
-9.234999999999999876e-01 3.515028301039085055e-03 1.086861505968321984e+00
-9.234999999999999876e-01 2.953249495209372445e-03 1.003375357667228185e+00
-9.234999999999999876e-01 1.695169624157484220e-03 1.220084824272579471e+00
-9.234999999999999876e-01 2.303432606722375254e-03 1.005057112214290393e+00
-9.234999999999999876e-01 3.177740203698939739e-03 1.030690910610723598e+00
-9.234999999999999876e-01 1.838819986449575670e-03 1.020816759766233872e+00
-9.234999999999999876e-01 3.913445294759414564e-03 1.023084064516605940e+00
-9.234999999999999876e-01 1.664831530081881681e-03 1.091437354325832887e+00
-9.234999999999999876e-01 2.163032704792005635e-03 1.034103411189009725e+00
-9.234999999999999876e-01 2.094166186711924303e-03 1.102953853154865715e+00
-9.224999999999998757e-01 1.214779806421082287e-03 1.013280946345769484e+00
-9.224999999999998757e-01 1.664077441099063442e-03 1.029980540896158647e+00
-9.224999999999998757e-01 1.930906403031544365e-03 1.191167050731829047e+00
-9.224999999999998757e-01 3.380749053337552858e-03 1.089072287833689590e+00
-9.224999999999998757e-01 1.942967670218624177e-03 1.173210834443508821e+00
-9.224999999999998757e-01 4.234531794821848674e-03 1.002442134716535538e+00
-9.224999999999998757e-01 2.609840550688977048e-03 1.009982406456967130e+00
-9.224999999999998757e-01 3.034932377288352637e-03 1.016901296503774921e+00
-9.224999999999998757e-01 2.592019714475379561e-03 1.004075987729136532e+00
-9.224999999999998757e-01 1.665097840305580475e-03 1.072246040590996374e+00
-9.214999999999999858e-01 2.758895214859972619e-03 1.004081110981536185e+00
-9.214999999999999858e-01 3.411091812434399913e-03 1.013492294074188171e+00
-9.214999999999999858e-01 1.274124086749693760e-03 1.083846437718615441e+00
-9.214999999999999858e-01 3.687588113488468947e-03 1.065123308415919512e+00
-9.214999999999999858e-01 2.861839506829082745e-03 1.014948733694840177e+00
-9.214999999999999858e-01 2.556535482213858224e-03 1.171558293467412692e+00
-9.214999999999999858e-01 2.465509462494166072e-03 1.013053808371971787e+00
-9.214999999999999858e-01 2.868757679337338978e-03 1.038178064407081047e+00
-9.204999999999998739e-01 1.990583315574350701e-03 1.035923820994491207e+00
-9.204999999999998739e-01 3.618953899322588461e-03 1.000725619015218504e+00
-9.204999999999998739e-01 2.494091281463483960e-03 1.008467176488021533e+00
-9.204999999999998739e-01 2.846962441532264500e-03 1.027450333898252577e+00
-9.204999999999998739e-01 1.707318792966009899e-03 1.002638092139427561e+00
-9.204999999999998739e-01 3.167895741351314971e-03 1.000930385043611093e+00
-9.204999999999998739e-01 4.250662583125381852e-03 1.011717060942640911e+00
-9.194999999999999840e-01 2.491511606534959917e-03 1.066401731353986859e+00
-9.194999999999999840e-01 1.217482186498974883e-03 1.031053156275652638e+00
-9.194999999999999840e-01 2.510498248569758423e-03 1.020475693951825136e+00
-9.194999999999999840e-01 2.400919501056416900e-03 1.018924388274997650e+00
-9.194999999999999840e-01 2.048441000314338636e-03 1.156656130159793072e+00
-9.194999999999999840e-01 2.415330449304246840e-03 1.027567145073164490e+00
-9.194999999999999840e-01 2.396691238874535442e-03 1.000835359885340115e+00
-9.184999999999998721e-01 2.851416825114951904e-03 1.004877667915858197e+00
-9.184999999999998721e-01 2.802584848568087650e-03 1.016786416985858033e+00
-9.184999999999998721e-01 1.338681701244127638e-03 1.039311691146894923e+00
-9.184999999999998721e-01 3.413612674844254159e-03 1.005149897818631288e+00
-9.184999999999998721e-01 3.264343036164542560e-03 1.007310579214670598e+00
-9.184999999999998721e-01 3.323496379783089962e-03 1.023181412491743991e+00
-9.184999999999998721e-01 2.287889587787011320e-03 1.040883181107988831e+00
-9.184999999999998721e-01 2.736599193502242591e-03 1.041586966255427571e+00
-9.184999999999998721e-01 2.688010450814592913e-03 1.003281519228265806e+00
-9.184999999999998721e-01 3.275417609662281248e-03 1.050653136524134723e+00
-9.184999999999998721e-01 2.405685785272044727e-03 1.043731752913280131e+00
-9.174999999999999822e-01 3.285552611483057942e-03 1.002592868225219425e+00
-9.174999999999999822e-01 1.853142598183542961e-03 1.064509692299533405e+00
-9.174999999999999822e-01 3.340729445232680332e-03 1.047119352848288498e+00
-9.174999999999999822e-01 1.993092136776549415e-03 1.017099536214649769e+00
-9.174999999999999822e-01 1.975625547977862256e-03 1.036871368489128420e+00
-9.174999999999999822e-01 2.785128633353275204e-03 1.002035977948079415e+00
-9.164999999999998703e-01 3.405665104922368531e-03 1.002455202933206113e+00
-9.164999999999998703e-01 2.542507607689878726e-03 1.008917654320734769e+00
-9.164999999999998703e-01 1.418244633372918928e-03 1.004491167513587024e+00
-9.164999999999998703e-01 2.694686767214102968e-03 1.009855419773602714e+00
-9.164999999999998703e-01 1.737040489554033621e-03 3.671760763653491910e+00
-9.154999999999999805e-01 2.724202480036986944e-03 1.014826780850603738e+00
-9.154999999999999805e-01 1.531008010807295315e-03 1.099189939092018342e+00
-9.154999999999999805e-01 3.235451614072984601e-03 1.079537106512817202e+00
-9.154999999999999805e-01 2.277104927380221508e-03 1.016930328846445297e+00
-9.154999999999999805e-01 3.597489505853384943e-03 1.017689225559794464e+00
-9.154999999999999805e-01 1.658919467530480495e-03 1.005028697621695555e+00
-9.144999999999998685e-01 1.903744414910541654e-03 1.021451210431141066e+00
-9.144999999999998685e-01 2.408968033692722270e-03 1.003295464869552012e+00
-9.144999999999998685e-01 3.277963481275356430e-03 1.041666835040799377e+00
-9.144999999999998685e-01 2.215649941536129534e-03 1.011565972744366437e+00
-9.144999999999998685e-01 1.020368737469409771e-03 1.035494257962883413e+00
-9.144999999999998685e-01 2.660803316676283933e-03 1.105487361282329495e+00
-9.144999999999998685e-01 3.325313350539787181e-03 1.000167636240606228e+00
-9.144999999999998685e-01 2.161221897390839218e-03 1.001099078587716740e+00
-9.144999999999998685e-01 1.343856575979998549e-03 1.111443043094971106e+00
-9.134999999999999787e-01 1.988822773567633026e-03 1.020367048219379846e+00
-9.134999999999999787e-01 2.934959381180446154e-03 1.006153105804096448e+00
-9.134999999999999787e-01 1.854177779939276613e-03 1.076317032027147569e+00
-9.134999999999999787e-01 1.318817609517315866e-03 1.001296671093520274e+00
-9.134999999999999787e-01 2.724817356139152061e-03 1.075142636178689548e+00
-9.134999999999999787e-01 2.063193899015304100e-03 1.040843886361605630e+00
-9.134999999999999787e-01 2.884608280282146761e-03 1.054609917716960998e+00
-9.134999999999999787e-01 1.743049421651822169e-03 1.013278259165929729e+00
-9.134999999999999787e-01 2.177795894420465374e-03 1.056348490669246853e+00
-9.134999999999999787e-01 2.925371323448450276e-03 1.003508589337827717e+00
-9.124999999999998668e-01 2.810112403864664828e-03 1.009180736469416750e+00
-9.124999999999998668e-01 3.488945572924869679e-03 1.012998629305995379e+00
-9.124999999999998668e-01 3.550038616385962822e-03 1.000074732707492364e+00
-9.124999999999998668e-01 1.138086163462045291e-03 1.042040685974939818e+00
-9.124999999999998668e-01 3.648617141494264922e-03 1.000060782081668043e+00
-9.124999999999998668e-01 1.806094707268495565e-03 1.261654232885488280e+00
-9.114999999999999769e-01 3.534375409308020827e-03 1.009247259861284274e+00
-9.114999999999999769e-01 2.757820605685846332e-03 1.012374369015964337e+00
-9.114999999999999769e-01 3.090722245908662964e-03 1.041883221695887540e+00
-9.114999999999999769e-01 3.004417145131194934e-03 1.009752400421204843e+00
-9.114999999999999769e-01 4.086703057179644390e-03 1.004206332516859534e+00
-9.114999999999999769e-01 2.171840324074637320e-03 1.162964669995416145e+00
-9.114999999999999769e-01 3.205464940487530185e-03 1.005795299273138932e+00
-9.114999999999999769e-01 2.037330949728798600e-03 1.023938911172807886e+00
-9.114999999999999769e-01 4.568181264378544382e-03 1.001543947217112374e+00
-9.104999999999998650e-01 3.532254337198153810e-03 1.036080712790041769e+00
-9.104999999999998650e-01 2.700654326463015290e-03 1.022869073552220343e+00
-9.104999999999998650e-01 3.087912955971516740e-03 1.016827455805273006e+00
-9.104999999999998650e-01 2.643010633568021722e-03 1.008896852661987698e+00
-9.104999999999998650e-01 1.769454714023039645e-03 1.088225012742341180e+00
-9.094999999999999751e-01 1.302307185585316806e-03 1.093597445846641758e+00
-9.094999999999999751e-01 1.328810654523477014e-03 1.240249816300078134e+00
-9.094999999999999751e-01 1.880143457726770467e-03 1.065371861016180643e+00
-9.094999999999999751e-01 2.234681526352251361e-03 1.019579519507416432e+00
-9.094999999999999751e-01 1.419215404487986004e-03 1.018813896860483625e+00
-9.094999999999999751e-01 2.307536491003603883e-03 1.040356496152274879e+00
-9.094999999999999751e-01 2.062424046992499937e-03 1.011105667639492056e+00
-9.094999999999999751e-01 2.247103257059054025e-03 1.033070919925893394e+00
-9.094999999999999751e-01 1.993408606752977621e-03 1.014272387147917120e+00
-9.094999999999999751e-01 3.015696380386678754e-03 1.027468081217815632e+00
-9.094999999999999751e-01 3.030675591445429994e-03 1.002711777192366593e+00
-9.094999999999999751e-01 1.530766292813468162e-03 1.027152537404004251e+00
-9.094999999999999751e-01 2.255516731153596813e-03 1.104726235242361687e+00
-9.094999999999999751e-01 2.817627364753935021e-03 1.059923083527527288e+00
-9.094999999999999751e-01 2.352015066801241457e-03 1.051998053603723671e+00
-9.094999999999999751e-01 2.032296236785767918e-03 1.034478034244010303e+00
-9.094999999999999751e-01 2.356494369148497570e-03 1.065960248334111959e+00
-9.084999999999998632e-01 2.481486577800025902e-03 1.076837212338058514e+00
-9.084999999999998632e-01 2.704530118942195197e-03 1.020083539876526668e+00
-9.084999999999998632e-01 1.381919190226998115e-03 1.159198107391027133e+00
-9.084999999999998632e-01 3.189664415235091144e-03 1.279062724320885858e+00
-9.084999999999998632e-01 3.055898663559457416e-03 1.001048674469475763e+00
-9.084999999999998632e-01 3.427255190722689523e-03 1.006072811494880703e+00
-9.084999999999998632e-01 2.174375407332433067e-03 1.065646140563501598e+00
-9.074999999999999734e-01 1.530524369260032828e-03 1.170640092335115234e+00
-9.074999999999999734e-01 3.847802982562355690e-03 1.006477649757273163e+00
-9.074999999999999734e-01 3.381044998816006616e-03 1.001164499294771915e+00
-9.074999999999999734e-01 3.996036584230842209e-03 1.013175524676081629e+00
-9.074999999999999734e-01 2.204360845850827141e-03 1.013517578414057096e+00
-9.074999999999999734e-01 1.626858866380728784e-03 1.128932932910116760e+00
-9.074999999999999734e-01 1.742693665318784026e-03 1.129453510634736979e+00
-9.074999999999999734e-01 3.437901920826868032e-03 1.018785364569285257e+00
-9.074999999999999734e-01 3.610983793665077570e-03 1.020086315423250900e+00
-9.074999999999999734e-01 1.024831097638701730e-03 1.199991119643936566e+00
-9.074999999999999734e-01 2.917677900233002757e-03 1.090993301605199362e+00
-9.074999999999999734e-01 2.977441576050170614e-03 1.038394486420477714e+00
-9.074999999999999734e-01 1.955864354434772630e-03 1.078339976827226820e+00
-9.074999999999999734e-01 1.825427656318061873e-03 1.300516878354981865e+00
-9.064999999999998614e-01 3.497778014101695504e-03 1.052790173936574369e+00
-9.064999999999998614e-01 3.055213584282809400e-03 1.003136117359608948e+00
-9.064999999999998614e-01 2.482838655853094722e-03 1.124399732487340264e+00
-9.064999999999998614e-01 1.034822138842017656e-03 1.120679960178680989e+00
-9.064999999999998614e-01 1.036054109342227775e-03 4.169960550887352291e+00
-9.064999999999998614e-01 2.811725436256733157e-03 1.003148840817496446e+00
-9.064999999999998614e-01 3.147213520761494090e-03 1.005978008483527475e+00
-9.064999999999998614e-01 2.874506158427854799e-03 1.004175235226272722e+00
-9.064999999999998614e-01 2.796503740508698294e-03 1.058586615989043134e+00
-9.064999999999998614e-01 3.110796089703285472e-03 1.054077118844110039e+00
-9.064999999999998614e-01 2.764699675277844295e-03 1.029647946913405443e+00
-9.054999999999999716e-01 2.769764373005324191e-03 1.117817023707105673e+00
-9.054999999999999716e-01 2.841251831219147265e-03 1.000839168272794621e+00
-9.054999999999999716e-01 2.534026071822794227e-03 1.025806617250198283e+00
-9.054999999999999716e-01 2.412688786919108940e-03 1.064989643470638292e+00
-9.054999999999999716e-01 3.066482689665910467e-03 1.004452234178290437e+00
-9.054999999999999716e-01 1.052766624732611464e-03 1.142517826228762745e+00
-9.054999999999999716e-01 2.547771682057930424e-03 1.014668905497360551e+00
-9.044999999999998597e-01 2.210790537648711813e-03 1.547424400883048223e+00
-9.044999999999998597e-01 2.533218603739361731e-03 1.128968500098068040e+00
-9.044999999999998597e-01 2.682965197322638093e-03 1.016936746839337546e+00
-9.044999999999998597e-01 1.036389162466917063e-03 -1.729387924661125453e+00
-9.044999999999998597e-01 2.718954016512811940e-03 1.013126367261288685e+00
-9.044999999999998597e-01 3.001678194282008261e-03 1.017560867247717660e+00
-9.044999999999998597e-01 2.696398717551259320e-03 1.026886089551672265e+00
-9.044999999999998597e-01 2.111519030498035590e-03 1.025676767956686275e+00
-9.044999999999998597e-01 2.141721581075187175e-03 1.009366649526214577e+00
-9.044999999999998597e-01 3.603528703089202249e-03 1.020620396893232806e+00
-9.044999999999998597e-01 2.893154216642527046e-03 1.012957985051889054e+00
-9.044999999999998597e-01 1.270119912899996591e-03 1.345060136987420885e+00
-9.044999999999998597e-01 2.305604098828689316e-03 1.082250232111713339e+00
-9.044999999999998597e-01 1.663507158852945821e-03 1.008852134308443560e+00
-9.044999999999998597e-01 3.670534822230310783e-03 1.013767883246172286e+00
-9.034999999999999698e-01 3.244177290079970025e-03 1.020671796544085685e+00
-9.034999999999999698e-01 2.625796488862192600e-03 1.005183606560021481e+00
-9.034999999999999698e-01 2.674962786163878267e-03 1.064723868760414360e+00
-9.034999999999999698e-01 2.956122203551044773e-03 1.166326608895671635e+00
-9.034999999999999698e-01 1.967435773551556594e-03 1.088899765445432211e+00
-9.034999999999999698e-01 2.359423239935807149e-03 1.043107952157396268e+00
-9.034999999999999698e-01 2.476330639878402112e-03 1.000883944536168357e+00
-9.024999999999998579e-01 2.422360361686092672e-03 1.254968778779153027e+00
-9.024999999999998579e-01 3.456638331566184389e-03 1.034299690818879291e+00
-9.024999999999998579e-01 3.370131240232500727e-03 1.004739438656289119e+00
-9.024999999999998579e-01 1.135548001691512711e-03 1.683427376093708405e+00
-9.024999999999998579e-01 1.420064699108282945e-03 1.137035096083649277e+00
-9.024999999999998579e-01 2.051435813501068049e-03 1.036384542279116472e+00
-9.024999999999998579e-01 3.371594686271671762e-03 1.027177142423539857e+00
-9.024999999999998579e-01 1.956147214690211449e-03 1.199250833205887767e+00
-9.014999999999999680e-01 2.649937998075667031e-03 1.012491140207692153e+00
-9.014999999999999680e-01 2.319265232224853538e-03 1.010055544563833285e+00
-9.014999999999999680e-01 1.402726747607519050e-03 1.113070901088436093e+00
-9.014999999999999680e-01 2.746064436800231719e-03 1.003706048380205607e+00
-9.004999999999998561e-01 2.159003981085263427e-03 1.012895866834106817e+00
-9.004999999999998561e-01 2.003434225266964921e-03 1.012205280249323991e+00
-9.004999999999998561e-01 2.492449538313318280e-03 1.047474949242775288e+00
-9.004999999999998561e-01 2.492143379395305152e-03 1.019929962782276878e+00
-9.004999999999998561e-01 3.885444906201595584e-03 1.000970805289316035e+00
-9.004999999999998561e-01 3.935991936443400917e-03 1.001480739130833575e+00
-8.994999999999999662e-01 3.891530303029717454e-03 1.001310393520970621e+00
-8.994999999999999662e-01 2.959668092653017137e-03 1.025562541587951015e+00
-8.994999999999999662e-01 1.939785091388488217e-03 1.096271114971918426e+00
-8.994999999999999662e-01 2.207392992468666573e-03 1.100596085460517459e+00
-8.994999999999999662e-01 2.441696079119324517e-03 1.084045465030321953e+00
-8.994999999999999662e-01 2.359659058710988390e-03 1.005846159719466115e+00
-8.994999999999999662e-01 2.840132031706832892e-03 1.038677939107247816e+00
-8.994999999999999662e-01 1.902001161112431291e-03 1.152037484453938276e+00
-8.984999999999998543e-01 1.890262890546967741e-03 1.112232712847115224e+00
-8.984999999999998543e-01 1.467174794679173503e-03 1.107107440751019745e+00
-8.984999999999998543e-01 1.505049047867312167e-03 1.084662686129146847e+00
-8.984999999999998543e-01 2.069042988563526714e-03 1.063235543277767370e+00
-8.984999999999998543e-01 2.495788143270584285e-03 1.058331313444137223e+00
-8.984999999999998543e-01 2.070939272790486754e-03 1.000163425641171999e+00
-8.984999999999998543e-01 3.295162968121348197e-03 1.038513354272327938e+00
-8.974999999999999645e-01 2.098484045341113095e-03 1.010071551735090445e+00
-8.974999999999999645e-01 2.658292825411975781e-03 1.184911997998346234e+00
-8.974999999999999645e-01 1.421666741266065272e-03 1.191745192828777888e+00
-8.974999999999999645e-01 4.094974767501609499e-03 1.009339665283704779e+00
-8.964999999999998526e-01 1.178654988658883827e-03 1.296394371349503638e+00
-8.964999999999998526e-01 2.345736464362909845e-03 1.000062793920442505e+00
-8.964999999999998526e-01 3.430778484735949509e-03 1.029554567917435604e+00
-8.964999999999998526e-01 1.890576004797028592e-03 1.089392095799503135e+00
-8.964999999999998526e-01 1.823845947485519016e-03 1.011699700891782294e+00
-8.964999999999998526e-01 2.982736066237792749e-03 1.025391085506744515e+00
-8.964999999999998526e-01 3.344890703614670537e-03 1.033703465068786631e+00
-8.964999999999998526e-01 1.524465584615153618e-03 1.099166424609472337e+00
-8.964999999999998526e-01 2.559297820883795274e-03 1.148555717032308188e+00
-8.964999999999998526e-01 2.271058277861714818e-03 1.017146154445356387e+00
-8.964999999999998526e-01 1.992984970599796443e-03 1.082229122491467299e+00
-8.954999999999999627e-01 1.925172507365920061e-03 1.141574685015003032e+00
-8.954999999999999627e-01 3.567616196887309857e-03 1.019550925854586287e+00
-8.954999999999999627e-01 3.404555134920078663e-03 1.018534659948449939e+00
-8.954999999999999627e-01 2.238108484086308303e-03 1.078306395562512732e+00
-8.954999999999999627e-01 2.229769716229193077e-03 1.063673447299285701e+00
-8.954999999999999627e-01 2.945072467023481487e-03 1.004479577497293663e+00
-8.944999999999998508e-01 3.373926548148417897e-03 1.006483234238803481e+00
-8.944999999999998508e-01 2.891115508190654580e-03 1.008539905964117134e+00
-8.944999999999998508e-01 3.551940908500101496e-03 1.013671556318694433e+00
-8.944999999999998508e-01 2.571822339817387421e-03 1.005775795947561502e+00
-8.944999999999998508e-01 2.332827466296582501e-03 1.042511848601325175e+00
-8.944999999999998508e-01 1.823802580412939517e-03 1.049111572397415593e+00
-8.944999999999998508e-01 1.924086734259245618e-03 1.094608828312674031e+00
-8.944999999999998508e-01 1.993837367423615444e-03 1.908656043624150644e+00
-8.944999999999998508e-01 3.168468635521375781e-03 1.016453276602396816e+00
-8.944999999999998508e-01 3.763139336881974988e-03 1.011172104560991158e+00
-8.934999999999999609e-01 2.411684450674213102e-03 1.129893961480945341e+00
-8.934999999999999609e-01 1.254359650174377691e-03 1.026158821192644011e+00
-8.934999999999999609e-01 2.357049047423686022e-03 1.006186213501950366e+00
-8.934999999999999609e-01 3.135257293917709416e-03 1.007912767291272438e+00
-8.934999999999999609e-01 3.486007014959356404e-03 1.002489146520049834e+00
-8.924999999999998490e-01 4.194736482153264487e-03 1.001184813747202140e+00
-8.924999999999998490e-01 2.319888575673799847e-03 1.145271833294793096e+00
-8.924999999999998490e-01 2.971081637159541690e-03 1.008774521276476266e+00
-8.924999999999998490e-01 1.983252502518420123e-03 1.002019428409424595e+00
-8.924999999999998490e-01 1.266189944092921274e-03 1.119593610057814326e+00
-8.924999999999998490e-01 1.875011671216068833e-03 1.008255169599445944e+00
-8.924999999999998490e-01 3.135458778748368130e-03 1.001506429149056077e+00
-8.924999999999998490e-01 2.731722329028062404e-03 1.010224931820753458e+00
-8.914999999999999591e-01 1.613746002434413669e-03 1.019639258312916574e+00
-8.914999999999999591e-01 3.243547179874191767e-03 1.004105300415736091e+00
-8.914999999999999591e-01 2.354833594914388338e-03 1.010613991204258655e+00
-8.914999999999999591e-01 1.524409990512711139e-03 1.070660473566811932e+00
-8.914999999999999591e-01 1.784580822796609512e-03 1.006098047344977653e+00
-8.914999999999999591e-01 3.554934627478214832e-03 1.000046951257444805e+00
-8.914999999999999591e-01 1.645151978956105494e-03 1.100262155169990264e+00
-8.904999999999998472e-01 2.197422585145812103e-03 1.061161149836497009e+00
-8.904999999999998472e-01 2.412603671959751006e-03 1.042755653617327027e+00
-8.904999999999998472e-01 2.401879964868888773e-03 1.004537157813191861e+00
-8.904999999999998472e-01 1.419435832696375969e-03 1.072753404231083563e+00
-8.894999999999999574e-01 3.292749413211045004e-03 1.012422583980230106e+00
-8.894999999999999574e-01 2.162551419952050535e-03 1.030556914311921313e+00
-8.894999999999999574e-01 2.653239483519476138e-03 1.078224821412509637e+00
-8.894999999999999574e-01 1.232351434766233884e-03 1.801187044230743384e+00
-8.894999999999999574e-01 1.396551219657051228e-03 1.111718568832865683e+00
-8.894999999999999574e-01 2.322931079592985282e-03 1.054972268312537542e+00
-8.894999999999999574e-01 2.121968271851428205e-03 1.030856859810804327e+00
-8.894999999999999574e-01 1.672121450965664488e-03 1.429183283281844519e+00
-8.884999999999998455e-01 3.181514326053568997e-03 1.000133227298692695e+00
-8.884999999999998455e-01 3.000718436053022992e-03 1.010972316016432115e+00
-8.884999999999998455e-01 3.175417085458308655e-03 1.016370182847754045e+00
-8.884999999999998455e-01 3.247560470965016582e-03 1.002003749005608624e+00
-8.884999999999998455e-01 2.752966936022950475e-03 1.005968132812691263e+00
-8.884999999999998455e-01 1.442652845121841646e-03 1.058156151108606169e+00
-8.874999999999999556e-01 3.128992542983829485e-03 1.075360593730041447e+00
-8.874999999999999556e-01 3.142961207793544629e-03 1.035196364227442434e+00
-8.874999999999999556e-01 3.642924602460281391e-03 1.001578419503163619e+00
-8.874999999999999556e-01 1.707923591771953352e-03 1.019087226700970961e+00
-8.874999999999999556e-01 2.305817740052902142e-03 1.001275463336417593e+00
-8.864999999999998437e-01 3.498981659301339617e-03 1.003193594921855558e+00
-8.864999999999998437e-01 3.015018986790262735e-03 1.052941380079391420e+00
-8.864999999999998437e-01 2.233913896376794102e-03 1.003523929571358497e+00
-8.864999999999998437e-01 3.002765093535004082e-03 1.037755157463665201e+00
-8.864999999999998437e-01 3.679557716144934119e-03 1.004728075555227695e+00
-8.864999999999998437e-01 2.800074864660336438e-03 1.011131546205753962e+00
-8.864999999999998437e-01 2.840445536568529661e-03 1.010916069621165203e+00
-8.864999999999998437e-01 1.793923001556695096e-03 1.058893639965137412e+00
-8.864999999999998437e-01 1.227795702110831338e-03 1.052628938288532545e+00
-8.854999999999999538e-01 2.690017708673537230e-03 1.100133506166005359e+00
-8.854999999999999538e-01 2.055335741457686195e-03 1.185173915272194733e+00
-8.854999999999999538e-01 2.221903735869914381e-03 1.093574245742134909e+00
-8.854999999999999538e-01 3.115204211965700524e-03 1.082297924099449027e+00
-8.854999999999999538e-01 2.374942254979322490e-03 1.036429653751957281e+00
-8.854999999999999538e-01 2.736822388150815608e-03 1.003789056774289534e+00
-8.854999999999999538e-01 4.374843460319829784e-03 1.002114001063633353e+00
-8.854999999999999538e-01 1.874532189484235962e-03 1.092218232053416616e+00
-8.854999999999999538e-01 3.076589720062261786e-03 1.009473428806202833e+00
-8.854999999999999538e-01 1.934091696702018972e-03 1.009823009782253367e+00
-8.854999999999999538e-01 2.800466641371210635e-03 1.016982725133952270e+00
-8.844999999999998419e-01 1.567906315064399687e-03 1.088927720553641620e+00
-8.844999999999998419e-01 1.694496382339018064e-03 1.022674803642328101e+00
-8.844999999999998419e-01 1.229990180868139292e-03 1.011265465150221976e+00
-8.844999999999998419e-01 2.828663775635322387e-03 1.019938346673821439e+00
-8.844999999999998419e-01 2.968842311457987188e-03 1.028467518122148094e+00
-8.834999999999999520e-01 3.159241601132696704e-03 1.012908808902447166e+00
-8.834999999999999520e-01 1.587278753955247536e-03 1.008833047773039837e+00
-8.834999999999999520e-01 3.230475408394546492e-03 1.074322623245014485e+00
-8.834999999999999520e-01 1.902792602099271421e-03 1.155612241728974920e+00
-8.834999999999999520e-01 1.614107633732052771e-03 1.114849082793146762e+00
-8.834999999999999520e-01 2.308164334629441046e-03 1.048023085458467341e+00
-8.824999999999998401e-01 1.140665217055294219e-03 1.490768881887717834e+00
-8.824999999999998401e-01 2.645626912083351000e-03 1.000867708723568006e+00
-8.824999999999998401e-01 2.963795771483990812e-03 1.009711411351897681e+00
-8.824999999999998401e-01 3.039359243486550524e-03 1.018503872355145168e+00
-8.824999999999998401e-01 3.816494757271280541e-03 1.009971741359027231e+00
-8.824999999999998401e-01 2.285645219476420322e-03 1.033842538241312559e+00
-8.824999999999998401e-01 2.186373748014685051e-03 1.010063007476660113e+00
-8.824999999999998401e-01 1.657293161693081454e-03 1.016893610406189863e+00
-8.824999999999998401e-01 2.856817508517882961e-03 1.008818817621727870e+00
-8.814999999999999503e-01 4.280776482852985051e-03 1.000425167053384357e+00
-8.814999999999999503e-01 2.708152619661155416e-03 1.023494231165953616e+00
-8.814999999999999503e-01 2.522969081918554745e-03 1.009499959925431067e+00
-8.814999999999999503e-01 2.247681657571765773e-03 1.088816589246186961e+00
-8.814999999999999503e-01 1.694730832809005329e-03 1.043329261022622800e+00
-8.814999999999999503e-01 2.104611189479540286e-03 1.003541282108781907e+00
-8.804999999999998384e-01 2.103628335316691262e-03 1.001834962902957482e+00
-8.804999999999998384e-01 1.096897615423366671e-03 1.019583221598088452e+00
-8.804999999999998384e-01 2.171240733163318747e-03 1.030920998438979774e+00
-8.804999999999998384e-01 1.267108689877208174e-03 1.245758530131660713e+00
-8.804999999999998384e-01 3.798660440001850203e-03 1.004659502608162613e+00
-8.804999999999998384e-01 1.343521216924434009e-03 1.134055712470123600e+00
-8.804999999999998384e-01 1.862724387199110728e-03 1.055076694348326516e+00
-8.804999999999998384e-01 1.702650397792034118e-03 1.040245646809755176e+00
-8.804999999999998384e-01 2.789606968422138518e-03 1.006202602155805481e+00
-8.794999999999999485e-01 2.883999382834745613e-03 1.003319784161796013e+00
-8.794999999999999485e-01 2.571841297000641586e-03 1.025949342842753964e+00
-8.794999999999999485e-01 2.190388089008284394e-03 1.065032697839001674e+00
-8.794999999999999485e-01 2.083106676743303257e-03 1.001301330489778207e+00
-8.794999999999999485e-01 3.248092468791189628e-03 1.023862099712107510e+00
-8.794999999999999485e-01 2.974208861448850074e-03 1.000967296035013110e+00
-8.794999999999999485e-01 1.895102710181296871e-03 1.257168380399852792e+00
-8.784999999999998366e-01 3.458694956395614618e-03 1.006473888585503795e+00
-8.784999999999998366e-01 2.997541404592746293e-03 1.000938905092760622e+00
-8.784999999999998366e-01 1.728903926311489703e-03 1.066044076063456858e+00
-8.784999999999998366e-01 2.977926608912972225e-03 1.005703527161262656e+00
-8.784999999999998366e-01 2.735069209193857244e-03 1.001263258931367472e+00
-8.784999999999998366e-01 2.816708170071936801e-03 1.057352752920374117e+00
-8.784999999999998366e-01 3.236711980571406379e-03 1.026794462836653876e+00
-8.774999999999999467e-01 3.033918670964106789e-03 1.003457576027960707e+00
-8.774999999999999467e-01 2.833424356994897805e-03 1.053012432948941202e+00
-8.774999999999999467e-01 2.788102285325372038e-03 1.000293798263110823e+00
-8.774999999999999467e-01 1.528919236815088050e-03 1.197998364650197045e+00
-8.774999999999999467e-01 2.236442657700143857e-03 1.015917853572549934e+00
-8.774999999999999467e-01 2.830239198070514002e-03 1.000541197533825200e+00
-8.774999999999999467e-01 3.467360647462182019e-03 1.003874907119908677e+00
-8.774999999999999467e-01 3.924057202100194111e-03 1.027015300861734426e+00
-8.774999999999999467e-01 2.861592113424724082e-03 1.060114494465571600e+00
-8.774999999999999467e-01 3.225572584073011211e-03 1.000083069308295824e+00
-8.764999999999998348e-01 1.858384423483226819e-03 1.887522703220377851e+00
-8.764999999999998348e-01 2.147703204303114729e-03 1.195508204592675483e+00
-8.764999999999998348e-01 3.565032931648262540e-03 1.009312312829967251e+00
-8.764999999999998348e-01 1.668597205320648032e-03 1.140125215343733123e+00
-8.764999999999998348e-01 2.863328657297091809e-03 1.016291489430761086e+00
-8.764999999999998348e-01 2.863019834867918355e-03 1.095766055394532978e+00
-8.754999999999999449e-01 2.708819420649797877e-03 1.024539909836720941e+00
-8.754999999999999449e-01 1.026683082793627012e-03 1.333628817834300095e+00
-8.754999999999999449e-01 1.192173304215195717e-03 1.204465255290289027e+00
-8.754999999999999449e-01 2.378558988585034381e-03 1.108430271675955536e+00
-8.754999999999999449e-01 1.960421520389205204e-03 1.001896833288002941e+00
-8.754999999999999449e-01 1.587813803820833664e-03 1.022358913834539695e+00
-8.744999999999998330e-01 2.886466487488346857e-03 1.025278919438172176e+00
-8.744999999999998330e-01 2.149992796486353743e-03 1.104553604098263531e+00
-8.744999999999998330e-01 1.488316820066595521e-03 1.020147299316568335e+00
-8.744999999999998330e-01 1.645142720597765097e-03 1.055929734563511690e+00
-8.744999999999998330e-01 4.329550058725543243e-03 1.006950040012315473e+00
-8.744999999999998330e-01 2.810823840236637266e-03 1.007363572324351253e+00
-8.734999999999999432e-01 3.391982824829957791e-03 1.000244495974395686e+00
-8.734999999999999432e-01 2.358471094287640200e-03 1.063520393429619348e+00
-8.734999999999999432e-01 3.030748616943270985e-03 1.024223209156586600e+00
-8.734999999999999432e-01 3.672399793689931722e-03 1.003983674524094871e+00
-8.734999999999999432e-01 2.913024625313067554e-03 1.000695573493842305e+00
-8.734999999999999432e-01 3.259802873787341973e-03 1.005344792249550867e+00
-8.724999999999998312e-01 1.998181685384083604e-03 1.031480927048507690e+00
-8.724999999999998312e-01 1.545125530952432468e-03 1.175345620073881880e+00
-8.724999999999998312e-01 4.211476584400635978e-03 1.018441674899301930e+00
-8.724999999999998312e-01 3.697860209051980016e-03 1.005130418474409648e+00
-8.714999999999999414e-01 2.448455787391703043e-03 1.150781847828866056e+00
-8.714999999999999414e-01 2.205947669540263278e-03 1.003616784232613801e+00
-8.714999999999999414e-01 2.856867452947701395e-03 1.021331758979886484e+00
-8.714999999999999414e-01 3.898450027626961401e-03 1.001264706901777934e+00
-8.714999999999999414e-01 2.352857018368974176e-03 1.026023292174007784e+00
-8.714999999999999414e-01 1.014925002605016318e-03 1.557926228082409326e+00
-8.714999999999999414e-01 1.583104570910649159e-03 1.029812742521390323e+00
-8.714999999999999414e-01 2.922757618787004061e-03 1.035865435563884995e+00
-8.714999999999999414e-01 3.284778933252350749e-03 1.009972444807521796e+00
-8.704999999999998295e-01 3.275150422499162502e-03 1.124936201953362636e+00
-8.704999999999998295e-01 3.535005625301842341e-03 1.005461966125906770e+00
-8.704999999999998295e-01 3.094410059177498534e-03 1.012199103376314246e+00
-8.704999999999998295e-01 2.021605829378493504e-03 1.429675954453268005e+00
-8.704999999999998295e-01 2.248795329100006842e-03 1.093089669555566967e+00
-8.704999999999998295e-01 2.823801243796730982e-03 1.008800401010010228e+00
-8.704999999999998295e-01 2.172996990194010943e-03 1.040914907198460027e+00
-8.704999999999998295e-01 3.304701459729567949e-03 1.078681617581413121e+00
-8.704999999999998295e-01 3.048064517395904834e-03 1.014102889320848133e+00
-8.704999999999998295e-01 2.726706268652056078e-03 1.023523094268586231e+00
-8.694999999999999396e-01 2.303962901841102775e-03 1.003809973927315191e+00
-8.694999999999999396e-01 3.678219486422381907e-03 1.007469627882783270e+00
-8.694999999999999396e-01 1.655187472671883209e-03 1.000462963510670544e+00
-8.694999999999999396e-01 3.116001784206207971e-03 1.243098697388130836e+00
-8.694999999999999396e-01 2.100892091744102370e-03 1.013729776808514949e+00
-8.694999999999999396e-01 3.146395583471652251e-03 1.003993707040662819e+00
-8.694999999999999396e-01 2.465273805231683879e-03 1.001653955395191087e+00
-8.694999999999999396e-01 1.999718418753970457e-03 1.038839592024142000e+00
-8.694999999999999396e-01 1.358152257833693255e-03 1.181566277167451773e+00
-8.694999999999999396e-01 2.728716662234408757e-03 1.022313418380960126e+00
-8.694999999999999396e-01 1.975617844616851543e-03 1.155304236728930123e+00
-8.694999999999999396e-01 2.258099814349173555e-03 1.006084202342890643e+00
-8.694999999999999396e-01 1.720738237782937306e-03 1.005304817157665731e+00
-8.684999999999998277e-01 2.687217423192694420e-03 1.016957731493361994e+00
-8.684999999999998277e-01 2.131527674672607092e-03 1.038168587936199927e+00
-8.684999999999998277e-01 4.578288211364307803e-03 1.001123209127629865e+00
-8.684999999999998277e-01 2.356003330398160830e-03 1.087623768620452180e+00
-8.684999999999998277e-01 2.296965557200309534e-03 1.044209547809607175e+00
-8.684999999999998277e-01 1.677421889266357937e-03 1.125254075949090771e+00
-8.684999999999998277e-01 2.729096609282170589e-03 1.002485357715645398e+00
-8.684999999999998277e-01 1.965038084911868016e-03 1.039645805549244573e+00
-8.684999999999998277e-01 2.300613212015510146e-03 1.024420028805482996e+00
-8.684999999999998277e-01 3.091171608975373363e-03 1.003591042435672431e+00
-8.674999999999999378e-01 1.891114999663911491e-03 1.152618496450217522e+00
-8.674999999999999378e-01 2.220694073326829037e-03 1.149580116306689659e+00
-8.674999999999999378e-01 1.647579532525800727e-03 1.003530684390027350e+00
-8.674999999999999378e-01 2.842600376369257189e-03 1.007966099584216790e+00
-8.674999999999999378e-01 1.900990538707467061e-03 1.103186737585711397e+00
-8.674999999999999378e-01 3.429224884482294945e-03 1.082239129310926362e+00
-8.674999999999999378e-01 2.979024274998937506e-03 1.009911361674163066e+00
-8.674999999999999378e-01 2.229370717832141868e-03 1.054566858336314139e+00
-8.674999999999999378e-01 3.789435789011073343e-03 1.001945738986903534e+00
-8.664999999999998259e-01 2.023262451169487251e-03 1.029340767339156582e+00
-8.664999999999998259e-01 2.687037369300066415e-03 1.026977460275090293e+00
-8.664999999999998259e-01 2.233661311461596598e-03 1.013459900090022403e+00
-8.664999999999998259e-01 1.244501470305133233e-03 1.040939409752139833e+00
-8.664999999999998259e-01 4.246535024701801435e-03 1.002898818093688860e+00
-8.664999999999998259e-01 3.402159064771315567e-03 1.008628625611467822e+00
-8.664999999999998259e-01 1.791987634202594614e-03 1.057501639327064868e+00
-8.654999999999999361e-01 1.487193347391927659e-03 1.032879591303313305e+00
-8.654999999999999361e-01 2.421319093813275192e-03 1.003116688012292368e+00
-8.654999999999999361e-01 1.838371082848693286e-03 1.064374970333363146e+00
-8.654999999999999361e-01 3.045045997510976727e-03 1.028745023319911800e+00
-8.654999999999999361e-01 2.313395582986267976e-03 1.057086831080847000e+00
-8.654999999999999361e-01 2.381065514984383180e-03 1.036846477845466241e+00
-8.654999999999999361e-01 1.902350607478295232e-03 1.041804470972225616e+00
-8.644999999999998241e-01 2.527359853775612997e-03 1.015542415482973748e+00
-8.644999999999998241e-01 1.146394211162330909e-03 1.082496833747828235e+00
-8.644999999999998241e-01 2.309532273285597268e-03 1.087717631665340745e+00
-8.644999999999998241e-01 1.412547748526945613e-03 1.106665360363505046e+00
-8.644999999999998241e-01 3.932454411564594195e-03 1.001493087866730303e+00
-8.644999999999998241e-01 2.538296124733039217e-03 1.002837552303984525e+00
-8.644999999999998241e-01 2.099894699624855598e-03 1.044544009075309532e+00
-8.634999999999999343e-01 1.177800058482764752e-03 1.399503116929192270e+00
-8.634999999999999343e-01 3.446939439390971083e-03 1.000758630563467477e+00
-8.634999999999999343e-01 3.204954674412477129e-03 1.003269813455145876e+00
-8.634999999999999343e-01 2.226697359089209460e-03 1.000664349495775651e+00
-8.634999999999999343e-01 2.310409900453406964e-03 1.028420513959233507e+00
-8.634999999999999343e-01 2.538555686848587185e-03 1.103396331680441378e+00
-8.624999999999998224e-01 2.132735868058382740e-03 1.153519802494866076e+00
-8.624999999999998224e-01 1.855222933218710762e-03 1.010677664656523866e+00
-8.624999999999998224e-01 1.764410114549687554e-03 1.154567861662192829e+00
-8.624999999999998224e-01 2.788689354368539732e-03 1.011804290804998452e+00
-8.624999999999998224e-01 3.081155810023631855e-03 1.026879121300419140e+00
-8.624999999999998224e-01 3.417982560725372782e-03 1.028644925976747837e+00
-8.624999999999998224e-01 3.126233196746174437e-03 1.063022363893272759e+00
-8.614999999999999325e-01 2.713148734694519060e-03 1.055436382369985937e+00
-8.614999999999999325e-01 2.027932643276150748e-03 1.236952092587050966e+00
-8.614999999999999325e-01 1.898489332554622027e-03 1.277641644873962035e+00
-8.614999999999999325e-01 3.232648121989305668e-03 1.006266743670533925e+00
-8.614999999999999325e-01 2.616983739189697108e-03 1.011643948783087721e+00
-8.614999999999999325e-01 3.831083336495892666e-03 1.011768599752246311e+00
-8.614999999999999325e-01 1.812028435307800906e-03 1.034757630893036850e+00
-8.604999999999998206e-01 3.011420132145712237e-03 1.005157308658900961e+00
-8.604999999999998206e-01 3.368286281727115878e-03 1.014532433968144076e+00
-8.604999999999998206e-01 1.587723753233792265e-03 1.117033186495710595e+00
-8.604999999999998206e-01 1.118294897081829322e-03 1.033762033970150096e+00
-8.604999999999998206e-01 3.211988345219183791e-03 1.009023550996641205e+00
-8.604999999999998206e-01 1.274796164697615270e-03 1.107965107338772848e+00
-8.604999999999998206e-01 1.823349573779709226e-03 1.117284674845979708e+00
-8.604999999999998206e-01 2.691917069371421202e-03 1.095161442075338609e+00
-8.604999999999998206e-01 2.168081809418096872e-03 1.001071463010665408e+00
-8.604999999999998206e-01 1.007759394029643331e-03 1.382634809647298457e+00
-8.604999999999998206e-01 1.272158421473441881e-03 1.046619051342532858e+00
-8.594999999999999307e-01 2.843207707808896936e-03 1.017692917527738938e+00
-8.594999999999999307e-01 3.753483964667714366e-03 1.024902710041424969e+00
-8.594999999999999307e-01 4.128209304173999228e-03 1.003670484659706874e+00
-8.594999999999999307e-01 4.111982345888238327e-03 1.001081773822758203e+00
-8.594999999999999307e-01 3.674520700277714418e-03 1.016435937498437747e+00
-8.594999999999999307e-01 1.944593871737116623e-03 1.158317991048460005e+00
-8.584999999999998188e-01 2.781039492797982883e-03 1.026401720368442572e+00
-8.584999999999998188e-01 3.553563025004310722e-03 1.006151125056353957e+00
-8.584999999999998188e-01 2.845815379238597793e-03 1.032422537773961757e+00
-8.584999999999998188e-01 2.235967474863598693e-03 1.089754216417066823e+00
-8.584999999999998188e-01 2.280754831704827693e-03 1.074302482626179112e+00
-8.584999999999998188e-01 1.711331617473060493e-03 1.030531683399041665e+00
-8.584999999999998188e-01 2.172321571660089552e-03 1.077650151280780344e+00
-8.584999999999998188e-01 2.477260308526196570e-03 1.022580932691775413e+00
-8.574999999999999289e-01 2.416097101506200443e-03 1.066637078470253464e+00
-8.574999999999999289e-01 3.597388934948671409e-03 1.000619789719511266e+00
-8.574999999999999289e-01 2.278491463991874546e-03 1.112281807385172572e+00
-8.574999999999999289e-01 2.326162479312373754e-03 1.129451853410421425e+00
-8.574999999999999289e-01 1.276031545507608656e-03 1.326312483050190449e+00
-8.564999999999998170e-01 2.653253376201598901e-03 1.007194140070952537e+00
-8.564999999999998170e-01 1.170368290855323956e-03 1.605327300930951218e+00
-8.564999999999998170e-01 2.575271699135034658e-03 1.087117150078157568e+00
-8.564999999999998170e-01 1.752577966154075968e-03 1.169189517893719277e+00
-8.564999999999998170e-01 3.655884771982419700e-03 1.017362409900053555e+00
-8.564999999999998170e-01 3.211050150607152633e-03 1.020066557342649283e+00
-8.564999999999998170e-01 3.921755199120572320e-03 1.003076799123240992e+00
-8.564999999999998170e-01 2.224614645356319358e-03 1.014039829705028373e+00
-8.554999999999999272e-01 3.499264808382058101e-03 1.000614113501564928e+00
-8.554999999999999272e-01 2.213916006316539106e-03 1.047603199798416762e+00
-8.554999999999999272e-01 3.206906212691585951e-03 1.009302750520654657e+00
-8.554999999999999272e-01 4.780772883268517327e-03 1.001104569564213786e+00
-8.554999999999999272e-01 2.794191900313590295e-03 1.010578605973461386e+00
-8.554999999999999272e-01 3.253021465802362431e-03 1.025690296858707384e+00
-8.554999999999999272e-01 2.258587071386485966e-03 1.075122703849581640e+00
-8.554999999999999272e-01 2.613189330272378593e-03 1.284289466876188834e+00
-8.554999999999999272e-01 1.144355582999021783e-03 1.060766983685783593e+00
-8.554999999999999272e-01 1.547526201660710723e-03 1.195756869841475778e+00
-8.554999999999999272e-01 1.707522289138394163e-03 1.030670232165513234e+00
-8.544999999999998153e-01 1.476809654293368551e-03 1.127920485026818964e+00
-8.544999999999998153e-01 3.058246472455310259e-03 1.030089283630601038e+00
-8.544999999999998153e-01 3.063063163143335196e-03 1.017924640535980307e+00
-8.544999999999998153e-01 3.064384947828776695e-03 1.048827379162420304e+00
-8.544999999999998153e-01 2.707909800538210905e-03 1.022253962566370689e+00
-8.544999999999998153e-01 1.426425588291983532e-03 1.232890012311492312e+00
-8.544999999999998153e-01 1.251336886808399745e-03 1.323742839156111906e+00
-8.544999999999998153e-01 1.775241461961528594e-03 1.068314215923902966e+00
-8.544999999999998153e-01 1.936210873339257090e-03 1.030842516241106122e+00
-8.534999999999999254e-01 1.293013813295262491e-03 1.496088398467532388e+00
-8.534999999999999254e-01 1.549855404602220590e-03 1.046948182684839690e+00
-8.534999999999999254e-01 1.474721392240682660e-03 1.006760652483177587e+00
-8.534999999999999254e-01 1.862199040113693979e-03 1.092027448733938089e+00
-8.534999999999999254e-01 2.006597074388094797e-03 1.221051374333708139e+00
-8.534999999999999254e-01 1.164290108964110204e-03 1.573439589390996263e+00
-8.534999999999999254e-01 1.314295056623230240e-03 1.042397001323516648e+00
-8.534999999999999254e-01 2.964593392515299953e-03 1.022997678214971007e+00
-8.534999999999999254e-01 3.300976640790847204e-03 1.106478843029992332e+00
-8.534999999999999254e-01 1.034610280079477883e-03 1.207507928080088000e+00
-8.534999999999999254e-01 2.041079444951865180e-03 1.109325336354301861e+00
-8.524999999999998135e-01 2.187352829714797348e-03 1.005737501472991235e+00
-8.524999999999998135e-01 3.123742451813373705e-03 1.022326588311129436e+00
-8.524999999999998135e-01 2.135907731484493460e-03 1.075196128399948714e+00
-8.524999999999998135e-01 2.142398668409427418e-03 1.374845843487437991e+00
-8.524999999999998135e-01 3.445955273431511919e-03 1.004096907860129173e+00
-8.524999999999998135e-01 1.545399176212017452e-03 1.068912067354496509e+00
-8.524999999999998135e-01 3.066198179527770701e-03 1.146073894953301586e+00
-8.524999999999998135e-01 2.698337773073389029e-03 1.001764960186800613e+00
-8.524999999999998135e-01 2.848888134386392580e-03 1.003071253105265681e+00
-8.524999999999998135e-01 1.310747072225236119e-03 1.012003500491931218e+00
-8.514999999999999236e-01 1.487506809437065102e-03 1.074134952680939392e+00
-8.514999999999999236e-01 3.169294851359278666e-03 1.014201467363084586e+00
-8.514999999999999236e-01 3.306591281255490469e-03 1.158762104040603758e+00
-8.514999999999999236e-01 2.855267078985001140e-03 1.004285562633892459e+00
-8.514999999999999236e-01 1.861247956044179055e-03 1.067560170703139688e+00
-8.514999999999999236e-01 3.333435810700845475e-03 1.045194186122675228e+00
-8.514999999999999236e-01 1.339711766444194076e-03 1.064006432790089551e+00
-8.514999999999999236e-01 3.377053587785619308e-03 1.129953765329202442e+00
-8.514999999999999236e-01 1.698177641186565147e-03 1.024069453935710028e+00
-8.514999999999999236e-01 2.777024023748296631e-03 1.571215209051021189e+00
-8.514999999999999236e-01 1.795898528818656598e-03 1.014051608137425786e+00
-8.514999999999999236e-01 1.234281246205059862e-03 1.415987151090214446e+00
-8.514999999999999236e-01 2.435192956956563556e-03 1.030314031850112055e+00
-8.514999999999999236e-01 2.386130773883394628e-03 1.047855064007169323e+00
-8.514999999999999236e-01 2.374491357287578271e-03 1.041581369653001632e+00
-8.504999999999998117e-01 4.086739586237775161e-03 1.007266667838482288e+00
-8.504999999999998117e-01 1.953958930898336277e-03 1.026259423233959689e+00
-8.504999999999998117e-01 2.975947805197278698e-03 1.007046244714753680e+00
-8.504999999999998117e-01 1.927052688478120930e-03 1.122984544781529870e+00
-8.504999999999998117e-01 1.510227084559498563e-03 1.075620678764358962e+00
-8.504999999999998117e-01 2.545263581106851740e-03 1.180326876665125369e+00
-8.504999999999998117e-01 3.184375282815249657e-03 1.016565631184238594e+00
-8.504999999999998117e-01 2.547766164361872990e-03 1.025989396063919035e+00
-8.504999999999998117e-01 2.944431345980001551e-03 1.013297668769193915e+00
-8.504999999999998117e-01 1.091733643125682163e-03 1.198216113380432546e+00
-8.494999999999999218e-01 2.428227419810995678e-03 1.026120892938984230e+00
-8.494999999999999218e-01 1.063319859252257957e-03 1.518106765419138693e+00
-8.494999999999999218e-01 3.438732156769199085e-03 1.035964359783759114e+00
-8.494999999999999218e-01 1.552354334275768454e-03 1.273247640848979234e+00
-8.494999999999999218e-01 2.216501337921510714e-03 1.000985674711230899e+00
-8.494999999999999218e-01 2.740946762309939746e-03 1.034498877072365985e+00
-8.494999999999999218e-01 1.927129699898000315e-03 1.019906783074181256e+00
-8.484999999999998099e-01 2.758726890640520943e-03 1.045708716130818949e+00
-8.484999999999998099e-01 2.098333063239147395e-03 1.097050590113791690e+00
-8.484999999999998099e-01 3.137414278989926041e-03 1.231622688125049381e+00
-8.484999999999998099e-01 1.554522580364625737e-03 1.082162658099686814e+00
-8.484999999999998099e-01 1.358583163922412983e-03 1.037230367573080958e+00
-8.484999999999998099e-01 1.830414333680629828e-03 1.049197397379096897e+00
-8.484999999999998099e-01 1.476494918528710627e-03 1.034489955291836072e+00
-8.484999999999998099e-01 1.984705344241996690e-03 1.020637790681641066e+00
-8.484999999999998099e-01 3.094635126463987380e-03 1.007103483299888635e+00
-8.474999999999999201e-01 2.688514423269303209e-03 1.028377001767421195e+00
-8.474999999999999201e-01 2.857567852921834382e-03 1.021031730227894174e+00
-8.474999999999999201e-01 3.424293261105334964e-03 1.003484510271746677e+00
-8.474999999999999201e-01 3.930714614288329488e-03 1.010680142472984988e+00
-8.474999999999999201e-01 3.697753394794614339e-03 1.005807324659951041e+00
-8.474999999999999201e-01 1.863873303937661546e-03 1.022700679363972576e+00
-8.474999999999999201e-01 2.950742878124976501e-03 1.039075384565340432e+00
-8.474999999999999201e-01 1.651181472791584575e-03 1.057954606275900877e+00
-8.474999999999999201e-01 1.675509038014478440e-03 1.071627253418334647e+00
-8.474999999999999201e-01 1.068913074281834701e-03 1.020559345397983098e+00
-8.464999999999998082e-01 2.285036715025287948e-03 1.036130413127358096e+00
-8.464999999999998082e-01 2.644509658963083935e-03 1.000026986898291170e+00
-8.464999999999998082e-01 1.711641938914163288e-03 1.048022872997797839e+00
-8.464999999999998082e-01 2.817577101289735642e-03 1.006626244997242292e+00
-8.464999999999998082e-01 2.392038158425942047e-03 1.004928521946037767e+00
-8.464999999999998082e-01 1.229478341180559927e-03 1.296986159336178446e+00
-8.464999999999998082e-01 2.524028324147163313e-03 1.000131207006105249e+00
-8.464999999999998082e-01 2.589400969209524218e-03 1.047791329715749731e+00
-8.454999999999999183e-01 1.588206173302626799e-03 1.006662868464553773e+00
-8.454999999999999183e-01 3.433053371592701634e-03 1.026454359405279959e+00
-8.454999999999999183e-01 3.066689830428719760e-03 1.023831372318510180e+00
-8.454999999999999183e-01 1.403826047653068069e-03 1.091375678727118936e+00
-8.454999999999999183e-01 2.654405682220282742e-03 1.056895494423909065e+00
-8.454999999999999183e-01 2.196478408350629758e-03 1.034230115942746053e+00
-8.454999999999999183e-01 3.170316274901923553e-03 1.001276057933578878e+00
-8.454999999999999183e-01 2.543049457814942991e-03 1.015563195966439292e+00
-8.454999999999999183e-01 1.230936843181419616e-03 1.070899236828823264e+00
-8.454999999999999183e-01 1.350394609371832061e-03 1.004576794493946768e+00
-8.454999999999999183e-01 2.355657227832290944e-03 1.108841507653980152e+00
-8.454999999999999183e-01 1.811917841032127533e-03 1.053836791318474742e+00
-8.454999999999999183e-01 3.067269769968163518e-03 1.019640952835088932e+00
-8.444999999999998064e-01 3.188236443942128392e-03 1.017526585319419086e+00
-8.444999999999998064e-01 1.267692963429350572e-03 1.102404705655271266e+00
-8.444999999999998064e-01 2.907863531373443625e-03 1.010804347981512974e+00
-8.444999999999998064e-01 2.912445685504222448e-03 1.024004406026613800e+00
-8.444999999999998064e-01 4.059188740038028285e-03 1.000610472224010339e+00
-8.444999999999998064e-01 1.958606838050686028e-03 1.068304506620592287e+00
-8.444999999999998064e-01 2.821867954225555381e-03 1.000104594910797173e+00
-8.444999999999998064e-01 1.588829604817445628e-03 1.134900188039045910e+00
-8.444999999999998064e-01 1.474737209097646369e-03 1.005193494321013903e+00
-8.444999999999998064e-01 1.691840876083655718e-03 1.057960190562409419e+00
-8.444999999999998064e-01 2.280884428584548009e-03 1.015105719725966527e+00
-8.444999999999998064e-01 1.095774985173334718e-03 1.005594939293248169e+00
-8.444999999999998064e-01 3.615751699550538538e-03 1.015439919632188159e+00
-8.444999999999998064e-01 2.451216107558404442e-03 1.016578512554221270e+00
-8.444999999999998064e-01 2.337199492137842071e-03 1.051700085247811556e+00
-8.444999999999998064e-01 2.586770600950096931e-03 1.065287757892181553e+00
-8.434999999999999165e-01 2.959602587471308124e-03 1.022991152175469320e+00
-8.434999999999999165e-01 2.730282028660344605e-03 1.093486024166790527e+00
-8.434999999999999165e-01 3.006948811873919394e-03 1.044507598079601696e+00
-8.434999999999999165e-01 1.682622940099256191e-03 1.151321712309896661e+00
-8.434999999999999165e-01 2.673793009310343124e-03 1.015237150248692988e+00
-8.434999999999999165e-01 2.313902454264962511e-03 1.004100297363486716e+00
-8.434999999999999165e-01 1.800513366544447252e-03 1.001042697429540329e+00
-8.434999999999999165e-01 2.252926892199787721e-03 1.013409651176587101e+00
-8.434999999999999165e-01 2.487368445699016540e-03 1.039526368777444532e+00
-8.424999999999998046e-01 1.632652096582630843e-03 1.063038041122064126e+00
-8.424999999999998046e-01 3.056024059813233426e-03 1.009160308797411698e+00
-8.424999999999998046e-01 1.780576723323142128e-03 1.005400859820636317e+00
-8.424999999999998046e-01 2.268857910947242977e-03 1.038926613918062847e+00
-8.424999999999998046e-01 2.007631089573011941e-03 1.030098405693107289e+00
-8.424999999999998046e-01 2.828237046521792867e-03 1.133161423436739534e+00
-8.424999999999998046e-01 3.071329117456131005e-03 1.230267619719370265e+00
-8.424999999999998046e-01 2.328891443353763024e-03 1.003092917926158956e+00
-8.424999999999998046e-01 2.695913044303199866e-03 1.020203585804096535e+00
-8.424999999999998046e-01 1.703396270038774361e-03 1.162767286264599909e+00
-8.424999999999998046e-01 2.663198001568973985e-03 1.015420616997137593e+00
-8.414999999999999147e-01 3.614287648790943594e-03 1.003969393006685307e+00
-8.414999999999999147e-01 2.555341973658550089e-03 1.008508647479310794e+00
-8.414999999999999147e-01 1.679366377799100876e-03 1.031612458173709834e+00
-8.404999999999998028e-01 3.059812175564777855e-03 1.053020796819937877e+00
-8.404999999999998028e-01 3.476384126180427549e-03 1.011787590943373560e+00
-8.404999999999998028e-01 2.192555985901400561e-03 1.134443856162123065e+00
-8.404999999999998028e-01 2.315297874837593008e-03 1.018508518183085076e+00
-8.404999999999998028e-01 2.604732190591692396e-03 1.034822304785092850e+00
-8.404999999999998028e-01 1.950785840733555059e-03 1.017359569667033004e+00
-8.404999999999998028e-01 2.944328135156035631e-03 1.038857767390645837e+00
-8.404999999999998028e-01 2.553239595608987594e-03 1.073974910893173540e+00
-8.404999999999998028e-01 2.486870342516605756e-03 1.020203711254458634e+00
-8.404999999999998028e-01 1.650499500426482521e-03 1.192747782813999846e+00
-8.404999999999998028e-01 1.852656170146297276e-03 1.016056754297375297e+00
-8.394999999999999130e-01 2.970665529670870903e-03 1.036108623892826319e+00
-8.394999999999999130e-01 2.767315104548870221e-03 1.054963097565878138e+00
-8.394999999999999130e-01 1.566003413826635993e-03 1.137727544167858929e+00
-8.394999999999999130e-01 4.058265831836927601e-03 1.007984430702498546e+00
-8.384999999999998010e-01 2.795225084814467655e-03 1.029381687775559051e+00
-8.384999999999998010e-01 4.013547568311115303e-03 1.002704009489108872e+00
-8.384999999999998010e-01 2.058203814333080337e-03 1.071856907265031467e+00
-8.384999999999998010e-01 3.959421175326538304e-03 1.001422586886485666e+00
-8.384999999999998010e-01 1.078623669456478876e-03 1.634284937178353658e+00
-8.384999999999998010e-01 3.622793021853391946e-03 1.006057522242249425e+00
-8.384999999999998010e-01 1.086594918651642141e-03 1.340436281513307959e+00
-8.384999999999998010e-01 2.041712577317412840e-03 1.031701171027522346e+00
-8.384999999999998010e-01 2.391602091947800553e-03 1.068270935395121413e+00
-8.374999999999999112e-01 2.250879985743001448e-03 1.161499368387330478e+00
-8.374999999999999112e-01 3.481933256134838589e-03 1.071633726667380770e+00
-8.374999999999999112e-01 3.336109577508881725e-03 1.022254009252343554e+00
-8.374999999999999112e-01 3.260475854438370409e-03 1.002277350744656070e+00
-8.374999999999999112e-01 2.219294236087037200e-03 1.000959981528773524e+00
-8.374999999999999112e-01 1.545516720556086403e-03 1.790586902696001292e+00
-8.374999999999999112e-01 2.137518828144205699e-03 1.010334463932654359e+00
-8.374999999999999112e-01 2.295325242295704737e-03 1.017623926941998214e+00
-8.374999999999999112e-01 2.688774866091848525e-03 1.009769969849616311e+00
-8.374999999999999112e-01 2.141075059845236068e-03 1.006073552111897973e+00
-8.374999999999999112e-01 2.699313942099702129e-03 1.097859408943314241e+00
-8.364999999999997993e-01 3.211804308014608138e-03 1.036765699509065497e+00
-8.364999999999997993e-01 3.508793082704449260e-03 1.061231925908111329e+00
-8.364999999999997993e-01 3.378122782363118196e-03 1.008216881588401170e+00
-8.364999999999997993e-01 1.009057219898395336e-03 1.135143911813272233e+00
-8.364999999999997993e-01 2.523281637558503435e-03 1.003645400505310814e+00
-8.354999999999999094e-01 3.528679780835923107e-03 1.040778091636309410e+00
-8.354999999999999094e-01 2.081007979265655713e-03 1.174292264251002305e+00
-8.354999999999999094e-01 4.377357270506747333e-03 1.014263472127105548e+00
-8.354999999999999094e-01 3.795759833444301099e-03 1.000143129928781294e+00
-8.354999999999999094e-01 1.750761343181875046e-03 1.010098137447245081e+00
-8.354999999999999094e-01 1.165006453700230061e-03 1.000062945752031363e+00
-8.354999999999999094e-01 1.754582781464032563e-03 1.018902320093908465e+00
-8.354999999999999094e-01 3.092304367100667719e-03 1.132230625501564170e+00
-8.354999999999999094e-01 1.037111308256790819e-03 1.025902903537745381e+00
-8.354999999999999094e-01 2.402703334798813629e-03 1.025925799969499064e+00
-8.354999999999999094e-01 1.522695846413342968e-03 1.444174563644656573e+00
-8.354999999999999094e-01 2.296311734325051819e-03 1.066989988880438611e+00
-8.354999999999999094e-01 1.613417521426927697e-03 1.117789675579335062e+00
-8.354999999999999094e-01 3.075101515347716113e-03 1.011182623289902160e+00
-8.344999999999997975e-01 2.040049904806843974e-03 1.039549368124652151e+00
-8.344999999999997975e-01 1.992574983464301744e-03 1.009151785247706767e+00
-8.344999999999997975e-01 4.422216107438931530e-03 1.010061375377268922e+00
-8.344999999999997975e-01 1.984736880562549492e-03 1.134350062708835427e+00
-8.344999999999997975e-01 1.938289046474956203e-03 1.038542273919860204e+00
-8.344999999999997975e-01 2.399060488754095090e-03 1.024183080976579063e+00
-8.344999999999997975e-01 2.437357145801218993e-03 1.045958041087737822e+00
-8.344999999999997975e-01 1.367813875424015889e-03 1.276832504668004908e+00
-8.344999999999997975e-01 1.324114651713925814e-03 1.047173487840288297e+00
-8.344999999999997975e-01 1.048376858612405302e-03 1.031424508705044873e+00
-8.344999999999997975e-01 2.603849479865646879e-03 1.001386087081199916e+00
-8.334999999999999076e-01 2.313581488820892935e-03 1.096887281847485074e+00
-8.334999999999999076e-01 2.706879780770709946e-03 1.165924132851305028e+00
-8.334999999999999076e-01 3.758646411407023068e-03 1.005330282226627903e+00
-8.334999999999999076e-01 1.250801242815491625e-03 1.152427186315587049e+00
-8.334999999999999076e-01 2.044700869559652138e-03 1.016300025869230739e+00
-8.334999999999999076e-01 1.000457191421996479e-03 1.795530929280228838e+00
-8.334999999999999076e-01 3.232540914117119565e-03 1.044744484724249523e+00
-8.334999999999999076e-01 2.504250690502105546e-03 1.003114674104010673e+00
-8.334999999999999076e-01 3.014036216054723910e-03 1.011384936318144634e+00
-8.334999999999999076e-01 1.922209923674724624e-03 1.230793252162637685e+00
-8.334999999999999076e-01 3.088011439656274809e-03 1.011126474823699217e+00
-8.334999999999999076e-01 2.843407713572085587e-03 1.009752676764397838e+00
-8.334999999999999076e-01 3.200037782125330840e-03 1.019591015514114796e+00
-8.334999999999999076e-01 3.628659397737868473e-03 1.008668831437759650e+00
-8.324999999999997957e-01 1.361623715816713369e-03 2.028898281396011694e+00
-8.324999999999997957e-01 4.041493612663375930e-03 1.000520137765249729e+00
-8.324999999999997957e-01 3.165287860398517325e-03 1.001249259657536417e+00
-8.324999999999997957e-01 2.505422878455455284e-03 1.118077353505680271e+00
-8.324999999999997957e-01 1.610430584282743433e-03 1.052223321631678310e+00
-8.324999999999997957e-01 1.418708730131104743e-03 1.005166947393595134e+00
-8.324999999999997957e-01 1.653155575397216104e-03 1.229415634190665685e+00
-8.324999999999997957e-01 2.530137759681863434e-03 1.018764665080411858e+00
-8.324999999999997957e-01 2.925269058146351322e-03 1.056978565772541456e+00
-8.314999999999999059e-01 2.772037597687663016e-03 1.007569326110966612e+00
-8.314999999999999059e-01 2.191350779693324122e-03 1.027362203306724897e+00
-8.314999999999999059e-01 1.688401729238724492e-03 1.087656037902979822e+00
-8.314999999999999059e-01 2.744590705882886741e-03 1.013089355691153548e+00
-8.304999999999997939e-01 2.477136588425051314e-03 1.038612742126172828e+00
-8.304999999999997939e-01 3.630613987754019618e-03 1.016223859584348466e+00
-8.304999999999997939e-01 2.879214666720994117e-03 1.033318695881551674e+00
-8.304999999999997939e-01 1.916724134401184918e-03 1.032087676773190132e+00
-8.304999999999997939e-01 2.331890245281367791e-03 1.038972131974808866e+00
-8.304999999999997939e-01 2.231720714991562021e-03 1.053846343277001774e+00
-8.304999999999997939e-01 1.974685185232056151e-03 1.057766599746027936e+00
-8.304999999999997939e-01 1.772508686274650936e-03 1.050594227717134510e+00
-8.304999999999997939e-01 2.391051655237589387e-03 1.065249614534112821e+00
-8.294999999999999041e-01 2.737928789355828247e-03 1.014170398322102207e+00
-8.294999999999999041e-01 2.070353830398028155e-03 1.038088263617318763e+00
-8.294999999999999041e-01 2.319373575222941769e-03 1.019452655533478858e+00
-8.294999999999999041e-01 2.748817137805874104e-03 1.076083444232466491e+00
-8.294999999999999041e-01 2.285482876315402326e-03 1.052743714990681978e+00
-8.294999999999999041e-01 1.209857745135825167e-03 1.052506081225701440e+00
-8.294999999999999041e-01 1.582540063395692460e-03 1.090804810071272613e+00
-8.294999999999999041e-01 2.569724088312534162e-03 1.041394936774554747e+00
-8.294999999999999041e-01 2.580564788769429147e-03 1.016721957274869359e+00
-8.294999999999999041e-01 1.954064350433558188e-03 1.084317819408328498e+00
-8.294999999999999041e-01 3.250882477550105874e-03 1.004645969120042670e+00
-8.294999999999999041e-01 1.955453173954057114e-03 1.019220596307372606e+00
-8.294999999999999041e-01 2.423940466369514050e-03 1.007583055670611127e+00
-8.284999999999997922e-01 1.734982405443214956e-03 1.156118084292086623e+00
-8.284999999999997922e-01 2.705636199200616918e-03 1.024965838138900631e+00
-8.284999999999997922e-01 2.942512981009804199e-03 1.014036473795593807e+00
-8.284999999999997922e-01 1.736383875713036137e-03 1.014054805188084885e+00
-8.284999999999997922e-01 2.357994446802947480e-03 1.010328366939573508e+00
-8.284999999999997922e-01 4.211021533825752387e-03 1.001183250518698609e+00
-8.284999999999997922e-01 1.374543440386729676e-03 1.107085794449014227e+00
-8.284999999999997922e-01 2.718063209195998794e-03 1.008049681041115031e+00
-8.284999999999997922e-01 2.940765694619749439e-03 1.050745413621720470e+00
-8.284999999999997922e-01 2.841204255266983718e-03 1.176044197649526613e+00
-8.284999999999997922e-01 3.108778011267734117e-03 1.001931124941354723e+00
-8.284999999999997922e-01 2.091002954248924895e-03 1.015339204539910556e+00
-8.274999999999999023e-01 2.527981862639743817e-03 1.008152838908640048e+00
-8.274999999999999023e-01 1.895678027783800467e-03 1.005578066260143677e+00
-8.274999999999999023e-01 1.738500007328018212e-03 1.014095752223987734e+00
-8.274999999999999023e-01 3.697449229040479513e-03 1.002132148250968857e+00
-8.274999999999999023e-01 2.062273114319521615e-03 1.057857085727891500e+00
-8.274999999999999023e-01 1.533636641451649940e-03 1.014430906300264335e+00
-8.274999999999999023e-01 2.824968595633119833e-03 1.030138671096492597e+00
-8.274999999999999023e-01 1.734451838887484136e-03 1.008674248779737548e+00
-8.274999999999999023e-01 3.319343758016653559e-03 1.083518175460128186e+00
-8.274999999999999023e-01 2.639229455544831772e-03 1.036806967309438221e+00
-8.274999999999999023e-01 2.825735197655328095e-03 1.027488537379817046e+00
-8.264999999999997904e-01 2.284706609343444255e-03 1.172580164905325351e+00
-8.264999999999997904e-01 1.417238202565513109e-03 1.069523274525496337e+00
-8.264999999999997904e-01 2.262679644476382496e-03 1.066463713589589801e+00
-8.264999999999997904e-01 2.784263600557829958e-03 1.015591538339520206e+00
-8.264999999999997904e-01 1.646818902594080402e-03 1.080104178678173987e+00
-8.264999999999997904e-01 2.586675824542901490e-03 1.018211502175655037e+00
-8.264999999999997904e-01 2.961375259347974551e-03 1.045043851807252455e+00
-8.264999999999997904e-01 3.365779373533952634e-03 1.010259015372489966e+00
-8.264999999999997904e-01 2.580294716139960604e-03 1.009256041620008926e+00
-8.264999999999997904e-01 3.288992487795767451e-03 1.013254246543756176e+00
-8.254999999999999005e-01 2.349609157551031148e-03 1.008870259084639454e+00
-8.254999999999999005e-01 1.063177361495772121e-03 1.029134789517303750e+00
-8.254999999999999005e-01 1.331263638978192471e-03 1.158740934576223180e+00
-8.254999999999999005e-01 3.102004164760864026e-03 1.012735499784129578e+00
-8.254999999999999005e-01 1.429765528702381079e-03 1.033970590918885657e+00
-8.254999999999999005e-01 2.261440715232800481e-03 1.055492011606322222e+00
-8.254999999999999005e-01 3.592666717980181820e-03 1.000142211255823810e+00
-8.254999999999999005e-01 3.119405564350897185e-03 1.022429393004411269e+00
-8.254999999999999005e-01 2.934150733132584107e-03 1.021915395429564999e+00
-8.254999999999999005e-01 2.494763713426966477e-03 1.070660431003409574e+00
-8.254999999999999005e-01 1.873238078569979025e-03 1.122141980751420354e+00
-8.244999999999997886e-01 2.091746998285229451e-03 1.004773339529496878e+00
-8.244999999999997886e-01 2.595523021299223423e-03 1.057941634008186860e+00
-8.244999999999997886e-01 2.407639287106029535e-03 1.000065274561646289e+00
-8.244999999999997886e-01 2.438172454082468844e-03 1.014508245291040556e+00
-8.244999999999997886e-01 1.948906623879465482e-03 1.041823996240553551e+00
-8.244999999999997886e-01 1.899272569352203214e-03 1.035382813493352261e+00
-8.244999999999997886e-01 3.751520122047388630e-03 1.004351829846368283e+00
-8.244999999999997886e-01 2.187093575061519867e-03 1.107707319331215245e+00
-8.244999999999997886e-01 1.927540003562540176e-03 1.002187138369534658e+00
-8.244999999999997886e-01 1.945996061998551876e-03 1.046522474184740314e+00
-8.234999999999998987e-01 2.357378396643855598e-03 1.017423191037263308e+00
-8.234999999999998987e-01 1.785253104106880335e-03 1.135980303824753568e+00
-8.234999999999998987e-01 2.054410550319925484e-03 1.006903515281174277e+00
-8.234999999999998987e-01 1.432311699307588096e-03 1.023345086487406519e+00
-8.234999999999998987e-01 3.013036001472181938e-03 1.041611216894608782e+00
-8.234999999999998987e-01 2.680700420000992155e-03 1.053636267020605422e+00
-8.234999999999998987e-01 2.710841992801607276e-03 1.026230685349019733e+00
-8.234999999999998987e-01 2.691814289752457109e-03 1.066851328488134243e+00
-8.234999999999998987e-01 1.731802022007666907e-03 1.000949184302580619e+00
-8.234999999999998987e-01 3.431290802058603595e-03 1.016494188155390166e+00
-8.234999999999998987e-01 2.727350636601123725e-03 1.013417464002672297e+00
-8.234999999999998987e-01 2.469688939123229100e-03 1.041469235392565418e+00
-8.234999999999998987e-01 2.856500564337611028e-03 1.004238341739268625e+00
-8.224999999999997868e-01 3.160724224444506122e-03 1.170750201217904740e+00
-8.224999999999997868e-01 1.412025276635568314e-03 1.015593741251915816e+00
-8.224999999999997868e-01 3.087036374745976038e-03 1.007539078531077825e+00
-8.224999999999997868e-01 1.110837027636156320e-03 1.192240163156400135e+00
-8.224999999999997868e-01 1.514129099857103181e-03 1.002384075574024758e+00
-8.224999999999997868e-01 1.350580156562090212e-03 1.093094074030731555e+00
-8.224999999999997868e-01 2.487745618238443920e-03 1.005031128637088322e+00
-8.224999999999997868e-01 2.407934873730327267e-03 1.046559954913285573e+00
-8.224999999999997868e-01 2.803196866122476243e-03 1.052142735381861538e+00
-8.224999999999997868e-01 2.045137142752576510e-03 1.003672623971781697e+00
-8.224999999999997868e-01 1.844795594214450850e-03 1.052103272736136796e+00
-8.224999999999997868e-01 3.613440183796920706e-03 1.005725711388056887e+00
-8.224999999999997868e-01 2.079023878566742950e-03 1.008870190609734152e+00
-8.224999999999997868e-01 2.878637204467710421e-03 1.094580127054373575e+00
-8.224999999999997868e-01 1.147981382932941824e-03 2.119969289392888978e+00
-8.214999999999998970e-01 1.682934156273895162e-03 1.008238927216309699e+00
-8.214999999999998970e-01 2.518600696950204759e-03 1.080218776907672540e+00
-8.214999999999998970e-01 1.367778128268989880e-03 1.100098137358324513e+00
-8.214999999999998970e-01 2.269580572486459488e-03 1.123330205361354750e+00
-8.214999999999998970e-01 1.512836209215684099e-03 1.131755594352500838e+00
-8.214999999999998970e-01 2.312400798123722106e-03 1.002249209087620052e+00
-8.214999999999998970e-01 2.085987199200578426e-03 1.015420799127688234e+00
-8.214999999999998970e-01 3.096130005783270019e-03 1.000394941481741462e+00
-8.214999999999998970e-01 3.120158426706769791e-03 1.005673423281999934e+00
-8.204999999999997851e-01 1.755534963841327714e-03 1.424460668851393219e+00
-8.204999999999997851e-01 1.313330080763244973e-03 1.055883553346160131e+00
-8.204999999999997851e-01 2.776912108454587629e-03 1.103728886678532639e+00
-8.204999999999997851e-01 2.943855662168876151e-03 1.017219365084702343e+00
-8.204999999999997851e-01 3.006296978528930942e-03 1.016493376365444012e+00
-8.204999999999997851e-01 2.591915622427833858e-03 1.000001308538933653e+00
-8.204999999999997851e-01 2.822790269494602784e-03 1.001584001485857467e+00
-8.194999999999998952e-01 1.804126441147919707e-03 1.078661007432675678e+00
-8.194999999999998952e-01 2.724068875770307031e-03 1.060923131888068083e+00
-8.194999999999998952e-01 3.298977283020274997e-03 1.030354597094806701e+00
-8.194999999999998952e-01 2.176430792396319598e-03 1.016096483754763691e+00
-8.194999999999998952e-01 3.715754439410857458e-03 1.017663223504785552e+00
-8.194999999999998952e-01 3.828136208014534195e-03 1.011766025790225454e+00
-8.194999999999998952e-01 1.333127511263834360e-03 1.166513472973828014e+00
-8.184999999999997833e-01 3.649919767502615882e-03 1.019733060569281147e+00
-8.184999999999997833e-01 3.100823635999968783e-03 1.012303582198997631e+00
-8.184999999999997833e-01 2.029796109582939021e-03 1.020631445782498092e+00
-8.184999999999997833e-01 1.483791073420036690e-03 1.193171744519345712e+00
-8.184999999999997833e-01 2.468407455245433518e-03 1.118716088144063869e+00
-8.184999999999997833e-01 1.798064327211569297e-03 1.059634853802800869e+00
-8.184999999999997833e-01 1.687925147683868449e-03 1.097970487599625455e+00
-8.184999999999997833e-01 3.398112561358242016e-03 1.022500160197984176e+00
-8.184999999999997833e-01 3.648314045160511773e-03 1.014774072942663752e+00
-8.184999999999997833e-01 2.339437310262391500e-03 1.002375209052978278e+00
-8.184999999999997833e-01 2.728534082050761058e-03 1.021044184207374750e+00
-8.184999999999997833e-01 3.341390296677728029e-03 1.126809812237090425e+00
-8.184999999999997833e-01 4.385277913630380477e-03 1.005206273264032779e+00
-8.174999999999998934e-01 4.194722137740029139e-03 1.074090674560554071e+00
-8.174999999999998934e-01 2.271333215631758055e-03 1.002462652767846851e+00
-8.174999999999998934e-01 1.166094789311199848e-03 1.138982197411601449e+00
-8.174999999999998934e-01 2.328096782533800330e-03 1.059976607128437553e+00
-8.174999999999998934e-01 1.413362374023069065e-03 1.017907440595148705e+00
-8.174999999999998934e-01 2.314251451536171109e-03 1.004554256975564996e+00
-8.174999999999998934e-01 2.351804003833335866e-03 1.036746351014474321e+00
-8.174999999999998934e-01 2.480543419731215480e-03 1.001592599385702220e+00
-8.174999999999998934e-01 2.916146880464496553e-03 1.026137887356787459e+00
-8.164999999999997815e-01 2.067617524496612701e-03 1.022760377703010537e+00
-8.164999999999997815e-01 2.814223675113650992e-03 1.007356410674499658e+00
