-9.984999999999999432e-01 1.618004533811452650e-02 1.000176037090627856e+00
-9.984999999999999432e-01 1.284891717332432501e-02 1.005158142305730307e+00
-9.975000000000000533e-01 1.270296064174416227e-02 1.001846317207953696e+00
-9.975000000000000533e-01 1.235695291263180437e-02 1.020587847861369468e+00
-9.964999999999999414e-01 1.671372267544083204e-02 1.007663605097305126e+00
-9.964999999999999414e-01 1.712550444128203148e-02 1.002646123765663422e+00
-9.964999999999999414e-01 1.614005289170521162e-02 1.002949030488319515e+00
-9.964999999999999414e-01 1.530914116792417637e-02 1.008421110259608122e+00
-9.944999999999999396e-01 1.534806033020077141e-02 1.005707144477171466e+00
-9.944999999999999396e-01 1.597481212836615941e-02 1.000033354140066777e+00
-9.944999999999999396e-01 1.290494185854946033e-02 1.019528683917535483e+00
-9.935000000000000497e-01 1.405123860546620210e-02 1.002474151704316085e+00
-9.935000000000000497e-01 1.270597464920571878e-02 1.004036546329152069e+00
-9.935000000000000497e-01 1.411025991276645790e-02 1.007935582078604231e+00
-9.924999999999999378e-01 1.409641370299632469e-02 1.029303465241743654e+00
-9.924999999999999378e-01 1.476872710494863197e-02 1.004527845751257420e+00
-9.924999999999999378e-01 1.600969383441733229e-02 1.000112959436601834e+00
-9.924999999999999378e-01 1.584446294096920893e-02 1.016477554405822215e+00
-9.915000000000000480e-01 1.469560208005017167e-02 1.008688819236352563e+00
-9.915000000000000480e-01 1.469105420289692522e-02 1.032894998137380727e+00
-9.904999999999999361e-01 1.444665066199872852e-02 1.000886172133145235e+00
-9.895000000000000462e-01 1.286850008674563818e-02 1.012326808829409064e+00
-9.895000000000000462e-01 1.670945617959620003e-02 1.003853643000312212e+00
-9.884999999999999343e-01 1.513027870370923546e-02 1.000849275835034025e+00
-9.884999999999999343e-01 1.763986423359358707e-02 1.002902984772226835e+00
-9.875000000000000444e-01 1.802300132840384955e-02 1.013906421379334288e+00
-9.875000000000000444e-01 1.516979560860601609e-02 1.003865783768433939e+00
-9.875000000000000444e-01 1.506320756943566042e-02 1.000412030411567788e+00
-9.875000000000000444e-01 1.496828013523047313e-02 1.003754129609233381e+00
-9.864999999999999325e-01 1.519572952397458925e-02 1.002306483316485419e+00
-9.864999999999999325e-01 1.751468024449829783e-02 1.000396349765828807e+00
-9.864999999999999325e-01 1.600483849927453184e-02 1.001594521475526633e+00
-9.855000000000000426e-01 1.539167197099309582e-02 1.005614207398256577e+00
-9.855000000000000426e-01 1.711937604242562069e-02 1.002385769310146335e+00
-9.855000000000000426e-01 1.339078038073565277e-02 1.009512346482688283e+00
-9.855000000000000426e-01 1.493810423485605887e-02 1.006907057583372289e+00
-9.855000000000000426e-01 1.443520968465894332e-02 1.003254602356874470e+00
-9.844999999999999307e-01 1.627229677275017147e-02 1.003332827275417394e+00
-9.844999999999999307e-01 1.560908698958834474e-02 1.004609384982679376e+00
-9.844999999999999307e-01 1.551865743532159815e-02 1.012270508940902092e+00
-9.844999999999999307e-01 1.332102062089014251e-02 1.009018751212747089e+00
-9.835000000000000409e-01 1.655277091449433927e-02 1.002578900926458960e+00
-9.824999999999999289e-01 1.413321461645588792e-02 1.000493916467993571e+00
-9.824999999999999289e-01 1.614568916383704589e-02 1.002161922852129905e+00
-9.824999999999999289e-01 1.736382925605228777e-02 1.004897756771632622e+00
-9.824999999999999289e-01 1.096382774544460599e-02 1.049042423358644394e+00
-9.815000000000000391e-01 1.557192509094793183e-02 1.000357822069846359e+00
-9.815000000000000391e-01 1.160512854883705841e-02 1.042385706670775125e+00
-9.804999999999999272e-01 1.507768683262831859e-02 1.012122084315482784e+00
-9.804999999999999272e-01 1.561146824619804967e-02 1.000803486211895521e+00
-9.804999999999999272e-01 1.702823308372247366e-02 1.004386291385731322e+00
-9.804999999999999272e-01 1.521759723266231414e-02 1.002385758347611899e+00
-9.795000000000000373e-01 1.623687101219228879e-02 1.001836059484870756e+00
-9.795000000000000373e-01 1.618970619619187687e-02 1.000292761953965659e+00
-9.784999999999999254e-01 1.534799727275237141e-02 1.003276191595900535e+00
-9.784999999999999254e-01 1.290976071125922095e-02 1.018102541920486992e+00
-9.775000000000000355e-01 1.636431243506653380e-02 1.009027626996167548e+00
-9.775000000000000355e-01 1.690239779858402486e-02 1.003291313711248467e+00
-9.775000000000000355e-01 1.720455109103695771e-02 1.000259295829924566e+00
-9.764999999999999236e-01 1.441134536384086964e-02 1.006320919397257097e+00
-9.764999999999999236e-01 1.278260622858603916e-02 1.003923489373154565e+00
-9.764999999999999236e-01 1.650827174770852154e-02 1.005476619719813502e+00
-9.755000000000000338e-01 1.568607157664626828e-02 1.003306878798203128e+00
-9.744999999999999218e-01 1.502373859339808937e-02 1.003789413259062124e+00
-9.744999999999999218e-01 1.029383213051549353e-02 1.021008141726300611e+00
-9.735000000000000320e-01 1.512563480164137025e-02 1.002208984073979625e+00
-9.735000000000000320e-01 1.620401500214841209e-02 1.000062076350636264e+00
-9.724999999999999201e-01 1.272884334138721547e-02 1.010688120108497845e+00
-9.724999999999999201e-01 1.590507119291001761e-02 1.005889817849775270e+00
-9.724999999999999201e-01 1.570091602103719855e-02 1.001339584197164179e+00
-9.724999999999999201e-01 1.582525910552828874e-02 1.004781055631587261e+00
-9.724999999999999201e-01 1.579140322254135587e-02 1.002767099349355373e+00
-9.715000000000000302e-01 1.187811053202994863e-02 1.011703016728608961e+00
-9.715000000000000302e-01 1.221364217086370017e-02 1.007870952661659159e+00
-9.715000000000000302e-01 1.696239653583524534e-02 1.000499736704456799e+00
-9.715000000000000302e-01 1.570965165413134093e-02 1.007142889768410043e+00
-9.715000000000000302e-01 1.342511016810519348e-02 1.020611280553667788e+00
-9.704999999999999183e-01 1.609071034976829184e-02 1.003780790027060776e+00
-9.704999999999999183e-01 1.494891281093552703e-02 1.020978326769556688e+00
-9.704999999999999183e-01 1.836836195335720540e-02 1.000798983681662424e+00
-9.704999999999999183e-01 1.558973019780769860e-02 1.002260301666417996e+00
-9.704999999999999183e-01 1.384580377593084763e-02 1.001749334397282754e+00
-9.695000000000000284e-01 1.793012024282245043e-02 1.000768904643252188e+00
-9.695000000000000284e-01 1.452381447420571584e-02 1.003849798491064371e+00
-9.695000000000000284e-01 1.233154813253659575e-02 1.016791343638189016e+00
-9.695000000000000284e-01 1.559914622541389191e-02 1.001469392903559852e+00
-9.684999999999999165e-01 1.667858376711620766e-02 1.000156970907672749e+00
-9.684999999999999165e-01 1.420504127036687457e-02 1.000503124707168512e+00
-9.684999999999999165e-01 1.505708299987836007e-02 1.001324267152065906e+00
-9.684999999999999165e-01 1.712278792372181821e-02 1.003009554837901884e+00
-9.684999999999999165e-01 1.481789045151598629e-02 1.001665747967859232e+00
-9.684999999999999165e-01 1.566246843744127995e-02 1.000702990701882955e+00
-9.675000000000000266e-01 1.581918866169550186e-02 1.003624334981844779e+00
-9.675000000000000266e-01 1.363363793962616387e-02 1.011398364454705101e+00
-9.675000000000000266e-01 1.557391525045893205e-02 1.003519772467143634e+00
-9.675000000000000266e-01 1.681766274155453711e-02 1.001594844082008162e+00
-9.675000000000000266e-01 1.692622462013268839e-02 1.000497530659041123e+00
-9.675000000000000266e-01 1.322756629056664850e-02 1.001332977241303768e+00
-9.664999999999999147e-01 1.384459570900139526e-02 1.001233425292094026e+00
-9.664999999999999147e-01 1.549141655022886685e-02 1.000005192995573333e+00
-9.664999999999999147e-01 1.414465900385296522e-02 1.041672172909017036e+00
-9.664999999999999147e-01 1.410256330759244482e-02 1.014768071312281972e+00
-9.664999999999999147e-01 1.467613839272058004e-02 1.010988035818713549e+00
-9.655000000000000249e-01 1.801471191782324024e-02 1.000109395418009361e+00
-9.655000000000000249e-01 1.707746522384952226e-02 1.000085511706729768e+00
-9.655000000000000249e-01 1.483193349139142608e-02 1.004748035624537517e+00
-9.655000000000000249e-01 1.761990231632585419e-02 1.001614351364282562e+00
-9.644999999999999130e-01 1.606631989432801347e-02 1.005293096890796933e+00
-9.644999999999999130e-01 1.465924423586286406e-02 1.001965367514335403e+00
-9.644999999999999130e-01 1.662890235974338882e-02 1.001256872646106189e+00
-9.644999999999999130e-01 1.542713170932184796e-02 1.027051262796750297e+00
-9.635000000000000231e-01 1.698776262264789158e-02 1.003979943890664916e+00
-9.635000000000000231e-01 1.589092732798070770e-02 1.004141755680303838e+00
-9.635000000000000231e-01 1.551702974208989637e-02 1.007816976927559116e+00
-9.624999999999999112e-01 1.390780523337891393e-02 1.041091432409212425e+00
-9.624999999999999112e-01 1.318847617070631126e-02 1.009104979126653312e+00
-9.615000000000000213e-01 1.465883579715988871e-02 1.001152459959813390e+00
-9.615000000000000213e-01 1.734394955971883812e-02 1.002118620684221195e+00
-9.615000000000000213e-01 9.362544507989936995e-03 1.077935544929880862e+00
-9.604999999999999094e-01 1.294623831076539659e-02 1.004723364488969484e+00
-9.604999999999999094e-01 1.261001131571418653e-02 1.020956653978013051e+00
-9.604999999999999094e-01 1.488502928648810508e-02 1.003944443514267482e+00
-9.604999999999999094e-01 1.581092147889257352e-02 1.000631689352283082e+00
-9.604999999999999094e-01 1.659007016903491644e-02 1.000722203137225597e+00
-9.604999999999999094e-01 1.545502623627229184e-02 1.002158044718247654e+00
-9.604999999999999094e-01 1.344593761235621070e-02 1.000777293624289577e+00
-9.604999999999999094e-01 1.159351955094730692e-02 1.076272776196463221e+00
-9.604999999999999094e-01 1.594741186557011373e-02 1.000177226333483604e+00
-9.604999999999999094e-01 1.546363516705308999e-02 1.005822580301465541e+00
-9.604999999999999094e-01 1.390267879385608321e-02 1.011192233044084121e+00
-9.604999999999999094e-01 1.694417983370624659e-02 1.000744906857155447e+00
-9.604999999999999094e-01 1.591115076047092472e-02 1.002506048771372837e+00
-9.595000000000000195e-01 1.529935219861090767e-02 1.005251916626155095e+00
-9.595000000000000195e-01 1.384339684036259635e-02 1.001466873296508631e+00
-9.595000000000000195e-01 1.394260378667844941e-02 1.006058373555730689e+00
-9.595000000000000195e-01 1.422920768973628611e-02 1.000844468176291802e+00
-9.584999999999999076e-01 1.567489039353471211e-02 1.002446243181718266e+00
-9.584999999999999076e-01 1.784685227030166979e-02 1.000484819419240612e+00
-9.584999999999999076e-01 1.484755764547732171e-02 1.001438922996119363e+00
-9.584999999999999076e-01 1.320299854925691650e-02 1.005942020473691745e+00
-9.584999999999999076e-01 1.510278707517160972e-02 1.000259538813456306e+00
-9.584999999999999076e-01 1.434705127078818483e-02 1.001813672226923968e+00
-9.584999999999999076e-01 1.607133171160630980e-02 1.005041448900313217e+00
-9.575000000000000178e-01 1.246919032381069159e-02 1.010153463007648300e+00
-9.575000000000000178e-01 1.537830035201190673e-02 1.001714198690591529e+00
-9.575000000000000178e-01 1.084079317071354187e-02 1.006150255078581246e+00
-9.575000000000000178e-01 1.715403747183288224e-02 1.002176377162900200e+00
-9.575000000000000178e-01 1.754524956197029556e-02 1.010093449072115623e+00
-9.564999999999999059e-01 1.668877704323100397e-02 1.000199696304409747e+00
-9.564999999999999059e-01 1.371292316051920569e-02 1.010207312451959272e+00
-9.564999999999999059e-01 1.730342413060293946e-02 1.001655515189776136e+00
-9.555000000000000160e-01 1.370283103721755928e-02 1.001469581685440646e+00
-9.555000000000000160e-01 1.459942566585540995e-02 1.017888377382001552e+00
-9.555000000000000160e-01 1.677256612652516798e-02 1.003149711312397052e+00
-9.555000000000000160e-01 1.647667351971533398e-02 1.001633123967222927e+00
-9.555000000000000160e-01 1.255113941900809840e-02 1.000395766985689550e+00
-9.555000000000000160e-01 1.566440255230599002e-02 1.007456814572095904e+00
-9.555000000000000160e-01 1.161611776737628624e-02 1.002979402454190483e+00
-9.544999999999999041e-01 1.674363095590628708e-02 1.003105469454421916e+00
-9.544999999999999041e-01 1.437249013152435903e-02 1.000650956756651278e+00
-9.544999999999999041e-01 1.437463048671435047e-02 1.010601121991924201e+00
-9.544999999999999041e-01 1.631714597089579943e-02 1.000349595481980769e+00
-9.535000000000000142e-01 1.134261543661173322e-02 1.053605521815978108e+00
-9.535000000000000142e-01 1.426635884789587833e-02 1.000209968500818336e+00
-9.535000000000000142e-01 1.583505060572433856e-02 1.002504017666077996e+00
-9.535000000000000142e-01 1.669168770758552509e-02 1.001049547346362756e+00
-9.535000000000000142e-01 1.490615068906008499e-02 1.004805628450146759e+00
-9.535000000000000142e-01 1.273394687682485177e-02 1.013449476066809352e+00
-9.524999999999999023e-01 1.514502580097387349e-02 1.002947889958050620e+00
-9.524999999999999023e-01 1.486274500610248843e-02 1.006979624081298041e+00
-9.524999999999999023e-01 1.405008556472458689e-02 1.003228288068777951e+00
-9.524999999999999023e-01 1.311146144300313204e-02 1.003062718955539889e+00
-9.515000000000000124e-01 1.452581918156694782e-02 1.001681183457090230e+00
-9.515000000000000124e-01 1.678719929013824941e-02 1.005701267226635220e+00
-9.515000000000000124e-01 1.383960540405268502e-02 1.018271197307669018e+00
-9.515000000000000124e-01 1.735715738072476921e-02 1.000844969021486675e+00
-9.515000000000000124e-01 1.612043930874680273e-02 1.001363037538460565e+00
-9.515000000000000124e-01 1.574390756791028273e-02 1.003918581247724706e+00
-9.515000000000000124e-01 1.596143555177924681e-02 1.012509709005512404e+00
-9.515000000000000124e-01 1.281110775178507556e-02 1.000978739797349970e+00
-9.515000000000000124e-01 1.461872845498628920e-02 1.004101239084184360e+00
-9.515000000000000124e-01 1.328984623921653299e-02 1.009293937094132509e+00
-9.504999999999999005e-01 1.736236797564473175e-02 1.000458461013384870e+00
-9.504999999999999005e-01 1.631005738783132195e-02 1.001334388848266865e+00
-9.504999999999999005e-01 1.394687287000983059e-02 1.006484964473550736e+00
-9.504999999999999005e-01 1.576877590763842846e-02 1.001820158988124820e+00
-9.504999999999999005e-01 8.679757853420196024e-04 -1.559868608663915746e+00
-9.495000000000000107e-01 1.680804185535212519e-02 1.000987957152434715e+00
-9.495000000000000107e-01 1.553974295789842947e-02 1.002371040923734968e+00
-9.495000000000000107e-01 1.524545908371804058e-02 1.002098294363531261e+00
-9.495000000000000107e-01 1.558175004452006483e-02 1.001049497749967099e+00
-9.495000000000000107e-01 1.381648202400244038e-02 1.007387636770605610e+00
-9.495000000000000107e-01 1.343129100453223368e-02 1.011432773423398102e+00
-9.484999999999998987e-01 1.370895658902306254e-02 1.000259421795711923e+00
-9.484999999999998987e-01 1.489951974594667244e-02 1.000169133525121490e+00
-9.484999999999998987e-01 1.726864292194029565e-02 1.003134918945041587e+00
-9.484999999999998987e-01 1.740248284574654955e-02 1.000979213096620413e+00
-9.484999999999998987e-01 1.761518204883593536e-02 1.000217190011312152e+00
-9.484999999999998987e-01 1.209692595318796575e-02 1.007570079581839417e+00
-9.475000000000000089e-01 1.733195479233502756e-02 1.000873250173309081e+00
-9.475000000000000089e-01 1.336654932714187449e-02 1.001351199040030560e+00
-9.475000000000000089e-01 1.817216498009145004e-02 1.000527331329490455e+00
-9.475000000000000089e-01 1.506200862449087220e-02 1.000810473689802915e+00
-9.475000000000000089e-01 1.577461133144314812e-02 1.000339574531785125e+00
-9.475000000000000089e-01 1.527714455369183488e-02 1.010310098038638360e+00
-9.464999999999998970e-01 1.486874577651883279e-02 1.005535175587502827e+00
-9.464999999999998970e-01 1.486076396313666149e-02 1.000496978353993205e+00
-9.464999999999998970e-01 1.720491577217947779e-02 1.003108853929293165e+00
-9.455000000000000071e-01 1.177007782040845676e-02 1.000073599030024685e+00
-9.455000000000000071e-01 1.701961804083480453e-02 1.000778883600180524e+00
-9.455000000000000071e-01 1.522649461630937000e-02 1.004972410571970620e+00
-9.455000000000000071e-01 1.527788123998315151e-02 1.000865297761982520e+00
-9.455000000000000071e-01 1.445200109999324883e-02 1.000730227738966027e+00
-9.444999999999998952e-01 1.595403647285383378e-02 1.004086240285883891e+00
-9.444999999999998952e-01 1.629191956733489280e-02 1.000574110881772949e+00
-9.444999999999998952e-01 1.411952900771430881e-02 1.010461185369777359e+00
-9.444999999999998952e-01 1.619351069184861436e-02 1.005391108408783429e+00
-9.444999999999998952e-01 1.683061572243784929e-02 1.004496485933647376e+00
-9.444999999999998952e-01 1.477170920660569702e-02 1.003184622036674689e+00
-9.444999999999998952e-01 1.473756681203663814e-02 1.001637522504102984e+00
-9.435000000000000053e-01 1.641237090625585412e-02 1.003033163980624698e+00
-9.435000000000000053e-01 1.454240885863295960e-02 1.005061759040761782e+00
-9.435000000000000053e-01 1.748692759253728593e-02 1.001038590305613152e+00
-9.435000000000000053e-01 1.398533261422986451e-02 1.013187933807883079e+00
-9.435000000000000053e-01 1.551371872867472919e-02 1.000698526116842402e+00
-9.435000000000000053e-01 1.670017398296804595e-02 1.002348532118405133e+00
-9.435000000000000053e-01 1.789314092169220008e-02 1.000738402342475242e+00
-9.435000000000000053e-01 1.681450302105274436e-02 1.005535395155929601e+00
-9.435000000000000053e-01 1.206268895053085911e-02 1.054832095111852386e+00
-9.424999999999998934e-01 1.601277176311901446e-02 1.000228661873615588e+00
-9.424999999999998934e-01 1.725011835626764217e-02 1.000462743456397074e+00
-9.424999999999998934e-01 1.455135328909769842e-02 1.012458731895046204e+00
-9.424999999999998934e-01 1.530136610362808208e-02 1.005657820686831627e+00
-9.424999999999998934e-01 1.433718268050709205e-02 1.013086513312033921e+00
-9.424999999999998934e-01 1.249175463182822937e-02 1.025152008079665888e+00
-9.424999999999998934e-01 1.437825247024634469e-02 1.000509646688015675e+00
-9.415000000000000036e-01 1.630600959681553774e-02 1.000419445563644372e+00
-9.415000000000000036e-01 1.589623710299226111e-02 1.002091859055209477e+00
-9.415000000000000036e-01 1.667886877829201017e-02 1.002806317143972947e+00
-9.415000000000000036e-01 6.741997734861724647e-04 -1.131457331656217313e+00
-9.415000000000000036e-01 1.528642920950875998e-02 1.003459835990684335e+00
-9.415000000000000036e-01 1.623743309656410297e-02 1.009369734891775616e+00
-9.415000000000000036e-01 1.388560733920644885e-02 1.002440067479770658e+00
-9.404999999999998916e-01 1.399860142925579004e-02 1.005027093022575091e+00
-9.404999999999998916e-01 1.509837842073477945e-02 1.006428572254011833e+00
-9.395000000000000018e-01 1.742035460675985317e-02 1.002305169502066384e+00
-9.395000000000000018e-01 1.701508406176691079e-02 1.000613611198326369e+00
-9.395000000000000018e-01 1.418502790209329005e-02 1.014053163285918657e+00
-9.395000000000000018e-01 1.299598061613564150e-02 1.007752450575050363e+00
-9.395000000000000018e-01 1.279077347222928353e-02 1.006249386092015641e+00
-9.395000000000000018e-01 1.418918175697874914e-02 1.019520527984988156e+00
-9.395000000000000018e-01 1.569401496936803989e-02 1.004815168014473459e+00
-9.395000000000000018e-01 1.555375439348506868e-02 1.001176303222984565e+00
-9.395000000000000018e-01 1.840043375636005174e-02 1.000678777422667087e+00
-9.384999999999998899e-01 1.716048979368166999e-02 1.000412998478426907e+00
-9.384999999999998899e-01 1.272548630143741956e-02 1.011157808431706551e+00
-9.384999999999998899e-01 1.690166264307902191e-02 1.002515831211431729e+00
-9.384999999999998899e-01 1.586733606811436409e-02 1.002331549497351704e+00
-9.384999999999998899e-01 1.572524994477798865e-02 1.004993422060035169e+00
-9.384999999999998899e-01 1.392056738699934057e-02 1.008368927283581851e+00
-9.384999999999998899e-01 1.526670098246776797e-02 1.001681456231941603e+00
-9.384999999999998899e-01 1.379439458002033707e-02 1.003073347877478261e+00
-9.384999999999998899e-01 1.056308915483088022e-02 1.564851928419931593e+00
-9.375000000000000000e-01 1.567665983957231002e-02 1.002292556775041810e+00
-9.375000000000000000e-01 1.468202885926387508e-02 1.000055712348485004e+00
-9.375000000000000000e-01 1.462446832582059084e-02 1.000074298510675641e+00
-9.375000000000000000e-01 1.055975576691435026e-02 1.020611672667265601e+00
-9.375000000000000000e-01 1.614874168384780248e-02 1.000146119408613421e+00
-9.375000000000000000e-01 1.479000041649590827e-02 1.007311771733222061e+00
-9.375000000000000000e-01 1.628386186238598224e-02 1.003116673184733409e+00
-9.375000000000000000e-01 1.781793815292445279e-02 1.001641238159687752e+00
-9.364999999999998881e-01 1.647871301111485803e-02 1.001500692656106528e+00
-9.364999999999998881e-01 1.276580819093205144e-02 1.025614387420639595e+00
-9.364999999999998881e-01 1.193313112801814950e-02 1.000591003889372166e+00
-9.364999999999998881e-01 1.291502035235849583e-02 1.050058519865724627e+00
-9.364999999999998881e-01 1.340857425477171884e-02 1.004248956117803626e+00
-9.354999999999999982e-01 1.527246239333640565e-02 1.003398390589445244e+00
-9.354999999999999982e-01 1.714425743941228736e-02 1.000721396456832890e+00
-9.354999999999999982e-01 1.768743193224498259e-02 1.005450721723794238e+00
-9.354999999999999982e-01 1.509834827792165025e-02 1.001305652470687368e+00
-9.354999999999999982e-01 8.188700805171597943e-03 1.004768225229062839e+00
-9.344999999999998863e-01 1.467083961106976919e-02 1.000508876021294347e+00
-9.344999999999998863e-01 1.145443190279215109e-02 1.003318879066204872e+00
-9.344999999999998863e-01 1.617511383027142244e-02 1.002242228254892842e+00
-9.344999999999998863e-01 1.244231094596503356e-02 1.003375529894850127e+00
-9.344999999999998863e-01 1.473279348807493561e-02 1.001025719760155974e+00
-9.344999999999998863e-01 1.629220081659592256e-02 1.001525908391209807e+00
-9.334999999999999964e-01 1.431311525244385874e-02 1.000518042970464538e+00
-9.334999999999999964e-01 1.540183746066131447e-02 1.008419268842088545e+00
-9.334999999999999964e-01 1.367004606361423187e-02 1.006677180333836130e+00
-9.334999999999999964e-01 1.128629936625902101e-02 1.006257899641125331e+00
-9.334999999999999964e-01 1.319256524263735450e-02 1.002092547854479099e+00
-9.334999999999999964e-01 1.619811721843128494e-02 1.005730317073460167e+00
-9.334999999999999964e-01 1.302119551786897096e-02 1.000016102691078768e+00
-9.334999999999999964e-01 1.470796178246395330e-02 1.002028677869764905e+00
-9.334999999999999964e-01 1.456849550540551333e-02 1.021579524222509638e+00
-9.334999999999999964e-01 1.628626701972982205e-02 1.001024718416727355e+00
-9.334999999999999964e-01 1.437939732281568427e-02 1.008258053982881597e+00
-9.334999999999999964e-01 1.631788138784383974e-02 1.000131187976459390e+00
-9.324999999999998845e-01 1.410387810587882332e-02 1.002886444281880118e+00
-9.324999999999998845e-01 1.673008479242895502e-02 1.003537401530796069e+00
-9.324999999999998845e-01 1.238592480875322713e-02 1.045597444199603876e+00
-9.324999999999998845e-01 1.393899649061114063e-02 1.004450376633869935e+00
-9.324999999999998845e-01 1.752624684585652251e-02 1.000871018955261205e+00
-9.324999999999998845e-01 1.420530024795375011e-02 1.003595851862784327e+00
-9.324999999999998845e-01 1.317425989022514426e-02 1.001337425801489323e+00
-9.314999999999999947e-01 1.552161237020565840e-02 1.000203360049331636e+00
-9.314999999999999947e-01 1.356500103757773620e-02 1.043015959807741311e+00
-9.314999999999999947e-01 1.246934313244880618e-02 1.000220129270087632e+00
-9.314999999999999947e-01 1.650578758541447824e-02 1.001335287844202115e+00
-9.304999999999998828e-01 1.610229607168623192e-02 1.008563035234818051e+00
-9.304999999999998828e-01 1.186994792804392865e-02 1.014504289006584292e+00
-9.304999999999998828e-01 1.864989592515376229e-02 1.000324118728585621e+00
-9.304999999999998828e-01 1.420854922987233385e-02 1.010493015368164604e+00
-9.294999999999999929e-01 1.495973263879247540e-02 1.003738471503356822e+00
-9.294999999999999929e-01 1.184640146656198295e-02 1.003360819985640529e+00
-9.294999999999999929e-01 1.275157708368690468e-02 1.053484753496684689e+00
-9.294999999999999929e-01 1.544059379794290171e-02 1.004665428417501394e+00
-9.294999999999999929e-01 1.626447785083347947e-02 1.001601445357949816e+00
-9.294999999999999929e-01 1.777798729353352938e-02 1.001060651206678420e+00
-9.294999999999999929e-01 1.397105746770775821e-02 1.009220728627551855e+00
-9.294999999999999929e-01 1.613967595385855380e-02 1.008876171126038779e+00
-9.284999999999998810e-01 1.373770278464288112e-02 1.025891166548801303e+00
-9.284999999999998810e-01 1.615267598316040207e-02 1.002089008086350264e+00
-9.284999999999998810e-01 1.490798735064913748e-02 1.000715399641505687e+00
-9.284999999999998810e-01 1.420217590384230226e-02 1.007668391312573686e+00
-9.284999999999998810e-01 1.851127846692145890e-02 1.001667670690886025e+00
-9.284999999999998810e-01 1.694409316038277338e-02 1.000411313805708691e+00
-9.284999999999998810e-01 1.255964120231807188e-02 1.000549498596810638e+00
-9.284999999999998810e-01 1.763695436974446057e-02 1.007748739624213075e+00
-9.284999999999998810e-01 1.101094704732391745e-02 1.002942991844292919e+00
-9.284999999999998810e-01 1.876409337413700862e-02 1.000124432103386862e+00
-9.284999999999998810e-01 1.460320893578624483e-02 1.003435661998753892e+00
-9.284999999999998810e-01 1.656660823204782890e-02 1.008939563874181822e+00
-9.284999999999998810e-01 1.369212148805356785e-02 1.020876823712423498e+00
-9.284999999999998810e-01 1.727475822344303955e-02 1.000351395634762941e+00
-9.284999999999998810e-01 1.595749478619217301e-02 1.002573244759549453e+00
-9.274999999999999911e-01 1.345086889433735021e-02 1.006814167419606498e+00
-9.274999999999999911e-01 1.497494415069205130e-02 1.004272084358476924e+00
-9.274999999999999911e-01 1.800421620881485080e-02 1.001965951787386233e+00
-9.274999999999999911e-01 1.668445066446375483e-02 1.002168344198074879e+00
-9.274999999999999911e-01 1.551285556857256130e-02 1.015865119003841466e+00
-9.274999999999999911e-01 1.558801757480703619e-02 1.004295277557004207e+00
-9.274999999999999911e-01 1.517542787102117187e-02 1.000860403118149389e+00
-9.274999999999999911e-01 1.599847473669348957e-02 1.000023060739415381e+00
-9.274999999999999911e-01 1.003805581996244575e-02 1.006717883814802317e+00
-9.264999999999998792e-01 1.395506239498828412e-02 1.027249576730016711e+00
-9.264999999999998792e-01 1.566893162372368781e-02 1.002959492049400048e+00
-9.264999999999998792e-01 1.683556739118566986e-02 1.000418523932641301e+00
-9.264999999999998792e-01 1.580369201966224865e-02 1.010601930965147055e+00
-9.264999999999998792e-01 1.700507128608942306e-02 1.001166523226637350e+00
-9.254999999999999893e-01 1.459371880392685943e-02 1.003063256045747087e+00
-9.254999999999999893e-01 1.799709294481976335e-02 1.002759628533160807e+00
-9.254999999999999893e-01 1.288433870358884903e-02 1.005271390896510741e+00
-9.254999999999999893e-01 1.664333635189411270e-02 1.001629028211501904e+00
-9.254999999999999893e-01 1.357112981666635729e-02 1.023406757454512039e+00
-9.254999999999999893e-01 1.245292287454818035e-02 1.015638029432060163e+00
-9.244999999999998774e-01 1.589174949197671993e-02 1.000014650579516884e+00
-9.244999999999998774e-01 1.414053784390079463e-02 1.004490422426199459e+00
-9.244999999999998774e-01 1.315299999346931231e-02 1.000122261152813552e+00
-9.244999999999998774e-01 1.417471745277205583e-02 1.002714124999299017e+00
-9.244999999999998774e-01 1.491861645734134101e-02 1.014632434596115296e+00
-9.244999999999998774e-01 1.376751387831690217e-02 1.001691875607092719e+00
-9.244999999999998774e-01 1.517890454541421900e-02 1.005139032533949983e+00
-9.234999999999999876e-01 1.179233742121634648e-02 1.005411963436328993e+00
-9.234999999999999876e-01 1.513906175480265841e-02 1.001310485063346523e+00
-9.234999999999999876e-01 1.579597852975323652e-02 1.014930106485296024e+00
-9.234999999999999876e-01 1.456854649176449884e-02 1.005610957837472341e+00
-9.234999999999999876e-01 1.641755775199741849e-02 1.001615971842410246e+00
-9.224999999999998757e-01 1.509609609831958840e-02 1.001137726360554536e+00
-9.224999999999998757e-01 1.798790092970676754e-02 1.001768432168417045e+00
-9.224999999999998757e-01 1.507949758448198958e-02 1.010521904879602362e+00
-9.224999999999998757e-01 1.703025705748339655e-02 1.002523460516194342e+00
-9.224999999999998757e-01 7.682337892557154725e-04 -3.251858087994512481e+00
-9.224999999999998757e-01 1.287583787895321165e-02 1.002890510492586040e+00
-9.224999999999998757e-01 1.025223335395114913e-02 1.017690128000595440e+00
-9.224999999999998757e-01 1.716617091470028569e-02 1.001344038890267463e+00
-9.214999999999999858e-01 1.223212630859754797e-02 1.040110826621009732e+00
-9.214999999999999858e-01 1.078559050109803054e-02 1.005693517218574140e+00
-9.214999999999999858e-01 1.650474421136515629e-02 1.000598050351556356e+00
-9.214999999999999858e-01 1.199219870891178076e-02 1.008578521111863413e+00
-9.214999999999999858e-01 1.601053079196357656e-02 1.001690591466397828e+00
-9.214999999999999858e-01 1.234711750114955708e-02 1.011202937734567708e+00
-9.214999999999999858e-01 1.310451993902074161e-02 1.012055512517928690e+00
-9.214999999999999858e-01 1.593695632024769854e-02 1.002140161536555274e+00
-9.214999999999999858e-01 1.147841076087240120e-02 1.006257002470152262e+00
-9.204999999999998739e-01 9.796531388373842450e-03 1.007086693785439913e+00
-9.204999999999998739e-01 1.625724028064180066e-02 1.003718621480450324e+00
-9.204999999999998739e-01 1.524541421415721507e-02 1.006267407653968826e+00
-9.204999999999998739e-01 1.572990603320994010e-02 1.001185800378756152e+00
-9.204999999999998739e-01 1.533751427609116903e-02 1.000236839870721317e+00
-9.204999999999998739e-01 1.405011832632727109e-02 1.007908266299266664e+00
-9.204999999999998739e-01 1.304628290836161268e-02 1.002602523523101974e+00
-9.194999999999999840e-01 1.514968576001372684e-02 1.003072506322875812e+00
-9.194999999999999840e-01 1.903143923262753251e-02 1.000835967990767239e+00
-9.194999999999999840e-01 1.450835071950093771e-02 1.000263567575642387e+00
-9.194999999999999840e-01 1.485817805155945602e-02 1.023858898751238700e+00
-9.194999999999999840e-01 8.847842335891725751e-03 1.013417351690281132e+00
-9.194999999999999840e-01 1.604804536475875482e-02 1.000260080319353762e+00
-9.194999999999999840e-01 1.588904794318525548e-02 1.001309218840187309e+00
-9.194999999999999840e-01 1.472373133488264624e-02 1.003200768818852229e+00
-9.194999999999999840e-01 1.571196031958076167e-02 1.004817657147780707e+00
-9.194999999999999840e-01 1.380974009085609959e-02 1.000179107526851796e+00
-9.194999999999999840e-01 1.308952287197991809e-02 1.005930304492934191e+00
-9.194999999999999840e-01 1.711402869162378243e-02 1.006656890316042885e+00
-9.194999999999999840e-01 1.559989651898827968e-02 1.004990342322252150e+00
-9.194999999999999840e-01 1.505294697373145418e-02 1.003566347613101595e+00
-9.194999999999999840e-01 1.554843355533491039e-02 1.001466573724205444e+00
-9.194999999999999840e-01 1.617991412839538470e-02 1.001020283702751756e+00
-9.184999999999998721e-01 1.486218523514973473e-02 1.006103821179613611e+00
-9.184999999999998721e-01 1.316198095745312394e-02 1.034483218354401046e+00
-9.184999999999998721e-01 1.235776476796042814e-02 1.008787839858947155e+00
-9.184999999999998721e-01 1.542315180403441670e-02 1.001838469056164360e+00
-9.184999999999998721e-01 1.364833951540707010e-02 1.007091254167827632e+00
-9.174999999999999822e-01 1.387991590949012172e-02 1.007981416613060066e+00
-9.174999999999999822e-01 1.568991503733540085e-02 1.002680711731315233e+00
-9.174999999999999822e-01 1.441306644168482282e-02 1.003477393968992937e+00
-9.174999999999999822e-01 1.505382938385800042e-02 1.006557453089041099e+00
-9.174999999999999822e-01 1.329967451565636921e-02 1.004314098972601821e+00
-9.174999999999999822e-01 1.538322358447554057e-02 1.002882333923473368e+00
-9.164999999999998703e-01 1.471791232146399224e-02 1.005403064000967017e+00
-9.164999999999998703e-01 1.746189655590264789e-02 1.000366520911426749e+00
-9.164999999999998703e-01 1.407234383301299643e-02 1.004143834407896119e+00
-9.164999999999998703e-01 1.273668372950258372e-02 1.002877963173602227e+00
-9.164999999999998703e-01 1.654587248517370643e-02 1.000868939404294888e+00
-9.164999999999998703e-01 1.651465122958460305e-02 1.000920212405213228e+00
-9.164999999999998703e-01 1.111724824407630229e-02 1.003594584764120556e+00
-9.164999999999998703e-01 1.603636869121200653e-02 1.006885898164899151e+00
-9.164999999999998703e-01 1.556129950109123167e-02 1.001642532811402253e+00
-9.154999999999999805e-01 1.592912422401221093e-02 1.008159686499903840e+00
-9.154999999999999805e-01 1.328670397938203421e-02 1.001021499747454691e+00
-9.154999999999999805e-01 9.343455780724570572e-03 1.013939444074736906e+00
-9.154999999999999805e-01 1.727620820835278417e-02 1.003426185912854596e+00
-9.154999999999999805e-01 8.472598923392098483e-03 1.029871652316757924e+00
-9.154999999999999805e-01 1.585643794190155081e-02 1.001732673385000272e+00
-9.154999999999999805e-01 1.166346026863547547e-02 1.006222687895123258e+00
-9.154999999999999805e-01 1.796516205820815684e-02 1.004830646045214104e+00
-9.154999999999999805e-01 1.494217286284472285e-02 1.010943064493083687e+00
-9.144999999999998685e-01 1.416018329601176351e-02 1.001758492949238688e+00
-9.144999999999998685e-01 1.564049432228399941e-02 1.000797950501589817e+00
-9.144999999999998685e-01 1.607601582191110767e-02 1.000966787761530252e+00
-9.144999999999998685e-01 1.461719382934047878e-02 1.003165796690853373e+00
-9.144999999999998685e-01 1.807940647220576680e-02 1.001600097170141312e+00
-9.144999999999998685e-01 1.481357761462154428e-02 1.006332227811376878e+00
-9.134999999999999787e-01 1.252708046395860017e-02 1.042820238031701763e+00
-9.134999999999999787e-01 1.665649545828590608e-02 1.000806627598451737e+00
-9.134999999999999787e-01 1.489979021021365854e-02 1.002741414338480075e+00
-9.134999999999999787e-01 1.566591454496794530e-02 1.004875080991889380e+00
-9.124999999999998668e-01 1.797866336012434244e-02 1.000456870353043426e+00
-9.124999999999998668e-01 1.422357322043878852e-02 1.000416767298074827e+00
-9.124999999999998668e-01 1.737070813121683807e-02 1.001258175014954954e+00
-9.124999999999998668e-01 1.587566547766980710e-02 1.046059999039403277e+00
-9.124999999999998668e-01 1.581445835922917764e-02 1.000818034848280691e+00
-9.124999999999998668e-01 1.373536382119727034e-02 1.000094362652237834e+00
-9.124999999999998668e-01 1.514096811062441879e-02 1.006309733376374416e+00
-9.124999999999998668e-01 1.310369541108325452e-02 1.002822155611988952e+00
-9.124999999999998668e-01 1.408633119119951337e-02 1.010450749162339568e+00
-9.124999999999998668e-01 1.565402481325771367e-02 1.001445091317749725e+00
-9.114999999999999769e-01 1.720649823384551302e-02 1.001381558919006043e+00
-9.114999999999999769e-01 1.509827469438790488e-02 1.001553705439337749e+00
-9.114999999999999769e-01 1.445799719864383943e-02 1.007853365250310107e+00
-9.114999999999999769e-01 1.521046652669555410e-02 1.004153892965666373e+00
-9.114999999999999769e-01 1.642731074884786965e-02 1.000443531293591759e+00
-9.114999999999999769e-01 1.443071357068329355e-02 1.005039108218801713e+00
-9.104999999999998650e-01 1.432610646980990096e-02 1.012595311102850948e+00
-9.104999999999998650e-01 1.272293018233820565e-02 1.006810031291127672e+00
-9.104999999999998650e-01 1.493618156441840587e-02 1.000984625653686289e+00
-9.104999999999998650e-01 6.729444028590448159e-04 -1.342101308108573976e+00
-9.104999999999998650e-01 1.382345945664828143e-02 1.010745459695083781e+00
-9.104999999999998650e-01 1.138240006300564842e-02 1.036618275805374800e+00
-9.104999999999998650e-01 1.393859658939762547e-02 1.005789911132644932e+00
-9.094999999999999751e-01 1.342666700282361784e-02 1.000859360085439187e+00
-9.094999999999999751e-01 1.575078694913310470e-02 1.000978682013305310e+00
-9.094999999999999751e-01 1.090192391257565480e-02 1.005964287709253169e+00
-9.094999999999999751e-01 1.473487402688540386e-02 1.000946482011072947e+00
-9.094999999999999751e-01 1.191153778607794908e-02 1.003481151304740360e+00
-9.094999999999999751e-01 1.451783563504008105e-02 1.006309667551198439e+00
-9.094999999999999751e-01 1.409417947027797637e-02 1.007925021260929421e+00
-9.094999999999999751e-01 1.636983791799819996e-02 1.004014775114402180e+00
-9.094999999999999751e-01 1.587553267852366556e-02 1.000764685092571771e+00
-9.084999999999998632e-01 1.587903882818408191e-02 1.006437562463651236e+00
-9.084999999999998632e-01 1.553451997139644082e-02 1.013394592349848411e+00
-9.084999999999998632e-01 1.815517664423623584e-02 1.004638793488797477e+00
-9.084999999999998632e-01 1.310757879164806822e-02 1.001090319272273987e+00
-9.084999999999998632e-01 1.593813587577065996e-02 1.009031064505732544e+00
-9.074999999999999734e-01 1.346861631643912760e-02 1.000456740257029464e+00
-9.074999999999999734e-01 1.438703454825590415e-02 1.001702611935614273e+00
-9.074999999999999734e-01 1.551161477421325249e-02 1.002863522723428158e+00
-9.074999999999999734e-01 1.386951218219502693e-02 1.016650794369870159e+00
-9.074999999999999734e-01 1.358685271714647584e-02 1.000584921884422496e+00
-9.074999999999999734e-01 1.763144353122678837e-02 1.000818541971909115e+00
-9.074999999999999734e-01 1.654077636358249753e-02 1.000778286878104106e+00
-9.074999999999999734e-01 1.505479253167991971e-02 1.001126945388234324e+00
-9.074999999999999734e-01 1.354335248199090014e-02 1.017093315108169138e+00
-9.074999999999999734e-01 1.119678132063528682e-02 1.022206012754740989e+00
-9.074999999999999734e-01 1.553146785019313310e-02 1.093093608483861612e+00
-9.064999999999998614e-01 1.674684495526787206e-02 1.001116067422480160e+00
-9.064999999999998614e-01 1.543529566989517571e-02 1.000824071959526940e+00
-9.064999999999998614e-01 1.398936635937440658e-02 1.018785809563318212e+00
-9.054999999999999716e-01 1.515635937285126321e-02 1.004126135753656612e+00
-9.054999999999999716e-01 1.514215607064201864e-02 1.019849818009888942e+00
-9.044999999999998597e-01 1.556590603926149424e-02 1.000293042844224933e+00
-9.044999999999998597e-01 1.502561330051911843e-02 1.002427255904082770e+00
-9.044999999999998597e-01 1.553313312516532360e-02 1.004136108095621038e+00
-9.044999999999998597e-01 1.580891526148918771e-02 1.007916650958906812e+00
-9.044999999999998597e-01 1.520995409782043006e-02 1.020540449006086536e+00
-9.034999999999999698e-01 9.232773728992112877e-03 1.048062427883191816e+00
-9.034999999999999698e-01 1.283048257781945097e-02 1.013367847463751081e+00
-9.034999999999999698e-01 1.407304187754015654e-02 1.004309671828893302e+00
-9.034999999999999698e-01 1.764329142565133901e-02 1.000775880972201382e+00
-9.034999999999999698e-01 1.607810388053534240e-02 1.001437845268524418e+00
-9.034999999999999698e-01 1.699868287505600442e-02 1.001623234759966063e+00
-9.024999999999998579e-01 1.330532332506158960e-02 1.004356813777479873e+00
-9.024999999999998579e-01 1.510685920809503972e-02 1.004967084716212433e+00
-9.024999999999998579e-01 1.660932294511702212e-02 1.001872715983712636e+00
-9.024999999999998579e-01 1.518623245050864518e-02 1.020463670886760710e+00
-9.014999999999999680e-01 1.397109452495639247e-02 1.006040727252630163e+00
-9.014999999999999680e-01 1.554704790543324708e-02 1.000988381587260223e+00
-9.014999999999999680e-01 1.672433781470642963e-02 1.001086207486764801e+00
-9.014999999999999680e-01 7.796567959706505145e-03 1.046307188227296514e+00
-9.014999999999999680e-01 1.199951905032273052e-02 1.048289460040771282e+00
-9.014999999999999680e-01 1.622634547819953171e-02 1.000910310554801397e+00
-9.004999999999998561e-01 1.456171422523555407e-02 1.000971044071121918e+00
-9.004999999999998561e-01 1.526588128893399850e-02 1.013052995826172475e+00
-9.004999999999998561e-01 1.202910201571274519e-02 1.002363268654415718e+00
-9.004999999999998561e-01 1.649306280048805015e-02 1.001864778392737909e+00
-9.004999999999998561e-01 1.650925882561785421e-02 1.002979492727032573e+00
-9.004999999999998561e-01 1.755275147115705967e-02 1.002083288604189715e+00
-9.004999999999998561e-01 1.561717410599307992e-02 1.001500413516341226e+00
-9.004999999999998561e-01 1.259891533646097413e-02 1.025464883092929824e+00
-8.994999999999999662e-01 1.262847484913282199e-02 1.010909995358817204e+00
-8.994999999999999662e-01 1.479849064186732413e-02 1.002255200888434672e+00
-8.994999999999999662e-01 1.072418345223186825e-02 1.156494187139290419e+00
-8.994999999999999662e-01 1.357313732882183856e-02 1.029259674940167679e+00
-8.994999999999999662e-01 1.674097204663949068e-02 1.002853641886323866e+00
-8.994999999999999662e-01 1.379861139700931660e-02 1.013821331142151339e+00
-8.994999999999999662e-01 1.313493334419561787e-02 1.045038858248242386e+00
-8.994999999999999662e-01 1.467212557479005870e-02 1.004300767593490740e+00
-8.994999999999999662e-01 1.507263753773240185e-02 1.006747839539964939e+00
-8.994999999999999662e-01 1.424554085594350109e-02 1.026912636967478365e+00
-8.994999999999999662e-01 1.247083210768970551e-02 1.011557893688082244e+00
-8.994999999999999662e-01 1.338239767126427927e-02 1.057081637924380813e+00
-8.984999999999998543e-01 1.013311278207479696e-02 1.031776370029600320e+00
-8.984999999999998543e-01 1.746590885622935699e-02 1.000367103037793193e+00
-8.984999999999998543e-01 1.631433570511406708e-02 1.002053846000928949e+00
-8.984999999999998543e-01 1.580012130284505142e-02 1.001106944851318126e+00
-8.984999999999998543e-01 1.194719582736753979e-02 1.005208539277504309e+00
-8.984999999999998543e-01 1.382617729477617248e-02 1.001601607370763425e+00
-8.984999999999998543e-01 1.384217301492720285e-02 1.003121813449206146e+00
-8.984999999999998543e-01 1.708627441087551269e-02 1.000945692675965448e+00
-8.984999999999998543e-01 1.669698702628577211e-02 1.002815042993555839e+00
-8.974999999999999645e-01 1.037145176197888478e-02 1.003388525347282290e+00
-8.974999999999999645e-01 1.457970240940148314e-02 1.000386295089817912e+00
-8.974999999999999645e-01 1.694220299963264051e-02 1.000392699636417637e+00
-8.974999999999999645e-01 1.463947852842987021e-02 1.002409814181445702e+00
-8.974999999999999645e-01 1.538230925802571390e-02 1.000605871671131464e+00
-8.964999999999998526e-01 1.679819683407735367e-02 1.000181641539039434e+00
-8.964999999999998526e-01 1.502022493920776580e-02 1.010058163925461105e+00
-8.964999999999998526e-01 1.293702554941087227e-02 1.012994858297848300e+00
-8.964999999999998526e-01 1.524315276092665095e-02 1.005304793764284499e+00
-8.964999999999998526e-01 1.691164336402050522e-02 1.004587904373517748e+00
-8.964999999999998526e-01 1.368776324659722911e-02 1.002880510982364637e+00
-8.954999999999999627e-01 1.790407226718145756e-02 1.003509520468595317e+00
-8.954999999999999627e-01 1.289744423963719300e-02 1.000308388035239693e+00
-8.954999999999999627e-01 1.805211167104271361e-02 1.001390256417707514e+00
-8.954999999999999627e-01 1.616593537381559934e-02 1.001269568434289825e+00
-8.954999999999999627e-01 1.572563508228774776e-02 1.000951083311917955e+00
-8.944999999999998508e-01 1.651472935526526395e-02 1.000252500045134996e+00
-8.944999999999998508e-01 1.418004134813605557e-02 1.001585167771696261e+00
-8.944999999999998508e-01 1.376094199792657520e-02 1.018378671005054192e+00
-8.944999999999998508e-01 1.608038667931544277e-02 1.003995619776529624e+00
-8.944999999999998508e-01 1.437171743542952143e-02 1.001604428459608620e+00
-8.944999999999998508e-01 1.136781019888314162e-02 1.015088959016194003e+00
-8.944999999999998508e-01 1.601271087533705229e-02 1.008273463574806961e+00
-8.944999999999998508e-01 1.649361782546905283e-02 1.000206611628482678e+00
-8.944999999999998508e-01 1.169330463971781850e-02 1.005708025073814627e+00
-8.944999999999998508e-01 1.626552942472084956e-02 1.001034084434794691e+00
-8.934999999999999609e-01 1.177228569408803049e-02 1.015985074790417997e+00
-8.934999999999999609e-01 1.037579949486427434e-02 1.025779991957437520e+00
-8.934999999999999609e-01 1.106439310149987844e-02 1.000712365725604736e+00
-8.934999999999999609e-01 1.494078568887172685e-02 1.004255732233690024e+00
-8.934999999999999609e-01 1.610003539906103981e-02 1.002290843111576901e+00
-8.934999999999999609e-01 1.610194951200746849e-02 1.000512755161975464e+00
-8.934999999999999609e-01 1.491040716874408867e-02 1.023238811413550664e+00
-8.934999999999999609e-01 1.493797424194719808e-02 1.005003195314720488e+00
-8.934999999999999609e-01 9.898383017208849111e-03 1.030875027935062915e+00
-8.934999999999999609e-01 1.696921540920280636e-02 1.002511545086083089e+00
-8.924999999999998490e-01 1.341965137737349129e-02 1.000538176525273881e+00
-8.924999999999998490e-01 1.506605070079522143e-02 1.000624459646216824e+00
-8.924999999999998490e-01 1.478566420620537093e-02 1.000136895429848849e+00
-8.924999999999998490e-01 1.607616444907685946e-02 1.002667268494229935e+00
-8.924999999999998490e-01 1.663065540279881627e-02 1.011621289668437340e+00
-8.924999999999998490e-01 1.546182625739479094e-02 1.003218721341935016e+00
-8.924999999999998490e-01 1.414720289454149404e-02 1.013090767622902399e+00
-8.924999999999998490e-01 1.696771869459866994e-02 1.001136457160746618e+00
-8.924999999999998490e-01 1.648161057970603735e-02 1.001349637959100924e+00
-8.924999999999998490e-01 1.504872040009824080e-02 1.003039714869615073e+00
-8.924999999999998490e-01 1.605179730041164307e-02 1.001223935104728735e+00
-8.924999999999998490e-01 1.083012319120884963e-02 1.000215351707931077e+00
-8.924999999999998490e-01 1.452223376721401178e-02 1.002558275945415467e+00
-8.924999999999998490e-01 1.369669504888394729e-02 1.000153653502047435e+00
-8.924999999999998490e-01 1.631820056252074325e-02 1.005064485835751587e+00
-8.924999999999998490e-01 1.554960173723364536e-02 1.000999610894721004e+00
-8.914999999999999591e-01 1.522500458793356326e-02 1.000686057252227590e+00
-8.914999999999999591e-01 1.573270431979542291e-02 1.002384464446735901e+00
-8.914999999999999591e-01 1.671641685209047240e-02 1.000490589378223882e+00
-8.914999999999999591e-01 1.343435575578996559e-02 1.015471381589813982e+00
-8.914999999999999591e-01 1.536733051771208870e-02 1.000188978384397132e+00
-8.904999999999998472e-01 1.682859393009662752e-02 1.000791558657583957e+00
-8.904999999999998472e-01 1.643778156241992167e-02 1.002868632547927907e+00
-8.904999999999998472e-01 1.688666476039218239e-02 1.003312727040416075e+00
-8.904999999999998472e-01 1.579266771299708827e-02 1.004286762687648826e+00
-8.904999999999998472e-01 1.674236651092077255e-02 1.004547570556435510e+00
-8.904999999999998472e-01 1.098973787435118116e-02 1.013308789031970081e+00
-8.904999999999998472e-01 1.301610519975388708e-02 1.011219833622887920e+00
-8.904999999999998472e-01 1.648025998002465228e-02 1.001054229721022537e+00
-8.894999999999999574e-01 1.715911547083328464e-02 1.001389758541430863e+00
-8.894999999999999574e-01 1.155877123126427229e-02 1.013813644085963306e+00
-8.894999999999999574e-01 1.788515362248185858e-02 1.001569270472600692e+00
-8.894999999999999574e-01 1.587599399823511406e-02 1.001729447013389729e+00
-8.884999999999998455e-01 1.649265514908821589e-02 1.006168339611214213e+00
-8.884999999999998455e-01 1.469100768381679904e-02 1.002747786212764725e+00
-8.884999999999998455e-01 1.279011553733342549e-02 1.013938511840275503e+00
-8.884999999999998455e-01 1.524246042279668589e-02 1.003440623208918803e+00
-8.884999999999998455e-01 1.538252240018730781e-02 1.001689661076436977e+00
-8.884999999999998455e-01 1.763436401032763071e-02 1.001830692279424895e+00
-8.884999999999998455e-01 1.557255546285445623e-02 1.002248018112102290e+00
-8.884999999999998455e-01 1.306308000354131256e-02 1.007666392119829224e+00
-8.884999999999998455e-01 1.214952781420024219e-02 1.015907324073788365e+00
-8.884999999999998455e-01 1.637910683558262137e-02 1.005842974300870107e+00
-8.884999999999998455e-01 1.519711288702530610e-02 1.000576414082155585e+00
-8.884999999999998455e-01 1.667771419600021926e-02 1.027697941496233058e+00
-8.884999999999998455e-01 1.717941920470008113e-02 1.004333185306619525e+00
-8.884999999999998455e-01 8.595735825127489085e-03 1.034209272379053246e+00
-8.874999999999999556e-01 1.510363602767455550e-02 1.000016421690648860e+00
-8.874999999999999556e-01 1.767968243261004713e-02 1.001204831735938772e+00
-8.874999999999999556e-01 1.538711335110368172e-02 1.003673075601684950e+00
-8.874999999999999556e-01 1.580640722499389306e-02 1.004606632888125795e+00
-8.874999999999999556e-01 1.532730916700440066e-02 1.012716320551297899e+00
-8.874999999999999556e-01 1.487592066212030384e-02 1.013767158874868235e+00
-8.874999999999999556e-01 1.670942188616080654e-02 1.001302116054713975e+00
-8.874999999999999556e-01 1.617455953891151418e-02 1.005663036544341526e+00
-8.874999999999999556e-01 1.324886025313532466e-02 1.010791105617643737e+00
-8.874999999999999556e-01 1.019148725283415026e-02 1.002269451365577435e+00
-8.874999999999999556e-01 1.894280761697400908e-02 1.000082384399683333e+00
-8.874999999999999556e-01 1.517669743774339650e-02 1.007150563748834715e+00
-8.874999999999999556e-01 1.438531390281396274e-02 1.004749729888136933e+00
-8.874999999999999556e-01 1.450825937193341714e-02 1.016243855178616373e+00
-8.864999999999998437e-01 1.765654629861022895e-02 1.002544634897370779e+00
-8.864999999999998437e-01 1.632186292951895087e-02 1.000178347941739654e+00
-8.864999999999998437e-01 1.403076227136220051e-02 1.027614395156655203e+00
-8.864999999999998437e-01 1.565003049551037459e-02 1.000718075976374744e+00
-8.864999999999998437e-01 1.089718882651103185e-02 1.012514673039670576e+00
-8.864999999999998437e-01 1.570706785312522835e-02 1.000269846877872792e+00
-8.864999999999998437e-01 1.069803966205748295e-02 1.047186046935301373e+00
-8.864999999999998437e-01 1.371947775835307380e-02 1.031089846063633741e+00
-8.864999999999998437e-01 1.740885533435565513e-02 1.002372467681408974e+00
-8.864999999999998437e-01 1.472885809399487357e-02 1.005705065170479084e+00
-8.864999999999998437e-01 1.575858580059821476e-02 1.002633371863805634e+00
-8.864999999999998437e-01 1.579687186095974846e-02 1.001252942114137401e+00
-8.864999999999998437e-01 1.739844432916188774e-02 1.001699460228008043e+00
-8.854999999999999538e-01 1.174458358540408399e-02 1.003955857761911652e+00
-8.854999999999999538e-01 1.235856796253979872e-02 1.002923782767208172e+00
-8.854999999999999538e-01 1.551200518057820575e-02 1.002731125543186774e+00
-8.854999999999999538e-01 1.484040518308282069e-02 1.009847417149777327e+00
-8.854999999999999538e-01 1.781922905236799082e-02 1.001323829510705865e+00
-8.854999999999999538e-01 1.448082836218761611e-02 1.000580101294105129e+00
-8.854999999999999538e-01 1.450922718565372457e-02 1.003632729251135780e+00
-8.854999999999999538e-01 1.698765459870545114e-02 1.000084530033962915e+00
-8.854999999999999538e-01 1.414573060182995959e-02 1.001188325019246594e+00
-8.854999999999999538e-01 8.545481935402700346e-03 1.005168586080424031e+00
-8.854999999999999538e-01 1.368959467568801533e-02 1.003815242303491395e+00
-8.854999999999999538e-01 1.366775721551085135e-02 1.026458300367326437e+00
-8.854999999999999538e-01 1.518413242704608722e-02 1.021013068965409332e+00
-8.844999999999998419e-01 1.797212447832640878e-02 1.000036628875545119e+00
-8.844999999999998419e-01 1.394152887097144418e-02 1.008542232865472510e+00
-8.844999999999998419e-01 1.530847067361429913e-02 1.000476070249063598e+00
-8.844999999999998419e-01 1.384286026483328748e-02 1.006337150546944725e+00
-8.844999999999998419e-01 9.962720560524555152e-03 1.050818924504742791e+00
-8.844999999999998419e-01 1.143171522859640250e-02 1.002198049453987494e+00
-8.844999999999998419e-01 1.454092425315008791e-02 1.000881431797554511e+00
-8.834999999999999520e-01 1.663170711813261038e-02 1.000512968692438998e+00
-8.834999999999999520e-01 1.479800171872078067e-02 1.000155856730275516e+00
-8.834999999999999520e-01 1.502711093837781273e-02 1.001338562907183150e+00
-8.834999999999999520e-01 1.455715390666139503e-02 1.001593136868319966e+00
-8.834999999999999520e-01 8.023707675422207461e-03 1.003653775613634558e+00
-8.834999999999999520e-01 1.527878297850574982e-02 1.005765135991385728e+00
-8.834999999999999520e-01 1.503728197612291123e-02 1.001404524268597163e+00
-8.824999999999998401e-01 1.621157467699885224e-02 1.006069354041408515e+00
-8.824999999999998401e-01 8.328917654524932435e-03 1.001546674512079127e+00
-8.824999999999998401e-01 1.493482361026039242e-02 1.002885470710012772e+00
-8.824999999999998401e-01 1.485772919734286435e-02 1.004507572086446698e+00
-8.824999999999998401e-01 1.168928681487866814e-02 1.001718639626001384e+00
-8.824999999999998401e-01 1.436652214219397324e-02 1.010153686895065128e+00
-8.824999999999998401e-01 1.721212887880695097e-02 1.000276075494503703e+00
-8.814999999999999503e-01 1.722322322351325236e-02 1.000151939595345318e+00
-8.814999999999999503e-01 1.166956640369344600e-02 1.012734992882723173e+00
-8.814999999999999503e-01 1.288107535670621022e-02 1.005975442585682833e+00
-8.814999999999999503e-01 1.842408729133403894e-02 1.000017050201014612e+00
-8.814999999999999503e-01 1.552537924020141319e-02 1.001729053972666650e+00
-8.814999999999999503e-01 1.295912796124457263e-02 1.009705098265602174e+00
-8.814999999999999503e-01 1.336119873876769927e-02 1.002348992584666476e+00
-8.814999999999999503e-01 1.559211886556434098e-02 1.004065702840251761e+00
-8.814999999999999503e-01 1.394115880166798757e-02 1.000829720268668677e+00
-8.804999999999998384e-01 1.444641898834350159e-02 1.005701979989682027e+00
-8.804999999999998384e-01 1.394985907637567336e-02 1.022397218484329517e+00
-8.804999999999998384e-01 1.574355014950042791e-02 1.004120791966747639e+00
-8.804999999999998384e-01 1.444069631333854721e-02 1.010424193218018463e+00
-8.804999999999998384e-01 1.548827539125707635e-02 1.009658939565676983e+00
-8.804999999999998384e-01 1.333897966054612555e-02 1.008218624248652828e+00
-8.804999999999998384e-01 1.354096665558834206e-02 1.000169085889893061e+00
-8.804999999999998384e-01 1.543340583384280804e-02 1.003624842991975630e+00
-8.804999999999998384e-01 1.542303796792435060e-02 1.003785632523529259e+00
-8.804999999999998384e-01 1.597505549488339310e-02 1.000178083943694229e+00
-8.804999999999998384e-01 1.741310887715364492e-02 1.002961383362207082e+00
-8.804999999999998384e-01 1.404504580544839801e-02 1.004933935612573714e+00
-8.804999999999998384e-01 1.608287929464254432e-02 1.010295606782803501e+00
-8.804999999999998384e-01 1.731705351652078340e-02 1.002894545902369705e+00
-8.804999999999998384e-01 1.019996908471479391e-02 1.022233709077720043e+00
-8.794999999999999485e-01 1.555398977859187397e-02 1.005833086922758524e+00
-8.794999999999999485e-01 1.340364931102562031e-02 1.003273485274569943e+00
-8.794999999999999485e-01 1.418336315846727320e-02 1.001513005569065307e+00
-8.794999999999999485e-01 1.606710662638833817e-02 1.000555087721228142e+00
-8.794999999999999485e-01 1.603295117079810844e-02 1.003074928363410390e+00
-8.794999999999999485e-01 1.259402017616482322e-02 1.034866223945774433e+00
-8.794999999999999485e-01 1.788317238727720956e-02 1.000622493362321341e+00
-8.794999999999999485e-01 1.471163123080256735e-02 1.030514796384556675e+00
-8.794999999999999485e-01 1.126894536016592209e-02 1.017903126444104744e+00
-8.794999999999999485e-01 1.407540694811445885e-02 1.001063461807060184e+00
-8.794999999999999485e-01 1.406391862297541942e-02 1.000375059568886060e+00
-8.794999999999999485e-01 1.496034243477499005e-02 1.005773942985925151e+00
-8.794999999999999485e-01 6.512657101747855622e-04 -1.874385656207960160e+00
-8.794999999999999485e-01 1.747435398419050490e-02 1.001942133188276518e+00
-8.784999999999998366e-01 1.794249829590499959e-02 1.001854366082707726e+00
-8.784999999999998366e-01 1.156603288678950160e-02 1.000552429866948145e+00
-8.784999999999998366e-01 1.058793023650983663e-02 1.026268610032411210e+00
-8.784999999999998366e-01 1.614780134419776733e-02 1.009670075036935177e+00
-8.784999999999998366e-01 1.771650100380399787e-02 1.004201723426283444e+00
-8.784999999999998366e-01 1.610631720507762002e-02 1.002153344771490318e+00
-8.784999999999998366e-01 7.265749949261027804e-04 4.388165017021096403e+00
-8.784999999999998366e-01 1.225586412238567624e-02 1.056370418447759807e+00
-8.784999999999998366e-01 1.222202613008724868e-02 1.020653942903012812e+00
-8.784999999999998366e-01 1.292101846079282863e-02 1.007453966164243653e+00
-8.774999999999999467e-01 1.239832363521654532e-02 1.005859119761520315e+00
-8.774999999999999467e-01 7.014937195761176318e-04 -2.240305041262466546e+00
-8.774999999999999467e-01 1.658178304881057982e-02 1.001767676612705271e+00
-8.774999999999999467e-01 1.496645611157884463e-02 1.034727494437829520e+00
-8.774999999999999467e-01 1.338680076320520988e-02 1.004674494434275145e+00
-8.774999999999999467e-01 1.300674365305959888e-02 1.002201994882510494e+00
-8.774999999999999467e-01 1.765181361336233892e-02 1.001314109557709164e+00
-8.774999999999999467e-01 1.619570288052485374e-02 1.001238506471942014e+00
-8.774999999999999467e-01 1.366644913052550078e-02 1.011509657741141766e+00
-8.774999999999999467e-01 1.620654478877474672e-02 1.003868021815324196e+00
-8.774999999999999467e-01 9.968770530050170484e-03 1.030261478415179122e+00
-8.764999999999998348e-01 1.475821132589646457e-02 1.002834677554601983e+00
-8.764999999999998348e-01 1.451366669577813101e-02 1.030524921200242972e+00
-8.764999999999998348e-01 1.424793840781494493e-02 1.003775897794263905e+00
-8.764999999999998348e-01 1.502050784334798758e-02 1.012724842555258409e+00
-8.764999999999998348e-01 1.675483945615983961e-02 1.000278445364698898e+00
-8.764999999999998348e-01 1.595278368311261324e-02 1.015040533752187057e+00
-8.764999999999998348e-01 1.519039345936270928e-02 1.003692724011840065e+00
-8.764999999999998348e-01 1.547539004153798865e-02 1.000233675859821592e+00
-8.764999999999998348e-01 1.315133741995496222e-02 1.009877262685709987e+00
-8.764999999999998348e-01 1.334695071026394467e-02 1.000054623686629229e+00
-8.764999999999998348e-01 1.768870511437933835e-02 1.003228211621674637e+00
-8.764999999999998348e-01 1.398452670747347276e-02 1.013977167696230364e+00
-8.754999999999999449e-01 1.401124642164997339e-02 1.002353928801793970e+00
-8.754999999999999449e-01 1.467753427316441893e-02 1.009250698168771887e+00
-8.754999999999999449e-01 1.545838782189064980e-02 1.000915408050136568e+00
-8.754999999999999449e-01 1.646021286622713006e-02 1.000394364559290539e+00
-8.754999999999999449e-01 1.259316968642578902e-02 1.007800304899509003e+00
-8.754999999999999449e-01 1.596508210468687225e-02 1.001933676844081189e+00
-8.754999999999999449e-01 1.522596006726075445e-02 1.019822365054098068e+00
-8.754999999999999449e-01 1.214173762275863599e-02 1.000339794996709886e+00
-8.754999999999999449e-01 1.487023791788537851e-02 1.000280367812456328e+00
-8.754999999999999449e-01 7.919246969364093780e-03 1.013767003323645666e+00
-8.744999999999998330e-01 1.316052858528498487e-02 1.022780229617461956e+00
-8.744999999999998330e-01 1.706340057360277232e-02 1.002803633759695945e+00
-8.744999999999998330e-01 1.587983954990570060e-02 1.009082751190943705e+00
-8.744999999999998330e-01 1.517195093094085220e-02 1.000494377903299981e+00
-8.744999999999998330e-01 1.858553842418153579e-02 1.000185290512994651e+00
-8.744999999999998330e-01 1.333689806762839228e-02 1.028991138485500612e+00
-8.744999999999998330e-01 1.403735116902965485e-02 1.013790158443399925e+00
-8.744999999999998330e-01 1.453299965438249915e-02 1.013651417144257216e+00
-8.744999999999998330e-01 1.767883375791147807e-02 1.001236565069514750e+00
-8.744999999999998330e-01 1.695840510337055101e-02 1.007800523352229138e+00
-8.744999999999998330e-01 1.356557585097871617e-02 1.000363758963561889e+00
-8.744999999999998330e-01 1.084414145458671014e-02 1.026334246306700226e+00
-8.744999999999998330e-01 1.629902267220444817e-02 1.005930025033984432e+00
-8.734999999999999432e-01 9.419426216108625627e-03 1.002167241884564186e+00
-8.734999999999999432e-01 1.409213116498194557e-02 1.041275051985038225e+00
-8.734999999999999432e-01 1.415530213082668090e-02 1.002051816933642758e+00
-8.734999999999999432e-01 1.616571753969516662e-02 1.000065052634011353e+00
-8.734999999999999432e-01 1.625066419728776052e-02 1.000901418137703391e+00
-8.734999999999999432e-01 1.475408382912569809e-02 1.005982546377100162e+00
-8.734999999999999432e-01 7.093409627499056578e-04 2.525231907538181275e+00
-8.724999999999998312e-01 1.289125376088042646e-02 1.019830904958503925e+00
-8.724999999999998312e-01 1.515703640197060310e-02 1.002879697570836059e+00
-8.724999999999998312e-01 1.632119233289812746e-02 1.004009829202852977e+00
-8.724999999999998312e-01 1.579142603338307832e-02 1.000080486912835909e+00
-8.724999999999998312e-01 1.293526443761398685e-02 1.003422503852015035e+00
-8.724999999999998312e-01 1.499265449989104632e-02 1.037864956359837443e+00
-8.724999999999998312e-01 1.490936502886521138e-02 1.017177570860015479e+00
-8.724999999999998312e-01 1.500394278109195602e-02 1.002037881496112615e+00
-8.724999999999998312e-01 1.273138163881708078e-02 1.012157402792680960e+00
-8.724999999999998312e-01 1.370751719134905358e-02 1.003968044788042802e+00
-8.724999999999998312e-01 1.522167451065993722e-02 1.004543320392053740e+00
-8.724999999999998312e-01 1.434997483598391896e-02 1.001571613479889766e+00
-8.714999999999999414e-01 1.590377191350466138e-02 1.002327308215087198e+00
-8.714999999999999414e-01 1.746032938240744264e-02 1.002646246431970090e+00
-8.714999999999999414e-01 1.667003081468820119e-02 1.000540575335219673e+00
-8.714999999999999414e-01 1.566287800588353832e-02 1.012426852129868493e+00
-8.714999999999999414e-01 1.635365935436901980e-02 1.004106945220574421e+00
-8.714999999999999414e-01 1.444760593951262273e-02 1.010023606887050063e+00
-8.714999999999999414e-01 1.321498744518417694e-02 1.010394491532497385e+00
-8.714999999999999414e-01 1.390374055307879060e-02 1.013807828656547505e+00
-8.714999999999999414e-01 1.556984507359798070e-02 1.005794449836583837e+00
-8.714999999999999414e-01 1.621429011404550147e-02 1.006356138304139503e+00
-8.714999999999999414e-01 1.655212268834872422e-02 1.000991156426672690e+00
-8.714999999999999414e-01 1.557696877345901912e-02 1.000490131353033219e+00
-8.704999999999998295e-01 1.529595369932168145e-02 1.009105736782027085e+00
-8.704999999999998295e-01 1.868503540351519610e-02 1.000121661655620331e+00
-8.704999999999998295e-01 1.613586216255591052e-02 1.000596119185444888e+00
-8.704999999999998295e-01 1.388302854908370944e-02 1.018024833882072766e+00
-8.704999999999998295e-01 1.689200887289871861e-02 1.000210416833361649e+00
-8.704999999999998295e-01 1.266007388958417280e-02 1.010564386167831286e+00
-8.704999999999998295e-01 1.601072025351804248e-02 1.002691455820120314e+00
-8.704999999999998295e-01 1.064725352085336280e-02 1.000883018461830698e+00
-8.704999999999998295e-01 1.248127197685358451e-02 1.013935336201872150e+00
-8.704999999999998295e-01 1.545532730084494405e-02 1.003701434949116011e+00
-8.704999999999998295e-01 1.498294183816549843e-02 1.002230281634830522e+00
-8.704999999999998295e-01 1.446030013921258302e-02 1.002198999035140314e+00
-8.704999999999998295e-01 1.356775290602373583e-02 1.003157251199373157e+00
-8.704999999999998295e-01 1.377678607544188284e-02 1.004315147217884840e+00
-8.694999999999999396e-01 1.656752049137278499e-02 1.004638665737632275e+00
-8.694999999999999396e-01 1.484207959886449553e-02 1.012722163707276302e+00
-8.694999999999999396e-01 1.619580877672606098e-02 1.000698303770700903e+00
-8.694999999999999396e-01 8.484203391556137397e-03 1.014295761965019693e+00
-8.694999999999999396e-01 1.276512410487516160e-02 1.022695181118008945e+00
-8.694999999999999396e-01 1.571100150309195573e-02 1.000596513975642532e+00
-8.694999999999999396e-01 1.402732725743138439e-02 1.007370176231682235e+00
-8.694999999999999396e-01 1.258179299549764402e-02 1.004597363186856551e+00
-8.694999999999999396e-01 1.625942783080873075e-02 1.002196730083843468e+00
-8.694999999999999396e-01 1.355907859468824528e-02 1.005524218643080836e+00
-8.694999999999999396e-01 1.426855790605129418e-02 1.003594055269843466e+00
-8.694999999999999396e-01 1.560121239580943703e-02 1.010770217990323516e+00
-8.694999999999999396e-01 1.653592222804873071e-02 1.001439279524436454e+00
-8.694999999999999396e-01 1.117878574607695727e-02 1.017922464425387696e+00
-8.694999999999999396e-01 1.602221765200565959e-02 1.004657023395744364e+00
-8.694999999999999396e-01 1.562033614322414811e-02 1.001843487176123260e+00
-8.684999999999998277e-01 1.554411737736272579e-02 1.001597869513485950e+00
-8.684999999999998277e-01 1.730222311745211600e-02 1.001099861341685493e+00
-8.684999999999998277e-01 1.326623314055559895e-02 1.013587522285204878e+00
-8.684999999999998277e-01 1.518035627457397542e-02 1.023873573445689411e+00
-8.684999999999998277e-01 1.419643480074095354e-02 1.000219210755763699e+00
-8.684999999999998277e-01 1.584267127731310912e-02 1.003387761981372694e+00
-8.684999999999998277e-01 1.333394518007983628e-02 1.016123008221365476e+00
-8.684999999999998277e-01 1.583156971236603094e-02 1.004813789076298480e+00
-8.684999999999998277e-01 1.326295115046673308e-02 1.003437328813710838e+00
-8.674999999999999378e-01 1.605965179272849513e-02 1.001451064117552914e+00
-8.674999999999999378e-01 1.505178113753098158e-02 1.000435833519632167e+00
-8.674999999999999378e-01 1.564429245064985138e-02 1.001920074039390096e+00
-8.674999999999999378e-01 1.633807386448817012e-02 1.000719088711625959e+00
-8.674999999999999378e-01 1.730000383933782970e-02 1.003443327074085456e+00
-8.674999999999999378e-01 1.493826325979122696e-02 1.004752631092241888e+00
-8.664999999999998259e-01 1.805531156577284274e-02 1.003372946236887220e+00
-8.664999999999998259e-01 1.552228955163539002e-02 1.017807644570320358e+00
-8.664999999999998259e-01 1.371863614333020814e-02 1.007110344494177578e+00
-8.664999999999998259e-01 1.266704651103072593e-02 1.009980171911838642e+00
-8.664999999999998259e-01 1.311024536183297631e-02 1.006247096534261365e+00
-8.664999999999998259e-01 1.257713531414581670e-02 1.017939985549015436e+00
-8.664999999999998259e-01 1.296326750771210727e-02 1.014540778791693576e+00
-8.654999999999999361e-01 1.410709848505032997e-02 1.015656505651570729e+00
-8.654999999999999361e-01 1.711169889298150282e-02 1.001366554466257330e+00
-8.654999999999999361e-01 1.751521340655662687e-02 1.003751530392405389e+00
-8.654999999999999361e-01 1.727959216941311188e-02 1.000435273226431887e+00
-8.654999999999999361e-01 1.755561955318410763e-02 1.001010227622834314e+00
-8.654999999999999361e-01 1.395566401073389425e-02 1.000014794104868932e+00
-8.654999999999999361e-01 1.219669660688687055e-02 1.033833179542023251e+00
-8.654999999999999361e-01 1.384191907667691943e-02 1.001576015727883906e+00
-8.654999999999999361e-01 1.423297572738468908e-02 1.023237985037964259e+00
-8.654999999999999361e-01 1.516216059460686987e-02 1.004836750626320052e+00
-8.654999999999999361e-01 1.586294371010013582e-02 1.001257817479316525e+00
-8.654999999999999361e-01 1.412733140745023840e-02 1.001519258084907049e+00
-8.654999999999999361e-01 1.725644085449065668e-02 1.000303646134945712e+00
-8.654999999999999361e-01 1.634059270428857638e-02 1.001710879606023008e+00
-8.644999999999998241e-01 1.776457981673645187e-02 1.000415523877127733e+00
-8.644999999999998241e-01 1.427232896982489480e-02 1.020003234103206813e+00
-8.644999999999998241e-01 1.526104790190505565e-02 1.000008923545868011e+00
-8.644999999999998241e-01 1.283667169838175783e-02 1.005138270544147616e+00
-8.644999999999998241e-01 1.377626898909673284e-02 1.001050570771868875e+00
-8.644999999999998241e-01 1.357708612392122087e-02 1.025014227704571290e+00
-8.644999999999998241e-01 1.807344301369059186e-02 1.000110578795016858e+00
-8.644999999999998241e-01 1.469447560600377692e-02 1.016585201858031029e+00
-8.644999999999998241e-01 1.400195887069263616e-02 1.010505304010719696e+00
-8.644999999999998241e-01 1.406784948182563527e-02 1.008070140358595435e+00
-8.644999999999998241e-01 1.229625415067960199e-02 1.011124890066160908e+00
-8.644999999999998241e-01 1.158810862630187816e-02 1.035969102091299332e+00
-8.634999999999999343e-01 1.566529027042497593e-02 1.001106193853064319e+00
-8.634999999999999343e-01 1.286536472087381616e-02 1.005736543150410167e+00
-8.634999999999999343e-01 1.637022084088542509e-02 1.003310026552922229e+00
-8.634999999999999343e-01 1.569006764900458817e-02 1.012916146875213697e+00
-8.634999999999999343e-01 1.627067815912059887e-02 1.000327563651358220e+00
-8.634999999999999343e-01 1.540952983977333761e-02 1.000042657356432940e+00
-8.634999999999999343e-01 1.433760652990174154e-02 1.015893954103839203e+00
-8.634999999999999343e-01 1.567546274215528626e-02 1.003169548711388304e+00
-8.634999999999999343e-01 1.573394693007148376e-02 1.000729900566523112e+00
-8.634999999999999343e-01 1.559714393246867427e-02 1.000329075061328732e+00
-8.634999999999999343e-01 1.396751116399702272e-02 1.019611762225245855e+00
-8.634999999999999343e-01 1.445025683553873355e-02 1.023268033911318486e+00
-8.634999999999999343e-01 1.486200357300605270e-02 1.002229161024435600e+00
-8.624999999999998224e-01 1.470381699892113481e-02 1.000555608037315025e+00
-8.624999999999998224e-01 1.240266535037124265e-02 1.018840817665602971e+00
-8.624999999999998224e-01 1.338599933399746422e-02 1.002435697904904943e+00
-8.624999999999998224e-01 1.492163323523081932e-02 1.001439272562740568e+00
-8.624999999999998224e-01 1.187852123648723210e-02 1.009880208215300001e+00
-8.624999999999998224e-01 1.611678823508794212e-02 1.000563487569923193e+00
-8.614999999999999325e-01 1.479724697791164750e-02 1.000131920946552677e+00
-8.614999999999999325e-01 1.196467906990908089e-02 1.015705285306687689e+00
-8.614999999999999325e-01 1.385453450617811326e-02 1.004293179386482660e+00
-8.614999999999999325e-01 1.561604311109884846e-02 1.001275306717762881e+00
-8.614999999999999325e-01 1.461209203560460620e-02 1.002906112950959994e+00
-8.614999999999999325e-01 1.317036251406491013e-02 1.003404019092287491e+00
-8.614999999999999325e-01 1.272151761164074316e-02 1.015476209161953358e+00
-8.614999999999999325e-01 1.578776826298726454e-02 1.004536006128408765e+00
-8.614999999999999325e-01 1.376036589843700197e-02 1.005595945804476310e+00
-8.604999999999998206e-01 1.233808159586975879e-02 1.018197173533305522e+00
-8.604999999999998206e-01 1.320096851192399494e-02 1.001202610794708736e+00
-8.604999999999998206e-01 1.481151674182112389e-02 1.010282372079104762e+00
-8.604999999999998206e-01 1.394293311882751317e-02 1.012020431890284122e+00
-8.604999999999998206e-01 1.558412971554164195e-02 1.019904734897934429e+00
-8.604999999999998206e-01 1.772671404210158022e-02 1.000927751288675172e+00
-8.604999999999998206e-01 1.522721681282169885e-02 1.002789318399455398e+00
-8.604999999999998206e-01 1.461196259032383413e-02 1.001113481564856800e+00
-8.604999999999998206e-01 1.244528562867924272e-02 1.010864639324949632e+00
-8.594999999999999307e-01 1.678720135816149164e-02 1.000580815166999704e+00
-8.594999999999999307e-01 1.393225695900439896e-02 1.002209792900251362e+00
-8.594999999999999307e-01 1.716416046322006422e-02 1.000904162715337442e+00
-8.594999999999999307e-01 1.525537549537744203e-02 1.000923262154576721e+00
-8.594999999999999307e-01 1.702234494053687930e-02 1.004015039440263157e+00
-8.594999999999999307e-01 1.308015476763931852e-02 1.012486846471495561e+00
-8.594999999999999307e-01 1.599841427530730373e-02 1.004647838676033134e+00
-8.584999999999998188e-01 1.221430272154690883e-02 1.001949174375422746e+00
-8.584999999999998188e-01 1.637926557111826775e-02 1.001465192948297833e+00
-8.584999999999998188e-01 1.318794909932599450e-02 1.005806920523512282e+00
-8.584999999999998188e-01 1.484010014736671969e-02 1.001829768242018970e+00
-8.584999999999998188e-01 1.589405825932856120e-02 1.011878684525159056e+00
-8.584999999999998188e-01 1.309514617537688858e-02 1.007310282493336651e+00
-8.584999999999998188e-01 1.690792989452951159e-02 1.000731925959707169e+00
-8.584999999999998188e-01 1.192113722633641321e-02 1.001353494728186577e+00
-8.584999999999998188e-01 1.507873570948078078e-02 1.003873470769428566e+00
-8.584999999999998188e-01 1.389376012995296485e-02 1.011196035506572777e+00
-8.584999999999998188e-01 1.464511942755245336e-02 1.002422594195936156e+00
-8.584999999999998188e-01 1.465157661381165030e-02 1.006894950837477376e+00
-8.584999999999998188e-01 1.471012401066149923e-02 1.017122241547183670e+00
-8.584999999999998188e-01 1.535410587584657045e-02 1.003240616865613166e+00
-8.574999999999999289e-01 1.437561166701445056e-02 1.000383129554381689e+00
-8.574999999999999289e-01 1.575824996937960285e-02 1.002335496228452083e+00
-8.574999999999999289e-01 1.099137538646585352e-02 1.004608966657768887e+00
-8.574999999999999289e-01 1.694173179081541469e-02 1.003125115451383165e+00
-8.574999999999999289e-01 6.344525657252478735e-04 -1.173118258536339775e+00
-8.574999999999999289e-01 1.500669378122577134e-02 1.015753767455985335e+00
-8.574999999999999289e-01 1.410981038169442127e-02 1.000551090746470528e+00
-8.574999999999999289e-01 1.397195009804013711e-02 1.006935361431609222e+00
-8.574999999999999289e-01 1.376360850434415334e-02 1.009297904085468600e+00
-8.574999999999999289e-01 1.604722338434707088e-02 1.046613429218779201e+00
-8.574999999999999289e-01 1.152501996913135249e-02 1.004847895046663719e+00
-8.564999999999998170e-01 1.443501218713046097e-02 1.018656920373407271e+00
-8.564999999999998170e-01 1.398569715936101923e-02 1.017580329206584366e+00
-8.564999999999998170e-01 1.564186569866567525e-02 1.002857951725988794e+00
-8.564999999999998170e-01 1.666322393374757016e-02 1.001414890105781552e+00
-8.564999999999998170e-01 1.593519482406398347e-02 1.002096180850489127e+00
-8.564999999999998170e-01 1.352468184298190323e-02 1.013808187983880282e+00
-8.564999999999998170e-01 1.606486127258360125e-02 1.000860750499931617e+00
-8.564999999999998170e-01 1.579612589587450419e-02 1.004143782808736285e+00
-8.564999999999998170e-01 1.294831596380977175e-02 1.010925244766573972e+00
-8.554999999999999272e-01 1.328952485247753522e-02 1.016694335161795193e+00
-8.554999999999999272e-01 1.730367411653191065e-02 1.000699285375841185e+00
-8.554999999999999272e-01 1.636038861338769135e-02 1.000269471329612081e+00
-8.554999999999999272e-01 1.355550700095857833e-02 1.014395156329233050e+00
-8.554999999999999272e-01 1.219593964039265149e-02 1.002049866321440996e+00
-8.554999999999999272e-01 1.390189839228222514e-02 1.020712352272009626e+00
-8.554999999999999272e-01 1.434805915037014670e-02 1.001237687142163324e+00
-8.554999999999999272e-01 1.354284571680547736e-02 1.002062216811385742e+00
-8.554999999999999272e-01 1.534911125183139984e-02 1.001584939129954721e+00
-8.554999999999999272e-01 1.310335391130168156e-02 1.000956567591771984e+00
-8.554999999999999272e-01 1.747924184867096636e-02 1.001412761096821091e+00
-8.544999999999998153e-01 1.309106655301129143e-02 1.002096579701303281e+00
-8.544999999999998153e-01 1.408989550838895058e-02 1.004300370070972503e+00
-8.544999999999998153e-01 1.658921776941859813e-02 1.006229656385411397e+00
-8.544999999999998153e-01 1.471928235322894456e-02 1.013389110900439594e+00
-8.544999999999998153e-01 1.076802025076408799e-02 1.005194747611739547e+00
-8.544999999999998153e-01 1.469412121412517515e-02 1.000952921476755186e+00
-8.544999999999998153e-01 1.483638801220444128e-02 1.016907065845317204e+00
-8.544999999999998153e-01 7.466198324745780025e-04 -2.139101959746466886e+00
-8.534999999999999254e-01 1.388002282833293403e-02 1.002952651901382275e+00
-8.534999999999999254e-01 1.238147105867365080e-02 1.025879248329057081e+00
-8.534999999999999254e-01 1.785461163090605943e-02 1.004075475410017848e+00
-8.534999999999999254e-01 1.476712586196325672e-02 1.003807890145722803e+00
-8.534999999999999254e-01 1.365765078943187438e-02 1.016368477995547304e+00
-8.534999999999999254e-01 1.634727924680716427e-02 1.000786233624856081e+00
-8.534999999999999254e-01 7.198535383251759151e-03 1.018913124679330373e+00
-8.534999999999999254e-01 1.523609623293176521e-02 1.000881520990025475e+00
-8.534999999999999254e-01 1.521902748037417749e-02 1.010968685984422910e+00
-8.534999999999999254e-01 1.508209116027437943e-02 1.001894794852558057e+00
-8.534999999999999254e-01 1.133558918912759561e-02 1.013330707314645363e+00
-8.524999999999998135e-01 1.807620936959899310e-02 1.000684556291840721e+00
-8.524999999999998135e-01 1.445737668609791207e-02 1.000264891043106230e+00
-8.524999999999998135e-01 1.393154999488699884e-02 1.000726236069513053e+00
-8.524999999999998135e-01 1.233807520777703386e-02 1.009025652290618913e+00
-8.524999999999998135e-01 1.568758602441202785e-02 1.003865536902586175e+00
-8.524999999999998135e-01 1.656765504820797638e-02 1.000659209322179777e+00
-8.524999999999998135e-01 1.721341122966280751e-02 1.000699669629952160e+00
-8.524999999999998135e-01 1.355029405865095134e-02 1.028645682730726874e+00
-8.524999999999998135e-01 1.329066344795720202e-02 1.011269648346605488e+00
-8.524999999999998135e-01 1.470818432542484247e-02 1.007510788086776854e+00
-8.524999999999998135e-01 1.400517600861821664e-02 1.005523316464337125e+00
-8.514999999999999236e-01 1.323657282945061783e-02 1.003945341353869036e+00
-8.514999999999999236e-01 1.190395599231040477e-02 1.012475145621589911e+00
-8.514999999999999236e-01 1.382094645246118199e-02 1.002690510115416433e+00
-8.514999999999999236e-01 1.643006164807325406e-02 1.004637074431362409e+00
-8.514999999999999236e-01 1.302840668430481179e-02 1.010712480593636498e+00
-8.514999999999999236e-01 1.340654610345444822e-02 1.000300001523051430e+00
-8.514999999999999236e-01 1.057262586318789832e-02 1.014274289378769955e+00
-8.514999999999999236e-01 1.553448323740060956e-02 1.000957663251788032e+00
-8.514999999999999236e-01 1.617848555923635800e-02 1.003583433155519566e+00
-8.514999999999999236e-01 1.625680577134898733e-02 1.001030216148397267e+00
-8.514999999999999236e-01 1.781623863542314626e-02 1.000979272096969908e+00
-8.514999999999999236e-01 1.503572856227176208e-02 1.000079062439330091e+00
-8.514999999999999236e-01 1.590395311031588682e-02 1.004194892864386013e+00
-8.514999999999999236e-01 1.730547841348572050e-02 1.000701033550267738e+00
-8.514999999999999236e-01 1.494351688020569870e-02 1.010330186396456664e+00
-8.514999999999999236e-01 1.632153588286172283e-02 1.008114904401135270e+00
-8.504999999999998117e-01 1.076163519949637805e-02 1.027101993378234601e+00
-8.504999999999998117e-01 1.415426439857910869e-02 1.002688616278293088e+00
-8.504999999999998117e-01 1.346329558296674792e-02 1.008465403654523973e+00
-8.504999999999998117e-01 1.403527072567291138e-02 1.021365855604650541e+00
-8.504999999999998117e-01 1.479747776566844517e-02 1.000680464548047599e+00
-8.504999999999998117e-01 1.645885143394822808e-02 1.003727313028617507e+00
-8.504999999999998117e-01 1.476944749021302794e-02 1.005012658215858945e+00
-8.504999999999998117e-01 1.610575845009970530e-02 1.000635911427210756e+00
-8.504999999999998117e-01 1.667529300870888506e-02 1.000709518090223460e+00
-8.504999999999998117e-01 1.597109389302475355e-02 1.000501268690900725e+00
-8.504999999999998117e-01 1.757091436998437992e-02 1.002007700666089018e+00
-8.494999999999999218e-01 1.337954649947453549e-02 1.002735537432267510e+00
-8.494999999999999218e-01 1.450009920111701260e-02 1.005269298464780414e+00
-8.494999999999999218e-01 1.667427087083167905e-02 1.006821787455861816e+00
-8.494999999999999218e-01 1.319170930925171736e-02 1.023164773702204267e+00
-8.494999999999999218e-01 1.325205994895005401e-02 1.010301465381032271e+00
-8.494999999999999218e-01 1.686745488861177839e-02 1.000315847091450161e+00
-8.494999999999999218e-01 1.376904636886921475e-02 1.004335372933717885e+00
-8.494999999999999218e-01 1.306849487103895965e-02 1.000372373095600453e+00
-8.494999999999999218e-01 1.584424493943825674e-02 1.004972542541776148e+00
-8.494999999999999218e-01 1.616388561073302255e-02 1.000586908197769631e+00
-8.494999999999999218e-01 1.446486478009099789e-02 1.001687408402900603e+00
-8.484999999999998099e-01 1.395307601449729921e-02 1.007605526475482183e+00
-8.484999999999998099e-01 1.285928060082699477e-02 1.001776533746851161e+00
-8.484999999999998099e-01 1.081412825888936058e-02 1.000410233059237486e+00
-8.484999999999998099e-01 1.820720395101966746e-02 1.000445244393634914e+00
-8.484999999999998099e-01 1.282510774619150147e-02 1.015296119421960075e+00
-8.484999999999998099e-01 1.614950650586591263e-02 1.000481871098952702e+00
-8.484999999999998099e-01 1.575021271464917966e-02 1.001456339438235199e+00
-8.484999999999998099e-01 1.620556949518451792e-02 1.000312045086886759e+00
-8.474999999999999201e-01 1.167722792451111533e-02 1.084024083456128107e+00
-8.474999999999999201e-01 1.262067321720287960e-02 1.000761304070226787e+00
-8.474999999999999201e-01 1.629455934840475656e-02 1.001464686696952322e+00
-8.474999999999999201e-01 1.658669581643075486e-02 1.001870550445223662e+00
-8.474999999999999201e-01 1.524347356821615512e-02 1.000093392100505740e+00
-8.474999999999999201e-01 1.454032457283458910e-02 1.000795678700969971e+00
-8.474999999999999201e-01 1.420916186288404166e-02 1.000665574084252274e+00
-8.474999999999999201e-01 1.653396125534374594e-02 1.000249545392461581e+00
-8.474999999999999201e-01 1.309737180549246094e-02 1.016272830719769260e+00
-8.464999999999998082e-01 1.534026742988689289e-02 1.003971922216681856e+00
-8.464999999999998082e-01 1.364778228323566475e-02 1.016117783476555347e+00
-8.464999999999998082e-01 1.425089210937725490e-02 1.010297626911462743e+00
-8.464999999999998082e-01 1.611748437086273772e-02 1.007574226720278299e+00
-8.464999999999998082e-01 1.456266470864294588e-02 1.006134174049903240e+00
-8.464999999999998082e-01 1.259255209249801263e-02 1.034842046044174513e+00
-8.464999999999998082e-01 1.422866835977385468e-02 1.000589860961604183e+00
-8.464999999999998082e-01 1.482253554526152817e-02 1.000025354962793767e+00
-8.454999999999999183e-01 1.542604224512232440e-02 1.001005206299053096e+00
-8.454999999999999183e-01 1.615497993182054420e-02 1.000425327706933043e+00
-8.454999999999999183e-01 1.637198400502758167e-02 1.000009459610745610e+00
-8.454999999999999183e-01 1.619833075175025963e-02 1.003450727956613386e+00
-8.444999999999998064e-01 1.632419396506181244e-02 1.002063911278631592e+00
-8.444999999999998064e-01 1.470952794951048588e-02 1.030843190017577404e+00
-8.444999999999998064e-01 1.583130366855917473e-02 1.003047309234298412e+00
-8.444999999999998064e-01 1.591674812075536197e-02 1.002851868498027876e+00
-8.444999999999998064e-01 1.662714707785710802e-02 1.001817829640488267e+00
-8.444999999999998064e-01 1.344977275930559976e-02 1.028258665778225334e+00
-8.444999999999998064e-01 1.537308705547434443e-02 1.001366220501845650e+00
-8.444999999999998064e-01 1.365808808172853939e-02 1.008901028217487950e+00
-8.444999999999998064e-01 1.734638335310646415e-02 1.001474210742369975e+00
-8.434999999999999165e-01 1.305633677544775807e-02 1.031640986486473954e+00
-8.434999999999999165e-01 1.381140792484833978e-02 1.007829977615789518e+00
-8.434999999999999165e-01 1.329019841343116216e-02 1.008005368864470341e+00
-8.434999999999999165e-01 1.549904631936189180e-02 1.001200718767301545e+00
-8.434999999999999165e-01 1.483028683356148875e-02 1.004925632505076827e+00
-8.434999999999999165e-01 1.340709061516359539e-02 1.000239386439434552e+00
-8.434999999999999165e-01 1.672344531074965515e-02 1.002546815280076054e+00
-8.434999999999999165e-01 6.926453158711138583e-04 -2.220504219613376851e+00
-8.434999999999999165e-01 1.640227156379400406e-02 1.006939576574771067e+00
-8.434999999999999165e-01 1.555283615163247438e-02 1.003232602170469834e+00
-8.434999999999999165e-01 1.734197748997199154e-02 1.009586717084420826e+00
-8.424999999999998046e-01 1.633324824090857941e-02 1.001875801517962516e+00
-8.424999999999998046e-01 1.466443243520129842e-02 1.004481689771683284e+00
-8.424999999999998046e-01 1.270527985388525405e-02 1.006068614521522742e+00
-8.424999999999998046e-01 1.287746177995927749e-02 1.012127749533670462e+00
-8.424999999999998046e-01 1.761287501485384044e-02 1.001553581921594382e+00
-8.424999999999998046e-01 1.278056422097369367e-02 1.000606503884730047e+00
-8.424999999999998046e-01 1.602520345800261675e-02 1.013433787052356871e+00
-8.424999999999998046e-01 1.164492134755690592e-02 1.037700680266510078e+00
-8.424999999999998046e-01 1.689913833626293521e-02 1.000671892487461578e+00
-8.424999999999998046e-01 9.197934854026488041e-03 1.022794006465139294e+00
-8.414999999999999147e-01 1.429644603322995262e-02 1.002977171840425674e+00
-8.414999999999999147e-01 1.480907012437675078e-02 1.008180937659587606e+00
-8.414999999999999147e-01 1.244673349616292127e-02 1.007153239070629036e+00
-8.414999999999999147e-01 1.457673570585583597e-02 1.002333471430946199e+00
-8.414999999999999147e-01 1.114531731279650405e-02 1.079681192508586296e+00
-8.414999999999999147e-01 1.306456806007123828e-02 1.024308076776709431e+00
-8.414999999999999147e-01 1.243585380384856082e-02 1.013635307838832267e+00
-8.414999999999999147e-01 1.430595868771322027e-02 1.028901804571695555e+00
-8.404999999999998028e-01 1.620832372431496582e-02 1.004981051684711302e+00
-8.404999999999998028e-01 1.447505536871221410e-02 1.001252363970566606e+00
-8.404999999999998028e-01 1.301472646399332543e-02 1.004744004161947091e+00
-8.404999999999998028e-01 1.479850218589752985e-02 1.000451967658487540e+00
-8.404999999999998028e-01 1.450471024846563747e-02 1.005872636240265683e+00
-8.404999999999998028e-01 1.348094952016420933e-02 1.037963263477118758e+00
-8.404999999999998028e-01 1.655972800799651590e-02 1.001409698101227486e+00
-8.404999999999998028e-01 1.622195030111599212e-02 1.001444171620600843e+00
-8.404999999999998028e-01 1.376127064084953916e-02 1.012434059747359560e+00
-8.404999999999998028e-01 1.611432917533908368e-02 1.004851932327871733e+00
-8.404999999999998028e-01 1.550860844312025935e-02 1.001649978994385348e+00
-8.404999999999998028e-01 1.193046538372300250e-02 1.017678143724270345e+00
-8.404999999999998028e-01 1.303693345036497503e-02 1.027558989418703161e+00
-8.404999999999998028e-01 1.381111933507173442e-02 1.004335486924844867e+00
-8.404999999999998028e-01 1.637030305513514222e-02 1.001014591919187069e+00
-8.404999999999998028e-01 1.354675922297645697e-02 1.000040146712886102e+00
-8.394999999999999130e-01 1.532818341474653442e-02 1.026768583326569617e+00
-8.394999999999999130e-01 1.121902300228971340e-02 1.006397543052078403e+00
-8.394999999999999130e-01 1.487065089451954265e-02 1.010821433636044819e+00
-8.394999999999999130e-01 1.573752887314083110e-02 1.002525144348675123e+00
-8.394999999999999130e-01 1.410350229294960595e-02 1.003533983823632791e+00
-8.394999999999999130e-01 1.506303836741669684e-02 1.005345995838899276e+00
-8.384999999999998010e-01 1.519089690915126703e-02 1.000757378849493007e+00
-8.384999999999998010e-01 1.491925506130507839e-02 1.012894687017891870e+00
-8.384999999999998010e-01 1.524466818465125377e-02 1.000718773692775176e+00
-8.384999999999998010e-01 1.564783301520759201e-02 1.004117077422189697e+00
-8.384999999999998010e-01 1.296905627351404439e-02 1.015654125704888111e+00
-8.384999999999998010e-01 1.689995032238415795e-02 1.002293604156704543e+00
-8.384999999999998010e-01 6.424562523931630267e-04 6.858846580879577992e+00
-8.384999999999998010e-01 1.792388239238723244e-02 1.000091716997878244e+00
-8.384999999999998010e-01 1.564682072882571731e-02 1.001994273638162847e+00
-8.374999999999999112e-01 1.341944500306613795e-02 1.001639577069553866e+00
-8.374999999999999112e-01 1.682152532378616144e-02 1.001524978102372065e+00
-8.374999999999999112e-01 1.525803312050392178e-02 1.000600699612608224e+00
-8.374999999999999112e-01 1.302121849451655204e-02 1.002749572379852738e+00
-8.374999999999999112e-01 1.568007299765369206e-02 1.000600304248169259e+00
-8.374999999999999112e-01 1.360410509536320520e-02 1.004281143141800170e+00
-8.374999999999999112e-01 1.503025747471317328e-02 1.003986457714002523e+00
-8.374999999999999112e-01 8.989661943332597285e-03 1.005051378970813536e+00
-8.374999999999999112e-01 1.862343593564121103e-02 1.000441950319222340e+00
-8.374999999999999112e-01 1.621282507018806038e-02 1.002972235155669134e+00
-8.374999999999999112e-01 1.541890762619943858e-02 1.002639319314879485e+00
-8.374999999999999112e-01 1.207578211999763527e-02 1.030423255674704608e+00
-8.374999999999999112e-01 1.391118255118033338e-02 1.008089546722276131e+00
-8.374999999999999112e-01 1.490492878882597981e-02 1.006045724746997827e+00
-8.364999999999997993e-01 1.642775053812206565e-02 1.002170430766419651e+00
-8.364999999999997993e-01 1.520046998921466969e-02 1.003482116705995075e+00
-8.364999999999997993e-01 1.640571328157525155e-02 1.001098153426946524e+00
-8.364999999999997993e-01 1.447673958961951529e-02 1.004573115548109463e+00
-8.354999999999999094e-01 1.607104040815953219e-02 1.007286479831662529e+00
-8.354999999999999094e-01 1.427977964449559690e-02 1.008311288172343501e+00
-8.354999999999999094e-01 1.154696367577462586e-02 1.002418583006718711e+00
-8.354999999999999094e-01 1.614223144049858200e-02 1.001657506542329878e+00
-8.354999999999999094e-01 1.523208692593986877e-02 1.001815062168440740e+00
-8.354999999999999094e-01 1.722513691674356501e-02 1.005521547848615027e+00
-8.354999999999999094e-01 1.469423432048417091e-02 1.004949811665672543e+00
-8.354999999999999094e-01 1.391803553857464543e-02 1.002878722136993028e+00
-8.344999999999997975e-01 1.188824196828192938e-02 1.008887985459583136e+00
-8.344999999999997975e-01 1.213667224213713612e-02 1.025947537907075713e+00
-8.344999999999997975e-01 1.568463515043950693e-02 1.001082532008140236e+00
-8.344999999999997975e-01 1.095284015298228671e-02 1.013598478124719593e+00
-8.344999999999997975e-01 1.569264329314251638e-02 1.000621659220886084e+00
-8.344999999999997975e-01 1.332060221596604796e-02 1.005630188746358344e+00
-8.344999999999997975e-01 1.742881253614133805e-02 1.000585302360437634e+00
-8.344999999999997975e-01 1.750978673324486007e-02 1.000373792732182521e+00
-8.344999999999997975e-01 1.643062567669303919e-02 1.005024065911949593e+00
-8.344999999999997975e-01 1.402816494264767615e-02 1.003113978318166399e+00
-8.344999999999997975e-01 1.344050405411963134e-02 1.005244116562014289e+00
-8.334999999999999076e-01 1.446439334126072007e-02 1.001599357124677070e+00
-8.334999999999999076e-01 1.599805501222290385e-02 1.000239837788372554e+00
-8.334999999999999076e-01 6.543484861771989942e-04 2.208940703335672051e+00
-8.334999999999999076e-01 1.579796376686194020e-02 1.001522748563534293e+00
-8.334999999999999076e-01 1.307288062395659325e-02 1.005524668623556384e+00
-8.334999999999999076e-01 1.192887254671232307e-02 1.002667786918672421e+00
-8.324999999999997957e-01 1.805796814569100503e-02 1.002112924295992968e+00
-8.324999999999997957e-01 1.456923566965597459e-02 1.006292148745852710e+00
-8.324999999999997957e-01 1.669946974636065187e-02 1.001512914390517262e+00
-8.324999999999997957e-01 1.709334583910376848e-02 1.002076506070231465e+00
-8.324999999999997957e-01 1.488137293105526102e-02 1.003096099596010760e+00
-8.324999999999997957e-01 1.762016111047055508e-02 1.000727333103588634e+00
-8.324999999999997957e-01 1.432240721727141321e-02 1.000387033012566596e+00
-8.324999999999997957e-01 1.150626556547129989e-02 1.003058432237496245e+00
-8.324999999999997957e-01 1.294107502627200347e-02 1.002614373230892530e+00
-8.324999999999997957e-01 1.758999036982158981e-02 1.000651363130438343e+00
-8.314999999999999059e-01 1.672838293280370231e-02 1.001221158624678198e+00
-8.314999999999999059e-01 1.011939752547704775e-02 1.007632418359338367e+00
-8.314999999999999059e-01 1.553169544992292692e-02 1.000177703844741028e+00
-8.314999999999999059e-01 1.580110886789725527e-02 1.002795281261944504e+00
-8.314999999999999059e-01 1.449519562926341112e-02 1.000301818559999001e+00
-8.314999999999999059e-01 1.602052893596028760e-02 1.008900221561082278e+00
-8.314999999999999059e-01 1.429499483385945902e-02 1.003636526549123609e+00
-8.314999999999999059e-01 1.684997260710014919e-02 1.001075628597902112e+00
-8.314999999999999059e-01 1.803122127163516927e-02 1.000020158332017628e+00
-8.314999999999999059e-01 1.753489992959490762e-02 1.001211559718678146e+00
-8.314999999999999059e-01 1.289141029971498098e-02 1.003930203345836381e+00
-8.314999999999999059e-01 1.305250700964183559e-02 1.004019789822293118e+00
-8.314999999999999059e-01 1.514138108304808293e-02 1.001777274217723113e+00
-8.314999999999999059e-01 1.474607613731910780e-02 1.002804873257028273e+00
-8.314999999999999059e-01 1.295982005116685931e-02 1.002668003435810196e+00
-8.314999999999999059e-01 1.550849245352315699e-02 1.000157188998402669e+00
-8.314999999999999059e-01 1.605331546393066328e-02 1.000560485712298053e+00
-8.314999999999999059e-01 1.298170623336029547e-02 1.007776896117794418e+00
-8.314999999999999059e-01 1.099735011921328977e-02 1.016221958301584793e+00
-8.304999999999997939e-01 1.048635871908285694e-02 1.043290577963056132e+00
-8.304999999999997939e-01 1.722951259753421893e-02 1.000784284123940937e+00
-8.304999999999997939e-01 1.651659712078175704e-02 1.006581167906064334e+00
-8.304999999999997939e-01 1.561552195741620214e-02 1.002798879378304475e+00
-8.304999999999997939e-01 1.282484708986548864e-02 1.003013330572424922e+00
-8.304999999999997939e-01 1.507297160850589422e-02 1.000504525350510487e+00
-8.294999999999999041e-01 1.151080669956811887e-02 1.008881940916441344e+00
-8.294999999999999041e-01 8.256620313226326058e-03 1.006353071510456720e+00
-8.294999999999999041e-01 1.538024431591757633e-02 1.001502679369236315e+00
-8.294999999999999041e-01 1.611262609663027118e-02 1.001045224721783145e+00
-8.294999999999999041e-01 1.439836813662245286e-02 1.000674397799596438e+00
-8.294999999999999041e-01 1.602988967251025437e-02 1.002228872177605368e+00
-8.294999999999999041e-01 1.528507217239924096e-02 1.005153990149999510e+00
-8.294999999999999041e-01 1.651969006358729869e-02 1.001511102678052101e+00
-8.294999999999999041e-01 1.477397042603108626e-02 1.007204250697645298e+00
-8.294999999999999041e-01 1.436982376723010268e-02 1.000094998611535502e+00
-8.294999999999999041e-01 1.090214137024818168e-02 1.000850013811684480e+00
-8.284999999999997922e-01 1.565916318846281505e-02 1.023000772985108053e+00
-8.284999999999997922e-01 1.490802654493322138e-02 1.001844427287906569e+00
-8.284999999999997922e-01 1.688333100150814919e-02 1.003278271987085191e+00
-8.284999999999997922e-01 1.675115646739833847e-02 1.011838536813886025e+00
-8.284999999999997922e-01 1.170427524071875926e-02 1.019576190375572011e+00
-8.284999999999997922e-01 1.719112202719192198e-02 1.001322527974331633e+00
-8.284999999999997922e-01 1.637864021120532740e-02 1.002023125596230635e+00
-8.284999999999997922e-01 1.485994238302092325e-02 1.000122703386124190e+00
-8.284999999999997922e-01 1.689937029909919369e-02 1.001680465602365899e+00
-8.274999999999999023e-01 1.389411196326422598e-02 1.004296497103264185e+00
-8.274999999999999023e-01 1.518990840843636829e-02 1.000740374653517728e+00
-8.274999999999999023e-01 1.478733529280942122e-02 1.015503104178657523e+00
-8.274999999999999023e-01 1.392944088316758200e-02 1.005947917861796714e+00
-8.274999999999999023e-01 1.539036497791431389e-02 1.006051735226549226e+00
-8.274999999999999023e-01 1.681353190719340335e-02 1.000121072014520163e+00
-8.274999999999999023e-01 1.473461066593739939e-02 1.006336725902188478e+00
-8.274999999999999023e-01 1.463361977877898797e-02 1.002878339638867189e+00
-8.274999999999999023e-01 1.455061164279408160e-02 1.005126927827114214e+00
-8.274999999999999023e-01 1.402459114129041284e-02 1.000464986876841600e+00
-8.274999999999999023e-01 1.503211252982287333e-02 1.002256457209236507e+00
-8.274999999999999023e-01 1.267383611125802272e-02 1.010663360881180806e+00
-8.274999999999999023e-01 1.474615480459770013e-02 1.002197793141895277e+00
-8.274999999999999023e-01 1.447381388147103362e-02 1.007550257718922149e+00
-8.274999999999999023e-01 1.620233652358963120e-02 1.000192089525023365e+00
-8.274999999999999023e-01 1.039797717693574999e-02 1.013799364268571868e+00
-8.274999999999999023e-01 1.275760278299666040e-02 1.005041001566235881e+00
-8.264999999999997904e-01 1.391882572457051048e-02 1.001377499731521237e+00
-8.264999999999997904e-01 1.648486728559252212e-02 1.001307774528035210e+00
-8.264999999999997904e-01 1.653012185478877627e-02 1.000215414266803382e+00
-8.254999999999999005e-01 1.060032321209739524e-02 1.003391495783802378e+00
-8.254999999999999005e-01 1.497296614113602375e-02 1.003078746216649275e+00
-8.254999999999999005e-01 1.227257066042781661e-02 1.008679776831089780e+00
-8.254999999999999005e-01 1.366649690958360482e-02 1.008805145632742040e+00
-8.254999999999999005e-01 1.460394767740911745e-02 1.031807962549893487e+00
-8.254999999999999005e-01 1.570594896735252530e-02 1.000662257355112272e+00
-8.254999999999999005e-01 1.423233462207691528e-02 1.010040781098941132e+00
-8.244999999999997886e-01 1.479797753026484454e-02 1.001003868395104579e+00
-8.244999999999997886e-01 1.459995498837781888e-02 1.026996875868510184e+00
-8.244999999999997886e-01 1.617150890137409799e-02 1.001468142209612555e+00
-8.244999999999997886e-01 1.484847938651215164e-02 1.000345932913347280e+00
-8.244999999999997886e-01 1.437445979701986593e-02 1.000764190056506076e+00
-8.244999999999997886e-01 1.358517382026346379e-02 1.005820981653636759e+00
-8.244999999999997886e-01 1.484589609965134005e-02 1.005590104397277029e+00
-8.244999999999997886e-01 1.562143588556578512e-02 1.000071662510349402e+00
-8.244999999999997886e-01 1.450443298497930585e-02 1.004124889485574323e+00
-8.234999999999998987e-01 1.515485003305806072e-02 1.007957998783424625e+00
-8.234999999999998987e-01 1.102133939507395424e-02 1.018862424369065600e+00
-8.234999999999998987e-01 1.371848533262265413e-02 1.005240897435157210e+00
-8.234999999999998987e-01 1.133918968654872884e-02 1.164770757682616065e+00
-8.234999999999998987e-01 1.751223041245899420e-02 1.002078732571537012e+00
-8.234999999999998987e-01 1.378063089537407034e-02 1.003582694448871049e+00
-8.234999999999998987e-01 1.492168253007524273e-02 1.000248447650332828e+00
-8.234999999999998987e-01 1.322931250266638596e-02 1.003615397634672002e+00
-8.234999999999998987e-01 1.582915412652477483e-02 1.004276338794899193e+00
-8.234999999999998987e-01 1.111854538268854803e-02 1.019674592681299119e+00
-8.234999999999998987e-01 1.684919804030661841e-02 1.003131327767458281e+00
-8.234999999999998987e-01 1.717462683447265603e-02 1.000635550681352681e+00
-8.234999999999998987e-01 1.600183133062155552e-02 1.001218107441593119e+00
-8.224999999999997868e-01 1.687769568506259504e-02 1.002450266684109748e+00
-8.224999999999997868e-01 1.379183288900487532e-02 1.002448349635051139e+00
-8.224999999999997868e-01 1.078464583735213450e-02 1.015240129448289341e+00
-8.224999999999997868e-01 1.267153077256337121e-02 1.004781408744192861e+00
-8.224999999999997868e-01 1.426668436771592538e-02 1.002271006105623030e+00
-8.224999999999997868e-01 1.273479190159784204e-02 1.012334478367851176e+00
-8.224999999999997868e-01 1.525150738776468416e-02 1.002393495104054955e+00
-8.224999999999997868e-01 1.239516872592287024e-02 1.015429991857665470e+00
-8.224999999999997868e-01 1.241463691780021403e-02 1.010794697322808355e+00
-8.224999999999997868e-01 1.688185162770443337e-02 1.000817781497684855e+00
-8.224999999999997868e-01 1.287818567128684241e-02 1.001573172494015340e+00
-8.214999999999998970e-01 1.590714314891285286e-02 1.001513800839443302e+00
-8.214999999999998970e-01 1.367709041916365456e-02 1.010181303813527665e+00
-8.214999999999998970e-01 1.187309658242697782e-02 1.010156281193882677e+00
-8.214999999999998970e-01 1.598829420388302169e-02 1.002203318990194880e+00
